svm_type c_svc
kernel_type linear
nr_class 2
total_sv 3559
rho 0.184866
label 1 -1
nr_sv 712 2847
SV
0.050127 1:-1.0898305 2:2.0203245 3:0.95610077 4:0.79049959 
0.050127 1:0.75163759 2:1.8584357 3:1.3966014 4:1.3871392 
0.050127 1:-0.52016771 2:2.4655184 3:1.2617543 4:1.3321066 
0.050127 1:-0.55991163 2:2.7218422 3:1.6303365 4:1.7328528 
0.050127 1:-0.74538324 2:3.1535454 3:0.64295573 4:1.2598202 
0.050127 1:-0.95735079 2:2.0607966 3:0.62497611 4:1.2558346 
0.050127 1:-0.8116231 2:1.7640007 3:0.33430559 4:1.2398678 
0.050127 1:-0.66589541 2:0.95455709 3:-0.28149638 4:-0.35353051 
0.050127 1:-1.1295744 2:0.25303933 3:-0.55119067 4:-0.37719164 
0.050127 1:1.5862598 2:3.8550632 3:1.5988722 4:2.0478171 
0.050127 1:0.87086934 2:1.1973902 3:-0.52272294 4:1.5525648 
0.050127 1:0.14223088 2:1.6425841 3:1.0310159 4:1.3937625 
0.050127 1:-0.2419603 2:1.156918 3:0.48113915 4:0.72703903 
0.050127 1:-0.043240724 2:0.83314055 3:0.56804065 4:0.72830293 
0.050127 1:-0.86461498 2:0.7521962 3:0.35827842 4:0.71932001 
0.050127 1:-1.3017981 2:1.6021119 3:-0.12567301 4:0.59325387 
0.050127 1:-1.2753021 2:0.86012201 3:-0.065740942 4:0.054118885 
0.050127 1:-0.65264743 2:0.68474257 3:0.157506 4:0.35798266 
0.050127 1:-0.55991163 2:0.52285385 3:0.14851619 4:0.35376766 
0.050127 1:-0.67914338 2:0.71172402 3:0.079594316 4:0.34178325 
0.050127 1:-0.53341569 2:0.41492804 3:0.13053657 4:0.33676207 
0.050127 1:-0.63939946 2:0.59030748 3:0.21294316 4:0.35853551 
0.050127 1:-0.38768799 2:1.00852 3:0.33130899 4:0.35816891 
0.050127 1:-0.49367177 2:1.3322974 3:0.60699649 4:0.35844699 
0.050127 1:-0.8116231 2:0.71172402 3:0.20844826 4:0.35923417 
0.050127 1:-0.70563932 2:0.57681676 3:0.18897034 4:0.35793314 
0.050127 1:-0.54666366 2:0.77917765 3:0.17998053 4:0.35652678 
0.050127 1:-0.50691974 2:0.41492804 3:0.19796015 4:0.3775716 
0.050127 1:-0.59965555 2:0.68474257 3:0.048129982 4:0.37265484 
0.050127 1:-0.71888729 2:0.95455709 3:0.19046864 4:0.37076377 
0.050127 1:-0.83811904 2:0.52285385 3:0.18897034 4:0.36738051 
0.050127 1:-0.54666366 2:0.94106636 3:0.13053657 4:0.36450441 
0.050127 1:-0.5731596 2:0.81964983 3:0.11405525 4:0.36327853 
0.050127 1:-0.58640757 2:0.98153854 3:0.21444146 4:0.36200551 
0.050127 1:-0.95735079 2:0.57681676 3:0.066109602 4:0.35894081 
0.050127 1:-0.54666366 2:0.15860425 3:-0.17511696 4:0.28059724 
0.050127 1:-1.1428224 2:0.10464134 3:-0.56467538 4:0.15353963 
0.050127 1:-1.1560704 2:-0.016775192 3:-0.46279087 4:0.12378573 
0.050127 1:-0.2419603 2:0.52285385 3:-0.38038428 4:0.085279747 
0.050127 1:-0.65264743 2:0.19907643 3:-0.25902185 4:0.016183699 
0.050127 1:-0.83811904 2:0.21256715 3:-0.32195052 4:-0.012961067 
0.050127 1:-1.1560704 2:0.10464134 3:-0.38487919 4:-0.030009321 
0.050127 1:-1.2620541 2:0.023696986 3:-0.51523143 4:-0.066262984 
0.050127 1:-1.1295744 2:0.37445587 3:-0.15414074 4:-0.11164429 
0.050127 1:-1.0765825 2:0.53634458 3:-0.19459488 4:-0.11720419 
0.050127 1:-1.0235906 2:0.40143732 3:-0.046263021 4:-0.14013239 
0.050127 1:-1.1295744 2:0.37445587 3:-0.10769339 4:-0.16449033 
0.050127 1:-1.0500866 2:0.41492804 3:-0.070235847 4:-0.1902152 
0.050127 1:-1.0765825 2:0.53634458 3:0.051126585 4:-0.1897937 
0.050127 1:-0.78512715 2:0.98153854 3:0.019662251 4:-0.18254387 
0.050127 1:-0.9970947 2:0.92757564 3:0.46915274 4:-0.099380021 
0.050127 1:-0.71888729 2:1.1299365 3:0.45267142 4:-0.022625576 
0.050127 1:-0.93085484 2:0.68474257 3:0.32082088 4:-0.0098124491 
0.050127 1:-1.0368386 2:0.57681676 3:0.16349921 4:-0.0061736951 
0.050127 1:-0.63939946 2:0.71172402 3:0.072102808 4:-0.003587111 
0.050127 1:-0.74538324 2:0.30700223 3:-0.46878408 4:0.0099653033 
0.050127 1:-1.1428224 2:0.37445587 3:-0.25302865 4:0.01067604 
0.050127 1:-0.91760687 2:0.41492804 3:-0.26950996 4:0.011503573 
0.050127 1:-0.71888729 2:0.21256715 3:-0.2065813 4:0.012294683 
0.050127 1:-0.5731596 2:0.15860425 3:-0.24703544 4:0.012909991 
0.050127 1:-0.8116231 2:0.4419095 3:0.12304506 4:0.043328786 
0.050127 1:-0.69239135 2:0.28002078 3:0.23991259 4:0.066566245 
0.050127 1:-0.71888729 2:2.2091946 3:0.043635077 4:0.14531327 
0.050127 1:-0.8116231 2:0.2395486 3:0.18897034 4:0.15360029 
0.050127 1:-0.78512715 2:0.11813207 3:-0.1181815 4:0.15568487 
0.050127 1:-0.83811904 2:0.33398369 3:-0.0073071783 4:0.14933605 
0.050127 1:-0.78512715 2:1.2513531 3:0.099072237 4:0.154416 
0.050127 1:-0.63939946 2:2.1957039 3:0.1560077 4:0.18724951 
0.050127 1:-0.8116231 2:0.32049296 3:0.057119792 4:0.21456552 
0.050127 1:-0.71888729 2:2.1282503 3:-0.0013139718 4:0.21502343 
0.050127 1:-0.61290352 2:0.34747441 3:0.18597373 4:0.2225003 
0.050127 1:-0.63939946 2:0.41492804 3:0.061614697 4:0.21712984 
0.050127 1:-0.45392785 2:0.53634458 3:0.04663168 4:0.20201365 
0.050127 1:-0.73213527 2:0.52285385 3:0.05562149 4:0.17097185 
0.050127 1:-0.8116231 2:0.60379821 3:0.13802808 4:0.16171202 
0.050127 1:-0.87786296 2:0.36096514 3:0.18447543 4:0.24851086 
0.050127 1:-0.73213527 2:0.5498353 3:0.26238712 4:0.25983773 
0.050127 1:-0.46717583 2:0.42841877 3:0.16649581 4:0.29613995 
0.050127 1:-0.54666366 2:0.33398369 3:0.07360111 4:0.29611712 
0.050127 1:-0.62615149 2:0.76568692 3:0.11855016 4:0.28495181 
0.050127 1:-0.93085484 2:0.48238167 3:0.085587523 4:0.29502044 
0.050127 1:-0.45392785 2:0.4958724 3:0.25789221 4:0.39137327 
0.050127 1:-0.50691974 2:1.1029551 3:0.31782428 4:0.40111455 
0.050127 1:-0.62615149 2:1.2108809 3:0.024157156 4:0.39307984 
0.050127 1:-0.66589541 2:1.2783345 3:0.5245899 4:0.40986032 
0.050127 1:-0.54666366 2:1.1704087 3:0.55905084 4:0.41901162 
0.050127 1:-0.66589541 2:1.2513531 3:0.6159863 4:0.4365533 
0.050127 1:-0.66589541 2:1.0759736 3:0.57852876 4:0.44771963 
0.050127 1:-0.73213527 2:0.88710346 3:0.41521388 4:0.45258078 
0.050127 1:-0.70563932 2:0.90059418 3:0.30733616 4:0.45248467 
0.050127 1:-0.71888729 2:1.0894643 3:0.32531578 4:0.45296522 
0.050127 1:-0.63939946 2:0.98153854 3:0.35678012 4:0.45334967 
0.050127 1:-0.61290352 2:1.0220107 3:0.32231918 4:0.45373412 
0.050127 1:-0.77187918 2:0.57681676 3:0.37925464 4:0.53434985 
0.050127 1:0.20847074 2:1.3592789 3:0.2459058 4:0.54632616 
0.050127 1:-0.8116231 2:0.5498353 3:0.28036673 4:0.54681478 
0.050127 1:-0.59965555 2:0.4958724 3:0.099072237 4:0.54271043 
0.050127 1:-0.55991163 2:0.42841877 3:0.13353317 4:0.53668866 
0.050127 1:-1.1560704 2:0.037187712 3:-0.58565161 4:0.3532473 
0.050127 1:-1.0368386 2:1.9258894 3:-0.41934013 4:0.21790829 
0.050127 1:-1.1295744 2:-0.016775192 3:-0.14664923 4:0.19036732 
0.050127 1:-1.0898305 2:0.1316228 3:-0.4897603 4:0.18014964 
0.050127 1:-1.1958143 2:0.10464134 3:-0.88381363 4:0.091393136 
0.050127 1:-1.3017981 2:-0.27309899 3:-0.52272294 4:0.055095613 
0.050127 1:-1.1163265 2:1.993343 3:-0.34442505 4:-0.029436921 
0.050127 1:-1.0765825 2:0.064169164 3:-0.19159828 4:-0.038183083 
0.050127 1:-1.0765825 2:0.077659891 3:-0.42683163 4:-0.043711964 
0.050127 1:-0.69239135 2:0.1316228 3:-0.32045222 4:-0.088463436 
0.050127 1:-0.9970947 2:0.11813207 3:-0.34592335 4:-0.098088659 
0.050127 1:-1.1163265 2:2.1282503 3:-0.37139447 4:-0.11035043 
0.050127 1:-0.97059876 2:0.4958724 3:-0.18111017 4:-0.11005032 
0.004574442414586053 1:1.0828369 2:1.2378623 3:1.1553749 4:2.6423505 
0.01492031989069271 1:-2.255652 2:1.4806954 3:1.3606422 4:2.5125539 
0.050127 1:1.4537801 2:1.305316 3:1.354649 4:2.5098833 
0.050127 1:1.2815565 2:1.5346583 3:1.3486558 4:2.5060777 
0.050127 1:1.506772 2:1.3592789 3:1.3531507 4:2.5030733 
0.050127 1:1.3345484 2:1.4941861 3:1.3456592 4:2.5005022 
0.050127 1:0.92386123 2:2.5869349 3:2.0603491 4:2.2083291 
0.050127 1:-0.26845625 2:2.6678793 3:2.1262743 4:2.4082711 
0.050127 1:-1.9641967 2:-0.73178368 3:-1.0516234 4:-0.6092791 
0.050127 1:-1.8714609 2:-1.8110418 3:-0.28599128 4:-0.54096823 
0.050127 1:-1.6594933 2:-0.75876513 3:-0.056751132 4:-0.49460531 
0.050127 1:-1.4210298 2:3.3963785 3:3.0417366 4:-0.33399261 
0.050127 1:-1.5800055 2:3.6392116 3:2.204186 4:-0.075549032 
0.050127 1:-0.55991163 2:2.3036297 3:1.9150138 4:-0.060037932 
0.050127 1:-0.91760687 2:2.7623144 3:1.7157397 4:0.0019663012 
0.050127 1:-1.1560704 2:2.5734442 3:1.5209605 4:0.059533708 
0.050127 1:-1.1428224 2:2.6948608 3:1.1943307 4:0.19520854 
0.050127 1:-1.2620541 2:-1.4198107 3:1.0894496 4:0.26330843 
0.050127 1:-1.3945339 2:-0.65083932 3:1.0609819 4:0.25872711 
0.050127 1:-1.8582129 2:-0.51593206 3:-0.053754529 4:0.2514155 
0.050127 1:-1.7389811 2:0.29351151 3:-0.5781601 4:0.15758818 
0.050127 1:-0.71888729 2:5.1906451 3:0.63096932 4:0.21859781 
0.050127 1:-1.0235906 2:-0.97461675 3:1.3321745 4:0.23848648 
0.050127 1:-0.91760687 2:1.7505099 3:1.8790546 4:0.23862457 
0.050127 1:-0.98384673 2:3.3289249 3:1.4460454 4:0.58453235 
0.050127 1:-0.98384673 2:2.3171204 3:2.3240502 4:1.0646777 
0.050127 1:-1.0368386 2:2.4115555 3:1.3756252 4:1.4036692 
0.050127 1:-1.2090623 2:2.6543886 3:1.15088 4:1.4005556 
0.050127 1:-1.0368386 2:2.1147595 3:1.8625733 4:1.4109718 
0.050127 1:-1.2223102 2:2.438537 3:1.8281123 4:1.402537 
0.050127 1:-1.0235906 2:2.9107124 3:2.6521782 4:1.4283309 
0.050127 1:-0.94410282 2:2.9511846 3:1.4700182 4:1.6242768 
0.050127 1:-1.1428224 2:2.68137 3:2.0573525 4:2.3416649 
0.050127 1:-0.91760687 2:2.1147595 3:1.3306762 4:2.2796164 
0.050127 1:-1.328294 2:2.9916567 3:1.5599163 4:2.2570512 
0.050127 1:-1.4077818 2:2.4115555 3:-1.0171625 4:1.9304238 
0.050127 1:-0.9970947 2:1.8989079 3:-0.53171275 4:1.9185781 
0.050127 1:-1.5137656 2:0.99502927 3:0.65793875 4:1.8842686 
0.050127 1:-1.1693183 2:3.6931745 3:2.7825305 4:1.9328788 
0.050127 1:-0.94410282 2:3.4098692 3:2.7960152 4:1.9206035 
0.050127 1:-1.6065014 2:0.73870547 3:1.7412108 4:1.9100618 
0.050127 1:-0.59965555 2:3.1535454 3:1.1838426 4:1.8990526 
0.050127 1:-1.5800055 2:0.91408491 3:1.4370556 4:1.8704599 
0.050127 1:-1.1693183 2:2.6678793 3:1.2272934 4:1.8628379 
0.050127 1:-1.6462453 2:1.3727696 3:0.97857529 4:1.7949625 
0.050127 1:-1.2355582 2:2.4115555 3:1.2722424 4:1.7542257 
0.050127 1:-1.1295744 2:2.3845741 3:1.8400987 4:1.7484347 
0.050127 1:-1.7654771 2:1.3188067 3:1.3606422 4:1.7353602 
0.050127 1:-1.4740217 2:1.4267325 3:0.7957825 4:1.7281153 
0.050127 1:-1.2090623 2:2.5194813 3:1.2827305 4:1.707993 
0.050127 1:-0.89111093 2:2.6948608 3:1.7726752 4:1.6992765 
0.050127 1:-0.59965555 2:3.0456196 3:1.8296106 4:1.6887811 
0.050127 1:-1.8714609 2:1.00852 3:1.8475902 4:1.6936434 
0.050127 1:-1.1030785 2:3.1940176 3:1.2213002 4:1.6718735 
0.050127 1:-0.94410282 2:3.126564 3:1.369632 4:1.6673231 
0.050127 1:-1.0633346 2:2.6678793 3:1.8565801 4:1.6581424 
0.050127 1:-1.4077818 2:2.8837309 3:1.8386004 4:1.6685641 
0.050127 1:-1.805221 2:1.1704087 3:1.652811 4:2.1121895 
0.050127 1:-1.0103427 2:2.8702402 3:1.2362832 4:2.1112891 
0.050127 1:-1.2885501 2:3.2344898 3:0.96808718 4:2.0905877 
0.050127 1:-0.91760687 2:2.9646753 3:1.1119241 4:2.0871899 
0.050127 1:-1.1560704 2:3.274962 3:1.4250692 4:2.0796677 
0.050127 1:-0.98384673 2:2.9511846 3:1.3681337 4:2.0887 
0.050127 1:-1.2223102 2:3.4773229 3:1.1418902 4:2.0892663 
0.050127 1:-1.0368386 2:2.9376938 3:1.1853409 4:2.0809277 
0.050127 1:-0.8116231 2:3.4908136 3:1.1329004 4:2.0755358 
0.050127 1:-1.341542 2:3.1940176 3:1.1388936 4:2.1106739 
0.050127 1:-0.9970947 2:3.5177951 3:1.0999377 4:2.1056851 
0.050127 1:-1.8317169 2:1.3457881 3:1.0325142 4:2.0855046 
0.050127 1:-1.1560704 2:2.9646753 3:0.81675872 4:2.0630908 
0.050127 1:-1.2885501 2:3.3828878 3:0.85421626 4:2.085491 
0.050127 1:-1.1428224 2:3.7606281 3:0.59950498 4:2.044411 
0.050127 1:-1.3680379 2:3.2614713 3:1.0295176 4:2.0447859 
0.050127 1:-0.86461498 2:3.5852487 3:0.86320607 4:2.0336033 
0.050127 1:-1.4607737 2:3.3559063 3:0.9800736 4:1.9963267 
0.050127 1:-0.70563932 2:3.6796838 3:1.1149207 4:2.0068911 
0.050127 1:-1.3547899 2:3.7876096 3:0.9860668 4:1.9889646 
0.050127 1:-1.1163265 2:3.8955354 3:1.0205277 4:1.983568 
0.050127 1:-0.89111093 2:3.0591104 3:1.2797339 4:1.9915334 
0.050127 1:-1.6197494 2:1.5751305 3:1.2467713 4:1.9827561 
0.050127 1:-2.0171885 2:1.4941861 3:0.31183107 4:1.9632969 
0.050127 1:-0.85136701 2:4.0034612 3:-0.016296988 4:1.935839 
0.050127 1:-1.4342778 2:3.814591 3:0.72985722 4:1.946864 
0.050127 1:-1.341542 2:3.3828878 3:1.1553749 4:1.9268026 
0.050127 1:-1.1825663 2:3.666193 3:1.826614 4:1.9472336 
0.050127 1:-1.7389811 2:0.84663128 3:2.1622336 4:1.9368683 
0.050127 1:-1.818469 2:1.0355014 3:1.2227985 4:1.8980129 
0.050127 1:-1.1958143 2:3.4773229 3:-0.44331295 4:1.8708866 
0.050127 1:-1.9906926 2:1.6021119 3:-0.16313055 4:1.8543347 
0.050127 1:-1.6859892 2:2.5194813 3:-0.079225657 4:1.829242 
0.050127 1:-1.0765825 2:3.126564 3:0.57553216 4:1.8134445 
0.050127 1:-1.2620541 2:3.5987394 3:0.64894894 4:1.8199449 
0.050127 1:-1.4475258 2:3.1805269 3:0.88118569 4:1.8028145 
0.050127 1:-1.2620541 2:3.5987394 3:1.1583715 4:1.7885793 
0.050127 1:-1.0765825 2:3.5582672 3:1.0639785 4:1.781678 
0.050127 1:-1.0765825 2:3.1130733 3:-0.58714991 4:1.6716371 
0.050127 1:-1.1560704 2:2.978166 3:0.24141089 4:1.6692733 
0.050127 1:-1.3945339 2:3.814591 3:1.7696786 4:-0.20944306 
0.050127 1:-1.341542 2:3.1535454 3:1.4775097 4:-0.18666529 
0.050127 1:-1.6329974 2:-1.797551 3:-1.9521027 4:-1.3058529 
0.050127 1:-1.9244527 2:-1.9999119 3:-1.6689237 4:-1.3214468 
0.050127 1:-1.2488062 2:0.41492804 3:-0.42383503 4:-0.49723899 
0.050127 1:-1.1163265 2:0.37445587 3:-0.98869475 4:-0.3415142 
0.050127 1:-0.67914338 2:0.50936313 3:0.081092618 4:-1.3042762 
0.050127 1:-0.5731596 2:-0.96112602 3:-0.065740942 4:-1.3041172 
0.050127 1:-0.94410282 2:0.077659891 3:-0.2140728 4:-1.3085697 
0.050127 1:-2.8783067 2:-1.1904684 3:-0.94074909 4:-1.3161911 
0.050127 1:-1.1693183 2:-1.2714127 3:-1.1295351 4:-1.3218634 
0.050127 1:-1.2488062 2:-1.4467922 3:-1.0576166 4:-1.3223377 
0.050127 1:-1.4210298 2:-1.4467922 3:-1.0066744 4:-1.3283161 
0.050127 1:-1.4210298 2:-1.554718 3:-1.2269247 4:-1.3291883 
0.050127 1:-1.5270136 2:-1.40632 3:-1.322816 4:-1.3354085 
0.050127 1:-1.3812859 2:-1.3523571 3:-1.5355748 4:-1.3361718 
0.050127 1:-1.328294 2:-1.2714127 3:-1.620978 4:-1.3415928 
0.050127 1:-1.2488062 2:-1.3388664 3:-1.655439 4:-1.342029 
0.050127 1:-1.315046 2:-1.3658478 3:-1.8127606 4:-1.3426207 
0.050127 1:-1.341542 2:-1.3523571 3:-1.8037708 4:-1.3476768 
0.050127 1:-1.328294 2:-1.40632 3:-1.6284695 4:-1.3482887 
0.050127 1:-1.3812859 2:-1.4198107 3:-1.6524424 4:-1.3543389 
0.050127 1:-1.3945339 2:-1.4333014 3:-1.6689237 4:-1.3550941 
0.050127 1:-1.4077818 2:-1.4333014 3:-1.6674254 4:-1.3613526 
0.050127 1:-1.4077818 2:-1.40632 3:-1.6659271 4:-1.3621252 
0.050127 1:-1.3812859 2:-1.40632 3:-1.6494458 4:-1.3678415 
0.050127 1:-1.3812859 2:-1.2444313 3:-1.6494458 4:-1.3685388 
0.050127 1:-1.2223102 2:-1.257922 3:-1.6374594 4:-1.3739019 
0.050127 1:-1.2355582 2:-1.2174498 3:-1.6359611 4:-1.3742448 
0.050127 1:-1.1958143 2:-1.2309405 3:-1.6224763 4:-1.3791314 
0.050127 1:-1.2090623 2:-1.2849034 3:-1.6074933 4:-1.3794023 
0.050127 1:-1.2620541 2:-1.257922 3:-1.6000018 4:-1.3844978 
0.050127 1:-1.2355582 2:-1.1904684 3:-1.5835205 4:-1.3848207 
0.050127 1:-1.1693183 2:-1.2714127 3:-1.5580494 4:-1.3900932 
0.050127 1:-1.2488062 2:-1.3658478 3:-1.5400697 4:-1.3904366 
0.050127 1:-1.341542 2:-1.4333014 3:-1.5325782 4:-1.3963809 
0.050127 1:-1.4077818 2:-1.4467922 3:-1.5355748 4:-1.3970835 
0.050127 1:-1.4210298 2:-1.4872643 3:-1.5400697 4:-1.40311 
0.050127 1:-1.4607737 2:-1.2714127 3:-1.5670392 4:-1.4039228 
0.050127 1:-1.2488062 2:-1.2039591 3:-1.5685375 4:-1.4094451 
0.050127 1:-1.1825663 2:-1.1769776 3:-1.5670392 4:-1.4095987 
0.050127 1:-1.1560704 2:-1.2849034 3:-1.561046 4:-1.4144337 
0.050127 1:-1.2620541 2:-1.2174498 3:-1.561046 4:-1.4147627 
0.050127 1:-1.1958143 2:-1.3388664 3:-1.5565511 4:-1.4194355 
0.050127 1:-1.315046 2:-1.2714127 3:-1.5730324 4:-1.4250613 
0.050127 1:-1.2488062 2:-1.2983942 3:-1.5730324 4:-1.4253403 
0.050127 1:-1.2753021 2:-1.3928293 3:-1.5655409 4:-1.4311711 
0.050127 1:-1.3680379 2:-1.3523571 3:-1.561046 4:-1.4317147 
0.050127 1:-1.328294 2:-1.3928293 3:-1.5505579 4:-1.4373821 
0.050127 1:-1.3680379 2:-1.5412272 3:-1.5400697 4:-1.4379139 
0.050127 1:-1.5137656 2:-1.3658478 3:-1.5700358 4:-1.4437242 
0.050127 1:-1.341542 2:-1.257922 3:-1.5880154 4:-1.444183 
0.050127 1:-1.2355582 2:-1.0960333 3:-1.5970052 4:-1.4490063 
0.050127 1:-1.0765825 2:-1.2174498 3:-1.576029 4:-1.4488455 
0.050127 1:-1.1958143 2:-1.3388664 3:-1.576029 4:-1.4537824 
0.050127 1:-1.315046 2:-1.40632 3:-1.576029 4:-1.4541612 
0.050127 1:-1.3812859 2:-1.2444313 3:-1.591012 4:-1.4593937 
0.050127 1:-1.2223102 2:-1.3793385 3:-1.5850188 4:-1.4595495 
0.050127 1:-1.3547899 2:-1.1769776 3:-1.5835205 4:-1.465198 
0.050127 1:-1.1560704 2:-1.4872643 3:-1.5640426 4:-1.4651919 
0.050127 1:-1.4607737 2:-1.40632 3:-1.5745307 4:-1.4712248 
0.050127 1:-1.3812859 2:-1.4872643 3:-1.5595477 4:-1.4717228 
0.050127 1:-1.4607737 2:-1.3928293 3:-1.5730324 4:-1.4774426 
0.050127 1:-1.3680379 2:-1.2983942 3:-1.5880154 4:-1.4778987 
0.050127 1:-1.2753021 2:-1.0555611 3:-1.6104899 4:-1.482944 
0.050127 1:-1.0368386 2:-1.2714127 3:-1.5925103 4:-1.4826359 
0.050127 1:-1.2488062 2:-1.2714127 3:-1.5850188 4:-1.4874312 
0.050127 1:-1.2488062 2:-1.3253756 3:-1.5700358 4:-1.4875976 
0.050127 1:-1.3017981 2:-1.2983942 3:-1.5790256 4:-1.4926557 
0.050127 1:-1.2753021 2:-1.4467922 3:-1.5700358 4:-1.4928729 
0.050127 1:-1.4210298 2:-1.3388664 3:-1.6000018 4:-1.498854 
0.050127 1:-1.315046 2:-1.3793385 3:-1.5835205 4:-1.4991503 
0.050127 1:-1.3547899 2:-1.3118849 3:-1.5805239 4:-1.504851 
0.050127 1:-1.2885501 2:-1.3658478 3:-1.561046 4:-1.5050766 
0.050127 1:-1.341542 2:-1.3793385 3:-1.5580494 4:-1.5102884 
0.050127 1:-1.3547899 2:-1.3928293 3:-1.5670392 4:-1.5106538 
0.050127 1:-1.3680379 2:-1.1904684 3:-1.6044967 4:-1.5158267 
0.050127 1:-1.1693183 2:-1.2714127 3:-1.5955069 4:-1.5157642 
0.050127 1:-1.2488062 2:-1.257922 3:-1.5955069 4:-1.520779 
0.050127 1:-1.2355582 2:-1.2714127 3:-1.5880154 4:-1.5208571 
0.050127 1:-1.2488062 2:-1.2714127 3:-1.5850188 4:-1.5256549 
0.050127 1:-1.2488062 2:-1.3253756 3:-1.5655409 4:-1.5257543 
0.050127 1:-1.3017981 2:-1.3253756 3:-1.5640426 4:-1.5313471 
0.050127 1:-1.3017981 2:-1.4602829 3:-1.5580494 4:-1.5315555 
0.050127 1:-1.4342778 2:-1.3658478 3:-1.5745307 4:-1.5375248 
0.050127 1:-1.341542 2:-1.4333014 3:-1.5745307 4:-1.5378114 
0.050127 1:-1.4077818 2:-1.2983942 3:-1.5805239 4:-1.5433852 
0.050127 1:-1.2753021 2:-1.40632 3:-1.5700358 4:-1.5435133 
0.050127 1:-1.3812859 2:-1.2039591 3:-1.5940086 4:-1.5488113 
0.050127 1:-1.1825663 2:-1.2309405 3:-1.5865171 4:-1.5487232 
0.050127 1:-1.2090623 2:-1.1230147 3:-1.5835205 4:-1.5533327 
0.050127 1:-1.1030785 2:-1.2714127 3:-1.5670392 4:-1.5530601 
0.050127 1:-1.2488062 2:-1.2444313 3:-1.5670392 4:-1.5576913 
0.050127 1:-1.2223102 2:-1.4737736 3:-1.5580494 4:-1.5576769 
0.050127 1:-1.4475258 2:-1.2849034 3:-1.5745307 4:-1.563596 
0.050127 1:-1.2620541 2:-1.2714127 3:-1.5550528 4:-1.5636599 
0.050127 1:-1.2488062 2:-1.2174498 3:-1.5445647 4:-1.5691281 
0.050127 1:-1.1958143 2:-1.5142458 3:-1.5205918 4:-1.5690359 
0.050127 1:-1.4872697 2:-1.3388664 3:-1.5445647 4:-1.5746416 
0.050127 1:-1.315046 2:-1.257922 3:-1.5370731 4:-1.574804 
0.050127 1:-1.2355582 2:-1.1499962 3:-1.5430663 4:-1.5796386 
0.050127 1:-1.1295744 2:-1.2714127 3:-1.5340765 4:-1.5793828 
0.050127 1:-1.2488062 2:-1.3388664 3:-1.5505579 4:-1.5844433 
0.050127 1:-1.315046 2:-1.1634869 3:-1.5580494 4:-1.5845888 
0.050127 1:-1.1428224 2:-1.1634869 3:-1.5490596 4:-1.5889108 
0.050127 1:-1.1428224 2:-1.257922 3:-1.5145986 4:-1.5886695 
0.050127 1:-1.2355582 2:-1.4333014 3:-1.511602 4:-1.5939172 
0.050127 1:-1.4077818 2:-1.2714127 3:-1.5295816 4:-1.5942502 
0.050127 1:-1.2488062 2:-1.2849034 3:-1.5355748 4:-1.5996638 
0.050127 1:-1.2620541 2:-1.4467922 3:-1.5101037 4:-1.599667 
0.050127 1:-1.4210298 2:-1.4198107 3:-1.5220901 4:-1.6051879 
0.050127 1:-1.3945339 2:-1.0690518 3:-1.5400697 4:-1.605472 
0.050127 1:-1.0500866 2:-1.0690518 3:-1.5310799 4:-1.6101135 
0.050127 1:-0.75863121 2:-1.4198107 3:-0.56617369 4:-0.93425523 
0.050127 1:-0.87786296 2:-0.35404335 3:-0.850851 4:-0.93933899 
0.050127 1:-1.341542 2:-0.27309899 3:-0.83287138 4:-0.77593456 
0.050127 1:-1.2355582 2:-0.48895061 3:-0.87182722 4:-0.78244212 
0.050127 1:-1.4210298 2:-0.52942279 3:-0.84485779 4:-0.78618556 
0.050127 1:-1.341542 2:-0.24611754 3:-0.90179325 4:-0.79481553 
0.050127 1:-1.2885501 2:-0.48895061 3:-0.80889855 4:-0.79056555 
0.050127 1:-1.4342778 2:-0.48895061 3:-1.2224298 4:-0.82737032 
0.050127 1:-1.1560704 2:-0.21913608 3:-0.80590195 4:-0.81621991 
0.050127 1:-1.6594933 2:-0.48895061 3:-1.1415215 4:-0.84497605 
0.050127 1:-1.3812859 2:-0.44847843 3:-1.4546666 4:-0.86237843 
0.050127 1:-1.4872697 2:-0.71829295 3:-1.2089451 4:-0.86575931 
0.050127 1:-1.7654771 2:-0.96112602 3:-1.3572769 4:-0.91934157 
0.050127 1:-1.805221 2:-0.89367239 3:-1.4007277 4:-0.92692009 
0.050127 1:-1.6594933 2:-0.92065384 3:-1.3737583 4:-0.94194873 
0.050127 1:-1.4210298 2:-0.59687642 3:-1.2344162 4:-0.97388037 
0.050127 1:-2.5868513 2:-0.52942279 3:-1.5670392 4:-1.0055586 
0.050127 1:-1.5667575 2:-0.55640424 3:-1.605995 4:-1.0142037 
0.050127 1:-1.7522291 2:-0.79923731 3:-1.3213177 4:-1.020365 
0.050127 1:-1.6859892 2:-0.93414457 3:-1.3617719 4:-1.0256783 
0.050127 1:-1.8714609 2:-0.65083932 3:-1.3363007 4:-1.0400038 
0.050127 1:-1.5800055 2:-0.67782077 3:-1.3348024 4:-1.0473366 
0.050127 1:-1.5402616 2:-0.70480222 3:-1.3138262 4:-1.0594885 
0.050127 1:-1.5535095 2:-0.82621876 3:-1.2823619 4:-1.0703101 
0.050127 1:-1.6992372 2:-0.71829295 3:-1.2883551 4:-1.0807842 
0.050127 1:-1.6992372 2:-0.83970949 3:-1.3572769 4:-1.083997 
0.050127 1:-1.4607737 2:-0.82621876 3:-1.3363007 4:-1.0990641 
0.050127 1:-1.5932534 2:-0.55640424 3:-1.6479475 4:-1.1127371 
0.050127 1:-1.5800055 2:-0.25960826 3:-1.1250402 4:-1.130628 
0.050127 1:-1.5005176 2:-0.44847843 3:-1.0411353 4:-1.1334764 
0.050127 1:-3.0637783 2:-1.9324583 3:-1.4037243 4:-1.1424738 
0.050127 1:-1.8979568 2:-1.945949 3:-1.5235884 4:-1.1461792 
0.050127 1:-1.9112048 2:-1.9594398 3:-1.6509441 4:-1.1486793 
0.050127 1:-1.9244527 2:-1.8919861 3:-1.6988897 4:-1.1518779 
0.050127 1:-1.8582129 2:-1.9189676 3:-1.859208 4:-1.1542294 
0.050127 1:-1.5535095 2:-1.9594398 3:-1.640456 4:-1.2041476 
0.050127 1:-1.9244527 2:-0.79923731 3:-1.6509441 4:-1.2073638 
0.050127 1:-1.1428224 2:-0.084228823 3:-0.73698007 4:-1.1877719 
0.050127 1:-1.3812859 2:-0.17866391 3:-0.77593591 4:-1.1872438 
0.050127 1:-1.2355582 2:-0.17866391 3:-0.81489176 4:-1.1867158 
0.050127 1:-1.4210298 2:-1.8245325 3:-0.87931873 4:-1.1866498 
0.050127 1:-1.791973 2:-0.96112602 3:-1.0066744 4:-1.1887489 
0.050127 1:-1.0898305 2:-0.27309899 3:-0.73248517 4:-1.1896384 
0.050127 1:-0.95735079 2:-0.31357117 3:-0.82238327 4:-1.1889136 
0.050127 1:-1.2885501 2:0.091150617 3:-0.81189515 4:-1.1896054 
0.050127 1:-0.79837512 2:-0.13819173 3:-0.75196309 4:-1.163476 
0.050127 1:-3.1432662 2:-1.9864212 3:-1.1609994 4:-1.1689859 
0.050127 1:-1.9509487 2:-1.8380232 3:-1.3048364 4:-1.171528 
0.050127 1:-1.805221 2:-1.6221716 3:-1.4276971 4:-1.1737477 
0.050127 1:-1.5932534 2:-1.0555611 3:-1.5145986 4:-1.1754041 
0.050127 1:-1.0368386 2:-1.4467922 3:-1.5670392 4:-1.175636 
0.050127 1:-1.4210298 2:-1.8245325 3:-1.6374594 4:-1.1768381 
0.050127 1:-1.791973 2:-1.7705696 3:-1.8247471 4:-1.1790866 
0.050127 1:-1.7389811 2:-1.8380232 3:-1.9700823 4:-1.180773 
0.050127 1:-1.8979568 2:-1.8380232 3:-2.0674719 4:-1.1890591 
0.02841657542998382 1:-1.9112048 2:-1.8650047 3:-2.062977 4:-1.1939437 
0.050127 1:-1.8317169 2:-1.8110418 3:-2.3072002 4:-1.277202 
0.050127 1:-1.8582129 2:-1.8515139 3:-2.2787325 4:-1.2879717 
0.050127 1:-1.8714609 2:-1.8245325 3:-2.3116951 4:-1.3045955 
0.050127 1:-1.791973 2:-1.7840603 3:-2.3057019 4:-1.3061596 
0.050127 1:-1.7522291 2:-1.8515139 3:-2.2937155 4:-1.3078767 
0.050127 1:-1.818469 2:-1.7570789 3:-2.2892206 4:-1.3094698 
0.050127 1:-1.7257332 2:-1.1634869 3:-2.2787325 4:-1.3113178 
0.050127 1:-1.1428224 2:-1.4737736 3:-2.1933293 4:-1.3116683 
0.050127 1:-1.3680379 2:0.077659891 3:-0.70851234 4:-1.3021696 
0.050127 1:-3.1697621 2:-1.9189676 3:-1.2179349 4:-1.2983923 
0.050127 1:-1.8847088 2:-1.8110418 3:-1.2763687 4:-1.3006628 
0.050127 1:-1.778725 2:-1.8650047 3:-1.4861309 4:-1.3024568 
0.050127 1:-1.8317169 2:-1.9054768 3:-1.6449509 4:-1.3041486 
0.050127 1:-1.8714609 2:-1.8380232 3:-1.8007742 4:-1.306383 
0.050127 1:-1.805221 2:-1.8515139 3:-1.9251333 4:-1.3082271 
0.050127 1:-1.818469 2:-1.8650047 3:-2.0554855 4:-1.3101707 
0.050127 1:-1.8317169 2:-1.8650047 3:-2.1768479 4:-1.3121462 
0.050127 1:-1.8317169 2:-1.8650047 3:-2.2997087 4:-1.3139623 
0.050127 1:-1.8449649 2:-1.8784954 3:-2.2397766 4:-1.3196376 
0.050127 1:-1.8449649 2:-1.8380232 3:-2.2352817 4:-1.3215462 
0.050127 1:-1.805221 2:-1.9189676 3:-2.2382783 4:-1.3233875 
0.050127 1:-1.9377007 2:-1.8650047 3:-2.251763 4:-1.3271653 
0.050127 1:-1.8317169 2:-1.8515139 3:-2.2547596 4:-1.3287527 
0.050127 1:-1.818469 2:-1.8380232 3:-2.2547596 4:-1.3305779 
0.050127 1:-1.805221 2:-1.8245325 3:-2.251763 4:-1.3318138 
0.050127 1:-1.791973 2:-1.8919861 3:-2.2472681 4:-1.3317821 
0.050127 1:-1.8582129 2:-1.8110418 3:-2.2502647 4:-1.3336935 
0.050127 1:-1.778725 2:-1.8784954 3:-2.2472681 4:-1.3358444 
0.050127 1:-1.8449649 2:-1.945949 3:-2.2472681 4:-1.3382484 
0.050127 1:-1.9112048 2:-1.8380232 3:-2.2547596 4:-1.340271 
0.050127 1:-1.805221 2:-1.9189676 3:-2.2547596 4:-1.3425759 
0.050127 1:-1.8847088 2:-1.8919861 3:-2.2547596 4:-1.3445335 
0.050127 1:-1.8582129 2:-1.9324583 3:-2.2457698 4:-1.3464151 
0.050127 1:-1.9377007 2:-1.9324583 3:-2.266746 4:-1.3501972 
0.050127 1:-1.8714609 2:-1.8784954 3:-2.3281764 4:-1.3580112 
0.050127 1:-1.8449649 2:-1.8515139 3:-2.3281764 4:-1.3598304 
0.050127 1:-1.818469 2:-1.7840603 3:-2.3176883 4:-1.3612122 
0.050127 1:-1.7522291 2:-1.8650047 3:-2.3116951 4:-1.3628138 
0.050127 1:-1.8317169 2:-1.8515139 3:-2.3057019 4:-1.3645898 
0.050127 1:-1.818469 2:-1.8245325 3:-2.301207 4:-1.3666587 
0.02295055328543581 1:-1.791973 2:-1.9864212 3:-2.2892206 4:-1.3669722 
0.050127 1:-1.9244527 2:-1.945949 3:-2.2937155 4:-1.3738069 
0.050127 1:-1.9112048 2:-1.9189676 3:-2.2772341 4:-1.3757783 
0.050127 1:-1.8847088 2:-1.9324583 3:-2.2787325 4:-1.3776497 
0.050127 1:-1.8979568 2:-1.9864212 3:-2.2847257 4:-1.37968 
0.03418133882999545 1:-1.9509487 2:-1.9729305 3:-2.2997087 4:-1.3818353 
0.050127 1:-1.9641967 2:-1.8110418 3:-2.361139 4:-1.3879955 
0.050127 1:-1.778725 2:-1.9189676 3:-2.3596407 4:-1.3895895 
0.050127 1:-1.8847088 2:-1.8650047 3:-2.3521492 4:-1.3911146 
0.050127 1:-1.8317169 2:-1.797551 3:-2.3386645 4:-1.3926086 
0.050127 1:-1.7654771 2:-1.9054768 3:-2.3206849 4:-1.3941605 
0.050127 1:-1.8714609 2:-1.8515139 3:-2.31619 4:-1.3960868 
0.050127 1:-1.818469 2:-1.8650047 3:-2.3086985 4:-1.3981374 
0.050127 1:-1.8317169 2:-1.8650047 3:-2.301207 4:-1.3998319 
0.050127 1:-1.8317169 2:-1.8110418 3:-2.2877223 4:-1.4017858 
0.050127 1:-1.778725 2:-1.3523571 3:-2.2697426 4:-1.4037707 
0.050127 1:-1.3547899 2:0.050678438 3:-0.74896649 4:-1.3910212 
0.050127 1:-1.2355582 2:-0.35404335 3:-0.89130514 4:-1.3732749 
0.050127 1:-1.4210298 2:-0.4349877 3:-0.92876268 4:-1.3654048 
0.050127 1:-1.2355582 2:-0.39451552 3:-0.86283741 4:-1.3476127 
0.050127 1:-1.1030785 2:-0.24611754 3:-0.84485779 4:-1.3439336 
0.050127 1:-1.3017981 2:-0.19215463 3:-0.89580005 4:-1.2876507 
0.050127 1:-1.1428224 2:-0.42149698 3:-0.88681024 4:-1.2850189 
0.050127 1:-1.4740217 2:-0.27309899 3:-0.93925079 4:-1.2847942 
0.050127 1:-2.9975385 2:-1.7570789 3:-1.1774808 4:-1.2212948 
0.050127 1:-1.7257332 2:-1.0960333 3:-1.2988432 4:-1.2217198 
0.050127 1:-1.0765825 2:-1.4333014 3:-1.3497854 4:-1.2196273 
0.050127 1:-1.4077818 2:-1.9189676 3:-1.4411818 4:-1.221164 
0.050127 1:-1.8847088 2:-1.8515139 3:-1.5775273 4:-1.2234076 
0.050127 1:-1.818469 2:-1.9594398 3:-1.670422 4:-1.2260511 
0.050127 1:-1.9244527 2:-1.9054768 3:-1.8232488 4:-1.2288577 
0.050127 1:-1.8714609 2:-1.9324583 3:-1.9730789 4:-1.2310502 
0.050127 1:-1.778725 2:-1.797551 3:-2.2622511 4:-1.2386319 
0.050127 1:-1.7654771 2:-1.8110418 3:-2.1229091 4:-1.2411354 
0.050127 1:-1.778725 2:-1.7705696 3:-2.1289023 4:-1.2430699 
0.050127 1:-1.7389811 2:-1.797551 3:-2.2038174 4:-1.2455039 
0.050127 1:-1.818469 2:-1.8245325 3:-2.2232953 4:-1.2555181 
0.050127 1:-1.791973 2:-1.7840603 3:-2.2143055 4:-1.2587514 
0.050127 1:-1.8449649 2:-1.8110418 3:-2.2952138 4:-1.2869443 
0.050127 1:-2.0039406 2:-0.070738097 3:-1.6000018 4:-1.3381871 
0.050127 1:-1.6329974 2:-0.3810248 3:-1.1505113 4:-1.3540206 
0.050127 1:-1.5270136 2:-0.62385787 3:-1.1565045 4:-1.358794 
0.050127 1:-1.6065014 2:-0.86669094 3:-0.88081703 4:-1.3674111 
0.050127 1:-2.8253148 2:-1.7435881 3:-1.3303075 4:-1.374651 
0.050127 1:-1.7124852 2:-1.7570789 3:-1.4591615 4:-1.3770874 
0.050127 1:-1.7257332 2:-1.8110418 3:-1.591012 4:-1.3785789 
0.050127 1:-1.778725 2:-1.8784954 3:-1.7198659 4:-1.3811981 
0.050127 1:-1.8449649 2:-1.8515139 3:-1.8547131 4:-1.3844097 
0.050127 1:-1.818469 2:-1.8650047 3:-1.9745772 4:-1.3861035 
0.050127 1:-1.8317169 2:-1.8110418 3:-2.1049295 4:-1.3891537 
0.050127 1:-1.778725 2:-1.9189676 3:-2.2202987 4:-1.3917994 
0.050127 1:-1.8847088 2:-1.9054768 3:-2.251763 4:-1.3936323 
0.050127 1:-1.8714609 2:-1.9189676 3:-2.3671322 4:-1.396615 
0.050127 1:-1.9641967 2:-2.0268934 3:-2.2352817 4:-1.4015377 
0.050127 1:-1.9906926 2:-1.9189676 3:-2.266746 4:-1.4035946 
0.050127 1:-1.8847088 2:-1.9054768 3:-2.2847257 4:-1.4066286 
0.050127 1:-1.8714609 2:-1.8245325 3:-2.2952138 4:-1.409446 
0.050127 1:-1.791973 2:-1.8245325 3:-2.2892206 4:-1.4110217 
0.050127 1:-1.791973 2:-1.7705696 3:-2.286224 4:-1.4133705 
0.050127 1:-1.7389811 2:-1.7166067 3:-2.2757358 4:-1.4148131 
0.050127 1:-1.6859892 2:-1.8245325 3:-2.2652477 4:-1.417528 
0.050127 1:-1.791973 2:-1.9324583 3:-2.2547596 4:-1.4207982 
0.050127 1:-1.8979568 2:-1.8650047 3:-2.2577562 4:-1.4225947 
0.050127 1:-1.8317169 2:-2.0403841 3:-2.251763 4:-1.4259207 
0.050127 1:-2.0039406 2:-2.0134027 3:-2.2562579 4:-1.4279511 
0.050127 1:-1.9774446 2:-1.9594398 3:-2.2547596 4:-1.4313327 
0.050127 1:-1.9244527 2:-1.7840603 3:-2.2592545 4:-1.4331659 
0.050127 1:-2.8120669 2:-0.20564536 3:-1.3048364 4:-1.4482267 
0.050127 1:-1.3017981 2:-0.043756645 3:-1.1849723 4:-1.4619187 
0.050127 1:-0.89111093 2:-0.21913608 3:-0.70102083 4:-1.4705429 
0.050127 1:-1.341542 2:-0.32706189 3:-0.84935269 4:-1.4795928 
0.050127 1:-1.6462453 2:-0.97461675 3:-1.2254264 4:-1.4507081 
0.050127 1:-3.0637783 2:-1.8919861 3:-1.7303541 4:-1.4536936 
0.050127 1:-1.8582129 2:-1.8650047 3:-1.8756893 4:-1.4537854 
0.050127 1:-1.8317169 2:-1.8245325 3:-2.0150314 4:-1.4537242 
0.050127 1:-1.791973 2:-1.8650047 3:-2.1363938 4:-1.4532961 
0.050127 1:-1.8317169 2:-1.8919861 3:-2.1064278 4:-1.4532655 
0.050127 1:-1.8582129 2:-1.8515139 3:-2.0509906 4:-1.4532655 
0.050127 1:-1.818469 2:-1.797551 3:-2.1768479 4:-1.4532043 
0.050127 1:-1.7654771 2:-1.8380232 3:-2.2877223 4:-1.4531432 
0.050127 1:-1.805221 2:-1.8110418 3:-2.3057019 4:-1.4532043 
0.050127 1:-1.778725 2:-1.9189676 3:-2.3985966 4:-1.4531738 
0.050127 1:-1.8847088 2:-1.8380232 3:-2.3701288 4:-1.4535102 
0.050127 1:-1.805221 2:-1.8784954 3:-2.2277902 4:-1.4533878 
0.050127 1:-1.8449649 2:-1.945949 3:-2.2262919 4:-1.453449 
0.050127 1:-1.9112048 2:-1.1499962 3:-2.2352817 4:-1.4536019 
0.050127 1:-1.3017981 2:-0.19215463 3:-0.90628816 4:-1.3605772 
0.050127 1:-1.1958143 2:-0.030265918 3:-0.86283741 4:-1.2437365 
0.050127 1:-1.2753021 2:0.11813207 3:-0.83287138 4:-1.2094642 
0.050127 1:-1.3547899 2:-0.4349877 3:-0.850851 4:-1.2155707 
0.050127 1:-1.1958143 2:0.26653006 3:-0.80740025 4:-1.212295 
0.050127 1:-1.6992372 2:-0.030265918 3:-0.84785439 4:-1.2100675 
0.050127 1:-1.2090623 2:-0.32706189 3:-0.81189515 4:-1.2084796 
0.050127 1:-1.1163265 2:-0.35404335 3:-0.80440365 4:-1.1986328 
0.050127 1:-0.91760687 2:-0.20564536 3:-0.62310915 4:-1.1925043 
0.050127 1:-1.315046 2:-0.084228823 3:-0.6710548 4:-1.1916149 
0.050127 1:-1.0765825 2:-0.3810248 3:-0.71600385 4:-1.1842734 
0.050127 1:-1.0235906 2:-0.30008044 3:-0.72049875 4:-1.1824912 
0.050127 1:-1.0103427 2:-0.55640424 3:-0.81788836 4:-1.0577119 
0.050127 1:-1.4475258 2:-0.47545988 3:-0.91677627 4:-1.0487193 
0.050127 1:-1.5402616 2:-1.7166067 3:-0.90928476 4:-0.9683497 
0.050127 1:-1.2885501 2:-0.23262681 3:-0.81039685 4:-0.91757196 
0.050127 1:-0.97059876 2:-0.39451552 3:-0.79391553 4:-0.91213957 
0.050127 1:-1.3547899 2:-0.28658971 3:-0.82088496 4:-0.90721841 
0.050127 1:-1.4607737 2:-0.3810248 3:-0.88980684 4:-0.90842723 
0.050127 1:-1.4342778 2:-0.28658971 3:-0.84635609 4:-0.8316976 
0.050127 1:-1.315046 2:-0.043756645 3:-0.81639006 4:-0.81835054 
0.050127 1:-1.1030785 2:-0.21913608 3:-0.79990874 4:-0.81267364 
0.050127 1:-1.3547899 2:-0.35404335 3:-0.83586798 4:-0.81034133 
0.050127 1:-0.82487107 2:-0.17866391 3:-0.77893252 4:-0.80186046 
0.050127 1:-1.1958143 2:0.050678438 3:-1.1325317 4:-0.80782681 
0.050127 1:-1.3017981 2:-0.043756645 3:-0.850851 4:-0.80800903 
0.050127 1:-1.6065014 2:-0.56989496 3:-0.90778646 4:-0.82879431 
0.050127 1:-1.0633346 2:-0.124701 3:-0.80290534 4:-0.83180678 
0.050127 1:-1.328294 2:0.023696986 3:-0.79990874 4:-0.8384343 
0.050127 1:-1.0368386 2:-0.32706189 3:-0.74596988 4:-0.83821701 
0.050127 1:-1.3945339 2:-0.016775192 3:-0.85984081 4:-0.8402451 
0.050127 1:-1.2620541 2:-0.23262681 3:-0.84186119 4:-0.81365759 
0.050127 1:-1.341542 2:-0.19215463 3:-0.86733231 4:-0.81460509 
0.050127 1:-1.315046 2:-0.24611754 3:-0.79541384 4:-0.80200654 
0.050127 1:-1.3812859 2:-0.28658971 3:-0.82238327 4:-0.80200654 
0.050127 1:-1.3680379 2:-0.24611754 3:-0.8523493 4:-0.80105706 
0.050127 1:-1.0368386 2:-0.27309899 3:-0.81938666 4:-0.79528363 
0.050127 1:-1.0633346 2:-0.24611754 3:-0.7654478 4:-0.79447855 
0.050127 1:-1.5005176 2:-0.043756645 3:-0.81339346 4:-0.79517385 
0.050127 1:-1.2885501 2:-0.27309899 3:-0.81938666 4:-0.79422238 
0.050127 1:-1.1693183 2:-0.15168245 3:-0.73098687 4:-0.78222504 
0.050127 1:-1.6727413 2:-0.81272803 3:-0.81788836 4:-0.78537879 
0.050127 1:-2.9312986 2:-1.6761345 3:-1.2598873 4:-0.79546661 
0.050127 1:-1.6462453 2:-1.7166067 3:-1.4037243 4:-0.79788187 
0.050127 1:-1.0765825 2:-0.070738097 3:-0.82837647 4:-0.81620491 
0.050127 1:-1.2753021 2:-0.124701 3:-0.79241723 4:-0.8138398 
0.050127 1:-1.2223102 2:-0.21913608 3:-0.78043082 4:-0.80306557 
0.050127 1:-1.0765825 2:-0.46196915 3:-0.79990874 4:-0.80310209 
0.050127 1:-1.2753021 2:-0.21913608 3:-0.74896649 4:-0.79857717 
0.050127 1:-1.4210298 2:-0.16517318 3:-0.78492572 4:-0.79901203 
0.050127 1:-1.2620541 2:0.077659891 3:-0.81039685 4:-0.79220967 
0.050127 1:-1.4740217 2:-0.6913115 3:-1.1909655 4:-0.8009475 
0.050127 1:-1.315046 2:-0.46196915 3:-1.2763687 4:-0.81853238 
0.050127 1:-1.1560704 2:-0.46196915 3:-1.4082192 4:-0.86103353 
0.050127 1:-1.5667575 2:-0.40800625 3:-1.0711013 4:-0.87088733 
0.050127 1:-1.6065014 2:-0.39451552 3:-1.0306472 4:-0.87829913 
0.050127 1:-1.2223102 2:-0.39451552 3:-0.99169135 4:-0.88060105 
0.050127 1:-1.2753021 2:-0.36753407 3:-1.3213177 4:-0.89349606 
0.050127 1:-1.1560704 2:-0.11121028 3:-1.2793653 4:-0.90309659 
0.050127 1:-1.4077818 2:-0.44847843 3:-1.0231557 4:-0.90842723 
0.050127 1:-1.6197494 2:-0.92065384 3:-0.95123721 4:-0.91130706 
0.050127 1:-1.7654771 2:-1.703116 3:-1.4741445 4:-0.92522043 
0.050127 1:-1.6727413 2:-1.6491531 3:-1.5880154 4:-0.92768236 
0.050127 1:-1.6859892 2:-0.89367239 3:-2.5529216 4:-0.95309827 
0.050127 1:-0.87786296 2:-1.3658478 3:-2.4090847 4:-0.95404665 
0.050127 1:-1.3945339 2:-0.24611754 3:-1.337799 4:-0.98861596 
0.050127 1:-1.0368386 2:-0.4349877 3:-0.86883062 4:-0.98865226 
0.050127 1:-1.1163265 2:0.050678438 3:-0.69053272 4:-0.98666462 
0.050127 1:-1.0765825 2:0.077659891 3:-0.63359726 4:-0.98527081 
0.050127 1:-1.4475258 2:-2.1348192 3:-0.67704801 4:-0.9827968 
0.050127 1:-2.5206115 2:-1.4602829 3:-1.1010674 4:-0.99136478 
0.050127 1:-1.4342778 2:-1.8245325 3:-1.2014536 4:-0.99362522 
0.050127 1:-1.791973 2:-1.8110418 3:-1.3452905 4:-0.99621983 
0.050127 1:-1.778725 2:-1.797551 3:-1.4756428 4:-0.99934346 
0.050127 1:-1.7654771 2:-1.797551 3:-1.6000018 4:-1.0021894 
0.050127 1:-1.7654771 2:-1.7166067 3:-1.7483337 4:-1.0046927 
0.050127 1:-1.1825663 2:0.077659891 3:-0.73398347 4:-1.0056625 
0.050127 1:-1.5402616 2:-0.3810248 3:-0.80440365 4:-1.0015647 
0.050127 1:-1.3017981 2:-0.030265918 3:-0.80889855 4:-1.0004194 
0.050127 1:-1.791973 2:-0.51593206 3:-1.4291954 4:-1.4986318 
0.050127 1:-1.5402616 2:-0.59687642 3:-1.4082192 4:-1.4865519 
0.050127 1:-1.5932534 2:-0.55640424 3:-1.4546666 4:-1.413216 
0.050127 1:-1.0898305 2:1.0220107 3:0.251899 4:0.30053522 
0.050127 1:-1.0500866 2:1.0894643 3:0.3373022 4:0.57328137 
0.050127 1:-1.6594933 2:0.60379821 3:0.14551959 4:0.56777721 
0.050127 1:-1.1825663 2:1.1838994 3:0.37176313 4:0.5683678 
0.050127 1:-1.1295744 2:0.84663128 3:0.40922068 4:0.6125486 
0.050127 1:-0.16247247 2:1.3322974 3:-1.2089451 4:0.38473662 
0.050127 1:-1.7257332 2:-0.59687642 3:-0.050757926 4:0.36873088 
0.050127 1:-0.58640757 2:0.33398369 3:-0.26501506 4:0.36582458 
0.050127 1:0.009751164 2:1.4806954 3:0.057119792 4:0.36384432 
0.050127 1:-0.49367177 2:1.3457881 3:0.75233175 4:0.49234286 
0.050127 1:-1.0765825 2:0.99502927 3:0.50061707 4:0.53958331 
0.050127 1:-0.93085484 2:0.87361273 3:0.3373022 4:0.54417627 
0.050127 1:-1.7389811 2:0.5498353 3:0.043635077 4:0.53259575 
0.050127 1:-0.97059876 2:1.3457881 3:0.031648664 4:0.5328881 
0.050127 1:-1.0368386 2:1.305316 3:0.65494214 4:0.87075524 
0.050127 1:-0.69239135 2:1.2918252 3:0.59950498 4:0.8688404 
0.050127 1:-0.52016771 2:1.156918 3:0.69239968 4:0.86480371 
0.050127 1:-0.58640757 2:1.4267325 3:0.73435213 4:0.85874868 
0.050127 1:0.34095046 2:1.00852 3:0.83773494 4:0.86050826 
0.050127 1:-1.6859892 2:-0.48895061 3:0.36427163 4:0.8458666 
0.050127 1:-0.4804238 2:1.0759736 3:0.37625804 4:0.84080982 
0.050127 1:-0.9970947 2:1.3727696 3:0.23691599 4:0.84065502 
0.050127 1:-0.79837512 2:1.6021119 3:0.81226381 4:0.86542474 
0.050127 1:-0.97059876 2:1.4941861 3:0.83024343 4:0.88375373 
0.050127 1:-0.41418394 2:1.2783345 3:0.99655491 4:1.0912351 
0.050127 1:-1.5667575 2:1.2783345 3:0.50810858 4:1.0717068 
0.050127 1:-1.0235906 2:1.5076769 3:0.41521388 4:1.063799 
0.050127 1:-1.7522291 2:1.2378623 3:0.4331935 4:1.0942492 
0.050127 1:-0.87786296 2:1.3592789 3:0.090082428 4:1.0790042 
0.050127 1:-1.5667575 2:1.2513531 3:0.18597373 4:1.0664483 
0.050127 1:-1.6329974 2:1.3727696 3:0.16349921 4:1.051442 
0.050127 1:-1.5535095 2:0.94106636 3:0.56054914 4:1.0875752 
0.050127 1:-0.21546436 2:1.2378623 3:0.8886772 4:1.0699897 
0.050127 1:-1.0500866 2:1.3457881 3:0.69239968 4:1.0667166 
0.050127 1:-0.93085484 2:1.0355014 3:0.71637251 4:1.0572728 
0.050127 1:-1.5932534 2:0.87361273 3:0.21593976 4:1.04458 
0.050127 1:-1.791973 2:0.53634458 3:-0.46428918 4:0.94958633 
0.050127 1:-1.5667575 2:1.305316 3:-0.014798686 4:0.92717903 
0.050127 1:-0.49367177 2:1.5751305 3:0.91265002 4:0.91080591 
0.050127 1:0.036247108 2:0.81964983 3:0.85271796 4:0.90840398 
0.050127 1:-1.3547899 2:0.79266838 3:0.3432954 4:0.88748664 
0.050127 1:-0.71888729 2:1.3862603 3:0.57852876 4:0.8445766 
0.050127 1:-1.0898305 2:1.0624829 3:0.68640648 4:0.82043169 
0.050127 1:-1.5005176 2:0.34747441 3:0.27886843 4:0.79074265 
0.050127 1:-1.1428224 2:0.96804781 3:0.57253555 4:0.7824419 
0.050127 1:-0.66589541 2:1.2378623 3:0.38824445 4:0.69038169 
0.050127 1:-1.1825663 2:0.94106636 3:0.36726823 4:0.72051733 
0.050127 1:-1.2223102 2:0.96804781 3:0.16200091 4:0.71429896 
0.050127 1:-1.3017981 2:1.2648438 3:0.13652978 4:0.71409673 
0.050127 1:-0.056488696 2:1.0624829 3:0.68041327 4:0.66589101 
0.050127 1:-1.2090623 2:1.2378623 3:0.47964085 4:0.66032792 
0.050127 1:-1.1560704 2:1.305316 3:0.43918671 4:0.70847864 
0.050127 1:-1.2090623 2:1.1434273 3:0.50061707 4:0.7128171 
0.050127 1:-1.0103427 2:1.2378623 3:0.48113915 4:0.71569048 
0.050127 1:-1.0103427 2:0.21256715 3:-0.20208639 4:-0.13125341 
0.050127 1:-1.1030785 2:0.077659891 3:-0.33393693 4:-0.19620124 
0.050127 1:-0.49367177 2:0.40143732 3:-0.29647939 4:-0.19526011 
0.050127 1:-0.73213527 2:0.077659891 3:-0.21706941 4:-0.19156862 
0.050127 1:-0.77187918 2:0.34747441 3:-0.23355072 4:-0.1776259 
0.050127 1:-0.9043589 2:0.30700223 3:-0.28299468 4:-0.17710848 
0.050127 1:-0.95735079 2:0.11813207 3:-0.28149638 4:-0.17864576 
0.050127 1:-1.1295744 2:0.22605788 3:-0.33843184 4:-0.18823415 
0.050127 1:-1.0765825 2:0.091150617 3:-0.28599128 4:-0.19213628 
0.050127 1:-0.34794408 2:0.064169164 3:-0.17361866 4:-0.19215411 
0.050127 1:-0.46717583 2:-0.28658971 3:-0.31146241 4:-0.22823688 
0.050127 1:-1.0633346 2:0.26653006 3:-0.50624162 4:-0.23545924 
0.050127 1:-0.78512715 2:0.01020626 3:-0.86883062 4:-0.24818171 
0.050127 1:-1.0368386 2:0.1855857 3:-0.56018048 4:-0.23838159 
0.050127 1:-0.89111093 2:0.023696986 3:-0.51373313 4:-0.24079441 
0.050127 1:-1.0500866 2:0.037187712 3:-0.54070256 4:-0.2437098 
0.050127 1:-0.8116231 2:-0.124701 3:-0.53620765 4:-0.2462087 
0.050127 1:-0.62615149 2:-0.097719549 3:-0.49875011 4:-0.24996834 
0.050127 1:-0.83811904 2:-0.50244133 3:-0.47327899 4:-0.25707329 
0.050127 1:-0.49367177 2:0.10464134 3:-0.48077049 4:-0.25811203 
0.050127 1:-0.78512715 2:-0.40800625 3:-0.393869 4:-0.2812735 
0.050127 1:-0.9970947 2:-0.31357117 3:-0.47178068 4:-0.29635728 
0.050127 1:-1.0235906 2:0.19907643 3:-0.49575351 4:-0.30853698 
0.050127 1:-0.58640757 2:-0.16517318 3:-0.49275691 4:-0.30931716 
0.050127 1:-0.74538324 2:-0.097719549 3:-0.53021445 4:-0.3195126 
0.050127 1:-0.86461498 2:-0.23262681 3:-0.53470935 4:-0.33154041 
0.050127 1:-0.74538324 2:-0.25960826 3:-0.41484522 4:-0.33286997 
0.050127 1:-0.86461498 2:-0.11121028 3:-0.59014651 4:-0.33662124 
0.050127 1:-1.1163265 2:-0.86669094 3:-1.3602736 4:-0.59082669 
0.050127 1:-0.85136701 2:0.37445587 3:-1.3767549 4:-0.59247981 
0.050127 1:-0.46717583 2:-0.34055262 3:-1.0800911 4:-0.59228759 
0.050127 1:-1.3680379 2:-1.2309405 3:-0.56617369 4:-0.67350286 
0.050127 1:-1.2090623 2:0.14511352 3:-0.66056669 4:-0.67602869 
0.050127 1:-1.1295744 2:-0.057247371 3:-0.5766618 4:-0.67463383 
0.050127 1:-0.95735079 2:0.34747441 3:-0.46878408 4:-0.73427689 
0.050127 1:-1.1958143 2:-1.2174498 3:-0.52422124 4:-0.73713657 
0.050127 1:-1.1958143 2:0.091150617 3:-0.62760405 4:-0.73878279 
0.050127 1:-1.2090623 2:-1.0690518 3:-0.51972634 4:-0.74300763 
0.050127 1:-1.0500866 2:0.26653006 3:-0.59314312 4:-0.74493475 
0.050127 1:-1.3017981 2:-0.79923731 3:-0.56317708 4:-0.75692655 
0.050127 1:-0.78512715 2:0.45540022 3:-0.61411934 4:-0.75803366 
0.050127 1:-0.95735079 2:-0.11121028 3:-0.54369916 4:-0.75528867 
0.050127 1:-1.2885501 2:0.064169164 3:-0.46428918 4:-0.7366909 
0.050127 1:-1.1030785 2:0.037187712 3:-0.46129257 4:-0.7054975 
0.050127 1:-0.8116231 2:-0.3810248 3:-0.41784183 4:-0.68881553 
0.050127 1:-0.37444002 2:0.10464134 3:-0.41035032 4:-0.68738605 
0.050127 1:-1.341542 2:-0.94763529 3:-0.54519746 4:-0.65699055 
0.050127 1:-0.94410282 2:-1.0825426 3:-0.53321105 4:-0.58763706 
0.050127 1:-0.69239135 2:-0.030265918 3:-0.42683163 4:-0.55021276 
0.050127 1:-0.94410282 2:-0.0032844662 3:-0.49725181 4:-0.55180297 
0.050127 1:-1.2620541 2:-1.3928293 3:-0.3908724 4:-0.54472769 
0.050127 1:-0.86461498 2:-1.6491531 3:-0.84485779 4:-0.55207447 
0.050127 1:-1.2090623 2:0.01020626 3:-0.51223483 4:-0.60520357 
0.050127 1:-1.2753021 2:-0.030265918 3:-0.53620765 4:-0.58127971 
0.050127 1:-1.1163265 2:0.11813207 3:-0.52122464 4:-0.58189618 
0.050127 1:-1.1693183 2:-0.016775192 3:-0.46578748 4:-0.57396884 
0.050127 1:-0.83811904 2:-0.24611754 3:-0.42383503 4:-0.55094969 
0.050127 1:-1.1560704 2:-1.3388664 3:-0.50474332 4:-0.54534964 
0.050127 1:-1.1295744 2:0.38794659 3:-0.5781601 4:-0.51465816 
0.050127 1:-1.0368386 2:0.14511352 3:-0.40735371 4:-0.44716029 
0.050127 1:-1.3680379 2:-0.0032844662 3:-0.35341485 4:-0.44469546 
0.050127 1:-1.0898305 2:-0.0032844662 3:-0.54669577 4:-0.44938658 
0.050127 1:-0.78512715 2:-0.66433005 3:-0.35341485 4:-0.46374022 
0.050127 1:-0.65264743 2:0.69823329 3:-0.3908724 4:-0.46151897 
0.050127 1:-1.2620541 2:0.037187712 3:-0.53171275 4:-0.45870275 
0.050127 1:-1.3547899 2:-0.084228823 3:-0.54070256 4:-0.45667983 
0.050127 1:-0.71888729 2:-0.11121028 3:-0.52721784 4:-0.46048768 
0.050127 1:-1.2355582 2:0.17209497 3:-0.56467538 4:-0.45779045 
0.050127 1:-1.0235906 2:0.091150617 3:-0.7624512 4:-0.49108772 
0.050127 1:-1.2753021 2:-0.56989496 3:-0.4912586 4:-0.49100893 
0.050127 1:-1.2090623 2:0.064169164 3:-0.45230276 4:-0.48699042 
0.050127 1:-1.1030785 2:0.01020626 3:-0.50624162 4:-0.4598927 
0.050127 1:-0.95735079 2:0.32049296 3:-0.47178068 4:-0.45755246 
-0.012492 1:-1.0103427 2:-1.3253756 3:-0.25602525 4:0.56581456 
-0.012492 1:-1.3017981 2:2.0877781 3:-0.45380106 4:0.54544845 
-0.012492 1:-1.315046 2:-1.4737736 3:-0.42083843 4:0.54552942 
-0.012492 1:-1.4475258 2:2.8162773 3:-0.5751635 4:0.52417195 
-0.012492 1:-1.1163265 2:1.9663615 3:-0.25452695 4:0.54400972 
-0.012492 1:-1.1693183 2:-1.4333014 3:0.0061775364 4:0.54441014 
-0.012492 1:-1.4077818 2:2.5194813 3:-0.06424264 4:0.52459285 
-0.012492 1:-1.0898305 2:-1.40632 3:0.42570199 4:0.5393318 
-0.012492 1:-1.2885501 2:-1.3658478 3:0.32981069 4:0.52925653 
-0.012492 1:-1.2223102 2:-1.3118849 3:0.4301969 4:0.52092362 
-0.012492 1:-1.2488062 2:-1.4333014 3:0.17998053 4:0.51258987 
-0.012492 1:-1.1560704 2:-1.3928293 3:0.17398732 4:0.50359362 
-0.012492 1:-1.3680379 2:2.2361761 3:0.17099072 4:0.48732445 
-0.012492 1:-1.4607737 2:2.1552317 3:0.075099411 4:0.48821898 
-0.012492 1:-1.1958143 2:-1.3928293 3:0.031648664 4:0.49081292 
-0.012492 1:-1.3017981 2:1.9798523 3:0.05562149 4:0.48556539 
-0.012492 1:-1.2090623 2:-1.3658478 3:0.42420369 4:0.4864295 
-0.012492 1:-1.0500866 2:2.0607966 3:0.14102468 4:0.48112341 
-0.012492 1:-1.2753021 2:-1.4737736 3:0.51560009 4:0.48213075 
-0.012492 1:-1.1030785 2:-1.3793385 3:0.12753997 4:0.47656215 
-0.012492 1:-1.1693183 2:-1.6356623 3:0.07360111 4:0.46658342 
-0.012492 1:-1.6065014 2:2.2226853 3:0.010672441 4:0.4511049 
-0.012492 1:-1.2488062 2:-1.257922 3:0.031648664 4:0.45389314 
-0.012492 1:-1.1825663 2:1.696547 3:0.078096015 4:0.4471745 
-0.012492 1:-1.2355582 2:-1.4872643 3:-0.019293591 4:0.44601692 
-0.012492 1:-1.4607737 2:2.1957039 3:-0.031280004 4:0.43250805 
-0.012492 1:-1.1825663 2:-1.3793385 3:0.021160553 4:0.43999015 
-0.012492 1:-1.341542 2:2.1957039 3:-0.019293591 4:0.43073859 
-0.012492 1:-0.9970947 2:-1.3118849 3:0.4301969 4:0.4354729 
-0.012492 1:-1.3812859 2:-1.3658478 3:0.036143569 4:0.42806295 
-0.012492 1:-1.1560704 2:-1.1499962 3:-0.068737545 4:0.41242532 
-0.012492 1:-1.3017981 2:-1.5412272 3:-0.10619509 4:0.41288954 
-0.012492 1:-1.5137656 2:-0.17866391 3:-0.086717165 4:0.40121363 
-0.012492 1:-2.4278757 2:2.7218422 3:-0.83137308 4:0.35343058 
-0.012492 1:-0.95735079 2:2.290139 3:-0.37888598 4:0.36158253 
-0.012492 1:-1.0765825 2:-0.67782077 3:-0.40585541 4:0.36614696 
-0.012492 1:-2.7723229 2:-1.3928293 3:-0.60662783 4:0.32453853 
-0.012492 1:-1.3680379 2:-1.4198107 3:-0.63959047 4:0.31514721 
-0.012492 1:-1.3945339 2:0.50936313 3:-0.72199706 4:0.30568258 
-0.012492 1:-1.3812859 2:1.9528708 3:0.036143569 4:1.1246432 
-0.012492 1:-1.328294 2:0.64427039 3:0.68490818 4:1.1557975 
-0.012492 1:-1.1958143 2:1.7100378 3:0.39273936 4:0.86878865 
-0.012492 1:-2.4676196 2:-1.2039591 3:-0.14964583 4:0.84334989 
-0.012492 1:-1.2885501 2:1.6021119 3:-0.73398347 4:0.81525068 
-0.012492 1:-1.2488062 2:-0.94763529 3:-0.60512953 4:0.80874644 
-0.012492 1:-1.2355582 2:1.5346583 3:-1.2224298 4:0.78193192 
-0.012492 1:-1.328294 2:2.0607966 3:-0.64408537 4:0.77429111 
-0.012492 1:-1.1693183 2:1.3592789 3:-0.40136051 4:0.73926461 
-0.012492 1:-1.3812859 2:-1.4467922 3:-0.38338089 4:0.74276425 
-0.012492 1:-1.4210298 2:2.1687224 3:-0.393869 4:0.73536052 
-0.012492 1:-1.2885501 2:1.4806954 3:-0.53321105 4:0.74965859 
-0.012492 1:-1.3547899 2:1.3188067 3:-0.16163225 4:0.74621083 
-0.012492 1:-1.1825663 2:1.7909821 3:-0.10170018 4:0.74616013 
-0.012492 1:-1.328294 2:-1.4333014 3:0.027153759 4:0.74722488 
-0.012492 1:-1.4077818 2:1.4267325 3:-0.15414074 4:0.74164762 
-0.012492 1:-1.2620541 2:1.2918252 3:-0.15713734 4:0.74296588 
-0.012492 1:-1.2090623 2:-1.2444313 3:-0.16313055 4:0.74585592 
-0.012492 1:-1.2223102 2:1.3592789 3:-0.32944203 4:0.74088708 
-0.012492 1:-2.5206115 2:0.65776111 3:-0.81938666 4:0.72041621 
-0.012492 1:-1.1693183 2:0.79266838 3:-0.56917029 4:0.712313 
-0.012492 1:-1.1030785 2:0.64427039 3:-0.62161085 4:0.71446021 
-0.012492 1:-1.2488062 2:0.61728894 3:-0.82388157 4:0.7015923 
-0.012492 1:-1.3547899 2:0.40143732 3:-0.63359726 4:0.69404055 
-0.012492 1:-1.4740217 2:0.63077966 3:-0.62011255 4:0.68381581 
-0.012492 1:-1.3812859 2:1.1164458 3:-0.49425521 4:0.68206156 
-0.012492 1:-1.3547899 2:1.1164458 3:-0.47927219 4:0.68802599 
-0.012492 1:-1.4077818 2:0.73870547 3:-0.46129257 4:0.67771628 
-0.012492 1:-1.5137656 2:0.99502927 3:-0.47777389 4:0.67810198 
-0.012492 1:-1.341542 2:1.2108809 3:-0.41035032 4:0.68075841 
-0.012492 1:-1.2753021 2:1.2648438 3:-0.32344882 4:0.67543682 
-0.012492 1:-1.4607737 2:0.88710346 3:-0.31595731 4:0.66734037 
-0.012492 1:-1.4077818 2:0.67125184 3:-0.34742165 4:0.66169285 
-0.012492 1:-1.1560704 2:0.69823329 3:-0.32644543 4:0.65673976 
-0.012492 1:-1.328294 2:0.84663128 3:-0.33843184 4:0.64987673 
-0.012492 1:-1.3017981 2:0.71172402 3:-0.37439108 4:0.64182629 
-0.012492 1:-1.4872697 2:0.71172402 3:-0.45979427 4:0.63304282 
-0.012492 1:-1.4872697 2:0.99502927 3:-0.4822688 4:0.62228975 
-0.012492 1:-1.2620541 2:1.0759736 3:-0.42982824 4:0.61719345 
-0.012492 1:-1.3812859 2:0.69823329 3:-0.41334692 4:0.61096737 
-0.012492 1:-1.5402616 2:0.45540022 3:-0.45380106 4:0.60138411 
-0.012492 1:-1.5402616 2:0.69823329 3:-0.50923822 4:0.59044525 
-0.012492 1:-1.3680379 2:0.68474257 3:-0.49725181 4:0.58399296 
-0.012492 1:-1.3680379 2:0.63077966 3:-0.51822803 4:0.57654787 
-0.012492 1:-1.4740217 2:0.56332603 3:-0.59164481 4:0.56252064 
-0.012492 1:-1.5535095 2:0.81964983 3:-0.62610575 4:0.56135845 
-0.012492 1:-1.5535095 2:1.0220107 3:-0.58714991 4:0.56145645 
-0.012492 1:-1.4077818 2:0.91408491 3:-0.53620765 4:0.55644044 
-0.012492 1:-1.3680379 2:0.4958724 3:-0.51073653 4:0.55052823 
-0.012492 1:-1.5667575 2:0.46889095 3:-0.54819407 4:0.54275929 
-0.012492 1:-1.4077818 2:0.81964983 3:-0.55119067 4:0.53663993 
-0.012492 1:-1.3812859 2:0.83314055 3:-0.53171275 4:0.53318045 
-0.012492 1:-1.4872697 2:0.72521474 3:-0.54519746 4:0.52694363 
-0.012492 1:-1.6197494 2:0.59030748 3:-0.59014651 4:0.5203993 
-0.012492 1:-1.5005176 2:0.7521962 3:-0.59464142 4:0.51466571 
-0.012492 1:-1.4475258 2:1.0220107 3:-0.54969237 4:0.51108083 
-0.012492 1:-1.3680379 2:1.1973902 3:-0.52272294 4:0.50710751 
-0.012492 1:-1.5137656 2:0.96804781 3:-0.49725181 4:0.49959695 
-0.012492 1:-1.5535095 2:1.0624829 3:-0.47777389 4:0.49384083 
-0.012492 1:-1.3812859 2:1.3997511 3:-0.3983639 4:0.48934694 
-0.012492 1:-1.2620541 2:1.0355014 3:-0.299476 4:0.48647801 
-0.012492 1:-1.4607737 2:0.61728894 3:-0.299476 4:0.47780413 
-0.012492 1:-1.4210298 2:0.72521474 3:-0.36989617 4:0.46821468 
-0.012492 1:-1.328294 2:0.81964983 3:-0.37588938 4:0.46300889 
-0.012492 1:-1.2885501 2:0.77917765 3:-0.37289278 4:0.45611943 
-0.012492 1:-1.3945339 2:0.61728894 3:-0.44331295 4:0.45858776 
-0.012492 1:-1.4475258 2:0.7521962 3:-0.51073653 4:0.45719414 
-0.012492 1:-1.4475258 2:1.1704087 3:-0.49425521 4:0.45049924 
-0.012492 1:-1.3547899 2:1.4267325 3:-0.43731975 4:0.44585059 
-0.012492 1:-1.1825663 2:0.79266838 3:-0.35341485 4:0.4425505 
-0.012492 1:-1.2885501 2:0.67125184 3:-0.35191655 4:0.43294406 
-0.012492 1:-1.2090623 2:0.76568692 3:-0.32494712 4:0.42682835 
-0.012492 1:-1.0235906 2:0.86012201 3:-0.27550317 4:0.42010787 
-0.012492 1:-1.2885501 2:0.99502927 3:-0.29198449 4:0.41513693 
-0.012492 1:-1.4475258 2:1.0355014 3:-0.35041825 4:0.4062957 
-0.012492 1:-1.4210298 2:1.5076769 3:-0.35041825 4:0.3979298 
-0.012492 1:-1.3017981 2:1.8989079 3:-0.25902185 4:0.39549748 
-0.012492 1:-1.2885501 2:1.7774914 3:-0.14215433 4:0.39326946 
-0.012492 1:-1.4342778 2:1.7235285 3:-0.086717165 4:0.39037778 
-0.012492 1:-1.2223102 2:2.0607966 3:0.16799411 4:0.38896524 
-0.012492 1:-1.315046 2:2.0068337 3:0.24141089 4:0.38409576 
-0.012492 1:-1.1560704 2:1.6830563 3:0.37775634 4:0.37213479 
-0.012492 1:-1.315046 2:1.2108809 3:0.29834635 4:0.36936077 
-0.012492 1:-1.3017981 2:1.7370192 3:0.19496354 4:0.36195836 
-0.012492 1:-1.2090623 2:1.8179636 3:0.19046864 4:0.35794954 
-0.012492 1:-1.3812859 2:1.9663615 3:0.14102468 4:0.35136641 
-0.012492 1:-1.1163265 2:1.6290934 3:0.30134296 4:0.34459519 
-0.012492 1:-1.1295744 2:1.2918252 3:0.30883447 4:0.34237883 
-0.012492 1:-1.2620541 2:1.8314543 3:0.20245505 4:0.33440646 
-0.012492 1:-1.0633346 2:1.8314543 3:0.25639391 4:0.33124108 
-0.012492 1:-1.3680379 2:1.5616398 3:0.19496354 4:0.32497378 
-0.012492 1:-1.1163265 2:1.6021119 3:0.18747203 4:0.31992252 
-0.012492 1:-1.0368386 2:1.6021119 3:0.23242108 4:0.31870648 
-0.012492 1:-1.2355582 2:1.3322974 3:0.20994656 4:0.31716304 
-0.012492 1:-1.328294 2:-1.4737736 3:0.10956035 4:0.31440355 
-0.012492 1:-1.4475258 2:1.9798523 3:0.066109602 4:0.30864113 
-0.012492 1:-1.315046 2:1.6830563 3:0.088584126 4:0.30943411 
-0.012492 1:-1.2488062 2:-1.2309405 3:0.087085824 4:0.30836125 
-0.012492 1:-1.2090623 2:1.8179636 3:-0.22755752 4:0.30346762 
-0.012492 1:-1.5667575 2:1.5886212 3:-0.26351676 4:0.29658234 
-0.012492 1:-1.328294 2:1.5751305 3:-0.24553714 4:0.28979011 
-0.012492 1:-0.98384673 2:1.3322974 3:0.13203487 4:0.28778904 
-0.012492 1:-1.1693183 2:0.87361273 3:0.076597713 4:0.28106122 
-0.012492 1:-1.3945339 2:1.0894643 3:-0.029781703 4:0.27316521 
-0.012492 1:-1.2223102 2:1.4267325 3:-0.11218829 4:0.26483554 
-0.012492 1:-1.3017981 2:1.3997511 3:-0.10020188 4:0.26134164 
-0.012492 1:-1.328294 2:1.4941861 3:-0.1196798 4:0.2537724 
-0.012492 1:-1.3680379 2:1.5076769 3:-0.14515093 4:0.24958029 
-0.012492 1:-1.2885501 2:1.7640007 3:-0.088215466 4:0.24387227 
-0.012492 1:-1.0368386 2:1.453714 3:0.027153759 4:0.24023571 
-0.012492 1:-1.3017981 2:-1.3928293 3:0.021160553 4:0.23618196 
-0.012492 1:-1.1295744 2:-1.2444313 3:-0.46428918 4:0.21067325 
-0.012492 1:-1.2223102 2:2.1282503 3:-0.44780786 4:0.20607844 
-0.012492 1:-2.4146277 2:1.4672047 3:-0.97670833 4:0.18639387 
-0.012492 1:-1.2488062 2:1.305316 3:-0.99918286 4:0.19216922 
-0.012492 1:-1.2885501 2:1.7774914 3:-0.69802423 4:0.19207812 
-0.012492 1:-0.9970947 2:-1.0825426 3:-0.43432314 4:0.19098485 
-0.012492 1:-1.2355582 2:-1.4467922 3:-0.42533333 4:0.16529205 
-0.012492 1:-1.4210298 2:1.5751305 3:-0.44481125 4:0.15799603 
-0.012492 1:-2.4543716 2:1.4267325 3:-0.65307518 4:0.13878213 
-0.012492 1:-1.341542 2:1.3592789 3:-0.64258707 4:0.1345443 
-0.012492 1:-0.74538324 2:-1.3118849 3:-0.41334692 4:0.13174914 
-0.012492 1:-1.2355582 2:-1.4467922 3:-0.87482382 4:0.11362056 
-0.012492 1:-1.4210298 2:1.9123986 3:-1.0291489 4:0.10869692 
-0.012492 1:-1.2488062 2:1.3457881 3:-0.40136051 4:0.10297054 
-0.012492 1:-0.86461498 2:1.548149 3:-0.35641146 4:0.10067478 
-0.012492 1:-0.98384673 2:-1.4872643 3:-0.1211781 4:0.061883934 
-0.012492 1:-1.4607737 2:1.5751305 3:-0.37439108 4:0.053292768 
-0.012492 1:-2.4543716 2:1.0220107 3:-0.69502763 4:0.035376053 
-0.012492 1:-1.0103427 2:0.88710346 3:-0.57216689 4:0.032637356 
-0.012492 1:-1.2355582 2:1.0220107 3:-0.61561764 4:0.030944223 
-0.012492 1:-1.0368386 2:-1.4737736 3:-0.6665599 4:0.026494035 
-0.012492 1:-1.2885501 2:-1.5412272 3:-0.80140704 4:0.0043480031 
-0.012492 1:-1.5137656 2:1.7640007 3:-0.69502763 4:-0.00049778696 
-0.012492 1:-1.0368386 2:1.5751305 3:-0.61561764 4:-0.0059204072 
-0.012492 1:-1.328294 2:-1.6896252 3:-0.56917029 4:-0.015788629 
-0.012492 1:-1.1958143 2:-1.4872643 3:0.2474041 4:-0.040271718 
-0.012492 1:-1.3017981 2:-1.6086809 3:0.20994656 4:-0.048052491 
-0.012492 1:-1.0368386 2:-1.3793385 3:0.68640648 4:0.074800545 
-0.012492 1:-1.3017981 2:-1.5007551 3:0.24290919 4:0.081620639 
-0.012492 1:-1.0103427 2:-0.62385787 3:0.74184364 4:0.1393469 
-0.012492 1:-1.1560704 2:-1.2849034 3:0.44517991 4:0.14635287 
-0.012492 1:-1.0633346 2:-1.4602829 3:0.070604506 4:0.16134948 
-0.012492 1:-0.91760687 2:-1.2039591 3:0.35977672 4:0.18588292 
-0.012492 1:-2.3616358 2:2.1012688 3:-0.32045222 4:0.17731897 
-0.012492 1:-1.0765825 2:-0.51593206 3:0.11255695 4:0.18765948 
-0.012492 1:-1.2223102 2:-1.3253756 3:-0.14365263 4:0.18401525 
-0.012492 1:-0.89111093 2:-1.1365055 3:1.0190294 4:0.24528009 
-0.012492 1:-0.70563932 2:-0.58338569 3:0.2459058 4:0.24809547 
-0.012492 1:-1.0633346 2:-1.3253756 3:-0.053754529 4:0.24723264 
-0.012492 1:-1.3017981 2:2.1822132 3:-0.51073653 4:0.23623089 
-0.012492 1:-1.0368386 2:-1.257922 3:0.0046792348 4:0.24911997 
-0.012492 1:-2.5073635 2:2.3306112 3:-0.36090636 4:0.2229135 
-0.012492 1:-1.2753021 2:1.9258894 3:-0.16762545 4:0.23125938 
-0.012492 1:-1.2355582 2:-0.86669094 3:0.16349921 4:0.23236416 
-0.012492 1:-1.0765825 2:-0.71829295 3:0.56204744 4:0.29926524 
-0.012492 1:-1.1693183 2:-1.2444313 3:0.28186504 4:0.46358861 
-0.012492 1:-1.1295744 2:-0.56989496 3:0.6174846 4:0.46353751 
-0.012492 1:-2.3351399 2:2.0877781 3:-0.044764719 4:0.43856612 
-0.012492 1:-1.2355582 2:2.3036297 3:-0.12866961 4:0.43870989 
-0.012492 1:-0.95735079 2:2.1282503 3:-0.1181815 4:0.44182496 
-0.012492 1:-0.9970947 2:1.5751305 3:-0.1226764 4:0.44331061 
-0.012492 1:-1.1693183 2:-0.85320021 3:0.045133379 4:0.4407227 
-0.012492 1:-2.3351399 2:2.532972 3:-0.28449298 4:0.41333972 
-0.012492 1:-1.2885501 2:2.0877781 3:-0.23954393 4:0.41248179 
-0.012492 1:-1.1295744 2:-0.55640424 3:-0.17811356 4:0.41166698 
-0.012492 1:-1.2090623 2:-0.81272803 3:0.75233175 4:0.45891435 
-0.012492 1:-1.1825663 2:2.0338152 3:0.34629201 4:1.0976028 
-0.012492 1:-1.0633346 2:2.4790091 3:0.37925464 4:1.1179279 
-0.012492 1:-2.4146277 2:2.0338152 3:0.0646113 4:1.1142313 
-0.012492 1:-1.0235906 2:1.9663615 3:0.088584126 4:1.1128816 
-0.012492 1:-0.86461498 2:2.1147595 3:0.26838032 4:1.1088297 
-0.012492 1:-1.1163265 2:-1.3388664 3:0.094577333 4:1.1212856 
-0.012492 1:-1.315046 2:2.3306112 3:0.066109602 4:1.1182529 
-0.012492 1:-1.3945339 2:2.438537 3:-0.21706941 4:1.1159783 
-0.012492 1:-1.2223102 2:2.6139164 3:0.46166123 4:1.1177655 
-0.012492 1:-1.0898305 2:2.3845741 3:0.51859669 4:1.1192818 
-0.012492 1:-1.3680379 2:1.9393801 3:0.50810858 4:1.1167365 
-0.012492 1:-1.2885501 2:2.7758051 3:0.46915274 4:1.1207099 
-0.012492 1:-1.0235906 2:2.4924999 3:0.55155933 4:1.1172239 
-0.012492 1:-1.2355582 2:2.3306112 3:0.57553216 4:1.1164657 
-0.012492 1:-1.341542 2:2.438537 3:0.53058311 4:1.1150577 
-0.012492 1:-1.1163265 2:2.6139164 3:0.53357971 4:1.1165199 
-0.012492 1:-1.1030785 2:2.0203245 3:0.63846082 4:1.1174947 
-0.012492 1:-1.328294 2:1.7640007 3:0.55006103 4:1.1210339 
-0.012492 1:-1.2355582 2:2.4115555 3:0.44517991 4:1.1177405 
-0.012492 1:-1.1295744 2:2.4924999 3:0.46615614 4:1.1190903 
-0.012492 1:-1.328294 2:2.1687224 3:0.47364765 4:1.1185504 
-0.012492 1:-1.315046 2:2.5059906 3:0.40172917 4:1.1162829 
-0.012492 1:-1.1030785 2:2.6678793 3:0.45566803 4:1.1174166 
-0.012492 1:-1.1560704 2:2.2631575 3:0.57553216 4:1.120224 
-0.012492 1:-1.341542 2:1.8314543 3:0.54706443 4:1.1177405 
-0.012492 1:-1.1825663 2:2.3441019 3:0.46765444 4:1.1152031 
-0.012492 1:-1.1428224 2:2.1282503 3:0.50810858 4:1.1161749 
-0.012492 1:-1.341542 2:1.5076769 3:0.46315953 4:1.1125036 
-0.012492 1:-1.2620541 2:2.2361761 3:0.31632597 4:1.1079146 
-0.012492 1:-1.2090623 2:2.4924999 3:0.30733616 4:1.1086165 
-0.012492 1:-1.2223102 2:2.0877781 3:0.39423766 4:1.115166 
-0.012492 1:-1.2753021 2:2.4924999 3:0.35528182 4:1.1173322 
-0.012492 1:-1.0368386 2:2.5599535 3:0.40772237 4:1.1238851 
-0.012492 1:-1.1030785 2:2.2226853 3:0.55155933 4:1.1181185 
-0.012492 1:-1.2620541 2:2.0338152 3:0.55006103 4:1.1142313 
-0.012492 1:-1.1163265 2:-0.71829295 3:0.50960688 4:1.1182804 
-0.012492 1:-1.1030785 2:-1.1499962 3:0.084089221 4:1.0913428 
-0.012492 1:-1.1295744 2:2.3441019 3:0.07360111 4:1.0836187 
-0.012492 1:-1.2090623 2:2.1282503 3:0.037641871 4:1.0789505 
-0.012492 1:-1.0633346 2:-1.1904684 3:-0.10919169 4:1.0728336 
-0.012492 1:-1.1693183 2:2.5734442 3:-0.1151849 4:1.0650293 
-0.012492 1:-2.4941155 2:2.1822132 3:-0.32045222 4:1.0457533 
-0.012492 1:-1.341542 2:2.438537 3:0.022658854 4:1.0371671 
-0.012492 1:-0.95735079 2:2.4924999 3:0.061614697 4:1.0333806 
-0.012492 1:-1.0235906 2:2.0068337 3:-0.080723958 4:1.032634 
-0.012492 1:-1.2885501 2:1.8584357 3:0.2489024 4:1.0265412 
-0.012492 1:-1.0368386 2:-1.3118849 3:0.3358039 4:1.0218613 
-0.012492 1:-1.2885501 2:2.5599535 3:0.47214934 4:1.0262877 
-0.012492 1:-1.2488062 2:2.4115555 3:0.5245899 4:1.0304475 
-0.012492 1:-1.328294 2:1.9258894 3:0.47964085 4:1.0287409 
-0.012492 1:-1.2620541 2:2.5059906 3:0.38974275 4:1.0258611 
-0.012492 1:-1.1295744 2:2.1552317 3:0.46315953 4:1.0408469 
-0.012492 1:-1.2753021 2:1.993343 3:0.46915274 4:1.038127 
-0.012492 1:-1.3017981 2:2.2361761 3:0.40472577 4:1.0345539 
-0.012492 1:-1.0898305 2:2.2361761 3:0.40322747 4:1.0347139 
-0.012492 1:-1.1693183 2:1.8854172 3:0.45566803 4:1.0334873 
-0.012492 1:-1.315046 2:1.9663615 3:0.38075294 4:1.0293809 
-0.012492 1:-1.1958143 2:2.438537 3:0.35228521 4:1.027461 
-0.012492 1:-1.0898305 2:2.4655184 3:0.42270539 4:1.0281543 
-0.012492 1:-1.2090623 2:2.1822132 3:0.45866463 4:1.0358219 
-0.012492 1:-1.2223102 2:2.4655184 3:0.43768841 4:1.0583961 
-0.012492 1:-1.0633346 2:2.6274071 3:0.51410179 4:1.0605894 
-0.012492 1:-1.1693183 2:1.9663615 3:0.60399989 4:1.0610173 
-0.012492 1:-1.2355582 2:2.4790091 3:0.54706443 4:1.0561998 
-0.012492 1:-0.9970947 2:2.4520277 3:0.55905084 4:1.0767632 
-0.012492 1:-1.1428224 2:2.290139 3:0.59650838 4:1.1010041 
-0.012492 1:-1.0103427 2:1.9393801 3:0.60100328 4:1.0995464 
-0.012492 1:-1.2488062 2:2.6543886 3:0.50361368 4:1.0973328 
-0.012492 1:-0.97059876 2:2.6408979 3:0.60250159 4:1.1002482 
-0.012492 1:-1.2488062 2:-1.2714127 3:0.6189829 4:1.1101281 
-0.012492 1:-1.2488062 2:2.2496668 3:0.59051517 4:1.1005182 
-0.012492 1:-1.1560704 2:-0.77225586 3:0.56654235 4:1.09919 
-0.012492 1:-1.0103427 2:-1.3388664 3:-0.037273211 4:1.1065109 
-0.012492 1:-1.315046 2:2.6274071 3:-0.044764719 4:1.0979629 
-0.012492 1:-1.2753021 2:2.6004257 3:-0.08222226 4:1.0962406 
-0.012492 1:-1.1958143 2:-1.3253756 3:-0.080723958 4:1.0944106 
-0.012492 1:-1.3017981 2:-0.24611754 3:-0.086717165 4:1.0859797 
-0.012492 1:-1.1428224 2:-1.4872643 3:0.13652978 4:1.0663947 
-0.012492 1:-1.4607737 2:2.829768 3:0.12004846 4:1.0646777 
-0.012492 1:-0.97059876 2:-1.2983942 3:0.099072237 4:1.0649996 
-0.012492 1:-1.2753021 2:2.7623144 3:0.090082428 4:1.0636045 
-0.012492 1:-1.3017981 2:-1.4198107 3:0.42420369 4:1.062746 
-0.012492 1:-1.3945339 2:2.8567495 3:0.29385145 4:1.0540632 
-0.012492 1:-1.0765825 2:-1.3928293 3:0.60549819 4:1.0735311 
-0.012492 1:-1.3680379 2:2.5059906 3:0.23991259 4:1.0649223 
-0.012492 1:-0.83811904 2:-1.2849034 3:0.94860926 4:1.0683994 
-0.012492 1:-1.2620541 2:2.3171204 3:0.64745063 4:1.0581822 
-0.012492 1:-0.9043589 2:-1.2039591 3:0.75532835 4:1.0533795 
-0.012492 1:-1.1825663 2:2.829768 3:0.50511198 4:1.0443667 
-0.012492 1:-0.89111093 2:-1.1365055 3:0.83174173 4:1.0380204 
-0.012492 1:-1.1163265 2:-1.3793385 3:0.78829099 4:1.0254247 
-0.012492 1:-0.97059876 2:-1.2444313 3:0.95160587 4:1.0187892 
-0.012492 1:-1.1163265 2:-1.1230147 3:1.1134224 4:1.0029401 
-0.012492 1:-1.1295744 2:-1.2983942 3:0.83623664 4:0.99559979 
-0.012492 1:-1.0765825 2:-1.2983942 3:0.73285383 4:0.98134895 
-0.012492 1:-1.1560704 2:-1.4198107 3:0.75532835 4:0.9691254 
-0.012492 1:-0.95735079 2:-1.257922 3:1.0609819 4:0.96132762 
-0.012492 1:-1.1560704 2:-1.4602829 3:1.116419 4:0.95546963 
-0.012492 1:-1.0765825 2:-1.2849034 3:1.1598698 4:0.95105715 
-0.012492 1:-1.1428224 2:-1.3928293 3:0.74933515 4:0.9387533 
-0.012492 1:-1.0633346 2:-1.2849034 3:0.82425023 4:0.9312117 
-0.012492 1:-1.315046 2:-1.40632 3:0.36876653 4:0.91895159 
-0.012492 1:-1.0235906 2:-1.40632 3:0.79128759 4:0.91341671 
-0.012492 1:-0.9970947 2:-1.2039591 3:0.67741667 4:0.90390114 
-0.012492 1:-1.1560704 2:-1.4198107 3:1.1029343 4:0.89765388 
-0.012492 1:-0.97059876 2:-1.2309405 3:1.0205277 4:0.89008194 
-0.012492 1:-1.1428224 2:-1.3118849 3:0.95610077 4:0.8750811 
-0.012492 1:-1.0500866 2:-1.1499962 3:0.9860668 4:0.87204906 
-0.012492 1:-1.1958143 2:-1.3793385 3:0.58751857 4:0.86030125 
-0.012492 1:-1.1560704 2:-1.2039591 3:0.29085485 4:0.85200697 
-0.012492 1:-1.1825663 2:1.993343 3:0.27287523 4:0.84021157 
-0.012492 1:-1.1295744 2:-1.40632 3:0.2489024 4:0.83306029 
-0.012492 1:-1.3812859 2:0.42841877 3:0.22043467 4:0.82545881 
-0.012492 1:-1.1163265 2:-1.3928293 3:-0.01779529 4:0.80751891 
-0.012492 1:-1.3680379 2:2.4790091 3:-0.50773992 4:0.79744293 
-0.012492 1:-1.3017981 2:2.532972 3:-0.1151849 4:0.79335548 
-0.012492 1:-1.1163265 2:-0.93414457 3:-0.13016791 4:0.78611376 
-0.012492 1:-0.91760687 2:2.8432587 3:-0.45529937 4:0.78049478 
-0.012492 1:-2.4146277 2:2.5599535 3:-0.44930616 4:0.75898783 
-0.012492 1:-1.2355582 2:2.5464628 3:0.22792618 4:0.7476305 
-0.012492 1:-1.1958143 2:-1.2849034 3:0.32981069 4:0.73730187 
-0.012492 1:-1.0368386 2:-0.44847843 3:0.82275193 4:0.72985573 
-0.012492 1:-1.0500866 2:-1.257922 3:0.32381748 4:0.70762413 
-0.012492 1:-0.94410282 2:-1.1230147 3:0.47664425 4:0.6978224 
-0.012492 1:-1.0898305 2:-1.257922 3:0.37775634 4:0.70445742 
-0.012492 1:-1.0765825 2:-1.2444313 3:0.86170777 4:0.71201054 
-0.012492 1:-0.91760687 2:-1.2714127 3:0.82425023 4:0.71725319 
-0.012492 1:-0.73213527 2:2.1687224 3:0.56804065 4:0.71916878 
-0.012492 1:-0.98384673 2:-1.3388664 3:0.71637251 4:0.73937466 
-0.012492 1:-0.95735079 2:1.9393801 3:0.46915274 4:0.73017349 
-0.012492 1:-0.93085484 2:-1.3523571 3:0.19646184 4:0.72951627 
-0.012492 1:-1.328294 2:2.3575926 3:0.157506 4:0.72911182 
-0.012492 1:-1.2223102 2:1.6290934 3:0.11705186 4:0.7276457 
-0.012492 1:-2.8518108 2:-1.2309405 3:-0.27550317 4:0.71109244 
-0.012492 1:-1.2090623 2:2.1552317 3:-0.43432314 4:0.69928009 
-0.012492 1:-1.0765825 2:1.3592789 3:-0.38338089 4:0.69777213 
-0.012492 1:-1.2753021 2:-1.5007551 3:-0.1211781 4:0.7000551 
-0.012492 1:-1.4740217 2:1.9663615 3:-0.54969237 4:0.6852192 
-0.012492 1:-2.4013797 2:1.8854172 3:-0.98719644 4:0.6686398 
-0.012492 1:-1.1030785 2:1.4806954 3:-0.38188259 4:0.66749031 
-0.012492 1:-1.2620541 2:1.548149 3:-0.46279087 4:0.66274239 
-0.012492 1:-1.2885501 2:2.1282503 3:-0.46578748 4:0.66029347 
-0.012492 1:-1.0368386 2:2.141741 3:-0.035774909 4:0.66274239 
-0.012492 1:-1.1560704 2:1.8854172 3:0.12454337 4:0.66924851 
-0.012492 1:-1.2885501 2:1.7235285 3:0.2504007 4:0.66670689 
-0.012492 1:-1.0765825 2:2.2766482 3:0.28036673 4:0.66481314 
-0.012492 1:-1.1428224 2:1.7774914 3:0.37475974 4:0.66585968 
-0.012492 1:-1.1958143 2:-1.3388664 3:0.34629201 4:0.66281971 
-0.012492 1:-1.315046 2:2.0742874 3:0.31482767 4:0.64801851 
-0.012492 1:-1.2090623 2:-0.82621876 3:0.30134296 4:0.64712147 
-0.012492 1:-1.1428224 2:-1.2714127 3:-0.094208673 4:0.63949066 
-0.012492 1:-1.2488062 2:1.8179636 3:-0.488262 4:0.63319148 
-0.012492 1:-2.5206115 2:1.6290934 3:-0.78942063 4:0.61511809 
-0.012492 1:-1.1693183 2:1.7100378 3:-0.82238327 4:0.61393217 
-0.012492 1:-0.9970947 2:-1.1769776 3:-0.51672973 4:0.61566164 
-0.012492 1:-1.1825663 2:-1.4602829 3:-0.60363123 4:0.58822791 
-0.012492 1:-1.4342778 2:1.9258894 3:-0.96771852 4:0.58743952 
-0.012492 1:-0.9970947 2:1.844945 3:-0.29647939 4:0.58788299 
-0.012492 1:-1.0765825 2:-1.2849034 3:-0.26201846 4:0.5800621 
-0.012492 1:-1.2620541 2:-0.62385787 3:-0.59464142 4:0.5792268 
-0.012492 1:-1.0898305 2:-1.3253756 3:0.22792618 4:0.59044525 
-0.012492 1:-1.3017981 2:2.3575926 3:0.22343127 4:0.58414037 
-0.012492 1:-1.2620541 2:-2.4855781 3:0.97258209 4:0.41375166 
-0.012492 1:-1.2753021 2:-2.0538748 3:0.26238712 4:0.68888092 
-0.012492 1:-1.6197494 2:-0.17866391 3:1.6438212 4:1.6644185 
-0.012492 1:-1.7257332 2:-1.797551 3:0.74783684 4:1.7584047 
-0.012492 1:-0.86461498 2:-1.797551 3:1.5539231 4:1.7290078 
-0.012492 1:-0.78512715 2:-2.3641615 3:1.7951497 4:1.7819184 
-0.012492 1:-1.1825663 2:0.037187712 3:1.6902686 4:1.7479571 
-0.012492 1:-1.1693183 2:-2.1213285 3:1.4805063 4:1.6649593 
-0.012492 1:-0.89111093 2:-2.8633184 3:0.73285383 4:1.4947 
-0.012492 1:-1.2753021 2:2.9376938 3:0.86770097 4:1.4165502 
-0.012492 1:-0.95735079 2:-2.3641615 3:0.88418229 4:1.2420751 
-0.012492 1:-1.1825663 2:-2.1752914 3:1.260256 4:1.285619 
-0.012492 1:-1.341542 2:-2.6744482 3:1.1388936 4:1.3720247 
-0.012492 1:-1.3680379 2:-2.8633184 3:0.39124106 4:1.3772724 
-0.012492 1:-0.9043589 2:0.15860425 3:-0.59913632 4:-0.81812706 
-0.012492 1:-0.9970947 2:0.4419095 3:-0.42083843 4:-0.62174475 
-0.012492 1:-0.9970947 2:0.56332603 3:-0.40435711 4:-0.57485224 
-0.012492 1:-0.63939946 2:-0.097719549 3:-0.37289278 4:-0.50145839 
-0.012492 1:-0.9970947 2:0.19907643 3:-0.41934013 4:-0.43809388 
-0.012492 1:-0.26845625 2:0.037187712 3:-0.3039709 4:-0.42111057 
-0.012492 1:-1.1693183 2:0.38794659 3:-0.3983639 4:-0.36314926 
-0.012492 1:-1.0765825 2:0.65776111 3:-0.42233673 4:-0.36245931 
-0.012492 1:-0.46717583 2:0.14511352 3:-0.35641146 4:-0.34590913 
-0.012492 1:-1.0898305 2:0.37445587 3:-0.38487919 4:-0.34765837 
-0.012492 1:-0.9970947 2:0.22605788 3:-0.33243863 4:-0.34106568 
-0.012492 1:-1.0898305 2:0.61728894 3:-0.35790976 4:-0.31607149 
-0.012492 1:-0.71888729 2:0.29351151 3:-0.25003204 4:-0.31250748 
-0.012492 1:-0.75863121 2:0.28002078 3:-0.3009743 4:-0.28465645 
-0.012492 1:-0.85136701 2:0.64427039 3:-0.24553714 4:-0.26278792 
-0.012492 1:-0.62615149 2:0.10464134 3:-0.28599128 4:-0.21909261 
-0.012492 1:-0.86461498 2:0.40143732 3:-0.35191655 4:-0.22185456 
-0.012492 1:-1.0368386 2:0.5498353 3:-0.40585541 4:-0.22616487 
-0.012492 1:-0.49367177 2:0.22605788 3:-0.25752355 4:-0.22802814 
-0.012492 1:-0.65264743 2:-0.097719549 3:-0.30846581 4:-0.22978155 
-0.012492 1:-0.9043589 2:0.73870547 3:-0.33094033 4:-0.23107573 
-0.012492 1:-0.74538324 2:0.4958724 3:-0.31296071 4:-0.23036601 
-0.012492 1:-0.8116231 2:0.67125184 3:-0.3054692 4:-0.23090874 
-0.012492 1:-0.61290352 2:0.32049296 3:-0.3024726 4:-0.23186893 
-0.012492 1:-1.2090623 2:0.52285385 3:-0.35491316 4:-0.23479128 
-0.012492 1:-0.67914338 2:0.41492804 3:-0.27400487 4:-0.23345535 
-0.012492 1:-0.54666366 2:0.33398369 3:-0.31895392 4:-0.23837881 
-0.012492 1:-0.58640757 2:0.41492804 3:-0.29498109 4:-0.24812453 
-0.012492 1:-0.52016771 2:0.30700223 3:-0.26950996 4:-0.25686555 
-0.012492 1:-0.79837512 2:0.28002078 3:-0.3024726 4:-0.2599278 
-0.012492 1:-0.61290352 2:0.50936313 3:-0.19459488 4:-0.2917887 
-0.012492 1:-0.41418394 2:0.064169164 3:-0.17811356 4:-0.31984032 
-0.012492 1:-0.86461498 2:0.38794659 3:-0.34292674 4:-0.32291275 
-0.012492 1:-0.49367177 2:0.1316228 3:-0.11368659 4:-0.30558053 
-0.012492 1:-0.93085484 2:0.69823329 3:-0.23654733 4:-0.29738624 
-0.012492 1:-0.52016771 2:0.45540022 3:-0.18560507 4:-0.29075974 
-0.012492 1:-0.53341569 2:0.48238167 3:-0.13316452 4:-0.25478807 
-0.012492 1:-0.67914338 2:0.65776111 3:-0.29198449 4:-0.21254722 
-0.012492 1:0.96360514 2:2.5734442 3:1.6722889 4:2.0573272 
-0.012492 1:-1.2355582 2:1.6156027 3:1.6048654 4:2.0473306 
-0.012492 1:0.32770249 2:2.6004257 3:1.766682 4:2.0556723 
-0.012492 1:1.3875402 2:1.9528708 3:1.9120172 4:2.066011 
-0.012492 1:0.8443734 2:1.5751305 3:1.9344917 4:2.0671708 
-0.012492 1:1.4670281 2:-1.6356623 3:1.8356038 4:2.0378514 
-0.012492 1:0.71189368 2:2.2361761 3:1.6408246 4:2.009586 
-0.012492 1:-0.59965555 2:3.2209991 3:1.5644112 4:1.9991375 
-0.012492 1:0.6059099 2:2.2361761 3:1.8131293 4:2.0096483 
-0.012492 1:-0.029992752 2:3.126564 3:1.7906548 4:2.010333 
-0.012492 1:0.81787745 2:1.8854172 3:1.7262278 4:2.0176843 
-0.012492 1:0.22171872 2:2.2226853 3:2.0333796 4:1.9977108 
-0.012492 1:-0.58640757 2:3.2614713 3:1.6168518 4:1.9893988 
-0.012492 1:-1.4077818 2:-1.5142458 3:1.5719027 4:1.9811489 
-0.012492 1:-1.6329974 2:0.88710346 3:-0.50773992 4:1.5549975 
-0.012492 1:0.062743052 2:2.4655184 3:1.2422764 4:1.3634193 
-0.012492 1:-1.1958143 2:2.8027866 3:0.94561266 4:1.3914415 
-0.012492 1:-1.1030785 2:2.4655184 3:0.91714493 4:1.3847207 
-0.012492 1:-1.3547899 2:1.453714 3:-0.10170018 4:-0.012795636 
-0.012492 1:-1.3547899 2:1.3457881 3:-0.08222226 4:-0.010210002 
-0.012492 1:-1.4077818 2:1.2648438 3:-0.12567301 4:0.013927132 
-0.012492 1:-0.12272856 2:0.050678438 3:-0.041768116 4:0.020649792 
-0.012492 1:-1.1428224 2:1.00852 3:-0.14664923 4:0.014407691 
-0.012492 1:-1.3812859 2:1.2783345 3:-0.22006601 4:0.0016788582 
-0.012492 1:-1.1825663 2:1.0220107 3:-0.17661526 4:-0.0082542249 
-0.012492 1:-1.3812859 2:1.2243716 3:-0.2095779 4:-0.0090649139 
-0.012492 1:-1.1560704 2:1.1299365 3:-0.18710337 4:-0.0084745094 
-0.012492 1:-1.315046 2:1.1838994 3:-0.09121207 4:-0.0058389971 
-0.012492 1:-1.4210298 2:1.2108809 3:-0.13466282 4:-0.0063320644 
-0.012492 1:-1.2355582 2:1.00852 3:-0.2155711 4:0.0033396737 
-0.012492 1:-0.9970947 2:0.77917765 3:-0.12866961 4:-0.0048146425 
-0.012492 1:-1.3680379 2:1.1973902 3:-0.20358469 4:-0.0089356409 
-0.012492 1:-1.2753021 2:1.0220107 3:-0.23055412 4:-0.013791953 
-0.012492 1:-1.1428224 2:1.0220107 3:-0.2125745 4:-0.022593623 
-0.012492 1:-1.1560704 2:0.91408491 3:-0.19309658 4:-0.023815032 
-0.012492 1:-1.2885501 2:1.1164458 3:-0.2095779 4:-0.027348394 
-0.012492 1:-1.2885501 2:0.91408491 3:-0.2125745 4:-0.028875156 
-0.012492 1:-1.1163265 2:0.99502927 3:-0.22905582 4:-0.032874467 
-0.012492 1:-1.2223102 2:0.91408491 3:-0.23954393 4:-0.045188715 
-0.012492 1:-1.2355582 2:0.94106636 3:-0.32794373 4:-0.04952827 
-0.012492 1:-0.93085484 2:0.56332603 3:-0.27100827 4:-0.050309565 
-0.012492 1:-1.1693183 2:0.99502927 3:-0.31445901 4:-0.056082465 
-0.012492 1:-1.3017981 2:0.96804781 3:-0.29498109 4:-0.060124527 
-0.012492 1:-1.0765825 2:0.7521962 3:-0.24703544 4:-0.061596654 
-0.012492 1:-1.1560704 2:0.99502927 3:-0.27700147 4:-0.064800693 
-0.012492 1:-1.2355582 2:1.2243716 3:-0.22605922 4:-0.060773995 
-0.012492 1:-1.2090623 2:1.0894643 3:-0.16013394 4:-0.063718247 
-0.012492 1:-1.3017981 2:1.1299365 3:-0.24254053 4:-0.062722397 
-0.012492 1:-1.1163265 2:0.79266838 3:-0.23504903 4:-0.063934736 
-0.012492 1:-1.2355582 2:1.0894643 3:-0.26201846 4:-0.068552103 
-0.012492 1:-1.2620541 2:1.2783345 3:-0.22456091 4:-0.071532276 
-0.012492 1:-1.2488062 2:1.2378623 3:-0.14814753 4:-0.07079803 
-0.012492 1:-0.85136701 2:0.84663128 3:-0.07323245 4:-0.067874839 
-0.012492 1:-1.328294 2:1.2918252 3:0.040638474 4:-0.067385948 
-0.012492 1:-1.2753021 2:1.2378623 3:-0.098703578 4:-0.067645093 
-0.012492 1:-1.1560704 2:0.99502927 3:-0.09121207 4:-0.068033811 
-0.012492 1:-1.2488062 2:0.94106636 3:-0.22605922 4:-0.072161324 
-0.012492 1:-1.2488062 2:0.91408491 3:-0.3054692 4:-0.072698431 
-0.012492 1:-1.2620541 2:1.2783345 3:-0.26351676 4:-0.075592223 
-0.012492 1:-0.82487107 2:-1.9189676 3:-0.019293591 4:-0.074555641 
-0.012492 1:-1.8847088 2:1.5346583 3:-0.33393693 4:-0.080341841 
-0.012492 1:-1.2355582 2:1.2648438 3:-0.22456091 4:-0.079047496 
-0.012492 1:-1.2620541 2:1.4402232 3:-0.16912375 4:-0.078442824 
-0.012492 1:-1.315046 2:1.2783345 3:-0.034276608 4:-0.077838151 
-0.012492 1:-1.1295744 2:1.0759736 3:-0.17062206 4:-0.069804639 
-0.012492 1:-1.3017981 2:1.3457881 3:-0.16462885 4:-0.068004732 
-0.012492 1:-1.1958143 2:1.3322974 3:-0.092710371 4:-0.065623352 
-0.012492 1:-1.2488062 2:1.2108809 3:-0.029781703 4:-0.056097829 
-0.012492 1:-1.2753021 2:1.305316 3:-0.11068999 4:-0.054216039 
-0.012492 1:-1.2620541 2:1.1299365 3:-0.1211781 4:-0.053347934 
-0.012492 1:-1.2885501 2:1.2243716 3:-0.14065602 4:-0.051134265 
-0.012492 1:-1.315046 2:1.2648438 3:-0.13016791 4:-0.049181028 
-0.012492 1:-1.315046 2:1.4672047 3:-0.049259624 4:-0.037225792 
-0.012492 1:-1.3017981 2:1.2783345 3:-0.077727355 4:-0.035006616 
-0.012492 1:-1.3017981 2:1.3188067 3:-0.10919169 4:-0.032277652 
-0.012492 1:-1.1958143 2:1.305316 3:-0.095706974 4:-0.029616725 
-0.012492 1:-0.91760687 2:1.0355014 3:0.066109602 4:-0.0023157391 
-0.012492 1:-1.4077818 2:1.4132418 3:-0.094208673 4:0.026141545 
-0.012492 1:-1.328294 2:1.3592789 3:-0.10919169 4:0.031091317 
-0.012492 1:-1.1958143 2:1.3727696 3:-0.085218863 4:0.054429662 
-0.012492 1:-1.1560704 2:1.1973902 3:-0.019293591 4:0.061222366 
-0.012492 1:-1.341542 2:1.2243716 3:-0.09121207 4:0.10236268 
-0.012492 1:-1.3017981 2:0.98153854 3:-0.16013394 4:0.099525756 
-0.012492 1:-1.328294 2:1.0624829 3:-0.14515093 4:0.090891438 
-0.012492 1:-1.2885501 2:1.1029551 3:-0.2155711 4:0.092859883 
-0.012492 1:-1.3945339 2:1.2243716 3:-0.17661526 4:0.044967308 
-0.012492 1:-1.2355582 2:1.1164458 3:-0.18560507 4:0.036259503 
-0.012492 1:-1.2488062 2:1.0894643 3:-0.2065813 4:0.027866722 
-0.012492 1:-1.2885501 2:1.1973902 3:-0.2110762 4:0.020017029 
-0.012492 1:-1.328294 2:1.2513531 3:-0.21706941 4:0.012734189 
-0.012492 1:-1.2223102 2:1.1434273 3:-0.2140728 4:0.0098334516 
-0.012492 1:-1.2753021 2:1.0624829 3:-0.17212036 4:0.0043835821 
-0.012492 1:-1.3812859 2:1.305316 3:-0.20058809 4:-0.0092876794 
-0.012492 1:-1.315046 2:1.1299365 3:-0.14365263 4:-0.01094945 
-0.012492 1:-1.2753021 2:1.1029551 3:-0.20358469 4:-0.013617029 
-0.012492 1:-1.2753021 2:1.1973902 3:-0.20208639 4:-0.017683995 
-0.012492 1:-1.3017981 2:1.0759736 3:-0.17661526 4:-0.02922413 
-0.012492 1:-1.2753021 2:1.156918 3:-0.22156431 4:-0.033092034 
-0.012492 1:-1.3812859 2:1.3457881 3:-0.14515093 4:-0.040054152 
-0.012492 1:-1.3017981 2:1.2243716 3:-0.18560507 4:-0.042969539 
-0.012492 1:-1.2753021 2:1.0624829 3:-0.2125745 4:-0.045838822 
-0.012492 1:-1.3680379 2:1.1029551 3:-0.31595731 4:-0.074598832 
-0.012492 1:-1.3017981 2:1.0220107 3:-0.32644543 4:-0.079910996 
-0.012492 1:-1.328294 2:0.92757564 3:-0.28449298 4:-0.085382732 
-0.012492 1:-1.315046 2:0.94106636 3:-0.26950996 4:-0.086201339 
-0.012492 1:-1.3680379 2:1.0220107 3:-0.31895392 4:-0.088958749 
-0.012492 1:-1.3547899 2:1.0220107 3:-0.27700147 4:-0.07265524 
-0.012492 1:-1.341542 2:1.1029551 3:-0.23055412 4:-0.076067323 
-0.012492 1:-1.2620541 2:1.0489922 3:-0.22006601 4:-0.077406241 
-0.012492 1:-1.2488062 2:1.0759736 3:-0.2095779 4:-0.078874733 
-0.012492 1:-1.0368386 2:0.81964983 3:-0.49725181 4:-0.090983723 
-0.012492 1:-1.2885501 2:1.0759736 3:-0.24553714 4:-0.1067062 
-0.012492 1:-1.2885501 2:1.0624829 3:-0.25452695 4:-0.10409093 
-0.012492 1:-1.341542 2:1.2108809 3:-0.24254053 4:-0.15940781 
-0.012492 1:-1.4077818 2:1.1973902 3:-0.23654733 4:-0.16338912 
-0.012492 1:-1.3547899 2:0.91408491 3:-0.33094033 4:-0.16656569 
-0.012492 1:-1.1428224 2:0.8061591 3:-0.32494712 4:-0.17620078 
-0.012492 1:-1.1030785 2:0.95455709 3:-0.22156431 4:-0.19390233 
-0.012492 1:-1.1958143 2:0.91408491 3:-0.28149638 4:-0.2007563 
-0.012492 1:-1.3680379 2:1.3592789 3:-0.28449298 4:-0.20121883 
-0.012492 1:-1.1825663 2:-1.7840603 3:-0.31146241 4:-0.19999942 
-0.012492 1:-1.7522291 2:1.2783345 3:-0.49725181 4:-0.20491268 
-0.012492 1:-1.2090623 2:0.88710346 3:-0.26201846 4:-0.20403611 
-0.012492 1:-1.0765825 2:0.68474257 3:-0.28299468 4:-0.20336332 
-0.012492 1:-1.341542 2:1.0624829 3:-0.31146241 4:-0.20050814 
-0.012492 1:-1.341542 2:1.0355014 3:-0.33094033 4:-0.2077232 
-0.012492 1:-1.3547899 2:1.00852 3:-0.33094033 4:-0.20630674 
-0.012492 1:-0.25520827 2:0.81964983 3:0.35827842 4:0.20547768 
-0.012492 1:-0.63939946 2:1.156918 3:0.13353317 4:0.33817877 
-0.012492 1:-0.1492245 2:0.7521962 3:0.42720029 4:0.37819909 
-0.012492 1:-1.3680379 2:-0.24611754 3:-0.38338089 4:0.087198548 
-0.012492 1:-1.3945339 2:0.4419095 3:-0.37439108 4:0.033411654 
-0.012492 1:-1.0500866 2:0.7521962 3:-0.3009743 4:0.012558386 
-0.012492 1:-1.3812859 2:1.2108809 3:-0.092710371 4:0.01693274 
-0.012492 1:-0.93085484 2:0.86012201 3:0.19346524 4:0.22038836 
-0.012492 1:-1.2620541 2:1.4806954 3:-0.059747735 4:0.18083116 
-0.012492 1:-2.5471074 2:1.4806954 3:-0.18111017 4:0.38563731 
-0.012492 1:-1.2223102 2:1.7774914 3:0.29534975 4:0.48480474 
-0.012492 1:-1.0103427 2:0.21256715 3:0.26088881 4:0.54613072 
-0.012492 1:-1.0235906 2:1.844945 3:0.39723426 4:0.54100029 
-0.012492 1:-0.28170422 2:1.2108809 3:0.50061707 4:0.54437171 
-0.012492 1:-0.65264743 2:2.290139 3:0.31033277 4:0.71972033 
-0.012492 1:-1.0368386 2:-0.48895061 3:0.66093535 4:0.72778052 
-0.012492 1:-2.3616358 2:2.5194813 3:-0.31296071 4:0.49746493 
-0.012492 1:-1.0765825 2:2.5194813 3:-0.33543524 4:0.51875993 
-0.012492 1:-1.1030785 2:-0.55640424 3:0.1560077 4:0.5590379 
-0.012492 1:-0.91760687 2:-0.75876513 3:0.3447937 4:0.55545318 
-0.012492 1:-1.0633346 2:-0.59687642 3:0.54706443 4:0.58305843 
-0.012492 1:-2.3748838 2:2.6139164 3:0.157506 4:0.63558613 
-0.012492 1:-0.53341569 2:-0.62385787 3:0.28935654 4:0.65091024 
-0.012492 1:-1.0633346 2:2.5464628 3:-0.2140728 4:0.62463304 
-0.012492 1:-1.0633346 2:-0.48895061 3:0.86020947 4:0.68556842 
-0.012492 1:-2.4013797 2:2.4790091 3:-0.21706941 4:0.64544053 
-0.012492 1:-0.95735079 2:2.532972 3:-0.22006601 4:0.64896094 
-0.012492 1:-0.95735079 2:2.5194813 3:-0.013300385 4:0.65272864 
-0.012492 1:-0.9970947 2:-0.56989496 3:0.63696252 4:0.66424518 
-0.012492 1:-1.0500866 2:-0.54291351 3:0.53957292 4:0.6492509 
-0.012492 1:-2.3616358 2:2.6678793 3:0.21444146 4:0.64627552 
-0.012492 1:-1.0898305 2:-0.54291351 3:0.22492957 4:0.65745569 
-0.012492 1:-0.83811904 2:-0.51593206 3:0.20844826 4:0.671754 
-0.012492 1:-1.1295744 2:2.3845741 3:-0.27999808 4:0.65771549 
-0.012492 1:-1.0765825 2:2.3036297 3:0.39573596 4:0.65934654 
-0.012492 1:-2.3218919 2:2.1822132 3:-0.15414074 4:0.64568935 
-0.012492 1:-0.85136701 2:-0.61036714 3:0.20245505 4:0.65187992 
-0.012492 1:-2.3881318 2:2.5059906 3:-0.08222226 4:0.62517876 
-0.012492 1:-1.1295744 2:2.5599535 3:-0.27400487 4:0.6349754 
-0.012492 1:-1.1560704 2:2.5869349 3:-0.12417471 4:0.62582479 
-0.012492 1:-1.1163265 2:-0.31357117 3:0.66093535 4:0.62647081 
-0.012492 1:-2.3616358 2:2.5599535 3:0.1545094 4:0.61309215 
-0.012492 1:-1.1030785 2:2.2496668 3:0.1530111 4:0.6177804 
-0.012492 1:-1.1560704 2:-0.65083932 3:0.55155933 4:0.63933609 
-0.012492 1:-1.1163265 2:2.4115555 3:0.087085824 4:0.63016873 
-0.012492 1:-2.3748838 2:2.5194813 3:0.15001449 4:0.63358791 
-0.012492 1:-1.1560704 2:2.4655184 3:0.1560077 4:0.63066426 
-0.012492 1:-1.2090623 2:2.4924999 3:0.11255695 4:0.62818659 
-0.012492 1:-1.1825663 2:2.4520277 3:0.10057054 4:0.62769106 
-0.012492 1:-1.1825663 2:-0.67782077 3:0.59800668 4:0.63447156 
-0.012492 1:-1.1560704 2:-0.6913115 3:0.69839289 4:0.63844709 
-0.012492 1:-2.3483878 2:2.6004257 3:0.22492957 4:0.60997911 
-0.012492 1:-1.0500866 2:-0.55640424 3:0.48413576 4:0.61111561 
-0.012492 1:-2.3881318 2:2.7353329 3:0.17099072 4:0.66379193 
-0.012492 1:-1.1693183 2:-0.48895061 3:0.86320607 4:0.72932694 
-0.012492 1:-2.3881318 2:2.8702402 3:0.17698392 4:0.77867192 
-0.012492 1:-1.1030785 2:2.6004257 3:0.23391938 4:0.79688031 
-0.012492 1:-1.1163265 2:-0.50244133 3:0.2444075 4:0.79815899 
-0.004261441066446517 1:-1.0765825 2:2.6948608 3:0.16949241 4:0.78325787 
-0.012492 1:-1.0765825 2:2.6543886 3:0.18297713 4:0.78427783 
-0.012492 1:-2.4013797 2:2.6678793 3:0.20994656 4:0.83197988 
-0.012492 1:-1.1428224 2:2.68137 3:0.20095675 4:0.84010867 
-0.012492 1:-2.4278757 2:2.68137 3:0.081092618 4:0.81428177 
-0.012492 1:-0.9970947 2:2.68137 3:0.24141089 4:0.83946823 
-0.012492 1:-1.0765825 2:-0.61036714 3:0.46166123 4:0.83962302 
-0.012492 1:-2.4013797 2:2.68137 3:-0.41784183 4:0.81468641 
-0.012492 1:-1.2090623 2:2.7353329 3:-0.085218863 4:0.81643052 
-0.012492 1:-1.0898305 2:2.7353329 3:0.060116395 4:0.81699478 
-0.012492 1:-1.0633346 2:2.5734442 3:0.2459058 4:0.81740516 
-0.012492 1:-2.4013797 2:2.5059906 3:0.22492957 4:0.80086978 
-0.012492 1:-1.0633346 2:2.5194813 3:0.21593976 4:0.79984684 
-0.012492 1:-0.49367177 2:-0.65083932 3:0.28486164 4:0.80398976 
-0.012492 1:-2.3748838 2:2.6948608 3:0.22642788 4:0.8131475 
-0.012492 1:-1.0103427 2:2.5464628 3:0.251899 4:0.8148916 
-0.012492 1:-1.1428224 2:2.4924999 3:0.23691599 4:0.81586625 
-0.012492 1:-1.1428224 2:2.6139164 3:0.23841429 4:0.81581495 
-0.012492 1:-2.4146277 2:2.5599535 3:0.1530111 4:0.80097208 
-0.012492 1:-0.9970947 2:2.5599535 3:0.1560077 4:0.80158584 
-0.012492 1:-1.1163265 2:-0.62385787 3:0.36726823 4:0.80075094 
-0.012492 1:-1.0765825 2:2.4655184 3:0.35528182 4:0.805115 
-0.012492 1:-2.3881318 2:2.8837309 3:0.1545094 4:0.80617109 
-0.012492 1:-0.98384673 2:-0.3810248 3:0.32531578 4:0.82148449 
-0.012492 1:-1.1030785 2:-0.40800625 3:0.42420369 4:0.83789641 
-0.012492 1:-1.1693183 2:2.9242031 3:-0.14664923 4:0.83951983 
-0.012492 1:-2.3748838 2:2.829768 3:0.32531578 4:0.84055182 
-0.012492 1:-1.0765825 2:-0.47545988 3:0.35528182 4:0.85154257 
-0.012492 1:-2.3748838 2:2.8162773 3:-0.026785099 4:0.81289101 
-0.012492 1:-1.1825663 2:2.6678793 3:0.25639391 4:0.81396825 
-0.012492 1:-1.0235906 2:-0.50244133 3:0.23092278 4:0.81586625 
-0.012492 1:-1.1030785 2:2.6408979 3:-0.22306261 4:0.80214846 
-0.012492 1:-2.5603554 2:1.0489922 3:-0.37139447 4:0.78347976 
-0.012492 1:-1.0633346 2:0.68474257 3:-0.20358469 4:0.77851505 
-0.012492 1:-1.1030785 2:-1.6491531 3:-0.28599128 4:0.77942694 
-0.012492 1:-1.1560704 2:2.2361761 3:-1.1145521 4:0.741043 
-0.012492 1:-1.2223102 2:2.7218422 3:-0.23954393 4:0.74139689 
-0.012492 1:-2.4146277 2:2.7488237 3:0.00018432986 4:0.7152872 
-0.012492 1:-1.1693183 2:2.6004257 3:0.094577333 4:0.71508556 
-0.012492 1:-1.1560704 2:2.5869349 3:0.17548562 4:0.71533761 
-0.012492 1:-1.1428224 2:-0.62385787 3:0.23242108 4:0.72184052 
-0.012492 1:-2.3616358 2:2.3575926 3:-0.45230276 4:0.67760077 
-0.012492 1:-1.1428224 2:2.438537 3:-0.47627559 4:0.67838553 
-0.012492 1:-0.9970947 2:-0.77225586 3:-0.1196798 4:0.67898526 
-0.012492 1:-2.5736034 2:1.8719265 3:-0.27999808 4:0.64207476 
-0.012492 1:-1.1693183 2:1.9663615 3:-0.33693354 4:0.63904342 
-0.012492 1:-0.79837512 2:1.453714 3:-0.36689957 4:0.63804954 
-0.012492 1:-1.1030785 2:1.8989079 3:-0.15863564 4:0.64132935 
-0.012492 1:-0.87786296 2:-1.2039591 3:-0.12717131 4:0.63228502 
-0.012492 1:-1.1825663 2:2.290139 3:-0.20058809 4:0.60449423 
-0.012492 1:-2.4013797 2:2.438537 3:-0.1211781 4:0.58921339 
-0.012492 1:-1.1825663 2:2.3441019 3:0.061614697 4:0.58852355 
-0.012492 1:-1.2355582 2:2.2226853 3:0.043635077 4:0.58635549 
-0.012492 1:-1.1560704 2:2.0473059 3:0.040638474 4:0.5854179 
-0.012492 1:-2.3748838 2:2.0742874 3:-0.023788496 4:0.56846318 
-0.012492 1:-1.0368386 2:2.0203245 3:-0.037273211 4:0.5679732 
-0.012492 1:-0.98384673 2:2.0607966 3:0.1590043 4:0.56655225 
-0.012492 1:-1.0898305 2:1.9528708 3:-0.031280004 4:0.5652293 
-0.012492 1:-1.1693183 2:-0.88018166 3:-0.043266417 4:0.56959014 
-0.012492 1:-1.1295744 2:2.0877781 3:-0.13915772 4:0.54044049 
-0.012492 1:-1.0633346 2:1.9258894 3:-0.14515093 4:0.54541046 
-0.012492 1:-1.1693183 2:2.0877781 3:0.27287523 4:0.53108527 
-0.012492 1:-1.1958143 2:1.9393801 3:0.29235315 4:0.5323034 
-0.012492 1:-1.1693183 2:1.7909821 3:0.28186504 4:0.52312033 
-0.012492 1:-1.1825663 2:1.453714 3:0.26238712 4:0.51748392 
-0.012492 1:-1.1560704 2:1.3862603 3:-0.30846581 4:0.4939277 
-0.012492 1:-1.0898305 2:0.96804781 3:-0.42383503 4:0.48610941 
-0.012492 1:-1.0368386 2:1.0759736 3:-0.49275691 4:0.47905703 
-0.012492 1:-0.71888729 2:-0.27309899 3:-0.05525283 4:0.48199651 
-0.012492 1:-2.4278757 2:1.7235285 3:-0.65757009 4:0.44642568 
-0.012492 1:-1.1958143 2:2.4924999 3:-0.54369916 4:0.44216043 
-0.012492 1:-1.1958143 2:0.14511352 3:-0.25302865 4:0.44196873 
-0.012492 1:-1.2885501 2:-0.20564536 3:-0.032778306 4:0.43002867 
-0.012492 1:-1.1030785 2:-0.56989496 3:0.37176313 4:0.41237998 
-0.012492 1:-1.1163265 2:-0.44847843 3:0.16349921 4:0.39336659 
-0.012492 1:-1.1693183 2:-0.65083932 3:0.40322747 4:0.39056739 
-0.012492 1:-1.0500866 2:-0.54291351 3:1.0040464 4:0.37222935 
-0.012492 1:-1.0235906 2:-0.47545988 3:0.36726823 4:0.36563599 
-0.012492 1:-1.0898305 2:-0.71829295 3:0.79428419 4:0.34069056 
-0.012492 1:-0.86461498 2:-0.65083932 3:0.44068501 4:0.30865073 
-0.012492 1:-1.0765825 2:-0.56989496 3:0.29085485 4:0.30860396 
-0.012492 1:-1.0633346 2:-0.32706189 3:0.27287523 4:0.30183078 
-0.012492 1:-0.94410282 2:-0.58338569 3:0.41221728 4:0.48736577 
-0.012492 1:-2.4013797 2:2.3575926 3:-0.68154291 4:0.46656502 
-0.012492 1:-1.1825663 2:2.290139 3:-0.26651336 4:0.46720272 
-0.012492 1:-2.3748838 2:2.290139 3:0.14252298 4:0.47019039 
-0.012492 1:-1.0235906 2:-0.71829295 3:0.37326144 4:0.47243447 
-0.012492 1:-0.9970947 2:-0.63734859 3:0.83174173 4:0.49455761 
-0.012492 1:-0.95735079 2:-0.65083932 3:0.43918671 4:0.57190557 
-0.012492 1:-2.3483878 2:2.2226853 3:-0.11068999 4:0.56503331 
-0.012492 1:-1.0368386 2:0.11813207 3:-0.16612715 4:0.56168534 
-0.012492 1:-1.1295744 2:-1.1499962 3:-0.41934013 4:0.56723823 
-0.012492 1:-1.1825663 2:0.94106636 3:-1.0740979 4:0.54502066 
-0.012492 1:-1.0633346 2:0.87361273 3:-0.47477729 4:0.53030567 
-0.012492 1:-1.1560704 2:1.2648438 3:-0.25003204 4:0.52360623 
-0.012492 1:-1.0235906 2:-1.2444313 3:-0.19609318 4:0.52657021 
-0.012492 1:-1.0103427 2:1.4267325 3:-0.4867637 4:0.50331181 
-0.012492 1:-0.82487107 2:1.3592789 3:-0.3983639 4:0.49160185 
-0.012492 1:-1.0633346 2:2.0203245 3:-0.20058809 4:0.48639934 
-0.012492 1:-1.1428224 2:1.7505099 3:0.72536232 4:0.53693228 
-0.012492 1:-1.0765825 2:1.8854172 3:0.54556612 4:0.53415495 
-0.012492 1:-1.1428224 2:1.8314543 3:0.4301969 4:0.5438831 
-0.012492 1:-1.1428224 2:1.5886212 3:0.40322747 4:0.54749883 
-0.012492 1:-0.95735079 2:1.6021119 3:0.33130899 4:0.54657047 
-0.012492 1:-1.0633346 2:1.6695656 3:0.32831239 4:0.5429742 
-0.012492 1:-1.0898305 2:-0.24611754 3:0.38974275 4:0.52817367 
-0.012492 1:-2.4278757 2:2.6543886 3:0.21294316 4:0.6809589 
-0.012492 1:-0.9043589 2:-0.52942279 3:0.23841429 4:0.6812095 
-0.012492 1:-2.3881318 2:2.978166 3:-0.38038428 4:0.65604206 
-0.012492 1:-1.0898305 2:-0.34055262 3:0.2504007 4:0.65639091 
-0.012492 1:0.5131741 2:1.4402232 3:1.0504938 4:2.6567036 
-0.012492 1:-0.83811904 2:1.5616398 3:0.96059568 4:2.6681465 
-0.012492 1:1.2948044 2:1.3322974 3:0.74633854 4:2.60323 
-0.012492 1:1.3080524 2:1.1299365 3:0.78978929 4:2.5990426 
-0.012492 1:1.1093328 2:1.2243716 3:1.0100396 4:2.5955306 
-0.012492 1:1.2020686 2:1.2108809 3:0.97258209 4:2.5907355 
-0.012492 1:1.1888207 2:1.3188067 3:0.97857529 4:2.5869533 
-0.012492 1:1.2948044 2:1.2378623 3:1.0190294 4:2.5838281 
-0.012492 1:1.2153166 2:1.4267325 3:1.0265209 4:2.5789168 
-0.012492 1:1.4007882 2:1.3322974 3:1.0624802 4:2.576293 
-0.012492 1:1.3080524 2:1.2783345 3:1.0729683 4:2.5713144 
-0.012492 1:1.2550605 2:1.5346583 3:1.2123103 4:2.5674123 
-0.012492 1:1.506772 2:1.3592789 3:1.6303365 4:2.5637793 
-0.012492 1:1.3345484 2:1.4941861 3:1.6348314 4:2.5600117 
-0.012492 1:1.4670281 2:1.4267325 3:1.652811 4:2.5565132 
-0.012492 1:1.4007882 2:1.4806954 3:1.6857737 4:2.5540528 
-0.012492 1:1.4537801 2:1.6695656 3:1.7142414 4:2.5512379 
-0.012492 1:1.6392517 2:1.5346583 3:1.7651837 4:2.5488252 
-0.012492 1:1.506772 2:1.9798523 3:1.7891565 4:2.5468146 
-0.012492 1:1.9439551 2:1.6290934 3:1.8715631 4:2.5458093 
-0.012492 1:-0.21546436 2:3.0456196 3:1.7741735 4:2.0697605 
-0.012492 1:-0.01674478 2:2.6004257 3:1.7307227 4:2.0966282 
-0.012492 1:1.6260037 2:1.6290934 3:1.4055913 4:2.0934192 
-0.012492 1:1.5995078 2:1.5751305 3:1.4295641 4:2.0914766 
-0.012492 1:1.5465159 2:1.844945 3:1.4235709 4:2.0983598 
-0.012492 1:1.8114753 2:1.8314543 3:1.4610284 4:2.1177466 
-0.012492 1:1.7982274 2:1.6695656 3:1.4730148 4:2.1193885 
-0.012492 1:-0.26845625 2:3.5312858 3:2.1067964 4:2.4112303 
-0.012492 1:-1.8582129 2:3.7471374 3:1.543435 4:2.4302016 
-0.012492 1:0.11573494 2:3.6527023 3:1.5239571 4:2.4335021 
-0.012492 1:0.55291801 2:3.42336 3:1.513469 4:2.4368025 
-0.012492 1:-0.41418394 2:0.10464134 3:1.4220726 4:2.4347562 
-0.012492 1:0.036247108 2:1.0355014 3:1.0115379 4:2.3892663 
-0.012492 1:1.016597 2:1.156918 3:1.0639785 4:2.3855876 
-0.012492 1:1.1358288 2:0.94106636 3:0.81226381 4:2.3832291 
-0.012492 1:0.92386123 2:1.1434273 3:0.708881 4:2.3793637 
-0.012492 1:1.1225808 2:1.0759736 3:0.88268399 4:2.3762191 
-0.012492 1:1.0563409 2:2.532972 3:0.99056171 4:2.3721572 
-0.012492 1:0.8443734 2:2.9376938 3:0.66093535 4:2.3500194 
-0.012492 1:-1.791973 2:2.9646753 3:1.0325142 4:2.3588309 
-0.012492 1:-0.58640757 2:3.2344898 3:0.99206001 4:2.3500847 
-0.012492 1:0.2747106 2:2.8972217 3:1.07147 4:2.346756 
-0.012492 1:0.91061326 2:-0.86669094 3:1.1418902 4:2.3449284 
-0.012492 1:-0.0034968079 2:3.0995825 3:1.6977601 4:1.9791821 
-0.012492 1:-0.75863121 2:2.0068337 3:1.0984394 4:1.8178337 
-0.012492 1:-0.87786296 2:2.3980648 3:0.9845685 4:1.722344 
-0.012492 1:-2.759075 2:-1.2849034 3:1.479008 4:0.26825517 
-0.012492 1:0.67214976 2:-0.93414457 3:1.9614612 4:0.24228008 
-0.012492 1:0.77813354 2:-0.057247371 3:1.558418 4:0.3773889 
-0.012492 1:0.88411731 2:-0.59687642 3:2.3450264 4:0.58872065 
-0.012492 1:0.89736528 2:0.28002078 3:1.2377815 4:0.63466255 
-0.012492 1:0.76488557 2:0.14511352 3:2.1817115 4:0.69375091 
-0.012492 1:0.71189368 2:0.33398369 3:2.0888168 4:0.73647597 
-0.012492 1:0.8443734 2:0.33398369 3:2.0094068 4:0.76892742 
-0.012492 1:0.57941396 2:-0.17866391 3:1.7427091 4:0.8995795 
-0.012492 1:0.87086934 2:-2.0403841 3:2.3809856 4:1.2488045 
-0.012492 1:0.49992613 2:-0.62385787 3:2.2581249 4:1.4260915 
-0.012492 1:0.8443734 2:2.2361761 3:1.3216864 4:1.4103491 
-0.012492 1:0.32770249 2:-1.1904684 3:1.8595767 4:1.583042 
-0.012492 1:1.2020686 2:-0.15168245 3:2.4544024 4:1.9822034 
-0.012492 1:-1.4077818 2:3.3424156 3:1.5164656 4:2.0307705 
-0.012492 1:0.61915787 2:2.8432587 3:1.5254554 4:2.0804888 
-0.012492 1:0.76488557 2:2.9107124 3:1.811631 4:2.0787333 
-0.012492 1:0.30120655 2:3.0995825 3:1.5958756 4:2.0574278 
-0.012492 1:1.029845 2:2.7623144 3:2.3764907 4:2.1762811 
-0.012492 1:0.79138151 2:2.3441019 3:2.2940841 4:2.17111 
-0.012492 1:0.99010109 2:2.5059906 3:2.219169 4:2.2044348 
-0.012492 1:0.97685312 2:2.68137 3:2.1907013 4:2.2228382 
-0.012492 1:0.63240585 2:2.3980648 3:2.2506334 4:2.2573727 
-0.012492 1:0.80462948 2:2.8567495 3:2.2056843 4:2.2528067 
-0.012492 1:0.57941396 2:2.5464628 3:2.1622336 4:2.2470831 
-0.012492 1:0.85762137 2:2.8702402 3:2.1412574 4:2.2480478 
-0.012492 1:0.48667815 2:2.9511846 3:2.1817115 4:2.244575 
-0.012492 1:0.80462948 2:2.2496668 3:2.1832098 4:2.2454111 
-0.012492 1:0.42043829 2:3.126564 3:2.1037998 4:2.273678 
-0.012492 1:0.30120655 2:3.0995825 3:2.2101792 4:2.2802619 
-0.012492 1:0.65890179 2:2.8972217 3:2.2431419 4:2.2765638 
-0.012492 1:0.49992613 2:3.1400547 3:2.2026877 4:2.2888467 
-0.012492 1:0.52642207 2:2.8837309 3:2.1502472 4:2.2859578 
-0.012492 1:0.65890179 2:3.0456196 3:2.1996911 4:2.2852451 
-0.012492 1:0.075991024 2:2.7623144 3:2.1562404 4:2.2952223 
-0.012492 1:0.95035717 2:2.5059906 3:2.189203 4:2.2833016 
-0.012492 1:-0.21546436 2:-0.11121028 3:2.0363762 4:2.2985911 
-0.012492 1:0.16872683 2:3.3289249 3:1.6468178 4:2.2746462 
-0.012492 1:0.52642207 2:3.5177951 3:1.6438212 4:2.2919181 
-0.012492 1:0.73838962 2:3.0186382 3:2.2581249 4:2.2853747 
-0.012492 1:0.44693424 2:3.126564 3:2.1727217 4:2.2848447 
-0.012492 1:0.089238996 2:-1.1769776 3:2.2311555 4:2.2967771 
-0.012492 1:0.72514165 2:3.2884527 3:1.7247295 4:2.2941209 
-0.012492 1:0.49992613 2:3.0995825 3:2.3030739 4:2.2970363 
-0.012492 1:0.28795857 2:3.1535454 3:2.2236639 4:2.3362397 
-0.012492 1:0.77813354 2:2.9511846 3:2.298579 4:2.3608542 
-0.012492 1:0.97685312 2:3.0321289 3:2.3555145 4:2.3534135 
-0.012492 1:0.85762137 2:2.1957039 3:2.4813718 4:2.3564812 
-0.012492 1:-1.4077818 2:2.9646753 3:1.3591439 4:2.3152359 
-0.012492 1:0.35419843 2:3.3828878 3:1.3171915 4:2.3123097 
-0.012492 1:1.1623247 2:1.6830563 3:1.4400522 4:2.3165365 
-0.012492 1:0.9371092 2:-0.46196915 3:1.5464316 4:2.3138053 
-0.012492 1:1.0960849 2:2.532972 3:1.2287917 4:2.2748399 
-0.012492 1:0.44693424 2:2.5734442 3:1.2812322 4:2.2719353 
-0.012492 1:0.91061326 2:1.9258894 3:1.8595767 4:2.2559579 
-0.012492 1:-1.1560704 2:1.5616398 3:1.1224123 4:2.2186326 
-0.012492 1:1.2153166 2:2.4250462 3:1.3126966 4:2.2140193 
-0.012492 1:1.1755727 2:2.5194813 3:1.3995981 4:2.2112641 
-0.012492 1:1.4670281 2:2.141741 3:1.5449333 4:2.2166463 
-0.012492 1:1.5332679 2:2.4250462 3:2.2401453 4:2.2153008 
-0.012492 1:1.2418126 2:1.9258894 3:2.2596232 4:2.2158134 
-0.012492 1:1.6127558 2:2.0877781 3:2.2746062 4:2.2132504 
-0.012492 1:0.81787745 2:-2.242745 3:2.204186 4:2.2091496 
-0.012492 1:-1.3945339 2:2.3441019 3:0.76731476 4:2.1884108 
-0.012492 1:0.67214976 2:2.9511846 3:0.69090138 4:2.1879001 
-0.012492 1:0.59266193 2:2.3710833 3:1.7247295 4:2.1976677 
-0.012492 1:0.80462948 2:2.8162773 3:1.5599163 4:2.1972846 
-0.012492 1:0.87086934 2:2.3171204 3:2.2266606 4:2.2084448 
-0.012492 1:1.3477963 2:1.6425841 3:2.2311555 4:2.2083167 
-0.012492 1:0.9371092 2:2.9511846 3:2.1622336 4:2.2176075 
-0.012492 1:1.0828369 2:2.1147595 3:2.144254 4:2.2138271 
-0.012492 1:0.85762137 2:-2.1887821 3:2.238647 4:2.1910921 
-0.012492 1:-1.328294 2:2.4250462 3:0.82275193 4:2.1444052 
-0.012492 1:1.0828369 2:2.5599535 3:0.81226381 4:2.1391448 
-0.012492 1:1.1623247 2:-0.92065384 3:1.7801667 4:2.1488675 
-0.012492 1:-1.4210298 2:2.5464628 3:0.10506544 4:2.0855539 
-0.012492 1:1.0563409 2:3.0591104 3:0.18597373 4:2.0915945 
-0.012492 1:-0.9043589 2:-0.77225586 3:0.38974275 4:2.0338014 
-0.012492 1:1.493524 2:2.5599535 3:0.89916531 4:1.9096336 
-0.012492 1:1.2285646 2:-1.0285797 3:2.3105654 4:1.935223 
-0.012492 1:1.3742923 2:-0.61036714 3:1.4700182 4:1.9055969 
-0.012492 1:1.506772 2:2.8972217 3:1.2138087 4:1.896545 
-0.012492 1:1.2948044 2:-0.92065384 3:2.0348779 4:1.8969119 
-0.012492 1:1.4405321 2:2.4250462 3:1.498486 4:1.8672296 
-0.012492 1:-1.1825663 2:2.4655184 3:0.66093535 4:1.843708 
-0.012492 1:1.043093 2:2.6543886 3:1.4310624 4:1.8419527 
-0.012492 1:0.96360514 2:2.438537 3:1.4220726 4:1.8446765 
-0.012492 1:1.4272842 2:-2.1213285 3:1.6408246 4:1.8396363 
-0.012492 1:1.52002 2:3.0726011 3:0.94411436 4:1.796826 
-0.012492 1:1.1623247 2:2.8432587 3:1.4100862 4:1.7584098 
-0.012492 1:1.2815565 2:2.829768 3:1.1883375 4:1.7523594 
-0.012492 1:0.75163759 2:-0.24611754 3:1.5479299 4:1.7422855 
-0.012492 1:1.8114753 2:2.1687224 3:0.85871116 4:1.7184172 
-0.012492 1:1.3213004 2:-0.90716312 3:2.1142879 4:1.7165316 
-0.012492 1:1.1888207 2:-0.61036714 3:2.1772166 4:1.7020634 
-0.012492 1:-1.2753021 2:2.3575926 3:1.6812788 4:1.6543812 
-0.012492 1:0.77813354 2:2.5059906 3:1.7247295 4:1.6824957 
-0.012492 1:1.2948044 2:2.3980648 3:1.5404384 4:1.6894249 
-0.012492 1:1.1093328 2:2.0203245 3:2.2955824 4:1.7304648 
-0.012492 1:1.2153166 2:2.0338152 3:2.3824839 4:1.7638851 
-0.012492 1:1.2550605 2:-0.85320021 3:2.2716096 4:1.7990501 
-0.012492 1:1.6922436 2:1.8989079 3:2.4588973 4:2.0948664 
-0.012492 1:1.5465159 2:2.4790091 3:2.3959686 4:2.137497 
-0.012492 1:2.4208821 2:-1.0555611 3:2.3959686 4:2.1431376 
-0.012492 1:1.1490768 2:-0.30008044 3:1.6213467 4:1.9412874 
-0.012492 1:-1.6859892 2:-2.1483099 3:-1.1789791 4:-1.7442436 
-0.012492 1:-2.1099243 2:-1.703116 3:-1.1160504 4:-1.8140206 
-0.012492 1:-1.818469 2:-1.8380232 3:-2.1154176 4:-1.962393 
-0.012492 1:0.36744641 2:-1.2714127 3:-1.6973914 4:-1.8290141 
-0.012492 1:-1.818469 2:-0.52942279 3:-1.0815894 4:-1.1649786 
-0.012492 1:-3.1697621 2:-1.945949 3:-1.6089916 4:-1.2005704 
-0.012492 1:-1.9112048 2:-2.1348192 3:-1.620978 4:-1.215729 
-0.012492 1:-2.0966764 2:-1.2983942 3:-1.9191401 4:-1.2334421 
-0.012492 1:-1.6065014 2:-0.73178368 3:-2.1453836 4:-1.2642332 
-0.012492 1:-1.6462453 2:-0.93414457 3:-1.1550062 4:-1.2533576 
-0.012492 1:-1.6065014 2:-2.2022728 3:-1.8786859 4:-1.3233126 
-0.012492 1:-2.1629162 2:-1.4872643 3:-2.0000483 4:-1.3364178 
-0.012492 1:-2.0966764 2:-1.9729305 3:-2.0045433 4:-1.3530387 
-0.012492 1:-1.8847088 2:-0.4349877 3:-1.9820687 4:-1.3859234 
-0.012492 1:-1.9509487 2:0.37445587 3:-1.8247471 4:-1.3878662 
-0.012492 1:-1.805221 2:-0.58338569 3:-1.4531683 4:-1.3968742 
-0.012492 1:-1.6992372 2:-1.8245325 3:-1.1849723 4:-1.3663678 
-0.012492 1:-1.791973 2:-0.62385787 3:-1.1774808 4:-1.3731922 
-0.012492 1:-1.7522291 2:-0.40800625 3:-0.72349536 4:-1.3465685 
-0.012492 1:-1.6462453 2:-0.13819173 3:-0.73248517 4:-1.2987145 
-0.012492 1:-2.3483878 2:-1.8784954 3:-0.93625419 4:-1.2768468 
-0.012492 1:-1.8449649 2:-1.8919861 3:-1.1295351 4:-1.2834002 
