svm_type c_svc
kernel_type linear
nr_class 2
total_sv 16649
rho -1.20792
label 1 -1
nr_sv 15376 1273
SV
0.010826 1:0.38069438 2:0.34747441 3:0.81226381 4:0.47758729 
0.010826 1:0.34095046 2:0.4958724 3:0.77180967 4:0.47921207 
0.010826 1:0.24821466 2:0.41492804 3:0.6129897 4:0.53075677 
0.010826 1:0.11573494 2:0.1855857 3:0.5260882 4:0.54395768 
0.010826 1:0.1819748 2:0.1855857 3:0.49762047 4:0.53783183 
0.010826 1:0.089238996 2:0.1855857 3:0.4286986 4:0.51745615 
0.010826 1:-0.056488696 2:-0.030265918 3:0.32381748 4:0.50064535 
0.010826 1:-0.029992752 2:0.091150617 3:0.24290919 4:0.49007928 
0.010826 1:-0.056488696 2:0.037187712 3:0.19646184 4:0.46762508 
0.010826 1:0.36744641 2:0.34747441 3:0.81376212 4:0.53631416 
0.010826 1:0.34095046 2:0.68474257 3:0.77031137 4:0.53606867 
0.010826 1:0.23496669 2:0.48238167 3:0.65494214 4:0.55723036 
0.010826 1:0.2747106 2:0.65776111 3:0.5245899 4:0.55783059 
0.010826 1:0.15547886 2:0.33398369 3:0.53208141 4:0.56405851 
0.010826 1:-2.7988189 2:-0.81272803 3:0.30583786 4:0.55007244 
0.010826 1:-2.4411236 2:0.17209497 3:-0.20508299 4:0.51148451 
0.010826 1:-1.0633346 2:0.25303933 3:-0.86883062 4:0.4669464 
0.010826 1:0.10248697 2:0.17209497 3:0.35528182 4:0.44725548 
0.010826 1:0.009751164 2:0.037187712 3:0.36726823 4:0.44519744 
0.010826 1:0.036247108 2:-0.084228823 3:0.32082088 4:0.4432179 
0.010826 1:-0.08298464 2:0.037187712 3:0.26088881 4:0.44033024 
0.010826 1:0.036247108 2:0.17209497 3:0.23092278 4:0.43840261 
0.010826 1:-0.043240724 2:0.077659891 3:0.11405525 4:0.42868155 
0.010826 1:-0.029992752 2:0.26653006 3:0.13952638 4:0.42166486 
0.010826 1:0.2747106 2:0.36096514 3:0.63096932 4:0.43655257 
0.010826 1:0.35419843 2:0.60379821 3:0.63846082 4:0.4370369 
0.010826 1:0.39394235 2:0.7521962 3:0.67891497 4:0.45144143 
0.010826 1:0.32770249 2:0.4958724 3:0.74933515 4:0.45720747 
0.010826 1:-0.75863121 2:-2.391143 3:0.21743807 4:0.43759683 
0.010826 1:-0.78512715 2:0.8061591 3:-0.25003204 4:0.41488489 
0.010826 1:0.42043829 2:0.48238167 3:0.82874513 4:0.43871858 
0.010826 1:0.39394235 2:0.45540022 3:0.81825702 4:0.45019041 
0.010826 1:0.22171872 2:0.48238167 3:0.75532835 4:0.47065758 
0.010826 1:0.42043829 2:0.36096514 3:0.9800736 4:0.50824967 
0.010826 1:0.35419843 2:0.4419095 3:0.92763304 4:0.5083403 
0.010826 1:0.43368627 2:0.77917765 3:0.8961687 4:0.50882188 
0.010826 1:0.43368627 2:0.42841877 3:0.95909737 4:0.52987902 
0.010826 1:0.42043829 2:0.81964983 3:0.92014153 4:0.53020056 
0.010826 1:0.36744641 2:0.46889095 3:0.87669078 4:0.53772796 
0.010826 1:0.48667815 2:0.98153854 3:0.77031137 4:0.53913067 
0.010826 1:0.63240585 2:0.92757564 3:1.1613681 4:0.61910385 
0.010826 1:0.65890179 2:0.71172402 3:1.275239 4:0.64396313 
0.010826 1:0.69864571 2:0.83314055 3:1.2512662 4:0.64498179 
0.010826 1:0.52642207 2:0.76568692 3:1.1373953 4:0.6481047 
0.010826 1:0.57941396 2:0.72521474 3:1.086453 4:0.64983227 
0.010826 1:0.59266193 2:0.91408491 3:1.0145345 4:0.67379155 
0.010826 1:-0.16247247 2:0.98153854 3:0.30883447 4:0.69108339 
0.010826 1:0.44693424 2:0.34747441 3:0.99655491 4:0.71996121 
0.010826 1:0.34095046 2:0.73870547 3:0.90216191 4:0.72147789 
0.010826 1:0.65890179 2:0.83314055 3:1.1748528 4:0.75654454 
0.010826 1:0.6059099 2:0.87361273 3:1.1089275 4:0.7773931 
0.010826 1:0.48667815 2:0.67125184 3:1.1478834 4:0.78295188 
0.010826 1:0.52642207 2:0.86012201 3:1.022026 4:0.78295188 
0.010826 1:0.44693424 2:0.4419095 3:0.97857529 4:0.7824419 
0.010826 1:0.43368627 2:0.45540022 3:0.93062964 4:0.78131994 
0.010826 1:0.44693424 2:0.79266838 3:0.86470437 4:0.78096296 
0.010826 1:0.81787745 2:1.1164458 3:1.498486 4:0.84922058 
0.010826 1:0.97685312 2:1.2378623 3:1.6198484 4:1.0361005 
0.010826 1:0.64565382 2:0.83314055 3:1.4775097 4:1.1849679 
0.010826 1:0.81787745 2:1.305316 3:1.4025947 4:1.1858972 
0.010826 1:0.81787745 2:1.2783345 3:1.384615 4:1.2495241 
0.010826 1:0.56616599 2:0.76568692 3:1.4730148 4:1.2777891 
0.010826 1:0.75163759 2:1.1029551 3:1.3921065 4:1.2792885 
0.010826 1:0.48667815 2:0.61728894 3:1.1179173 4:1.3261077 
0.010826 1:0.56616599 2:0.91408491 3:0.99206001 4:1.3304247 
0.010826 1:0.83112542 2:0.91408491 3:1.5419367 4:1.3801501 
0.010826 1:0.71189368 2:0.87361273 3:1.3366694 4:1.3914415 
0.010826 1:0.59266193 2:1.0489922 3:1.275239 4:1.3865165 
0.010826 1:0.77813354 2:1.0355014 3:1.4745131 4:1.3876992 
0.010826 1:0.85762137 2:1.1434273 3:1.5119707 4:1.4590282 
0.003734181325655845 1:0.92386123 2:1.2648438 3:1.5359435 4:1.466769 
0.010826 1:0.81787745 2:1.1434273 3:1.5539231 4:1.5238544 
0.010826 1:0.8443734 2:1.0489922 3:1.5674078 4:1.5254709 
0.010826 1:0.49992613 2:0.73870547 3:1.4055913 4:1.5494451 
0.010826 1:0.72514165 2:1.0759736 3:1.2617543 4:1.5501425 
0.010826 1:0.40719032 2:0.46889095 3:1.1598698 4:1.5777325 
0.010826 1:0.46018221 2:0.46889095 3:1.1044326 4:1.5740008 
0.010826 1:0.46018221 2:0.72521474 3:1.0205277 4:1.5710054 
0.010826 1:0.49992613 2:0.4958724 3:1.3621405 4:1.5581041 
0.010826 1:0.48667815 2:0.56332603 3:1.2827305 4:1.5564769 
0.010826 1:0.55291801 2:1.0355014 3:1.1928324 4:1.5557214 
0.010826 1:0.80462948 2:1.2378623 3:1.5089741 4:1.5618234 
0.010826 1:0.44693424 2:0.37445587 3:1.324683 4:1.5567675 
0.010826 1:0.36744641 2:0.45540022 3:1.215307 4:1.5530482 
0.010826 1:0.44693424 2:0.45540022 3:1.1134224 4:1.5500263 
0.010826 1:0.44693424 2:0.67125184 3:1.0250226 4:1.5470622 
0.010826 1:0.67214976 2:0.90059418 3:1.5224588 4:1.5150217 
0.010826 1:0.6059099 2:0.72521474 3:1.3156932 4:1.5129434 
0.010826 1:0.43368627 2:0.30700223 3:1.0909479 4:1.5017775 
0.010826 1:0.30120655 2:0.37445587 3:0.99505661 4:1.4970016 
0.010826 1:0.36744641 2:0.41492804 3:0.93362625 4:1.4930888 
0.010826 1:0.39394235 2:0.64427039 3:0.87519248 4:1.4876451 
0.010826 1:0.61915787 2:0.87361273 3:1.1433885 4:1.4689484 
0.010826 1:0.72514165 2:0.72521474 3:1.5329469 4:1.4682602 
0.010826 1:0.71189368 2:1.0759736 3:1.479008 4:1.4667454 
0.010826 1:0.38069438 2:0.29351151 3:1.2198019 4:1.4589139 
0.010826 1:0.28795857 2:0.26653006 3:1.1284055 4:1.4543407 
0.010826 1:0.26146263 2:0.26653006 3:1.0025481 4:1.4499962 
0.010826 1:0.26146263 2:0.71172402 3:0.88568059 4:1.4466086 
0.010826 1:0.83112542 2:1.0894643 3:1.5883841 4:1.4374351 
0.010826 1:0.71189368 2:0.94106636 3:1.2827305 4:1.4273409 
0.010826 1:0.64565382 2:0.95455709 3:1.1418902 4:1.4188219 
0.010826 1:0.59266193 2:0.46889095 3:1.3306762 4:1.4121203 
0.010826 1:0.46018221 2:0.65776111 3:1.2722424 4:1.4076337 
0.010826 1:0.64565382 2:0.81964983 3:1.2183036 4:1.4060468 
0.010826 1:0.69864571 2:0.90059418 3:1.3801201 4:1.3947815 
0.010826 1:0.77813354 2:1.156918 3:1.354649 4:1.401518 
0.010826 1:0.69864571 2:0.99502927 3:1.2827305 4:1.398914 
0.010826 1:0.53967004 2:0.61728894 3:1.165863 4:1.3946117 
0.010826 1:0.55291801 2:0.7521962 3:1.0729683 4:1.3926303 
0.010826 1:0.61915787 2:1.00852 3:1.195829 4:1.4141649 
0.010826 1:0.61915787 2:0.69823329 3:1.2617543 4:1.4085424 
0.010826 1:0.68539773 2:0.95455709 3:1.2198019 4:1.4071223 
0.010826 1:0.6059099 2:0.84663128 3:1.1553749 4:1.4011784 
0.010826 1:0.68539773 2:0.84663128 3:1.2932186 4:1.4191627 
0.010826 1:0.68539773 2:0.92757564 3:1.245273 4:1.4070657 
0.010826 1:0.71189368 2:0.86012201 3:1.3666354 4:1.4008387 
0.010826 1:0.56616599 2:0.67125184 3:1.1224123 4:1.3895734 
0.010826 1:0.31445452 2:0.57681676 3:1.007043 4:1.3870826 
0.010826 1:0.35419843 2:0.60379821 3:0.85721286 4:1.3602133 
0.010826 1:0.95035717 2:1.1838994 3:1.6318348 4:1.3483455 
0.010826 1:0.95035717 2:1.3457881 3:1.5704044 4:1.3540263 
0.010826 1:0.85762137 2:1.0220107 3:1.6273399 4:1.35532 
0.010826 1:0.8443734 2:1.1164458 3:1.4924928 4:1.3608883 
0.010826 1:0.87086934 2:1.1029551 3:1.5209605 4:1.3734353 
0.010826 1:0.77813354 2:1.1838994 3:1.3741269 4:1.3856674 
0.010826 1:0.6059099 2:0.41492804 3:1.3876116 4:1.3961401 
0.010826 1:0.40719032 2:0.67125184 3:1.3171915 4:1.3935361 
0.010826 1:0.65890179 2:1.2378623 3:1.2407781 4:1.3926303 
0.010826 1:0.68539773 2:0.91408491 3:1.2587577 4:1.4534833 
0.010826 1:0.81787745 2:1.1838994 3:1.4370556 4:1.51837 
0.010826 1:0.69864571 2:0.8061591 3:1.3411643 4:1.523508 
0.010826 1:-2.0436845 2:1.305316 3:-2.2412749 4:-2.3537838 
0.010826 1:0.72514165 2:0.79266838 3:1.3097 4:0.68404971 
0.010826 1:0.42043829 2:0.36096514 3:1.1883375 4:0.70428592 
0.010826 1:0.35419843 2:0.38794659 3:1.07147 4:0.69473946 
0.010826 1:0.38069438 2:0.46889095 3:0.97707699 4:0.68803918 
0.010826 1:0.28795857 2:0.11813207 3:0.80926721 4:0.67572003 
0.010826 1:0.11573494 2:0.15860425 3:0.76281986 4:0.65489583 
0.010826 1:0.15547886 2:0.19907643 3:0.68940308 4:0.63816405 
0.010826 1:0.036247108 2:0.077659891 3:0.47964085 4:0.60451794 
0.010826 1:0.075991024 2:0.1316228 3:0.40622407 4:0.58761767 
0.010826 1:-0.12272856 2:-0.40800625 3:0.22193297 4:0.53128342 
0.010826 1:-0.40093597 2:-0.40800625 3:0.12454337 4:0.49915773 
0.010826 1:-0.40093597 2:-0.32706189 3:0.04663168 4:0.4690399 
0.010826 1:-0.32144813 2:-0.097719549 3:-0.0028122734 4:0.44392781 
0.010826 1:-0.10948058 2:0.34747441 3:-0.068737545 4:0.40514433 
0.010826 1:-1.4872697 2:0.4419095 3:0.48113915 4:0.43568353 
0.010826 1:0.40719032 2:0.46889095 3:1.1314021 4:0.59542194 
0.010826 1:0.46018221 2:0.59030748 3:1.0894496 4:0.59668368 
0.010826 1:0.46018221 2:0.37445587 3:1.0489955 4:0.6015859 
0.010826 1:0.36744641 2:0.1855857 3:0.99655491 4:0.60077896 
0.010826 1:0.1819748 2:-0.124701 3:0.91414832 4:0.59622927 
0.010826 1:-0.12272856 2:-0.084228823 3:0.77480627 4:0.58572165 
0.010826 1:-0.08298464 2:0.10464134 3:0.59051517 4:0.57631092 
0.010826 1:0.10248697 2:0.30700223 3:0.48263745 4:0.57077834 
0.010826 1:-1.0765825 2:0.68474257 3:0.14402129 4:0.53874681 
0.010826 1:0.32770249 2:0.37445587 3:1.1643647 4:0.66129088 
0.010826 1:0.36744641 2:0.36096514 3:1.1284055 4:0.66010631 
0.010826 1:0.35419843 2:0.37445587 3:1.0445006 4:0.65876256 
0.010826 1:0.36744641 2:0.48238167 3:0.94411436 4:0.65762901 
0.010826 1:0.26146263 2:0.1855857 3:0.71637251 4:0.65542591 
0.010826 1:0.1819748 2:-0.084228823 3:0.65194554 4:0.65192214 
0.010826 1:-0.08298464 2:-0.057247371 3:0.54856273 4:0.64502393 
0.010826 1:-0.056488696 2:-0.16517318 3:0.4301969 4:0.63860397 
0.010826 1:-0.16247247 2:0.15860425 3:0.31782428 4:0.63095003 
0.010826 1:0.15547886 2:0.61728894 3:0.29834635 4:0.62747998 
0.010826 1:-0.78512715 2:-1.0285797 3:-0.088215466 4:0.58296479 
0.010826 1:-1.3812859 2:0.2395486 3:-0.065740942 4:0.41687202 
0.010826 1:-1.3547899 2:-2.4855781 3:-0.13016791 4:0.38794402 
0.010826 1:-0.66589541 2:1.2648438 3:-0.68154291 4:0.35495638 
0.010826 1:-2.2026602 2:-2.0403841 3:0.079594316 4:0.35599475 
0.010826 1:-0.93085484 2:0.53634458 3:1.2677475 4:0.37906101 
0.010826 1:0.52642207 2:0.83314055 3:1.1703579 4:0.38065426 
0.010826 1:0.59266193 2:0.77917765 3:1.6692923 4:0.44295885 
0.010826 1:0.76488557 2:1.6156027 3:1.6632991 4:0.44547579 
0.010826 1:1.029845 2:1.3457881 3:1.5958756 4:0.47908778 
0.010826 1:0.89736528 2:1.0759736 3:1.6153535 4:0.49759897 
0.010826 1:1.0563409 2:1.7370192 3:1.6483161 4:0.50127051 
0.010826 1:0.47343018 2:0.76568692 3:1.5014826 4:0.5224914 
0.010826 1:0.75163759 2:1.2783345 3:1.4700182 4:0.52448665 
0.010826 1:0.76488557 2:0.48238167 3:1.8026412 4:0.63034626 
0.010826 1:0.47343018 2:0.52285385 3:1.6902686 4:0.63055085 
0.010826 1:0.5131741 2:0.87361273 3:1.5464316 4:0.63093375 
0.010826 1:0.85762137 2:1.3862603 3:1.5044792 4:0.63286625 
0.010826 1:0.59266193 2:0.30700223 3:1.3980998 4:0.64053558 
0.010826 1:0.30120655 2:0.22605788 3:1.275239 4:0.63993607 
0.010826 1:0.22171872 2:0.30700223 3:1.0999377 4:0.63898839 
0.010826 1:0.30120655 2:0.4958724 3:0.92913134 4:0.63839806 
0.010826 1:0.48667815 2:1.0894643 3:0.82125362 4:0.63862797 
0.010826 1:0.1819748 2:0.17209497 3:0.85721286 4:0.65672836 
0.010826 1:0.16872683 2:0.42841877 3:0.77930118 4:0.6555601 
0.010826 1:0.26146263 2:0.40143732 3:0.68640648 4:0.65467581 
0.010826 1:0.91061326 2:1.3997511 3:1.4400522 4:0.69206053 
0.010826 1:0.88411731 2:0.94106636 3:1.5853875 4:0.70537222 
0.010826 1:0.92386123 2:1.5211676 3:1.5793942 4:0.70706592 
0.010826 1:0.76488557 2:1.1704087 3:1.6333331 4:0.75371479 
0.010826 1:0.83112542 2:0.99502927 3:1.5299503 4:0.75832428 
0.010826 1:0.77813354 2:0.91408491 3:1.404093 4:0.76854509 
0.010826 1:0.79138151 2:1.0894643 3:1.3741269 4:0.77673012 
0.010826 1:0.81787745 2:1.305316 3:1.3741269 4:0.80924892 
0.010826 1:0.91061326 2:1.1973902 3:1.5629129 4:0.83506676 
0.010826 1:0.96360514 2:1.00852 3:1.6707906 4:0.8475184 
0.010826 1:0.68539773 2:0.94106636 3:1.4745131 4:0.86868515 
0.010826 1:0.92386123 2:1.6560748 3:1.4760114 4:0.86915092 
0.010826 1:0.68539773 2:0.8061591 3:1.4730148 4:0.8776764 
0.010826 1:0.79138151 2:1.1299365 3:1.4505403 4:0.87710544 
0.010826 1:0.73838962 2:1.156918 3:1.5659095 4:0.91502868 
0.010826 1:0.8443734 2:1.0759736 3:1.5449333 4:0.94086643 
0.010826 1:0.77813354 2:0.95455709 3:1.5269537 4:0.94937621 
0.010826 1:0.76488557 2:0.96804781 3:1.4475437 4:0.95258051 
0.010826 1:0.77813354 2:1.156918 3:1.2887237 4:1.0185015 
0.010826 1:0.46018221 2:0.68474257 3:1.2272934 4:1.0324519 
0.010826 1:0.57941396 2:0.65776111 3:1.15088 4:1.0479114 
0.010826 1:0.43368627 2:0.67125184 3:1.0445006 4:1.0469485 
0.010826 1:0.65890179 2:1.2918252 3:0.99206001 4:1.039406 
0.010826 1:0.56616599 2:0.69823329 3:1.2332866 4:1.0775104 
0.010826 1:0.68539773 2:1.2378623 3:1.2377815 4:1.0783177 
0.010826 1:-0.74538324 2:0.34747441 3:1.1089275 4:1.1491898 
0.010826 1:0.34095046 2:0.22605788 3:1.0310159 4:1.1393571 
0.010826 1:-1.6992372 2:0.63077966 3:0.14402129 4:1.1193901 
0.010826 1:-0.18896842 2:-0.24611754 3:0.14851619 4:1.1317518 
0.010826 1:-0.2419603 2:-0.39451552 3:0.0646113 4:1.1356088 
0.010826 1:-0.38768799 2:-0.16517318 3:-0.025286798 4:1.1271886 
0.010826 1:-0.16247247 2:0.077659891 3:-0.058249434 4:1.1232352 
0.010826 1:-2.4676196 2:0.84663128 3:0.34928861 4:1.1347396 
0.010826 1:-1.7124852 2:0.65776111 3:-0.041768116 4:1.1269169 
0.010826 1:0.65890179 2:0.94106636 3:1.1598698 4:1.2282798 
0.010826 1:-1.6329974 2:0.87361273 3:0.72985722 4:1.2801214 
0.010826 1:-0.069736668 2:0.29351151 3:0.47514595 4:1.2259071 
0.010826 1:-1.328294 2:0.88710346 3:0.44817652 4:1.1920741 
0.010826 1:0.39394235 2:0.56332603 3:0.93662285 4:1.1526665 
0.010826 1:0.61915787 2:1.1029551 3:1.1628664 4:1.1270803 
0.010826 1:0.56616599 2:0.77917765 3:1.2392798 4:1.1173864 
0.010826 1:0.44693424 2:0.4419095 3:1.1613681 4:1.1267553 
0.010826 1:0.43368627 2:0.48238167 3:1.1104258 4:1.1230186 
0.010826 1:0.30120655 2:0.38794659 3:0.94261606 4:1.1213939 
0.010826 1:0.38069438 2:0.38794659 3:0.87669078 4:1.1194443 
0.010826 1:0.23496669 2:0.17209497 3:0.7957825 4:1.1152031 
0.010826 1:0.16872683 2:0.22605788 3:0.69239968 4:1.1131081 
0.010826 1:0.22171872 2:0.4958724 3:0.59051517 4:1.110776 
0.010826 1:0.76488557 2:1.1299365 3:1.2767373 4:1.1400235 
0.010826 1:-1.0368386 2:1.0759736 3:0.76281986 4:1.1197381 
0.010826 1:0.22171872 2:0.50936313 3:0.67442006 4:1.1126656 
0.010826 1:0.92386123 2:1.1434273 3:1.558418 4:1.0860681 
0.010826 1:0.77813354 2:0.73870547 3:1.5089741 4:1.088126 
0.010826 1:0.72514165 2:0.59030748 3:1.4835029 4:1.0867309 
0.010826 1:0.57941396 2:0.42841877 3:1.4055913 4:1.081848 
0.010826 1:0.42043829 2:0.57681676 3:1.2782356 4:1.0781457 
0.010826 1:0.56616599 2:0.59030748 3:1.1538766 4:1.0754091 
0.010826 1:0.1819748 2:0.30700223 3:0.84372815 4:1.0660992 
0.010826 1:0.24821466 2:0.64427039 3:0.65494214 4:1.0563099 
0.010826 1:-1.6859892 2:0.81964983 3:0.21294316 4:1.0333999 
0.010826 1:-0.4804238 2:1.0894643 3:0.47514595 4:0.98016849 
0.010826 1:0.24821466 2:0.17209497 3:0.97557869 4:0.95494433 
0.010826 1:0.16872683 2:0.42841877 3:0.91864323 4:0.95016415 
0.010826 1:0.42043829 2:0.90059418 3:0.86170777 4:0.94690732 
0.010826 1:0.2747106 2:0.2395486 3:1.0894496 4:0.93796771 
0.010826 1:0.23496669 2:0.29351151 3:0.99355831 4:0.93445877 
0.010826 1:0.28795857 2:0.50936313 3:0.90216191 4:0.93136881 
0.010826 1:0.30120655 2:0.30700223 3:0.72086741 4:0.92312886 
0.010826 1:0.12898291 2:0.32049296 3:0.47214934 4:0.91451324 
0.010826 1:0.009751164 2:0.091150617 3:0.40622407 4:0.90166254 
0.010826 1:0.089238996 2:0.2395486 3:0.37176313 4:0.89676885 
0.010826 1:0.1819748 2:0.34747441 3:0.59201347 4:0.89505086 
0.010826 1:0.22171872 2:0.48238167 3:0.57553216 4:0.89221008 
0.010826 1:-1.1560704 2:-1.3118849 3:-0.54220086 4:0.82730551 
0.010826 1:-0.93085484 2:0.19907643 3:-1.0441319 4:0.79590538 
0.010826 1:-1.1163265 2:-1.1904684 3:-0.37439108 4:0.74940508 
0.010826 1:-1.3680379 2:-0.21913608 3:-0.29647939 4:0.22239585 
0.010826 1:-1.0500866 2:0.091150617 3:-0.40735371 4:0.18169441 
0.010826 1:-1.2753021 2:0.064169164 3:-0.71750215 4:0.12054808 
0.010826 1:-0.95735079 2:0.45540022 3:-0.31745562 4:0.077070541 
0.010826 1:0.56616599 2:0.32049296 3:1.1314021 4:0.069370358 
0.010826 1:0.31445452 2:0.46889095 3:0.91265002 4:0.06896977 
0.010826 1:0.46018221 2:0.52285385 3:0.86770097 4:0.069904474 
0.010826 1:0.5131741 2:0.69823329 3:0.85571456 4:0.07061663 
0.010826 1:0.23496669 2:0.2395486 3:0.76581646 4:0.067475061 
0.010826 1:0.23496669 2:0.21256715 3:0.7118776 4:0.068257615 
0.010826 1:0.20847074 2:0.15860425 3:0.62647441 4:0.073331724 
0.010826 1:0.15547886 2:0.53634458 3:0.55006103 4:0.079518576 
0.010826 1:0.46018221 2:0.59030748 3:0.81675872 4:0.07720407 
0.010826 1:0.52642207 2:0.56332603 3:0.95460247 4:0.085101254 
0.010826 1:0.28795857 2:0.56332603 3:0.86170777 4:0.085949096 
0.010826 1:-1.315046 2:0.22605788 3:0.29684805 4:0.07226349 
0.010826 1:-0.08298464 2:0.15860425 3:0.10057054 4:0.068148261 
0.010826 1:-1.4342778 2:-0.39451552 3:-0.71600385 4:0.013701101 
0.010826 1:-0.1492245 2:-0.21913608 3:0.22343127 4:-0.027391799 
0.010826 1:-0.21546436 2:-0.16517318 3:0.024157156 4:-0.030916371 
0.010826 1:-0.16247247 2:-0.043756645 3:0.013669045 4:-0.033962298 
0.010826 1:-0.043240724 2:0.37445587 3:0.024157156 4:-0.035006616 
0.010826 1:-0.069736668 2:0.36096514 3:0.31183107 4:-0.037399845 
0.010826 1:0.062743052 2:-0.0032844662 3:0.35228521 4:-0.051741939 
0.010826 1:-0.0034968079 2:0.10464134 3:0.10656375 4:-0.054606686 
0.010826 1:0.009751164 2:-0.016775192 3:0.23391938 4:-0.035811014 
0.010826 1:-0.01674478 2:0.25303933 3:0.21294316 4:-0.035615802 
0.010826 1:0.089238996 2:0.14511352 3:0.31932258 4:-0.018689803 
0.010826 1:0.1819748 2:0.26653006 3:0.38824445 4:-0.010733098 
0.010826 1:0.16872683 2:0.69823329 3:0.56654235 4:0.012734189 
0.010826 1:0.04949508 2:0.1855857 3:0.73884703 4:0.017064924 
0.010826 1:-1.7522291 2:0.90059418 3:0.18747203 4:0.016139638 
0.010826 1:0.28795857 2:0.32049296 3:0.99955152 4:0.066343696 
0.010826 1:0.31445452 2:0.81964983 3:0.95460247 4:0.071951922 
0.010826 1:-0.61290352 2:0.94106636 3:0.46615614 4:0.1375389 
0.010826 1:-1.6065014 2:-1.2849034 3:0.16200091 4:0.17649901 
0.010826 1:-0.50691974 2:0.96804781 3:-0.35041825 4:0.18533628 
0.010826 1:-0.5731596 2:0.87361273 3:-0.25752355 4:0.24856758 
0.010826 1:-0.5731596 2:-1.1230147 3:0.057119792 4:0.22286759 
0.010826 1:-0.69239135 2:0.95455709 3:0.29235315 4:0.28853401 
0.010826 1:-0.54666366 2:1.1704087 3:0.36127502 4:0.45671358 
0.010826 1:-0.82487107 2:0.73870547 3:-0.0088054799 4:0.43165364 
0.010826 1:-0.53341569 2:1.1299365 3:-0.11218829 4:0.40406162 
0.010826 1:-0.79837512 2:0.67125184 3:0.36726823 4:0.46358861 
0.010826 1:1.1888207 2:1.5616398 3:1.8400987 4:0.56949792 
0.010826 1:0.97685312 2:1.4941861 3:1.7442074 4:0.62630357 
0.010826 1:0.92386123 2:1.0759736 3:1.6273399 4:0.65758696 
0.010826 1:1.0563409 2:1.5616398 3:1.5853875 4:0.66119307 
0.010826 1:1.1358288 2:1.6425841 3:1.9404849 4:0.71458146 
0.010826 1:1.1888207 2:1.4941861 3:1.9000308 4:0.73780743 
0.010826 1:1.1755727 2:1.548149 3:1.8955359 4:0.75057124 
0.010826 1:0.80462948 2:1.1704087 3:1.7367159 4:0.7876947 
0.010826 1:0.91061326 2:1.1434273 3:1.573401 4:0.79064036 
0.010826 1:0.99010109 2:1.7235285 3:1.4400522 4:0.79585736 
0.010826 1:0.83112542 2:0.98153854 3:1.5763976 4:0.87689781 
0.010826 1:0.83112542 2:1.0759736 3:1.573401 4:0.91125788 
0.010826 1:0.83112542 2:1.2108809 3:1.449042 4:0.92382721 
0.010826 1:0.89736528 2:1.2648438 3:1.4730148 4:0.95437284 
0.010826 1:0.97685312 2:1.6021119 3:1.9195087 4:1.0794871 
0.010826 1:-1.1958143 2:1.3457881 3:1.3111983 4:1.0673069 
0.010826 1:0.48667815 2:0.46889095 3:1.1329004 4:1.0746578 
0.010826 1:0.36744641 2:0.57681676 3:0.83923324 4:1.0969941 
0.010826 1:-0.70563932 2:0.76568692 3:0.25639391 4:1.1003849 
0.010826 1:-0.42743191 2:-1.0285797 3:0.29235315 4:1.1008961 
0.010826 1:-0.2419603 2:1.4806954 3:-0.26052015 4:1.0790578 
0.010826 1:1.1358288 2:1.5211676 3:1.9719493 4:1.0756774 
0.010826 1:1.4007882 2:1.8854172 3:2.363006 4:1.0914504 
0.010826 1:-1.1693183 2:1.0489922 3:1.6812788 4:1.078253 
0.010826 1:-1.3680379 2:-1.1365055 3:-0.044764719 4:0.81401955 
0.010826 1:-0.44067988 2:-1.0690518 3:0.58002706 4:0.7185317 
0.010826 1:0.42043829 2:0.79266838 3:1.116419 4:0.72187369 
0.010826 1:0.15547886 2:-0.016775192 3:0.56054914 4:0.73340907 
0.010826 1:-0.01674478 2:0.19907643 3:0.64145743 4:0.74458836 
0.010826 1:0.14223088 2:0.45540022 3:0.39124106 4:0.74245886 
0.010826 1:-0.79837512 2:0.4419095 3:0.05562149 4:0.64446007 
0.010826 1:-1.1428224 2:-0.043756645 3:-0.73548177 4:0.60340713 
0.010826 1:-0.89111093 2:0.30700223 3:-0.52122464 4:0.56292639 
0.010826 1:-3.1432662 2:1.156918 3:1.2497679 4:0.87778189 
0.010826 1:-1.315046 2:-1.2983942 3:0.59201347 4:0.75676289 
0.010826 1:1.1623247 2:1.4132418 3:2.0109051 4:1.3406392 
0.010826 1:0.85762137 2:1.0489922 3:1.7457057 4:1.3726985 
0.010826 1:1.029845 2:1.6021119 3:1.7157397 4:1.3733015 
0.010826 1:1.1888207 2:1.5751305 3:2.189203 4:1.4838877 
0.010826 1:0.97685312 2:1.00852 3:1.9929255 4:1.4955769 
0.010826 1:0.99010109 2:1.1029551 3:1.8670682 4:1.4943542 
0.010826 1:1.2153166 2:1.3592789 3:2.1112913 4:1.5701192 
0.010826 1:-1.6197494 2:0.94106636 3:1.2093137 4:1.565039 
0.010826 1:-0.4804238 2:-2.5530317 3:0.708881 4:1.5441953 
0.010826 1:0.32770249 2:1.6156027 3:0.39124106 4:1.5022038 
0.010826 1:1.016597 2:1.2378623 3:1.8071361 4:1.5594386 
0.010826 1:0.95035717 2:1.3188067 3:1.7531972 4:1.6036461 
0.010826 1:1.043093 2:1.5751305 3:1.6797805 4:1.6036941 
0.010826 1:1.043093 2:2.3575926 3:1.652811 4:1.6054631 
0.010826 1:1.016597 2:1.3862603 3:2.0843219 4:1.6467532 
0.010826 1:-0.18896842 2:1.4672047 3:1.1973273 4:1.6299098 
0.010826 1:1.0828369 2:1.4402232 3:2.0258881 4:1.6605167 
0.010826 1:0.99010109 2:1.5751305 3:2.1008032 4:1.6604439 
0.010826 1:1.2153166 2:1.5076769 3:2.0813253 4:1.6623651 
0.010826 1:0.24821466 2:1.4672047 3:1.2467713 4:1.647603 
0.010826 1:0.87086934 2:1.3457881 3:1.6468178 4:1.6561456 
0.010826 1:-0.17572044 2:1.0624829 3:1.434059 4:1.6581671 
0.010826 1:-1.9112048 2:1.4402232 3:1.3171915 4:1.7342259 
0.010826 1:-0.75863121 2:1.5751305 3:1.3336728 4:1.790875 
0.010826 1:1.1093328 2:1.5886212 3:1.8056378 4:1.7878093 
0.010826 1:0.8443734 2:1.1973902 3:1.7307227 4:1.781137 
0.010826 1:1.043093 2:1.5886212 3:1.9284985 4:1.792498 
0.010826 1:-2.8253148 2:1.6560748 3:1.4550352 4:1.8474714 
0.010826 1:-1.1560704 2:1.0355014 3:0.9845685 4:1.8278499 
0.010826 1:0.32770249 2:1.1838994 3:1.2347849 4:1.8031161 
0.010826 1:0.81787745 2:1.3997511 3:1.5868858 4:1.7893121 
0.010826 1:0.96360514 2:1.2513531 3:1.8520851 4:1.7988335 
0.010826 1:0.91061326 2:0.91408491 3:1.8460919 4:1.7978478 
0.010826 1:0.89736528 2:1.1973902 3:1.6393263 4:1.7059227 
0.010826 1:1.1755727 2:2.7892958 3:1.6018688 4:1.7062797 
0.010826 1:1.029845 2:1.3188067 3:1.9839357 4:1.7402557 
0.010826 1:1.0960849 2:1.453714 3:2.0198949 4:1.7407333 
0.010826 1:0.77813354 2:1.156918 3:1.6213467 4:1.7409721 
0.010826 1:1.0563409 2:2.5464628 3:1.7921531 4:1.7095098 
0.010826 1:1.1225808 2:1.2513531 3:2.0183966 4:1.7669763 
0.010826 1:1.043093 2:1.1838994 3:1.9584646 4:1.7674555 
0.010826 1:1.2020686 2:2.2631575 3:1.9045257 4:1.7662574 
0.010826 1:1.0695889 2:1.5886212 3:1.8580784 4:1.7672159 
0.010826 1:0.91061326 2:1.2243716 3:1.6752856 4:1.7801752 
0.010826 1:1.2020686 2:2.5599535 3:1.6393263 4:1.7787325 
0.010826 1:0.9371092 2:2.5734442 3:1.6453195 4:1.7987731 
0.010826 1:1.0033491 2:1.156918 3:2.0573525 4:1.8131289 
0.010826 1:1.1490768 2:1.7640007 3:1.8101327 4:1.8100527 
0.010826 1:1.0033491 2:2.5194813 3:1.6138552 4:1.8057701 
0.010826 1:1.1490768 2:1.2243716 3:2.1817115 4:1.822342 
0.010826 1:1.2020686 2:1.6560748 3:2.1712234 4:1.8207077 
0.010826 1:1.0695889 2:1.156918 3:1.9479764 4:1.8283341 
0.010826 1:0.95035717 2:1.0894643 3:1.7876582 4:1.8089669 
0.010826 1:-2.295396 2:1.5346583 3:1.0534904 4:1.7813173 
0.010826 1:-2.6133473 2:1.1838994 3:0.63396592 4:1.7614051 
0.010826 1:0.68539773 2:2.4924999 3:1.4864995 4:1.7389423 
0.010826 1:1.1093328 2:2.8027866 3:1.7367159 4:1.7358975 
0.010826 1:1.1888207 2:1.6830563 3:1.9195087 4:1.7455094 
0.010826 1:0.92386123 2:1.3188067 3:2.0243898 4:1.7446735 
0.010826 1:1.2948044 2:4.0844055 3:1.8685665 4:1.744972 
0.010826 1:0.036247108 2:1.5616398 3:1.5179639 4:1.7407333 
0.010826 1:1.0563409 2:2.5059906 3:1.7876582 4:1.7770494 
0.010826 1:-0.30820016 2:1.4806954 3:1.3426626 4:1.7849841 
0.010826 1:-0.58640757 2:1.2378623 3:0.57103725 4:1.7610457 
0.010826 1:1.1358288 2:1.6021119 3:2.1367625 4:1.751341 
0.010826 1:1.029845 2:1.5616398 3:1.6692923 4:1.7740426 
0.010826 1:0.9371092 2:1.0759736 3:1.7232312 4:1.8216762 
0.010826 1:0.97685312 2:1.3322974 3:1.652811 4:1.8182866 
0.010826 1:-1.9774446 2:1.0894643 3:0.92913134 4:1.7937064 
0.010826 1:-0.4804238 2:1.0220107 3:0.44068501 4:1.7718885 
0.010826 1:-3.1035222 2:1.7774914 3:0.79128759 4:1.7130918 
0.010826 1:1.2550605 2:3.7606281 3:1.8146276 4:1.736196 
0.010826 1:0.11573494 2:1.9123986 3:1.8460919 4:1.7430019 
0.010826 1:0.34095046 2:2.1552317 3:1.1883375 4:1.7123484 
0.010826 1:-0.87786296 2:-2.2832172 3:0.74783684 4:1.6957187 
0.010826 1:0.22171872 2:1.8314543 3:0.21893637 4:1.6751238 
0.010826 1:1.1755727 2:1.7640007 3:1.8445936 4:1.6760102 
0.010826 1:0.95035717 2:1.696547 3:1.7651837 4:1.6727599 
0.010826 1:1.2815565 2:3.1805269 3:1.3411643 4:1.6589906 
0.010826 1:-0.89111093 2:1.3997511 3:0.83623664 4:1.6282438 
0.010826 1:-1.9641967 2:-2.9577535 3:-0.035774909 4:1.603284 
0.010826 1:1.3213004 2:1.7370192 3:2.1577387 4:1.5892191 
0.010826 1:1.0695889 2:1.3592789 3:1.8101327 4:1.586362 
0.010826 1:1.506772 2:3.5312858 3:1.717238 4:1.5906185 
0.010826 1:1.1490768 2:1.2513531 3:2.1682268 4:1.6040445 
0.010826 1:1.2285646 2:1.548149 3:2.1862064 4:1.6043208 
0.010826 1:-2.3351399 2:1.0894643 3:1.215307 4:1.6209652 
0.010826 1:1.029845 2:1.5886212 3:1.7951497 4:1.6257785 
0.010826 1:1.1225808 2:1.3322974 3:1.9749459 4:1.6182063 
0.010826 1:-1.0500866 2:1.4941861 3:1.1898358 4:1.5953276 
0.010826 1:0.8443734 2:1.0489922 3:1.5898824 4:1.5981357 
0.010826 1:-1.3945339 2:0.7521962 3:0.86170777 4:1.5639155 
0.010826 1:0.57941396 2:0.84663128 3:1.0894496 4:1.531023 
0.010826 1:0.36744641 2:0.59030748 3:0.9875651 4:1.5399379 
0.010826 1:0.32770249 2:0.90059418 3:0.78379608 4:1.5296852 
0.010826 1:0.075991024 2:0.48238167 3:0.34779031 4:1.468346 
0.010826 1:-2.1099243 2:0.36096514 3:-0.26801166 4:1.4393154 
0.010826 1:-1.2355582 2:0.61728894 3:0.43768841 4:1.3771031 
0.010826 1:0.5131741 2:0.65776111 3:1.2647509 4:1.4019143 
0.010826 1:-1.2885501 2:0.56332603 3:0.63546422 4:1.3763695 
0.010826 1:0.55291801 2:2.5734442 3:0.6189829 4:1.3738303 
0.010826 1:0.8443734 2:3.1400547 3:0.82874513 4:1.376426 
0.010826 1:0.56616599 2:0.67125184 3:1.4894962 4:1.3703828 
0.010826 1:0.65890179 2:0.90059418 3:1.7097465 4:1.3881536 
0.010826 1:0.88411731 2:1.7370192 3:1.747204 4:1.3876487 
0.010826 1:0.8443734 2:0.94106636 3:1.7996446 4:1.4099528 
0.010826 1:0.92386123 2:1.2648438 3:1.5554214 4:1.4069525 
0.010826 1:0.77813354 2:1.1029551 3:2.0258881 4:1.4175157 
0.010826 1:1.0828369 2:2.3441019 3:2.0528576 4:1.4141081 
0.010826 1:-0.71888729 2:1.4672047 3:1.5778959 4:1.3938757 
0.010826 1:0.71189368 2:1.7640007 3:1.5419367 4:1.4099716 
0.010826 1:1.1623247 2:1.8314543 3:2.2371487 4:1.4488878 
0.010826 1:-0.17572044 2:0.64427039 3:1.7052516 4:1.430351 
0.010826 1:-3.0372824 2:1.7909821 3:1.0984394 4:1.4085376 
0.010826 1:1.1093328 2:1.548149 3:1.7801667 4:1.4254668 
0.010826 1:1.5465159 2:3.8820447 3:2.2716096 4:1.4258686 
0.010826 1:-2.1099243 2:1.1838994 3:1.6318348 4:1.4438737 
0.010826 1:1.043093 2:1.453714 3:2.0049119 4:1.4571913 
0.010826 1:1.029845 2:1.2918252 3:1.8371021 4:1.4774938 
0.010826 1:1.0695889 2:1.696547 3:1.6258416 4:1.4974716 
0.010826 1:0.88411731 2:1.0220107 3:1.7382142 4:1.5105812 
0.010826 1:1.0033491 2:1.2648438 3:1.7082482 4:1.5068986 
0.010826 1:0.87086934 2:1.1704087 3:1.5629129 4:1.4965988 
0.010826 1:-0.95735079 2:0.71172402 3:0.76581646 4:1.470841 
0.010826 1:0.49992613 2:0.77917765 3:1.0804598 4:1.4122339 
0.010826 1:0.40719032 2:0.69823329 3:1.1703579 4:1.3890091 
0.010826 1:0.5131741 2:0.88710346 3:0.96059568 4:1.3498793 
0.010826 1:-1.2223102 2:0.61728894 3:0.44218331 4:1.3165304 
0.010826 1:0.30120655 2:0.77917765 3:0.78079948 4:1.2747905 
0.010826 1:0.48667815 2:0.65776111 3:1.1059309 4:1.2523387 
0.010826 1:0.34095046 2:0.41492804 3:0.7957825 4:1.220701 
0.010826 1:0.43368627 2:0.63077966 3:0.90366021 4:1.2203709 
0.010826 1:0.43368627 2:0.99502927 3:0.8901755 4:1.2401989 
0.010826 1:0.61915787 2:1.0759736 3:1.0759649 4:1.2752902 
0.010826 1:0.53967004 2:0.81964983 3:1.1568732 4:1.2823982 
0.010826 1:0.63240585 2:0.84663128 3:1.1793477 4:1.3075327 
0.010826 1:0.47343018 2:0.76568692 3:1.1643647 4:1.3049529 
0.010826 1:0.73838962 2:1.3997511 3:1.3651371 4:1.3024471 
0.010826 1:0.79138151 2:1.1704087 3:1.3306762 4:1.3091867 
0.010826 1:0.55291801 2:0.91408491 3:1.2572594 4:1.3017775 
0.010826 1:0.73838962 2:1.1434273 3:1.2557611 4:1.3020004 
0.010826 1:0.72514165 2:1.8989079 3:1.2003239 4:1.2879513 
0.010826 1:0.88411731 2:1.3862603 3:1.4820046 4:1.2807756 
0.010826 1:0.57941396 2:1.5346583 3:1.2033205 4:1.2652451 
0.010826 1:0.71189368 2:1.0489922 3:1.4085879 4:1.2267348 
0.010826 1:0.75163759 2:1.0894643 3:1.3441609 4:1.2595122 
0.010826 1:0.73838962 2:0.98153854 3:1.369632 4:1.2360052 
0.010826 1:0.79138151 2:1.2108809 3:1.4445471 4:1.2094795 
0.010826 1:0.9371092 2:1.3997511 3:1.5209605 4:1.228072 
0.010826 1:0.8443734 2:1.2108809 3:1.5344452 4:1.2274669 
0.010826 1:0.9371092 2:1.9798523 3:1.4730148 4:1.2233413 
0.010826 1:0.96360514 2:1.9258894 3:1.5808926 4:1.2128349 
0.010826 1:0.88411731 2:2.6139164 3:1.7352176 4:1.2149252 
0.010826 1:1.016597 2:1.453714 3:1.9090206 4:1.2265318 
0.010826 1:0.92386123 2:1.1973902 3:1.9389866 4:1.2290071 
0.010826 1:1.1755727 2:2.1552317 3:1.9030274 4:1.2273569 
0.010826 1:1.2020686 2:1.4402232 3:1.985434 4:1.2363914 
0.010826 1:1.1358288 2:2.1147595 3:1.9659561 4:1.2385435 
0.010826 1:1.2153166 2:1.2513531 3:2.1037998 4:1.2601302 
0.010826 1:1.0695889 2:2.1687224 3:1.5119707 4:1.3028917 
0.010826 1:1.0033491 2:1.5076769 3:1.687272 4:1.3178158 
0.010826 1:0.8443734 2:0.76568692 3:1.6857737 4:1.3202748 
0.010826 1:0.75163759 2:1.6425841 3:1.6618008 4:1.3185982 
0.010826 1:0.69864571 2:2.0338152 3:1.6662957 4:1.3209454 
0.010826 1:0.73838962 2:1.1434273 3:1.5254554 4:1.3300322 
0.010826 1:0.81787745 2:1.3188067 3:1.4145811 4:1.3295837 
0.010826 1:0.8443734 2:1.4402232 3:1.5029809 4:1.3361994 
0.010826 1:0.87086934 2:1.6695656 3:1.4145811 4:1.342496 
0.010826 1:0.59266193 2:1.2513531 3:1.5329469 4:1.3511016 
0.010826 1:0.89736528 2:1.6425841 3:1.4909945 4:1.375636 
0.010826 1:0.57941396 2:0.88710346 3:1.1673613 4:1.3795294 
0.010826 1:0.63240585 2:1.6560748 3:1.2962152 4:1.3884412 
0.010826 1:0.89736528 2:1.6695656 3:1.3097 4:1.3933662 
0.010826 1:0.46018221 2:1.1029551 3:1.4115845 4:1.3972723 
0.010826 1:0.8443734 2:1.453714 3:1.3591439 4:1.3984045 
0.010826 1:0.59266193 2:0.87361273 3:1.2932186 4:1.4003858 
0.010826 1:-0.16247247 2:0.88710346 3:0.79128759 4:1.3963099 
0.010826 1:-1.0898305 2:0.98153854 3:0.803274 4:1.3854409 
0.010826 1:0.72514165 2:0.96804781 3:1.4010964 4:1.4300849 
0.010826 1:0.55291801 2:0.56332603 3:1.1538766 4:1.4434223 
0.010826 1:0.35419843 2:0.61728894 3:0.85121966 4:1.4390305 
0.010826 1:0.28795857 2:0.50936313 3:0.65044724 4:1.4263814 
0.010826 1:0.04949508 2:0.19907643 3:0.37475974 4:1.2955382 
0.010826 1:0.075991024 2:0.26653006 3:0.37326144 4:1.2716807 
0.010826 1:0.10248697 2:0.37445587 3:0.47214934 4:1.234129 
0.010826 1:-1.5800055 2:0.45540022 3:0.012170743 4:1.2057121 
0.010826 1:-0.25520827 2:1.0220107 3:0.23541769 4:1.1412042 
0.010826 1:0.23496669 2:0.1855857 3:0.85421626 4:1.1204732 
0.010826 1:0.1819748 2:0.77917765 3:0.76132156 4:1.1179565 
0.010826 1:-1.9377007 2:0.73870547 3:0.2444075 4:1.0959715 
0.010826 1:-2.4278757 2:-0.59687642 3:-2.9829342 4:-3.1409383 
0.010826 1:-0.79837512 2:-0.67782077 3:-0.89430174 4:-1.1089134 
0.010826 1:-0.66589541 2:-0.73178368 3:-0.69502763 4:-1.0862631 
0.010826 1:-0.71888729 2:-0.58338569 3:-0.71001064 4:-1.0718464 
0.010826 1:-0.5731596 2:-0.54291351 3:-0.70251913 4:-1.0465241 
0.010826 1:-0.53341569 2:-0.56989496 3:-0.70251913 4:-1.0210874 
0.010826 1:-0.55991163 2:-0.66433005 3:-0.71300725 4:-1.0007011 
0.010826 1:-0.65264743 2:-0.65083932 3:-0.73098687 4:-0.98938255 
0.010826 1:-0.63939946 2:-0.71829295 3:-0.74297328 4:-0.97833477 
0.010826 1:-0.70563932 2:-0.81272803 3:-0.77144101 4:-0.97276484 
0.010826 1:-0.79837512 2:-0.89367239 3:-0.79091893 4:-0.97355616 
0.010826 1:-0.87786296 2:-0.78574658 3:-0.81339346 4:-0.97904618 
0.010826 1:-0.77187918 2:-0.75876513 3:-0.81039685 4:-0.97797452 
0.010826 1:-0.74538324 2:-0.62385787 3:-0.81938666 4:-0.97553446 
0.010826 1:-0.61290352 2:-0.56989496 3:-0.80740025 4:-0.96629269 
0.010826 1:-0.63939946 2:-0.66433005 3:-0.81788836 4:-0.94856713 
0.010826 1:-0.65264743 2:-0.86669094 3:-0.82837647 4:-0.94315284 
0.010826 1:-0.70563932 2:-0.83970949 3:-0.8583425 4:-0.94448559 
0.010826 1:-0.82487107 2:-0.73178368 3:-0.87182722 4:-0.94706242 
0.010826 1:-0.71888729 2:-0.81272803 3:-0.86283741 4:-0.94510511 
0.010826 1:-0.79837512 2:-0.71829295 3:-0.8538476 4:-0.94644685 
0.010826 1:-0.70563932 2:-0.66433005 3:-0.84635609 4:-0.9441083 
0.010826 1:-0.65264743 2:-0.48895061 3:-0.83586798 4:-0.93990427 
0.010826 1:-0.67914338 2:-0.75876513 3:-0.81189515 4:-0.91619099 
0.010826 1:-0.74538324 2:-0.6913115 3:-0.82238327 4:-0.91627361 
0.010826 1:-0.67914338 2:-0.56989496 3:-0.80290534 4:-0.91416556 
0.010826 1:-0.66589541 2:-0.67782077 3:-0.76844441 4:-0.90608577 
0.010826 1:-0.66589541 2:-0.52942279 3:-0.7624512 4:-0.90395493 
0.010826 1:-0.52016771 2:-0.46196915 3:-0.73098687 4:-0.89754785 
0.010826 1:-0.62615149 2:-0.6913115 3:-0.69053272 4:-0.8702161 
0.010826 1:-0.67914338 2:-0.62385787 3:-0.69053272 4:-0.86943519 
0.010826 1:-0.61290352 2:-0.55640424 3:-0.67554971 4:-0.86693629 
0.010826 1:-0.49367177 2:-0.55640424 3:-0.65307518 4:-0.85751735 
0.010826 1:-0.54666366 2:-0.40800625 3:-0.63959047 4:-0.85373454 
0.010826 1:-0.58640757 2:-0.61036714 3:-0.61112274 4:-0.82531662 
0.010826 1:-0.59965555 2:-0.54291351 3:-0.60812613 4:-0.8236502 
0.010826 1:-0.53341569 2:-0.32706189 3:-0.59164481 4:-0.82058163 
0.010826 1:-0.42743191 2:-0.44847843 3:-0.49875011 4:-0.7834502 
0.010826 1:-0.44067988 2:-0.54291351 3:-0.50324502 4:-0.77947467 
0.010826 1:-0.53341569 2:-0.59687642 3:-0.51223483 4:-0.77741675 
0.010826 1:-0.58640757 2:-0.36753407 3:-0.51223483 4:-0.77643253 
0.010826 1:-0.36119205 2:-0.17866391 3:-0.4852654 4:-0.77122829 
0.010826 1:-0.36119205 2:-0.35404335 3:-0.37738768 4:-0.75143903 
0.010826 1:-0.45392785 2:-0.40800625 3:-0.44780786 4:-0.74379033 
0.010826 1:-0.40093597 2:-0.50244133 3:-0.45529937 4:-0.74011695 
0.010826 1:-0.49367177 2:-0.48895061 3:-0.46279087 4:-0.73812918 
0.010826 1:-0.4804238 2:-0.34055262 3:-0.46728578 4:-0.73596813 
0.010826 1:-0.33469611 2:-0.11121028 3:-0.44481125 4:-0.73142614 
0.010826 1:-0.34794408 2:-0.39451552 3:-0.3983639 4:-0.7137718 
0.010826 1:-0.38768799 2:-0.50244133 3:-0.41184862 4:-0.71055913 
0.010826 1:-0.49367177 2:-0.42149698 3:-0.42683163 4:-0.7090889 
0.010826 1:-0.41418394 2:-0.39451552 3:-0.43432314 4:-0.7064185 
0.010826 1:-0.38768799 2:-0.4349877 3:-0.42683163 4:-0.70340341 
0.010826 1:-0.42743191 2:-0.36753407 3:-0.42982824 4:-0.70106081 
0.010826 1:-0.36119205 2:-0.11121028 3:-0.41484522 4:-0.69777757 
0.010826 1:-0.33469611 2:-0.42149698 3:-0.38338089 4:-0.68201744 
0.010826 1:-0.41418394 2:-0.44847843 3:-0.40136051 4:-0.67984448 
0.010826 1:-0.44067988 2:-0.46196915 3:-0.41184862 4:-0.67809443 
0.010826 1:-0.45392785 2:-0.35404335 3:-0.41934013 4:-0.67656771 
0.010826 1:-0.34794408 2:-0.3810248 3:-0.40285881 4:-0.67360008 
0.010826 1:-0.37444002 2:-0.31357117 3:-0.3983639 4:-0.67105871 
0.010826 1:-0.30820016 2:-0.20564536 3:-0.38937409 4:-0.66766807 
0.010826 1:-0.34794408 2:-0.51593206 3:-0.36390297 4:-0.65457948 
0.010826 1:-0.50691974 2:-0.47545988 3:-0.3983639 4:-0.65408416 
0.010826 1:-0.46717583 2:-0.48895061 3:-0.41334692 4:-0.65308406 
0.010826 1:-0.4804238 2:-0.35404335 3:-0.42083843 4:-0.65227322 
0.010826 1:-0.34794408 2:-0.27309899 3:-0.41035032 4:-0.64979601 
0.010826 1:-0.25520827 2:-0.11121028 3:-0.36240466 4:-0.63904565 
0.010826 1:-0.49367177 2:-0.48895061 3:-0.3968656 4:-0.63110797 
0.010826 1:-0.4804238 2:-0.4349877 3:-0.41184862 4:-0.63055354 
0.010826 1:-0.42743191 2:-0.25960826 3:-0.40285881 4:-0.62938429 
0.010826 1:-0.49367177 2:-0.3810248 3:-0.38637749 4:-0.6108722 
0.010826 1:-0.37444002 2:-0.39451552 3:-0.3908724 4:-0.60936183 
0.010826 1:-0.38768799 2:-0.20564536 3:-0.37888598 4:-0.60802099 
0.010826 1:-0.30820016 2:-0.20564536 3:-0.31595731 4:-0.59503562 
0.010826 1:-0.33469611 2:-0.4349877 3:-0.32045222 4:-0.59022702 
0.010826 1:-0.42743191 2:-0.4349877 3:-0.25602525 4:-0.58951897 
0.010826 1:-0.42743191 2:-0.30008044 3:-0.35341485 4:-0.58882191 
0.010826 1:-0.29495219 2:-0.19215463 3:-0.33094033 4:-0.58679 
0.010826 1:-0.34794408 2:-0.31357117 3:-0.3024726 4:-0.57518 
0.010826 1:-0.30820016 2:-0.27309899 3:-0.31296071 4:-0.57345398 
0.010826 1:-0.37444002 2:-0.44847843 3:-0.32794373 4:-0.57033288 
0.010826 1:-0.38768799 2:-0.42149698 3:-0.31595731 4:-0.55855764 
0.010826 1:-0.41418394 2:-0.25960826 3:-0.33843184 4:-0.55802672 
0.010826 1:-0.36119205 2:-0.40800625 3:-0.33393693 4:-0.55506973 
0.010826 1:-0.40093597 2:-0.23262681 3:-0.34891995 4:-0.55445438 
0.010826 1:-0.36119205 2:-0.39451552 3:-0.31895392 4:-0.5440188 
0.010826 1:-0.38768799 2:-0.25960826 3:-0.34142844 4:-0.54338547 
0.010826 1:-0.32144813 2:-0.27309899 3:-0.31595731 4:-0.54045054 
0.010826 1:-0.26845625 2:-0.17866391 3:-0.31745562 4:-0.5388431 
0.010826 1:-0.40093597 2:-0.47545988 3:-0.29348279 4:-0.52914975 
0.010826 1:-0.46717583 2:-0.27309899 3:-0.32045222 4:-0.52929126 
0.010826 1:-0.26845625 2:-0.25960826 3:-0.30996411 4:-0.52782131 
0.010826 1:-0.25520827 2:-0.20564536 3:-0.29498109 4:-0.52626263 
0.010826 1:-0.26845625 2:-0.28658971 3:-0.27999808 4:-0.51917224 
0.010826 1:-0.42743191 2:-0.46196915 3:-0.32494712 4:-0.5178101 
0.010826 1:-0.45392785 2:-0.34055262 3:-0.35191655 4:-0.51790818 
0.010826 1:-0.33469611 2:-0.11121028 3:-0.34442505 4:-0.51708982 
0.010826 1:-0.30820016 2:-0.21913608 3:-0.3009743 4:-0.51169219 
0.010826 1:-0.37444002 2:-0.32706189 3:-0.32045222 4:-0.509579 
0.010826 1:-0.32144813 2:-0.3810248 3:-0.33393693 4:-0.50873675 
0.010826 1:-0.37444002 2:-0.3810248 3:-0.34592335 4:-0.5082948 
0.010826 1:-0.37444002 2:-0.35404335 3:-0.35641146 4:-0.50785776 
0.010826 1:-0.34794408 2:-0.043756645 3:-0.34742165 4:-0.50723227 
0.010826 1:-0.30820016 2:-0.30008044 3:-0.3039709 4:-0.50159391 
0.010826 1:-0.37444002 2:-0.39451552 3:-0.32344882 4:-0.50025581 
0.010826 1:-0.38768799 2:-0.65083932 3:-0.34292674 4:-0.49997167 
0.010826 1:-0.40093597 2:-0.16517318 3:-0.35041825 4:-0.49895305 
0.010826 1:-0.4804238 2:-0.46196915 3:-0.36689957 4:-0.49463834 
0.010826 1:-0.45392785 2:-0.51593206 3:-0.38338089 4:-0.49484318 
0.010826 1:-0.50691974 2:-0.3810248 3:-0.40735371 4:-0.49540291 
0.010826 1:-0.37444002 2:-0.39451552 3:-0.40735371 4:-0.49506903 
0.010826 1:-0.38768799 2:-0.28658971 3:-0.40735371 4:-0.49482687 
0.010826 1:-0.49367177 2:-0.46196915 3:-0.39986221 4:-0.4901189 
0.010826 1:-0.45392785 2:-0.48895061 3:-0.42083843 4:-0.49033686 
0.010826 1:-0.4804238 2:-0.34055262 3:-0.42083843 4:-0.49072335 
0.010826 1:-0.33469611 2:-0.24611754 3:-0.40735371 4:-0.49017203 
0.010826 1:-0.32144813 2:-0.32706189 3:-0.37139447 4:-0.48841251 
0.010826 1:-0.32144813 2:-0.124701 3:-0.36390297 4:-0.48779646 
0.010826 1:-0.46717583 2:-0.51593206 3:-0.3983639 4:-0.48573566 
0.010826 1:-0.50691974 2:-0.44847843 3:-0.42383503 4:-0.48629348 
0.010826 1:-0.44067988 2:-0.3810248 3:-0.41784183 4:-0.48643739 
0.010826 1:-0.37444002 2:-0.19215463 3:-0.40885202 4:-0.48617316 
0.010826 1:-0.33469611 2:-0.23262681 3:-0.37888598 4:-0.48338902 
0.010826 1:-0.4804238 2:-0.56989496 3:-0.40435711 4:-0.48186772 
0.010826 1:-0.55991163 2:-0.44847843 3:-0.42982824 4:-0.48273553 
0.010826 1:-0.44067988 2:-0.44847843 3:-0.42683163 4:-0.48288959 
0.010826 1:-0.44067988 2:-0.27309899 3:-0.41934013 4:-0.48304227 
0.010826 1:-0.41418394 2:-0.32706189 3:-0.41484522 4:-0.48057076 
0.010826 1:-0.4804238 2:-0.55640424 3:-0.44181465 4:-0.480432 
0.010826 1:-0.54666366 2:-0.47545988 3:-0.47178068 4:-0.48119649 
0.010826 1:-0.46717583 2:-0.3810248 3:-0.47028238 4:-0.48150199 
0.010826 1:-0.37444002 2:-0.19215463 3:-0.44930616 4:-0.48127936 
0.010826 1:-0.40093597 2:-0.35404335 3:-0.40585541 4:-0.47775055 
0.010826 1:-0.37444002 2:-0.40800625 3:-0.40735371 4:-0.47720147 
0.010826 1:-0.40093597 2:-0.4349877 3:-0.41634352 4:-0.47714902 
0.010826 1:-0.42743191 2:-0.24611754 3:-0.41035032 4:-0.47724217 
0.010826 1:-0.40093597 2:-0.32706189 3:-0.35191655 4:-0.47257684 
0.010826 1:-0.32144813 2:-0.32706189 3:-0.35341485 4:-0.47211968 
0.010826 1:-0.32144813 2:-0.3810248 3:-0.34442505 4:-0.47166621 
0.010826 1:-0.37444002 2:-0.32706189 3:-0.34742165 4:-0.47149738 
0.010826 1:-0.32144813 2:-0.16517318 3:-0.34142844 4:-0.47105003 
0.010826 1:-0.32144813 2:-0.46196915 3:-0.29498109 4:-0.46674774 
0.010826 1:-0.45392785 2:-0.42149698 3:-0.33393693 4:-0.46701376 
0.010826 1:-0.41418394 2:-0.28658971 3:-0.34742165 4:-0.46707271 
0.010826 1:-0.34794408 2:-0.35404335 3:-0.33693354 4:-0.46617225 
0.010826 1:-0.34794408 2:-0.23262681 3:-0.33993014 4:-0.46589607 
0.010826 1:-0.32144813 2:-0.24611754 3:-0.32344882 4:-0.46461285 
0.010826 1:-0.38768799 2:-0.50244133 3:-0.35491316 4:-0.46374821 
0.010826 1:-0.49367177 2:-0.58338569 3:-0.3968656 4:-0.4642153 
0.010826 1:-0.5731596 2:-0.36753407 3:-0.42533333 4:-0.46507492 
0.010826 1:-0.36119205 2:-0.32706189 3:-0.41484522 4:-0.4648759 
0.010826 1:-0.34794408 2:-0.24611754 3:-0.40735371 4:-0.4637675 
0.010826 1:-0.4804238 2:-0.52942279 3:-0.42683163 4:-0.46237025 
0.010826 1:-0.52016771 2:-0.30008044 3:-0.44181465 4:-0.462953 
0.010826 1:-0.36119205 2:-0.35404335 3:-0.34592335 4:-0.45899032 
0.010826 1:-0.34794408 2:-0.47545988 3:-0.35790976 4:-0.45876133 
0.010826 1:-0.46717583 2:-0.44847843 3:-0.38038428 4:-0.45909223 
0.010826 1:-0.44067988 2:-0.32706189 3:-0.393869 4:-0.45929717 
0.010826 1:-0.32144813 2:-0.124701 3:-0.37588938 4:-0.45894633 
0.010826 1:-0.30820016 2:-0.30008044 3:-0.33393693 4:-0.45638476 
0.010826 1:-0.42743191 2:-0.40800625 3:-0.36240466 4:-0.45607854 
0.010826 1:-0.40093597 2:-0.35404335 3:-0.38038428 4:-0.45610797 
0.010826 1:-0.34794408 2:-0.40800625 3:-0.37888598 4:-0.45589675 
0.010826 1:-0.40093597 2:-0.3810248 3:-0.38487919 4:-0.4559266 
0.010826 1:-0.37444002 2:-0.124701 3:-0.37439108 4:-0.45583684 
0.010826 1:-0.37444002 2:-0.39451552 3:-0.35641146 4:-0.45295131 
0.010826 1:-0.38768799 2:-0.4349877 3:-0.36540127 4:-0.45293174 
0.010826 1:-0.42743191 2:-0.31357117 3:-0.38038428 4:-0.45308781 
0.010826 1:-0.33469611 2:-0.32706189 3:-0.35940806 4:-0.45246702 
0.010826 1:-0.32144813 2:-0.15168245 3:-0.35641146 4:-0.45215971 
0.010826 1:-0.4804238 2:-0.40800625 3:-0.34292674 4:-0.44946427 
0.010826 1:-0.40093597 2:-0.46196915 3:-0.35790976 4:-0.44951362 
0.010826 1:-0.45392785 2:-0.32706189 3:-0.36689957 4:-0.44978981 
0.010826 1:-0.32144813 2:-0.25960826 3:-0.35940806 4:-0.44949813 
0.010826 1:-0.2419603 2:-0.057247371 3:-0.31445901 4:-0.44740086 
0.010826 1:-0.44067988 2:-0.42149698 3:-0.34442505 4:-0.44578778 
0.010826 1:-0.41418394 2:-0.36753407 3:-0.36090636 4:-0.44590271 
0.010826 1:-0.36119205 2:-0.24611754 3:-0.34742165 4:-0.44579619 
0.010826 1:-0.26845625 2:-0.19215463 3:-0.28299468 4:-0.44297905 
0.010826 1:-0.30820016 2:-0.40800625 3:-0.29198449 4:-0.44186742 
0.010826 1:-0.40093597 2:-0.47545988 3:-0.33094033 4:-0.44193762 
0.010826 1:-0.46717583 2:-0.36753407 3:-0.35191655 4:-0.4422765 
0.010826 1:-0.36119205 2:-0.24611754 3:-0.34292674 4:-0.44218405 
0.010826 1:-0.2419603 2:-0.11121028 3:-0.32344882 4:-0.44161072 
0.010826 1:-0.29495219 2:-0.25960826 3:-0.30996411 4:-0.43954052 
0.010826 1:-0.40093597 2:-0.47545988 3:-0.34292674 4:-0.43876834 
0.010826 1:-0.46717583 2:-0.31357117 3:-0.36090636 4:-0.43910758 
0.010826 1:-0.30820016 2:-0.27309899 3:-0.35041825 4:-0.4388182 
0.010826 1:-0.26845625 2:-0.097719549 3:-0.32794373 4:-0.43837437 
0.010826 1:-0.32144813 2:-0.34055262 3:-0.31595731 4:-0.43628458 
0.010826 1:-0.33469611 2:-0.23262681 3:-0.32794373 4:-0.43611066 
0.010826 1:-0.30820016 2:-0.097719549 3:-0.33393693 4:-0.43561109 
0.010826 1:-0.37444002 2:-0.52942279 3:-0.33693354 4:-0.43395102 
0.010826 1:-0.52016771 2:-0.3810248 3:-0.37439108 4:-0.43448997 
0.010826 1:-0.37444002 2:-0.51593206 3:-0.38038428 4:-0.43447608 
0.010826 1:-0.50691974 2:-0.52942279 3:-0.39986221 4:-0.43496063 
0.010826 1:-0.52016771 2:-0.47545988 3:-0.43282484 4:-0.43549211 
0.010826 1:-0.46717583 2:-0.3810248 3:-0.43731975 4:-0.43582237 
0.010826 1:-0.37444002 2:-0.36753407 3:-0.36689957 4:-0.43580488 
0.010826 1:-0.42743191 2:-0.55640424 3:-0.44331295 4:-0.43591758 
0.010826 1:-0.54666366 2:-0.62385787 3:-0.49425521 4:-0.43653694 
0.010826 1:-0.61290352 2:-0.67782077 3:-0.53770596 4:-0.43739714 
0.010826 1:-0.66589541 2:-0.4349877 3:-0.57066859 4:-0.43844746 
0.010826 1:-0.54666366 2:-0.55640424 3:-0.5796584 4:-0.43922233 
0.010826 1:-0.54666366 2:-0.46196915 3:-0.58415331 4:-0.43982401 
0.010826 1:-0.45392785 2:-0.3810248 3:-0.5766618 4:-0.44008505 
0.010826 1:-0.62615149 2:-0.65083932 3:-0.58714991 4:-0.44078135 
0.010826 1:-0.63939946 2:-0.48895061 3:-0.59763802 4:-0.44170171 
0.010826 1:-0.4804238 2:-0.36753407 3:-0.582655 4:-0.44204823 
0.010826 1:-0.40093597 2:-0.30008044 3:-0.52422124 4:-0.44194807 
0.010826 1:-0.42743191 2:-0.50244133 3:-0.4852654 4:-0.44139831 
0.010826 1:-0.49367177 2:-0.40800625 3:-0.49875011 4:-0.44178468 
0.010826 1:-0.40093597 2:-0.13819173 3:-0.47327899 4:-0.44184507 
0.010826 1:-0.30820016 2:-0.34055262 3:-0.32195052 4:-0.43789731 
0.010826 1:-0.33469611 2:-0.32706189 3:-0.32344882 4:-0.43773993 
0.010826 1:-0.32144813 2:0.023696986 3:-0.31146241 4:-0.43753817 
0.010826 1:-0.25520827 2:-0.24611754 3:-0.2125745 4:-0.43315345 
0.010826 1:-0.2419603 2:-0.28658971 3:-0.22306261 4:-0.43269938 
0.010826 1:-0.28170422 2:-0.27309899 3:-0.22605922 4:-0.43238081 
0.010826 1:-0.26845625 2:-0.21913608 3:-0.22905582 4:-0.43201956 
0.010826 1:-0.21546436 2:0.064169164 3:-0.21856771 4:-0.43148345 
0.010826 1:-0.25520827 2:-0.28658971 3:-0.17361866 4:-0.4285322 
0.010826 1:-0.28170422 2:-0.35404335 3:-0.19908979 4:-0.42822882 
0.010826 1:-0.34794408 2:-0.24611754 3:-0.22006601 4:-0.42814507 
0.010826 1:-0.2419603 2:-0.30008044 3:-0.23055412 4:-0.42771362 
0.010826 1:-0.29495219 2:-0.25960826 3:-0.23504903 4:-0.42745794 
0.010826 1:-0.25520827 2:-0.15168245 3:-0.23654733 4:-0.42707364 
0.010826 1:-0.1492245 2:0.064169164 3:-0.22156431 4:-0.4263457 
0.010826 1:-0.33469611 2:-0.36753407 3:-0.22755752 4:-0.42426904 
0.010826 1:-0.36119205 2:-0.4349877 3:-0.26351676 4:-0.42423937 
0.010826 1:-0.42743191 2:-0.32706189 3:-0.28299468 4:-0.42442317 
0.010826 1:-0.32144813 2:-0.25960826 3:-0.28748958 4:-0.4242656 
0.010826 1:-0.25520827 2:-0.25960826 3:-0.27700147 4:-0.4238965 
0.010826 1:-0.25520827 2:-0.23262681 3:-0.27849977 4:-0.42352919 
0.010826 1:-0.22871233 2:-0.057247371 3:-0.27100827 4:-0.42307915 
0.010826 1:-0.38768799 2:-0.3810248 3:-0.3069675 4:-0.42165808 
0.010826 1:-0.37444002 2:-0.3810248 3:-0.32644543 4:-0.42167715 
0.010826 1:-0.37444002 2:-0.28658971 3:-0.33094033 4:-0.42169613 
0.010826 1:-0.28170422 2:-0.27309899 3:-0.32195052 4:-0.42142347 
0.010826 1:-0.22871233 2:-0.084228823 3:-0.26052015 4:-0.41941401 
0.010826 1:-0.37444002 2:-0.44847843 3:-0.27550317 4:-0.41808984 
0.010826 1:-0.44067988 2:-0.32706189 3:-0.3009743 4:-0.41832169 
0.010826 1:-0.32144813 2:-0.27309899 3:-0.29348279 4:-0.41818463 
0.010826 1:-0.26845625 2:-0.124701 3:-0.28149638 4:-0.41788511 
0.010826 1:-0.22871233 2:-0.20564536 3:-0.23355072 4:-0.41606356 
0.010826 1:-0.34794408 2:-0.44847843 3:-0.28449298 4:-0.41495074 
0.010826 1:-0.44067988 2:-0.27309899 3:-0.30996411 4:-0.40891891 
0.010826 1:-0.26845625 2:-0.17866391 3:-0.29797769 4:-0.40236431 
0.010826 1:-0.25520827 2:-0.23262681 3:-0.24104223 4:-0.39653354 
0.010826 1:-0.34794408 2:-0.42149698 3:-0.25752355 4:-0.39444204 
0.010826 1:-0.41418394 2:-0.24611754 3:-0.28449298 4:-0.39363594 
0.010826 1:-0.2419603 2:-0.19215463 3:-0.27250657 4:-0.39194313 
0.010826 1:-0.18896842 2:-0.043756645 3:-0.24403884 4:-0.39049216 
0.010826 1:-0.26845625 2:-0.35404335 3:-0.23954393 4:-0.38567521 
0.010826 1:-0.34794408 2:-0.17866391 3:-0.26501506 4:-0.38474606 
0.010826 1:-0.33469611 2:-0.31357117 3:-0.27250657 4:-0.38220098 
0.010826 1:-0.30820016 2:-0.15168245 3:-0.28149638 4:-0.38070626 
0.010826 1:-0.33469611 2:-0.42149698 3:-0.22905582 4:-0.37123948 
0.010826 1:-0.41418394 2:-0.17866391 3:-0.25902185 4:-0.37051063 
0.010826 1:-0.28170422 2:-0.30008044 3:-0.24104223 4:-0.36562497 
0.010826 1:-0.29495219 2:-0.097719549 3:-0.25452695 4:-0.36432624 
0.010826 1:-0.33469611 2:-0.4349877 3:-0.24853374 4:-0.35758906 
0.010826 1:-0.42743191 2:-0.124701 3:-0.27999808 4:-0.35550957 
0.010826 1:-0.21546436 2:-0.13819173 3:-0.23804563 4:-0.35136023 
0.010826 1:-0.26845625 2:-0.32706189 3:-0.23055412 4:-0.3481872 
0.010826 1:-0.32144813 2:-0.47545988 3:-0.24853374 4:-0.34794313 
0.010826 1:-0.46717583 2:-0.52942279 3:-0.29048619 4:-0.34802449 
0.010826 1:-0.52016771 2:-0.25960826 3:-0.32794373 4:-0.34769905 
0.010826 1:-0.37444002 2:-0.42149698 3:-0.33543524 4:-0.34338983 
0.010826 1:-0.41418394 2:-0.4349877 3:-0.35790976 4:-0.34343061 
0.010826 1:-0.42743191 2:-0.54291351 3:-0.3908724 4:-0.34355293 
0.010826 1:-0.53341569 2:-0.66433005 3:-0.42832994 4:-0.34396068 
0.010826 1:-0.65264743 2:-0.66433005 3:-0.47178068 4:-0.3445723 
0.010826 1:-0.65264743 2:-0.62385787 3:-0.50923822 4:-0.34477617 
0.010826 1:-0.61290352 2:-0.30008044 3:-0.52571954 4:-0.34570574 
0.010826 1:-0.52016771 2:-0.50244133 3:-0.53021445 4:-0.34472942 
0.010826 1:-0.49367177 2:-0.59687642 3:-0.55568558 4:-0.34525826 
0.010826 1:-0.58640757 2:-0.63734859 3:-0.59164481 4:-0.34428194 
0.010826 1:-0.62615149 2:-0.65083932 3:-0.62011255 4:-0.34668205 
0.010826 1:-0.63939946 2:-0.55640424 3:-0.64558367 4:-0.34761769 
0.010826 1:-0.71888729 2:-0.6913115 3:-0.68004461 4:-0.34916352 
0.010826 1:-0.67914338 2:-0.54291351 3:-0.68304121 4:-0.34989576 
0.010826 1:-0.53341569 2:-0.32706189 3:-0.6695565 4:-0.34989576 
0.010826 1:-0.59965555 2:-0.56989496 3:-0.6695565 4:-0.35083139 
0.010826 1:-0.55991163 2:-0.63734859 3:-0.67704801 4:-0.35172635 
0.010826 1:-0.62615149 2:-0.61036714 3:-0.68154291 4:-0.35253995 
0.010826 1:-0.59965555 2:-0.55640424 3:-0.67854631 4:-0.35331286 
0.010826 1:-0.54666366 2:-0.62385787 3:-0.6680582 4:-0.35359762 
0.010826 1:-0.61290352 2:-0.56989496 3:-0.67554971 4:-0.3542485 
0.010826 1:-0.55991163 2:-0.40800625 3:-0.65757009 4:-0.35499159 
0.010826 1:-0.62615149 2:-0.61036714 3:-0.62910235 4:-0.35612798 
0.010826 1:-0.59965555 2:-0.65083932 3:-0.62910235 4:-0.3571832 
0.010826 1:-0.63939946 2:-0.54291351 3:-0.63809216 4:-0.35807608 
0.010826 1:-0.53341569 2:-0.48895061 3:-0.62760405 4:-0.35852252 
0.010826 1:-0.4804238 2:-0.46196915 3:-0.60662783 4:-0.35868486 
0.010826 1:-0.45392785 2:-0.28658971 3:-0.58864821 4:-0.35888779 
0.010826 1:-0.59965555 2:-0.55640424 3:-0.57066859 4:-0.36030828 
0.010826 1:-0.54666366 2:-0.56989496 3:-0.56167878 4:-0.36095765 
0.010826 1:-0.55991163 2:-0.40800625 3:-0.55718388 4:-0.36140409 
0.010826 1:-0.50691974 2:-0.52942279 3:-0.47627559 4:-0.36197228 
0.010826 1:-0.52016771 2:-0.47545988 3:-0.4897603 4:-0.36249989 
0.010826 1:-0.46717583 2:-0.30008044 3:-0.47477729 4:-0.36237814 
0.010826 1:-0.29495219 2:-0.15168245 3:-0.37738768 4:-0.36071414 
0.010826 1:-0.41418394 2:-0.48895061 3:-0.37738768 4:-0.3613635 
0.010826 1:-0.4804238 2:-0.34055262 3:-0.3923707 4:-0.36180994 
0.010826 1:-0.33469611 2:-0.28658971 3:-0.37289278 4:-0.36132292 
0.010826 1:-0.28170422 2:-0.084228823 3:-0.34592335 4:-0.36071414 
0.010826 1:-0.26845625 2:-0.21913608 3:-0.3024726 4:-0.35961833 
0.010826 1:-0.37444002 2:-0.44847843 3:-0.31296071 4:-0.35754847 
0.010826 1:-0.44067988 2:-0.31357117 3:-0.33543524 4:-0.36022711 
0.010826 1:-0.30820016 2:-0.23262681 3:-0.32344882 4:-0.35965891 
0.010826 1:-0.22871233 2:-0.084228823 3:-0.29498109 4:-0.35921247 
0.010826 1:-0.40093597 2:-0.24611754 3:-0.29348279 4:-0.3591313 
0.010826 1:-0.40093597 2:-0.46196915 3:-0.31146241 4:-0.35953716 
0.010826 1:-0.45392785 2:-0.31357117 3:-0.33693354 4:-0.35990243 
0.010826 1:-0.30820016 2:-0.21913608 3:-0.32944203 4:-0.35953716 
0.010826 1:-0.46717583 2:-0.32706189 3:-0.32494712 4:-0.35953716 
0.010826 1:-0.32144813 2:-0.35404335 3:-0.33543524 4:-0.35945599 
0.010826 1:-0.34794408 2:-0.31357117 3:-0.32944203 4:-0.35957774 
0.010826 1:-0.30820016 2:-0.32706189 3:-0.33693354 4:-0.3596995 
0.010826 1:-0.32144813 2:-0.16517318 3:-0.32794373 4:-0.35953716 
0.010826 1:-0.42743191 2:-0.47545988 3:-0.31445901 4:-0.35925306 
0.010826 1:-0.46717583 2:-0.39451552 3:-0.35491316 4:-0.36010535 
0.010826 1:-0.38768799 2:-0.30008044 3:-0.36540127 4:-0.36010535 
0.010826 1:-0.32144813 2:-0.30008044 3:-0.34592335 4:-0.35994301 
0.010826 1:-0.29495219 2:-0.20564536 3:-0.33993014 4:-0.35974009 
0.010826 1:-0.30820016 2:-0.25960826 3:-0.32644543 4:-0.35937482 
0.010826 1:-0.41418394 2:-0.47545988 3:-0.36689957 4:-0.36043004 
0.010826 1:-0.46717583 2:-0.46196915 3:-0.3968656 4:-0.36116058 
0.010826 1:-0.45392785 2:-0.20564536 3:-0.39986221 4:-0.36144467 
0.010826 1:-0.38768799 2:-0.47545988 3:-0.35641146 4:-0.36209404 
0.010826 1:-0.46717583 2:-0.124701 3:-0.36240466 4:-0.36229697 
0.010826 1:-0.28170422 2:-0.28658971 3:-0.28149638 4:-0.36071414 
0.010826 1:-0.28170422 2:-0.32706189 3:-0.28599128 4:-0.36091706 
0.010826 1:-0.32144813 2:-0.31357117 3:-0.29797769 4:-0.36128233 
0.010826 1:-0.44067988 2:-0.40800625 3:-0.32195052 4:-0.36189111 
0.010826 1:-0.40093597 2:-0.13819173 3:-0.33393693 4:-0.36180994 
0.010826 1:-0.36119205 2:-0.32706189 3:-0.29647939 4:-0.36071414 
0.010826 1:-0.32144813 2:-0.3810248 3:-0.31146241 4:-0.36075472 
0.010826 1:-0.37444002 2:-0.34055262 3:-0.32195052 4:-0.36124175 
0.010826 1:-0.33469611 2:-0.39451552 3:-0.32794373 4:-0.36111999 
0.010826 1:-0.38768799 2:-0.34055262 3:-0.33543524 4:-0.36132292 
0.010826 1:-0.33469611 2:-0.124701 3:-0.33843184 4:-0.36120116 
0.010826 1:-0.45392785 2:-0.27309899 3:-0.34592335 4:-0.36152584 
0.010826 1:-0.44067988 2:-0.46196915 3:-0.33243863 4:-0.36030828 
0.010826 1:-0.45392785 2:-0.50244133 3:-0.36090636 4:-0.36087648 
0.010826 1:-0.49367177 2:-0.3810248 3:-0.28449298 4:-0.36091706 
0.010826 1:-0.37444002 2:-0.28658971 3:-0.36989617 4:-0.36067355 
0.010826 1:-0.33469611 2:-0.16517318 3:-0.35041825 4:-0.35957774 
0.010826 1:-0.40093597 2:-0.52942279 3:-0.36540127 4:-0.35974009 
0.010826 1:-0.52016771 2:-0.51593206 3:-0.41634352 4:-0.36099823 
0.010826 1:-0.50691974 2:-0.46196915 3:-0.44481125 4:-0.36168819 
0.010826 1:-0.45392785 2:-0.34055262 3:-0.44630956 4:-0.36156643 
0.010826 1:-0.33469611 2:-0.19215463 3:-0.43282484 4:-0.36120116 
0.010826 1:-0.29495219 2:-0.15168245 3:-0.37888598 4:-0.36002418 
0.010826 1:-0.45392785 2:-0.48895061 3:-0.3908724 4:-0.36043004 
0.010826 1:-0.4804238 2:-0.36753407 3:-0.39986221 4:-0.36087648 
0.010826 1:-0.36119205 2:-0.24611754 3:-0.38188259 4:-0.36055179 
0.010826 1:-0.26845625 2:-0.19215463 3:-0.30846581 4:-0.35848194 
0.010826 1:-0.30820016 2:-0.3810248 3:-0.30996411 4:-0.35815725 
0.010826 1:-0.37444002 2:-0.47545988 3:-0.33543524 4:-0.35860369 
0.010826 1:-0.46717583 2:-0.31357117 3:-0.35491316 4:-0.35917189 
0.010826 1:-0.30820016 2:-0.23262681 3:-0.33843184 4:-0.35864428 
0.010826 1:-0.22871233 2:-0.057247371 3:-0.30996411 4:-0.35762964 
0.010826 1:-0.32144813 2:-0.28658971 3:-0.29647939 4:-0.35588447 
0.010826 1:-0.28170422 2:-0.25960826 3:-0.3024726 4:-0.35596564 
0.010826 1:-0.34794408 2:-0.42149698 3:-0.31895392 4:-0.35564096 
0.010826 1:-0.41418394 2:-0.23262681 3:-0.33094033 4:-0.35592505 
0.010826 1:-0.33469611 2:-0.34055262 3:-0.28149638 4:-0.35327218 
0.010826 1:-0.33469611 2:-0.24611754 3:-0.29647939 4:-0.35335354 
0.010826 1:-0.34794408 2:-0.40800625 3:-0.29498109 4:-0.35286538 
0.010826 1:-0.40093597 2:-0.19215463 3:-0.31146241 4:-0.35294674 
0.010826 1:-0.33469611 2:-0.39451552 3:-0.28149638 4:-0.35188907 
0.010826 1:-0.38768799 2:-0.17866391 3:-0.3039709 4:-0.35217383 
0.010826 1:-0.28170422 2:-0.27309899 3:-0.27999808 4:-0.35136023 
0.010826 1:-0.26845625 2:-0.097719549 3:-0.28299468 4:-0.35119751 
0.010826 1:-0.30820016 2:-0.39451552 3:-0.24703544 4:-0.35030256 
0.010826 1:-0.38768799 2:-0.20564536 3:-0.26950996 4:-0.35050595 
0.010826 1:-0.22871233 2:-0.20564536 3:-0.23654733 4:-0.34916352 
0.010826 1:-0.40093597 2:-0.47545988 3:-0.27400487 4:-0.34798381 
0.010826 1:-0.46717583 2:-0.20564536 3:-0.299476 4:-0.34822788 
0.010826 1:-0.28170422 2:-0.23262681 3:-0.26801166 4:-0.34546166 
0.010826 1:-0.34794408 2:-0.3810248 3:-0.29198449 4:-0.34521758 
0.010826 1:-0.37444002 2:-0.50244133 3:-0.31146241 4:-0.34562438 
0.010826 1:-0.49367177 2:-0.48895061 3:-0.34891995 4:-0.34631593 
0.010826 1:-0.4804238 2:-0.24611754 3:-0.37439108 4:-0.34680409 
0.010826 1:-0.36119205 2:-0.27309899 3:-0.33843184 4:-0.34509554 
0.010826 1:-0.45392785 2:-0.36753407 3:-0.36689957 4:-0.34586845 
0.010826 1:-0.36119205 2:-0.3810248 3:-0.38188259 4:-0.34623457 
0.010826 1:-0.37444002 2:-0.40800625 3:-0.38487919 4:-0.34627525 
0.010826 1:-0.40093597 2:-0.31357117 3:-0.38787579 4:-0.34643797 
0.010826 1:-0.30820016 2:-0.057247371 3:-0.36689957 4:-0.34594981 
0.010826 1:-0.37444002 2:-0.46196915 3:-0.3069675 4:-0.34525826 
0.010826 1:-0.45392785 2:-0.47545988 3:-0.37439108 4:-0.34603117 
0.010826 1:-0.46717583 2:-0.40800625 3:-0.38637749 4:-0.34651933 
0.010826 1:-0.40093597 2:-0.34055262 3:-0.40136051 4:-0.34684477 
0.010826 1:-0.40093597 2:-0.3810248 3:-0.3923707 4:-0.34656001 
0.010826 1:-0.37444002 2:-0.16517318 3:-0.3923707 4:-0.34664137 
0.010826 1:-0.50691974 2:-0.39451552 3:-0.3983639 4:-0.34660069 
0.010826 1:-0.38768799 2:-0.3810248 3:-0.39986221 4:-0.34696681 
0.010826 1:-0.37444002 2:-0.25960826 3:-0.3908724 4:-0.34696681 
0.010826 1:-0.29495219 2:-0.016775192 3:-0.28898788 4:-0.34513622 
0.010826 1:-0.33469611 2:-0.3810248 3:-0.20508299 4:-0.34269666 
0.010826 1:-0.37444002 2:-0.30008044 3:-0.23954393 4:-0.34298208 
0.010826 1:-0.29495219 2:-0.25960826 3:-0.24403884 4:-0.34253356 
0.010826 1:-0.25520827 2:-0.043756645 3:-0.14964583 4:-0.34204427 
0.010826 1:-0.20221639 2:-0.11121028 3:-0.19908979 4:-0.34090258 
0.010826 1:-0.34794408 2:-0.39451552 3:-0.24104223 4:-0.3410249 
0.010826 1:-0.38768799 2:-0.27309899 3:-0.27100827 4:-0.34126955 
0.010826 1:-0.26845625 2:-0.124701 3:-0.26351676 4:-0.3408618 
0.010826 1:-0.25520827 2:-0.20564536 3:-0.2125745 4:-0.33882307 
0.010826 1:-0.22871233 2:-0.0032844662 3:-0.26651336 4:-0.33894539 
0.010826 1:-0.34794408 2:-0.21913608 3:-0.25153034 4:-0.33731441 
0.010826 1:-0.34794408 2:-0.39451552 3:-0.26651336 4:-0.33747751 
0.010826 1:-0.38768799 2:-0.34055262 3:-0.28748958 4:-0.33764061 
0.010826 1:-0.33469611 2:-0.19215463 3:-0.29048619 4:-0.3379668 
0.010826 1:-0.18896842 2:-0.097719549 3:-0.19908979 4:-0.33723286 
0.010826 1:-0.32144813 2:-0.48895061 3:-0.25452695 4:-0.33535723 
0.010826 1:-0.4804238 2:-0.30008044 3:-0.3039709 4:-0.33653969 
0.010826 1:-0.34794408 2:-0.3810248 3:-0.31296071 4:-0.33666201 
0.010826 1:-0.37444002 2:-0.28658971 3:-0.33094033 4:-0.33621349 
0.010826 1:-0.28170422 2:-0.15168245 3:-0.32344882 4:-0.33592807 
0.010826 1:-0.33469611 2:-0.48895061 3:-0.29198449 4:-0.3322352 
0.010826 1:-0.4804238 2:-0.35404335 3:-0.33693354 4:-0.33239868 
0.010826 1:-0.34794408 2:-0.25960826 3:-0.33993014 4:-0.33178563 
0.010826 1:-0.30820016 2:-0.13819173 3:-0.3054692 4:-0.32904735 
0.010826 1:-0.37444002 2:-0.4349877 3:-0.29647939 4:-0.32577776 
0.010826 1:-0.42743191 2:-0.28658971 3:-0.33243863 4:-0.32602298 
0.010826 1:-0.28170422 2:-0.13819173 3:-0.32644543 4:-0.32573689 
0.010826 1:-0.37444002 2:-0.35404335 3:-0.23954393 4:-0.3195126 
0.010826 1:-0.34794408 2:-0.21913608 3:-0.25902185 4:-0.31959453 
0.010826 1:-0.21546436 2:-0.084228823 3:-0.24104223 4:-0.31893908 
0.010826 1:-0.25520827 2:-0.19215463 3:-0.19309658 4:-0.31656307 
0.010826 1:-0.33469611 2:-0.31357117 3:-0.22905582 4:-0.31693176 
0.010826 1:-0.30820016 2:-0.13819173 3:-0.24254053 4:-0.31713659 
0.010826 1:-0.29495219 2:-0.19215463 3:-0.18260847 4:-0.31586666 
0.010826 1:-0.26845625 2:-0.27309899 3:-0.19309658 4:-0.31603052 
0.010826 1:-0.26845625 2:-0.043756645 3:-0.20208639 4:-0.31611245 
0.010826 1:-0.25520827 2:-0.21913608 3:-0.15114413 4:-0.31484252 
0.010826 1:-0.29495219 2:-0.23262681 3:-0.18710337 4:-0.31549797 
0.010826 1:-0.22871233 2:-0.24611754 3:-0.19459488 4:-0.3153341 
0.010826 1:-0.2419603 2:-0.17866391 3:-0.18860168 4:-0.31500638 
0.010826 1:-0.17572044 2:-0.043756645 3:-0.18710337 4:-0.31480155 
0.010826 1:-0.38768799 2:-0.32706189 3:-0.19908979 4:-0.31467865 
0.010826 1:-0.32144813 2:-0.36753407 3:-0.22605922 4:-0.31504735 
0.010826 1:-0.36119205 2:-0.25960826 3:-0.23804563 4:-0.31512928 
0.010826 1:-0.25520827 2:-0.24611754 3:-0.24254053 4:-0.31480155 
0.010826 1:-0.2419603 2:-0.17866391 3:-0.23654733 4:-0.31422803 
0.010826 1:-0.41418394 2:-0.39451552 3:-0.27849977 4:-0.3140232 
0.010826 1:-0.38768799 2:-0.3810248 3:-0.3024726 4:-0.31455576 
0.010826 1:-0.37444002 2:-0.16517318 3:-0.3009743 4:-0.31451479 
0.010826 1:-0.32144813 2:-0.44847843 3:-0.25752355 4:-0.31324486 
0.010826 1:-0.44067988 2:-0.34055262 3:-0.29647939 4:-0.31435093 
0.010826 1:-0.33469611 2:-0.31357117 3:-0.3054692 4:-0.31471962 
0.010826 1:-0.30820016 2:-0.057247371 3:-0.29348279 4:-0.31451479 
0.010826 1:-0.34794408 2:-0.40800625 3:-0.23504903 4:-0.31263037 
0.010826 1:-0.2419603 2:-0.17866391 3:-0.2140728 4:-0.31193396 
0.010826 1:-0.32144813 2:-0.40800625 3:-0.23055412 4:-0.31250748 
0.010826 1:-0.40093597 2:-0.20564536 3:-0.26651336 4:-0.3129581 
0.010826 1:-0.29495219 2:-0.16517318 3:-0.23804563 4:-0.31223254 
0.010826 1:-0.32144813 2:-0.31357117 3:-0.24254053 4:-0.31182193 
0.010826 1:-0.30820016 2:-0.17866391 3:-0.25752355 4:-0.31223254 
0.010826 1:-0.38768799 2:-0.31357117 3:-0.24254053 4:-0.31144237 
0.010826 1:-0.30820016 2:-0.23262681 3:-0.19609318 4:-0.31238458 
0.010826 1:-0.29495219 2:-0.28658971 3:-0.25452695 4:-0.31250748 
0.010826 1:-0.28170422 2:-0.11121028 3:-0.26801166 4:-0.31209782 
0.010826 1:-0.29495219 2:-0.42149698 3:-0.23355072 4:-0.31136044 
0.010826 1:-0.41418394 2:-0.27309899 3:-0.27400487 4:-0.31213879 
0.010826 1:-0.26845625 2:-0.21913608 3:-0.27849977 4:-0.31267134 
0.010826 1:-0.20221639 2:-0.057247371 3:-0.24254053 4:-0.31160623 
0.010826 1:-0.34794408 2:-0.42149698 3:-0.22306261 4:-0.31178087 
0.010826 1:-0.41418394 2:-0.25960826 3:-0.26351676 4:-0.31223254 
0.010826 1:-0.25520827 2:-0.16517318 3:-0.25902185 4:-0.31202724 
0.010826 1:-0.37444002 2:-0.3810248 3:-0.23804563 4:-0.30804424 
0.010826 1:-0.37444002 2:-0.17866391 3:-0.26501506 4:-0.30788 
0.010826 1:-0.20221639 2:-0.17866391 3:-0.19309658 4:-0.30191367 
0.010826 1:-0.40093597 2:-0.40800625 3:-0.24553714 4:-0.29808594 
0.010826 1:-0.40093597 2:-0.070738097 3:-0.26651336 4:-0.29734509 
0.010826 1:-0.26845625 2:-0.32706189 3:-0.22905582 4:-0.2902672 
0.010826 1:-0.32144813 2:-0.27309899 3:-0.24254053 4:-0.28940083 
0.010826 1:-0.41418394 2:-0.39451552 3:-0.27700147 4:-0.28783312 
0.010826 1:-0.38768799 2:-0.11121028 3:-0.29647939 4:-0.28717304 
0.010826 1:-0.29495219 2:-0.34055262 3:-0.27849977 4:-0.28191526 
0.010826 1:-0.33469611 2:-0.30008044 3:-0.29348279 4:-0.28100549 
0.010826 1:-0.29495219 2:-0.27309899 3:-0.29647939 4:-0.28005437 
0.010826 1:-0.26845625 2:-0.23262681 3:-0.29048619 4:-0.27889649 
0.010826 1:-0.22871233 2:-0.084228823 3:-0.28599128 4:-0.27794537 
0.010826 1:-0.33469611 2:-0.31357117 3:-0.23804563 4:-0.2743063 
0.010826 1:-0.30820016 2:-0.34055262 3:-0.18710337 4:-0.27438901 
0.010826 1:-0.33469611 2:-0.23262681 3:-0.25602525 4:-0.27418224 
0.010826 1:-0.22871233 2:-0.16517318 3:-0.24853374 4:-0.27302436 
0.010826 1:-0.40093597 2:-0.35404335 3:-0.22605922 4:-0.26854961 
0.010826 1:-0.34794408 2:-0.32706189 3:-0.25153034 4:-0.26854961 
0.010826 1:-0.32144813 2:-0.13819173 3:-0.25003204 4:-0.2679693 
0.010826 1:-0.30820016 2:-0.39451552 3:-0.20508299 4:-0.26440451 
0.010826 1:-0.38768799 2:-0.30008044 3:-0.24853374 4:-0.26515063 
0.010826 1:-0.29495219 2:-0.30008044 3:-0.25902185 4:-0.26531643 
0.010826 1:-0.29495219 2:-0.030265918 3:-0.24703544 4:-0.26494337 
0.010826 1:-0.32144813 2:-0.39451552 3:-0.2155711 4:-0.26258067 
0.010826 1:-0.38768799 2:-0.21913608 3:-0.25003204 4:-0.26311953 
0.010826 1:-0.20221639 2:0.023696986 3:-0.21856771 4:-0.26253921 
0.010826 1:-0.25520827 2:-0.097719549 3:-0.18860168 4:-0.26063247 
0.010826 1:-0.28170422 2:-0.36753407 3:-0.19759149 4:-0.26063247 
0.010826 1:-0.36119205 2:-0.15168245 3:-0.22456091 4:-0.26050812 
0.010826 1:-0.28170422 2:-0.27309899 3:-0.17811356 4:-0.25811203 
0.010826 1:-0.26845625 2:-0.20564536 3:-0.11218829 4:-0.25861062 
0.010826 1:-0.26845625 2:-0.32706189 3:-0.2080796 4:-0.25769654 
0.010826 1:-0.32144813 2:-0.11121028 3:-0.23355072 4:-0.25769654 
0.010826 1:-0.36119205 2:-0.21913608 3:-0.22755752 4:-0.25628385 
0.010826 1:-0.22871233 2:-0.21913608 3:-0.22755752 4:-0.25570216 
0.010826 1:-0.21546436 2:-0.17866391 3:-0.22156431 4:-0.25491272 
0.010826 1:-0.33469611 2:-0.4349877 3:-0.18410677 4:-0.25229511 
0.010826 1:-0.42743191 2:-0.23262681 3:-0.22755752 4:-0.25266905 
0.010826 1:-0.2419603 2:-0.19215463 3:-0.2140728 4:-0.25204581 
0.010826 1:-0.33469611 2:-0.46196915 3:-0.23504903 4:-0.24971904 
0.010826 1:-0.45392785 2:-0.21913608 3:-0.27849977 4:-0.25034228 
0.010826 1:-0.34794408 2:-0.3810248 3:-0.25302865 4:-0.24888805 
0.010826 1:-0.37444002 2:-0.124701 3:-0.27999808 4:-0.24891585 
0.010826 1:-0.28170422 2:-0.35404335 3:-0.22605922 4:-0.24675013 
0.010826 1:-0.34794408 2:-0.32706189 3:-0.24553714 4:-0.24683343 
0.010826 1:-0.32144813 2:-0.030265918 3:-0.25452695 4:-0.24666684 
0.010826 1:-0.30820016 2:-0.27309899 3:-0.2140728 4:-0.24504255 
0.010826 1:-0.26845625 2:-0.28658971 3:-0.22755752 4:-0.24525079 
0.010826 1:-0.28170422 2:-0.34055262 3:-0.23804563 4:-0.24246035 
0.010826 1:-0.33469611 2:-0.27309899 3:-0.25302865 4:-0.24470936 
0.010826 1:-0.26845625 2:-0.0032844662 3:-0.25153034 4:-0.24412628 
0.010826 1:-0.28170422 2:-0.25960826 3:-0.2155711 4:-0.23996145 
0.010826 1:-0.36119205 2:-0.28658971 3:-0.25902185 4:-0.2437098 
0.010826 1:-0.28170422 2:-0.24611754 3:-0.27250657 4:-0.2437931 
0.010826 1:-0.28170422 2:-0.17866391 3:-0.26651336 4:-0.24262694 
0.010826 1:-0.17572044 2:0.077659891 3:-0.25452695 4:-0.24162738 
0.010826 1:-0.28170422 2:-0.32706189 3:-0.22006601 4:-0.23958661 
0.010826 1:-0.32144813 2:-0.35404335 3:-0.24553714 4:-0.23954496 
0.010826 1:-0.34794408 2:-0.27309899 3:-0.25302865 4:-0.24012804 
0.010826 1:-0.26845625 2:-0.23262681 3:-0.25452695 4:-0.23879907 
0.010826 1:-0.22871233 2:-0.17866391 3:-0.23954393 4:-0.23792236 
0.010826 1:-0.33469611 2:-0.36753407 3:-0.22456091 4:-0.23575148 
0.010826 1:-0.36119205 2:-0.35404335 3:-0.25452695 4:-0.23641944 
0.010826 1:-0.34794408 2:-0.20564536 3:-0.26201846 4:-0.23658643 
0.010826 1:-0.18896842 2:-0.030265918 3:-0.19908979 4:-0.23366409 
0.010826 1:-0.29495219 2:-0.39451552 3:-0.20208639 4:-0.23366409 
0.010826 1:-0.38768799 2:-0.40800625 3:-0.24853374 4:-0.23403982 
0.010826 1:-0.40093597 2:-0.3810248 3:-0.27550317 4:-0.23470778 
0.010826 1:-0.37444002 2:-0.19215463 3:-0.27999808 4:-0.23491652 
0.010826 1:-0.25520827 2:-0.13819173 3:-0.23355072 4:-0.23249515 
0.010826 1:-0.30820016 2:-0.39451552 3:-0.25003204 4:-0.23307962 
0.010826 1:-0.38768799 2:-0.46196915 3:-0.29048619 4:-0.23328836 
0.010826 1:-0.45392785 2:-0.28658971 3:-0.30846581 4:-0.23383108 
0.010826 1:-0.28170422 2:-0.20564536 3:-0.29647939 4:-0.23391458 
0.010826 1:-0.33469611 2:-0.23262681 3:-0.27400487 4:-0.23266214 
0.010826 1:-0.38768799 2:-0.39451552 3:-0.31296071 4:-0.23362234 
0.010826 1:-0.38768799 2:-0.23262681 3:-0.32195052 4:-0.23378933 
0.010826 1:-0.30820016 2:-0.3810248 3:-0.28299468 4:-0.23278739 
0.010826 1:-0.37444002 2:-0.28658971 3:-0.3054692 4:-0.23370584 
0.010826 1:-0.34794408 2:-0.3810248 3:-0.31296071 4:-0.23403982 
0.010826 1:-0.37444002 2:-0.17866391 3:-0.32344882 4:-0.23399807 
0.010826 1:-0.30820016 2:-0.34055262 3:-0.27400487 4:-0.23366409 
0.010826 1:-0.33469611 2:-0.17866391 3:-0.28898788 4:-0.2344573 
0.010826 1:-0.25520827 2:-0.084228823 3:-0.25602525 4:-0.23362234 
0.010826 1:-0.38768799 2:-0.25960826 3:-0.23355072 4:-0.23324661 
0.010826 1:-0.25520827 2:-0.17866391 3:-0.23954393 4:-0.23353885 
0.010826 1:-0.32144813 2:-0.40800625 3:-0.2080796 4:-0.23120097 
0.010826 1:-0.40093597 2:-0.21913608 3:-0.24853374 4:-0.23174369 
0.010826 1:-0.21546436 2:-0.124701 3:-0.24403884 4:-0.23132621 
0.010826 1:-0.36119205 2:-0.40800625 3:-0.22905582 4:-0.22819513 
0.010826 1:-0.40093597 2:-0.21913608 3:-0.25902185 4:-0.22861261 
0.010826 1:-0.21546436 2:-0.084228823 3:-0.24703544 4:-0.2274203 
0.010826 1:-0.2419603 2:-0.25960826 3:-0.22006601 4:-0.225579 
0.010826 1:-0.36119205 2:-0.36753407 3:-0.25902185 4:-0.22490944 
0.010826 1:-0.36119205 2:-0.11121028 3:-0.27250657 4:-0.22457466 
0.010826 1:-0.26845625 2:-0.28658971 3:-0.22456091 4:-0.22160347 
0.010826 1:-0.28170422 2:-0.24611754 3:-0.23355072 4:-0.22214749 
0.010826 1:-0.33469611 2:-0.35404335 3:-0.25302865 4:-0.22151978 
0.010826 1:-0.34794408 2:-0.0032844662 3:-0.26351676 4:-0.22139423 
0.010826 1:-0.32144813 2:-0.28658971 3:-0.24553714 4:-0.2203062 
0.010826 1:-0.28170422 2:-0.23262681 3:-0.25302865 4:-0.22097576 
0.010826 1:-0.25520827 2:-0.24611754 3:-0.24553714 4:-0.21825566 
0.010826 1:-0.2419603 2:0.023696986 3:-0.24553714 4:-0.22018065 
0.010826 1:-0.25520827 2:-0.30008044 3:-0.20508299 4:-0.21976218 
0.010826 1:-0.29495219 2:-0.35404335 3:-0.22905582 4:-0.22018065 
0.010826 1:-0.34794408 2:-0.27309899 3:-0.24553714 4:-0.22122684 
0.010826 1:-0.26845625 2:-0.23262681 3:-0.25302865 4:-0.22168717 
0.010826 1:-0.17572044 2:0.01020626 3:-0.22605922 4:-0.22038989 
0.010826 1:-0.32144813 2:-0.39451552 3:-0.22156431 4:-0.22038989 
0.010826 1:-0.38768799 2:-0.34055262 3:-0.25452695 4:-0.22097576 
0.010826 1:-0.33469611 2:-0.23262681 3:-0.26351676 4:-0.22168717 
0.010826 1:-0.22871233 2:-0.15168245 3:-0.25602525 4:-0.22164532 
0.010826 1:-0.37444002 2:-0.35404335 3:-0.23954393 4:-0.22097576 
0.010826 1:-0.34794408 2:-0.32706189 3:-0.26501506 4:-0.22126869 
0.010826 1:-0.32144813 2:-0.17866391 3:-0.26501506 4:-0.22164532 
0.010826 1:-0.30820016 2:-0.42149698 3:-0.20508299 4:-0.22018065 
0.010826 1:-0.41418394 2:-0.36753407 3:-0.25452695 4:-0.22080837 
0.010826 1:-0.36119205 2:-0.31357117 3:-0.26950996 4:-0.22085022 
0.010826 1:-0.30820016 2:-0.17866391 3:-0.26201846 4:-0.22114315 
0.010826 1:-0.28170422 2:-0.17866391 3:-0.22456091 4:-0.21905077 
0.010826 1:-0.32144813 2:-0.3810248 3:-0.24853374 4:-0.22005511 
0.010826 1:-0.37444002 2:-0.35404335 3:-0.28599128 4:-0.2202225 
0.010826 1:-0.34794408 2:-0.21913608 3:-0.29048619 4:-0.21980402 
0.010826 1:-0.21546436 2:-0.057247371 3:-0.26801166 4:-0.21955294 
0.010826 1:-0.30820016 2:-0.25960826 3:-0.25752355 4:-0.21833936 
0.010826 1:-0.25520827 2:-0.097719549 3:-0.25003204 4:-0.21762795 
0.010826 1:-0.34794408 2:-0.23262681 3:-0.2155711 4:-0.21581916 
0.010826 1:-0.26845625 2:-0.23262681 3:-0.22006601 4:-0.21565137 
0.010826 1:-0.22871233 2:-0.17866391 3:-0.17511696 4:-0.21502215 
0.010826 1:-0.30820016 2:-0.39451552 3:-0.18260847 4:-0.21456072 
0.010826 1:-0.38768799 2:-0.24611754 3:-0.22006601 4:-0.21539968 
0.010826 1:-0.2419603 2:-0.24611754 3:-0.22755752 4:-0.21556747 
0.010826 1:-0.2419603 2:-0.17866391 3:-0.2155711 4:-0.21514799 
0.010826 1:-0.37444002 2:-0.40800625 3:-0.22006601 4:-0.21523189 
0.010826 1:-0.40093597 2:-0.24611754 3:-0.25902185 4:-0.21569332 
0.010826 1:-0.2419603 2:-0.15168245 3:-0.25153034 4:-0.21586111 
0.010826 1:-0.20221639 2:-0.124701 3:-0.2095779 4:-0.21474046 
0.010826 1:-0.25520827 2:-0.24611754 3:-0.22006601 4:-0.21561926 
0.010826 1:-0.40093597 2:-0.4349877 3:-0.26801166 4:-0.21704208 
0.010826 1:-0.42743191 2:-0.17866391 3:-0.29797769 4:-0.21787903 
0.010826 1:-0.36119205 2:-0.35404335 3:-0.26950996 4:-0.21892522 
0.010826 1:-0.34794408 2:-0.057247371 3:-0.28149638 4:-0.2193437 
0.010826 1:-0.25520827 2:-0.25960826 3:-0.22306261 4:-0.21842305 
0.010826 1:-0.25520827 2:-0.21913608 3:-0.23055412 4:-0.21926 
0.010826 1:-0.29495219 2:-0.25960826 3:-0.23954393 4:-0.21909261 
0.010826 1:-0.25520827 2:0.037187712 3:-0.23654733 4:-0.21888338 
0.010826 1:-0.36119205 2:-0.25960826 3:-0.2155711 4:-0.21775349 
0.010826 1:-0.25520827 2:-0.21913608 3:-0.22456091 4:-0.21825566 
0.010826 1:-0.26845625 2:-0.19215463 3:-0.22156431 4:-0.21766979 
0.010826 1:-0.18896842 2:0.050678438 3:-0.21856771 4:-0.21704208 
0.010826 1:-0.30820016 2:-0.34055262 3:-0.20508299 4:-0.21616328 
0.010826 1:-0.33469611 2:-0.36753407 3:-0.23504903 4:-0.2166236 
0.010826 1:-0.36119205 2:-0.28658971 3:-0.25602525 4:-0.21716762 
0.010826 1:-0.28170422 2:-0.23262681 3:-0.26351676 4:-0.21779534 
0.010826 1:-0.40093597 2:-0.3810248 3:-0.25902185 4:-0.2167073 
0.010826 1:-0.37444002 2:-0.40800625 3:-0.28599128 4:-0.21729316 
0.010826 1:-0.40093597 2:-0.24611754 3:-0.29647939 4:-0.21804642 
0.010826 1:-0.25520827 2:-0.16517318 3:-0.27400487 4:-0.21825566 
0.010826 1:-0.38768799 2:-0.35404335 3:-0.28748958 4:-0.21829751 
0.010826 1:-0.34794408 2:-0.39451552 3:-0.3054692 4:-0.21875783 
0.010826 1:-0.38768799 2:-0.19215463 3:-0.3039709 4:-0.21921816 
0.010826 1:-0.32144813 2:-0.46196915 3:-0.24403884 4:-0.21863229 
0.010826 1:-0.45392785 2:-0.40800625 3:-0.29048619 4:-0.21779534 
0.010826 1:-0.40093597 2:-0.39451552 3:-0.30846581 4:-0.21997141 
0.010826 1:-0.38768799 2:-0.16517318 3:-0.30846581 4:-0.22026435 
0.010826 1:-0.49367177 2:-0.32706189 3:-0.32944203 4:-0.22126869 
0.010826 1:-0.32144813 2:-0.30008044 3:-0.32944203 4:-0.22105945 
0.010826 1:-0.29495219 2:-0.16517318 3:-0.31146241 4:-0.22101761 
0.010826 1:-0.36119205 2:-0.28658971 3:-0.28599128 4:-0.22068282 
0.010826 1:-0.40093597 2:-0.42149698 3:-0.30996411 4:-0.22218934 
0.010826 1:-0.41418394 2:-0.40800625 3:-0.25902185 4:-0.22256597 
0.010826 1:-0.40093597 2:-0.24611754 3:-0.34891995 4:-0.22252412 
0.010826 1:-0.36119205 2:-0.35404335 3:-0.31146241 4:-0.2228589 
0.010826 1:-0.34794408 2:-0.34055262 3:-0.32944203 4:-0.22357031 
0.010826 1:-0.33469611 2:-0.35404335 3:-0.32644543 4:-0.22419803 
0.010826 1:-0.32144813 2:-0.40800625 3:-0.27550317 4:-0.22403064 
0.010826 1:-0.40093597 2:-0.36753407 3:-0.31146241 4:-0.22499313 
0.010826 1:-0.36119205 2:-0.24611754 3:-0.32794373 4:-0.22570454 
0.010826 1:-0.32144813 2:-0.31357117 3:-0.31146241 4:-0.22562085 
0.010826 1:-0.30820016 2:-0.124701 3:-0.30846581 4:-0.22541161 
0.010826 1:-0.18896842 2:-0.124701 3:-0.18710337 4:-0.225579 
0.010826 1:-0.30820016 2:-0.39451552 3:-0.27400487 4:-0.22603933 
0.010826 1:-0.38768799 2:-0.35404335 3:-0.31146241 4:-0.22656697 
0.010826 1:-0.34794408 2:-0.17866391 3:-0.31445901 4:-0.22710969 
0.010826 1:-0.22871233 2:-0.057247371 3:-0.27100827 4:-0.22648347 
0.010826 1:-0.29495219 2:-0.36753407 3:-0.24703544 4:-0.22666704 
0.010826 1:-0.36119205 2:-0.35404335 3:-0.27400487 4:-0.22710969 
0.010826 1:-0.34794408 2:-0.084228823 3:-0.27849977 4:-0.22704367 
0.010826 1:-0.29495219 2:-0.34055262 3:-0.23954393 4:-0.22562085 
0.010826 1:-0.33469611 2:-0.31357117 3:-0.25602525 4:-0.22574639 
0.010826 1:-0.30820016 2:0.01020626 3:-0.25752355 4:-0.2256627 
0.010826 1:-0.30820016 2:-0.21913608 3:-0.21706941 4:-0.22524422 
0.010826 1:-0.32144813 2:-0.32706189 3:-0.23954393 4:-0.22549531 
0.010826 1:-0.32144813 2:-0.19215463 3:-0.24853374 4:-0.22553715 
0.010826 1:-0.18896842 2:0.077659891 3:-0.23654733 4:-0.22507683 
0.010826 1:-0.37444002 2:-0.27309899 3:-0.23355072 4:-0.22578824 
0.010826 1:-0.33469611 2:-0.28658971 3:-0.24553714 4:-0.22578824 
0.010826 1:-0.28170422 2:-0.13819173 3:-0.25302865 4:-0.225579 
0.010826 1:-0.32144813 2:-0.28658971 3:-0.23205242 4:-0.22516052 
0.010826 1:-0.38768799 2:-0.27309899 3:-0.27400487 4:-0.22670889 
0.010826 1:-0.26845625 2:-0.25960826 3:-0.27550317 4:-0.22658335 
0.010826 1:-0.25520827 2:-0.17866391 3:-0.26201846 4:-0.22616487 
0.010826 1:-0.34794408 2:-0.34055262 3:-0.23804563 4:-0.22587193 
0.010826 1:-0.33469611 2:-0.32706189 3:-0.25902185 4:-0.2264578 
0.010826 1:-0.32144813 2:-0.21913608 3:-0.25902185 4:-0.22708552 
0.010826 1:-0.40093597 2:-0.31357117 3:-0.24403884 4:-0.22439608 
0.010826 1:-0.30820016 2:-0.25960826 3:-0.26052015 4:-0.22736017 
0.010826 1:-0.25520827 2:-0.11121028 3:-0.25003204 4:-0.22736017 
0.010826 1:-0.18896842 2:-0.057247371 3:-0.20358469 4:-0.22648347 
0.010826 1:-0.37444002 2:-0.42149698 3:-0.23055412 4:-0.22769416 
0.010826 1:-0.41418394 2:-0.32706189 3:-0.27100827 4:-0.22848736 
0.010826 1:-0.32144813 2:-0.25960826 3:-0.27849977 4:-0.22861261 
0.010826 1:-0.25520827 2:-0.030265918 3:-0.26201846 4:-0.22857086 
0.010826 1:-0.20221639 2:-0.043756645 3:-0.22456091 4:-0.22715143 
0.010826 1:-0.33469611 2:-0.32706189 3:-0.24703544 4:-0.22827862 
0.010826 1:-0.32144813 2:-0.20564536 3:-0.26052015 4:-0.22857086 
0.010826 1:-0.20221639 2:-0.070738097 3:-0.24104223 4:-0.22806989 
0.010826 1:-0.21546436 2:-0.13819173 3:-0.16163225 4:-0.22644172 
0.010826 1:-0.26845625 2:-0.36753407 3:-0.17212036 4:-0.22744367 
0.010826 1:-0.36119205 2:-0.30008044 3:-0.2080796 4:-0.22836212 
0.010826 1:-0.29495219 2:-0.17866391 3:-0.2155711 4:-0.22823688 
0.010826 1:-0.17572044 2:-0.0032844662 3:-0.19759149 4:-0.22744367 
0.010826 1:-0.26845625 2:-0.13819173 3:-0.18560507 4:-0.22614949 
0.010826 1:-0.30820016 2:-0.34055262 3:-0.20208639 4:-0.22700182 
0.010826 1:-0.33469611 2:-0.21913608 3:-0.22456091 4:-0.22700182 
0.010826 1:-0.21546436 2:-0.13819173 3:-0.21856771 4:-0.22624856 
0.010826 1:-0.26845625 2:-0.36753407 3:-0.18560507 4:-0.22562085 
0.010826 1:-0.36119205 2:-0.21913608 3:-0.22456091 4:-0.22633226 
0.010826 1:-0.36119205 2:-0.35404335 3:-0.24254053 4:-0.22683443 
0.010826 1:-0.34794408 2:-0.15168245 3:-0.26651336 4:-0.22723493 
0.010826 1:-0.30820016 2:-0.4349877 3:-0.24703544 4:-0.22652522 
0.010826 1:-0.42743191 2:-0.27309899 3:-0.28449298 4:-0.22740192 
0.010826 1:-0.29495219 2:-0.25960826 3:-0.27700147 4:-0.22794464 
0.010826 1:-0.25520827 2:-0.19215463 3:-0.28149638 4:-0.22786115 
0.010826 1:-0.37444002 2:-0.40800625 3:-0.26651336 4:-0.22806989 
0.010826 1:-0.40093597 2:-0.23262681 3:-0.29647939 4:-0.22882135 
0.010826 1:-0.29495219 2:-0.35404335 3:-0.23055412 4:-0.22794464 
0.010826 1:-0.34794408 2:-0.39451552 3:-0.25302865 4:-0.22815338 
0.010826 1:-0.38768799 2:-0.20564536 3:-0.27849977 4:-0.22857086 
0.010826 1:-0.26845625 2:-0.30008044 3:-0.23205242 4:-0.22798639 
0.010826 1:-0.37444002 2:-0.30008044 3:-0.26351676 4:-0.22923882 
0.010826 1:-0.29495219 2:-0.34055262 3:-0.27700147 4:-0.2296563 
0.010826 1:-0.33469611 2:-0.34055262 3:-0.28449298 4:-0.2296563 
0.010826 1:-0.33469611 2:-0.11121028 3:-0.28898788 4:-0.22957281 
0.010826 1:-0.32144813 2:-0.31357117 3:-0.24703544 4:-0.22894659 
0.010826 1:-0.30820016 2:-0.39451552 3:-0.26950996 4:-0.22932232 
0.010826 1:-0.38768799 2:-0.30008044 3:-0.28748958 4:-0.23044951 
0.010826 1:-0.29495219 2:-0.28658971 3:-0.29048619 4:-0.23044951 
0.010826 1:-0.28170422 2:-0.25960826 3:-0.27999808 4:-0.23011553 
0.010826 1:-0.25520827 2:-0.070738097 3:-0.27550317 4:-0.2296563 
0.010826 1:-0.38768799 2:-0.34055262 3:-0.26501506 4:-0.22948931 
0.010826 1:-0.33469611 2:-0.35404335 3:-0.28599128 4:-0.2297398 
0.010826 1:-0.34794408 2:-0.25960826 3:-0.28898788 4:-0.23040776 
0.010826 1:-0.25520827 2:-0.20564536 3:-0.28299468 4:-0.23024077 
0.010826 1:-0.37444002 2:-0.34055262 3:-0.24703544 4:-0.22840387 
0.010826 1:-0.33469611 2:-0.27309899 3:-0.26052015 4:-0.22840387 
0.010826 1:-0.26845625 2:-0.15168245 3:-0.24703544 4:-0.22852911 
0.010826 1:-0.33469611 2:-0.40800625 3:-0.22006601 4:-0.22700182 
0.010826 1:-0.40093597 2:-0.35404335 3:-0.26201846 4:-0.22756891 
0.010826 1:-0.34794408 2:-0.27309899 3:-0.27999808 4:-0.22769416 
0.010826 1:-0.26845625 2:-0.030265918 3:-0.26801166 4:-0.22716921 
0.010826 1:-0.22871233 2:-0.13819173 3:-0.22755752 4:-0.225579 
0.010826 1:-0.38768799 2:-0.46196915 3:-0.26651336 4:-0.22687628 
0.010826 1:-0.45392785 2:-0.31357117 3:-0.3009743 4:-0.22761066 
0.010826 1:-0.30820016 2:-0.20564536 3:-0.29797769 4:-0.22761066 
0.010826 1:-0.26845625 2:-0.19215463 3:-0.25902185 4:-0.22665046 
0.010826 1:-0.29495219 2:-0.36753407 3:-0.27250657 4:-0.22756891 
0.010826 1:-0.36119205 2:-0.39451552 3:-0.29797769 4:-0.22857086 
0.010826 1:-0.38768799 2:-0.21913608 3:-0.31146241 4:-0.22898834 
0.010826 1:-0.30820016 2:-0.23262681 3:-0.23654733 4:-0.22769416 
0.010826 1:-0.32144813 2:-0.34055262 3:-0.25153034 4:-0.2286961 
0.010826 1:-0.33469611 2:-0.31357117 3:-0.26801166 4:-0.22932232 
0.010826 1:-0.40093597 2:-0.27309899 3:-0.25602525 4:-0.22898834 
0.010826 1:-0.29495219 2:-0.32706189 3:-0.26651336 4:-0.22990679 
0.010826 1:-0.32144813 2:-0.28658971 3:-0.27700147 4:-0.23015728 
0.010826 1:-0.28170422 2:-0.124701 3:-0.27250657 4:-0.22990679 
0.010826 1:-0.34794408 2:-0.39451552 3:-0.24104223 4:-0.22936407 
0.010826 1:-0.38768799 2:-0.24611754 3:-0.27849977 4:-0.22994854 
0.010826 1:-0.29495219 2:-0.21913608 3:-0.26950996 4:-0.23040776 
0.010826 1:-0.32144813 2:-0.42149698 3:-0.16912375 4:-0.23032427 
0.010826 1:-0.41418394 2:-0.25960826 3:-0.29048619 4:-0.23095048 
0.010826 1:-0.36119205 2:-0.40800625 3:-0.24553714 4:-0.23049126 
0.010826 1:-0.40093597 2:-0.25960826 3:-0.27400487 4:-0.23111747 
0.010826 1:-0.25520827 2:-0.15168245 3:-0.26651336 4:-0.23090874 
0.010826 1:-0.36119205 2:-0.36753407 3:-0.26351676 4:-0.23115922 
0.010826 1:-0.36119205 2:-0.20564536 3:-0.27849977 4:-0.23136796 
0.010826 1:-0.20221639 2:-0.030265918 3:-0.26052015 4:-0.23090874 
0.010826 1:-0.36119205 2:-0.31357117 3:-0.25003204 4:-0.23132621 
0.010826 1:-0.30820016 2:-0.36753407 3:-0.26651336 4:-0.23191068 
0.010826 1:-0.36119205 2:-0.32706189 3:-0.28149638 4:-0.23203593 
0.010826 1:-0.32144813 2:-0.17866391 3:-0.29048619 4:-0.23182719 
0.010826 1:-0.26845625 2:-0.30008044 3:-0.24853374 4:-0.23086699 
0.010826 1:-0.41418394 2:-0.30008044 3:-0.28898788 4:-0.23270389 
0.010826 1:-0.29495219 2:-0.28658971 3:-0.29498109 4:-0.23291263 
0.010826 1:-0.28170422 2:-0.24611754 3:-0.28599128 4:-0.23262039 
0.010826 1:-0.40093597 2:-0.19215463 3:-0.29198449 4:-0.23378933 
0.010826 1:-0.38768799 2:-0.35404335 3:-0.23804563 4:-0.23220292 
0.010826 1:-0.34794408 2:-0.35404335 3:-0.26201846 4:-0.23241166 
0.010826 1:-0.34794408 2:-0.17866391 3:-0.16462885 4:-0.23295438 
0.010826 1:-0.30820016 2:-0.42149698 3:-0.20058809 4:-0.23153495 
0.010826 1:-0.41418394 2:-0.34055262 3:-0.25153034 4:-0.23236991 
0.010826 1:-0.33469611 2:-0.34055262 3:-0.26801166 4:-0.2324534 
0.010826 1:-0.33469611 2:-0.13819173 3:-0.26201846 4:-0.23153495 
0.010826 1:-0.40093597 2:-0.44847843 3:-0.24553714 4:-0.23312137 
0.010826 1:-0.44067988 2:-0.36753407 3:-0.29797769 4:-0.23395632 
0.010826 1:-0.36119205 2:-0.32706189 3:-0.3039709 4:-0.23399807 
0.010826 1:-0.32144813 2:-0.13819173 3:-0.29348279 4:-0.23429031 
0.010826 1:-0.28170422 2:-0.20564536 3:-0.26801166 4:-0.23424856 
0.010826 1:-0.37444002 2:-0.44847843 3:-0.29498109 4:-0.23575148 
0.010826 1:-0.44067988 2:-0.34055262 3:-0.33094033 4:-0.23616896 
0.010826 1:-0.33469611 2:-0.25960826 3:-0.32344882 4:-0.23600197 
0.010826 1:-0.25520827 2:-0.084228823 3:-0.3024726 4:-0.23604371 
0.010826 1:-0.33469611 2:-0.25960826 3:-0.28449298 4:-0.23646119 
0.010826 1:-0.37444002 2:-0.4349877 3:-0.3024726 4:-0.23758838 
0.010826 1:-0.42743191 2:-0.31357117 3:-0.32794373 4:-0.23775537 
0.010826 1:-0.30820016 2:-0.21913608 3:-0.32045222 4:-0.23800397 
0.010826 1:-0.26845625 2:-0.21913608 3:-0.28898788 4:-0.23742089 
0.010826 1:-0.34794408 2:-0.36753407 3:-0.28898788 4:-0.23796411 
0.010826 1:-0.36119205 2:-0.13819173 3:-0.3009743 4:-0.23837881 
0.010826 1:-0.36119205 2:-0.36753407 3:-0.19609318 4:-0.23754584 
0.010826 1:-0.36119205 2:-0.24611754 3:-0.27400487 4:-0.23808727 
0.010826 1:-0.32144813 2:-0.30008044 3:-0.27849977 4:-0.23850375 
0.010826 1:-0.29495219 2:-0.11121028 3:-0.28748958 4:-0.2385454 
0.010826 1:-0.37444002 2:-0.40800625 3:-0.27849977 4:-0.2386287 
0.010826 1:-0.40093597 2:-0.19215463 3:-0.299476 4:-0.23933672 
0.010826 1:-0.25520827 2:-0.13819173 3:-0.26351676 4:-0.23908683 
0.010826 1:-0.34794408 2:-0.39451552 3:-0.25302865 4:-0.23979485 
0.010826 1:-0.38768799 2:-0.34055262 3:-0.28449298 4:-0.24046123 
0.010826 1:-0.33469611 2:-0.13819173 3:-0.29647939 4:-0.24083606 
0.010826 1:-0.40093597 2:-0.39451552 3:-0.27100827 4:-0.2412109 
0.010826 1:-0.38768799 2:-0.34055262 3:-0.29647939 4:-0.24146079 
0.010826 1:-0.33469611 2:-0.070738097 3:-0.29498109 4:-0.24146079 
0.010826 1:-0.33469611 2:-0.31357117 3:-0.26950996 4:-0.24062782 
0.010826 1:-0.30820016 2:-0.31357117 3:-0.28748958 4:-0.24162738 
0.010826 1:-0.30820016 2:-0.3810248 3:-0.29647939 4:-0.24200222 
0.010826 1:-0.37444002 2:-0.34055262 3:-0.31445901 4:-0.24191892 
0.010826 1:-0.33469611 2:-0.0032844662 3:-0.3069675 4:-0.24179397 
0.010826 1:-0.33469611 2:-0.31357117 3:-0.27550317 4:-0.24079441 
0.010826 1:-0.30820016 2:-0.21913608 3:-0.28898788 4:-0.24162738 
0.010826 1:-0.30820016 2:-0.30008044 3:-0.27550317 4:-0.24129419 
0.010826 1:-0.29495219 2:0.023696986 3:-0.27400487 4:-0.2411276 
0.010826 1:-0.33469611 2:-0.34055262 3:-0.25153034 4:-0.24041958 
0.010826 1:-0.33469611 2:-0.30008044 3:-0.26201846 4:-0.24083606 
0.010826 1:-0.29495219 2:-0.24611754 3:-0.26950996 4:-0.24146079 
0.010826 1:-0.22871233 2:-0.043756645 3:-0.25302865 4:-0.24000309 
0.010826 1:-0.38768799 2:-0.34055262 3:-0.26950996 4:-0.2399198 
0.010826 1:-0.33469611 2:-0.28658971 3:-0.28149638 4:-0.24012804 
0.010826 1:-0.28170422 2:-0.17866391 3:-0.27550317 4:-0.23829551 
0.010826 1:-0.29495219 2:-0.39451552 3:-0.23804563 4:-0.2385454 
0.010826 1:-0.38768799 2:-0.34055262 3:-0.26801166 4:-0.23917013 
0.010826 1:-0.33469611 2:-0.24611754 3:-0.27700147 4:-0.23908683 
0.010826 1:-0.2419603 2:-0.084228823 3:-0.26052015 4:-0.23842334 
0.010826 1:-0.21546436 2:-0.097719549 3:-0.22006601 4:-0.23646119 
0.010826 1:-0.38768799 2:-0.46196915 3:-0.25003204 4:-0.23729615 
0.010826 1:-0.45392785 2:-0.31357117 3:-0.28449298 4:-0.23758838 
0.010826 1:-0.30820016 2:-0.24611754 3:-0.28599128 4:-0.23746314 
0.010826 1:-0.2419603 2:-0.070738097 3:-0.26950996 4:-0.2371709 
0.010826 1:-0.25520827 2:-0.11121028 3:-0.25602525 4:-0.2362107 
0.010826 1:-0.37444002 2:-0.42149698 3:-0.28898788 4:-0.23671168 
0.010826 1:-0.41418394 2:-0.23262681 3:-0.31146241 4:-0.23675343 
0.010826 1:-0.28170422 2:-0.23262681 3:-0.23804563 4:-0.23504177 
0.010826 1:-0.30820016 2:-0.3810248 3:-0.24553714 4:-0.23575148 
0.010826 1:-0.37444002 2:-0.36753407 3:-0.27550317 4:-0.23596022 
0.010826 1:-0.36119205 2:-0.21913608 3:-0.28748958 4:-0.23587672 
0.010826 1:-0.21546436 2:-0.057247371 3:-0.26950996 4:-0.23545924 
0.010826 1:-0.34794408 2:-0.23262681 3:-0.25302865 4:-0.23529225 
0.010826 1:-0.29495219 2:-0.34055262 3:-0.26052015 4:-0.23575148 
0.010826 1:-0.33469611 2:-0.27309899 3:-0.27250657 4:-0.23587672 
0.010826 1:-0.26845625 2:-0.17866391 3:-0.26801166 4:-0.23558449 
0.010826 1:-0.44067988 2:-0.24611754 3:-0.26651336 4:-0.23608546 
0.010826 1:-0.34794408 2:-0.31357117 3:-0.27100827 4:-0.23650294 
0.010826 1:-0.30820016 2:-0.17866391 3:-0.27999808 4:-0.23654469 
0.010826 1:-0.30820016 2:-0.40800625 3:-0.23504903 4:-0.2362107 
0.010826 1:-0.40093597 2:-0.19215463 3:-0.27700147 4:-0.23687867 
0.010826 1:-0.28170422 2:-0.27309899 3:-0.25003204 4:-0.23671168 
0.010826 1:-0.26845625 2:-0.13819173 3:-0.25302865 4:-0.23654469 
0.010826 1:-0.37444002 2:-0.39451552 3:-0.25003204 4:-0.23733789 
0.010826 1:-0.38768799 2:-0.21913608 3:-0.28149638 4:-0.23775537 
0.010826 1:-0.22871233 2:-0.16517318 3:-0.23055412 4:-0.23621309 
0.010826 1:-0.29495219 2:-0.40800625 3:-0.25302865 4:-0.23758838 
0.010826 1:-0.40093597 2:-0.42149698 3:-0.28748958 4:-0.23783887 
0.010826 1:-0.41418394 2:-0.15168245 3:-0.3054692 4:-0.23842045 
0.010826 1:-0.32144813 2:-0.39451552 3:-0.27999808 4:-0.23867035 
0.010826 1:-0.38768799 2:-0.3810248 3:-0.3054692 4:-0.23937837 
0.010826 1:-0.37444002 2:-0.043756645 3:-0.31445901 4:-0.23946166 
0.010826 1:-0.2419603 2:-0.17866391 3:-0.25153034 4:-0.23800397 
0.010826 1:-0.29495219 2:-0.31357117 3:-0.26052015 4:-0.2384621 
0.010826 1:-0.30820016 2:-0.32706189 3:-0.27700147 4:-0.23921177 
0.010826 1:-0.32144813 2:-0.34055262 3:-0.28599128 4:-0.24004474 
0.010826 1:-0.33469611 2:-0.36753407 3:-0.29348279 4:-0.24029463 
0.010826 1:-0.36119205 2:-0.057247371 3:-0.29797769 4:-0.24016969 
0.010826 1:-0.36119205 2:-0.32706189 3:-0.28299468 4:-0.24021134 
0.010826 1:-0.32144813 2:-0.28658971 3:-0.299476 4:-0.2410443 
0.010826 1:-0.32144813 2:-0.30008044 3:-0.299476 4:-0.2411276 
0.010826 1:-0.29495219 2:-0.084228823 3:-0.29647939 4:-0.24075276 
0.010826 1:-0.38768799 2:-0.42149698 3:-0.28748958 4:-0.24096101 
0.010826 1:-0.41418394 2:-0.36753407 3:-0.30846581 4:-0.24162738 
0.010826 1:-0.36119205 2:-0.27309899 3:-0.31745562 4:-0.24262694 
0.010826 1:-0.33469611 2:-0.28658971 3:-0.30846581 4:-0.24275189 
0.010826 1:-0.28170422 2:-0.124701 3:-0.30846581 4:-0.24262694 
0.010826 1:-0.44067988 2:-0.3810248 3:-0.31745562 4:-0.24445947 
0.010826 1:-0.37444002 2:-0.3810248 3:-0.33693354 4:-0.24495925 
0.010826 1:-0.37444002 2:-0.24611754 3:-0.33543524 4:-0.24570892 
0.010826 1:-0.30820016 2:-0.44847843 3:-0.25602525 4:-0.24558398 
0.010826 1:-0.44067988 2:-0.32706189 3:-0.299476 4:-0.24650024 
0.010826 1:-0.32144813 2:-0.34055262 3:-0.3054692 4:-0.24666684 
0.010826 1:-0.33469611 2:-0.15168245 3:-0.29348279 4:-0.24729156 
0.010826 1:-0.32144813 2:-0.4349877 3:-0.24104223 4:-0.24687508 
0.010826 1:-0.42743191 2:-0.32706189 3:-0.28299468 4:-0.24737486 
0.010826 1:-0.32144813 2:-0.27309899 3:-0.28449298 4:-0.24724991 
0.010826 1:-0.2419603 2:-0.16517318 3:-0.22605922 4:-0.24604211 
0.010826 1:-0.30820016 2:-0.47545988 3:-0.24254053 4:-0.24675013 
0.010826 1:-0.46717583 2:-0.31357117 3:-0.28599128 4:-0.24724991 
0.010826 1:-0.30820016 2:-0.21913608 3:-0.28449298 4:-0.24687508 
0.010826 1:-0.21546436 2:-0.030265918 3:-0.26052015 4:-0.24670848 
0.010826 1:-0.2419603 2:-0.31357117 3:-0.17511696 4:-0.24570892 
0.010826 1:-0.30820016 2:-0.21913608 3:-0.25602525 4:-0.246292 
0.010826 1:-0.37444002 2:-0.42149698 3:-0.27700147 4:-0.24716662 
0.010826 1:-0.41418394 2:-0.24611754 3:-0.3054692 4:-0.24729156 
0.010826 1:-0.21546436 2:-0.057247371 3:-0.26950996 4:-0.24675013 
0.010826 1:-0.32144813 2:-0.35404335 3:-0.26651336 4:-0.24687508 
0.010826 1:-0.34794408 2:-0.23262681 3:-0.28898788 4:-0.24641695 
0.010826 1:-0.32144813 2:-0.35404335 3:-0.28898788 4:-0.24791629 
0.010826 1:-0.34794408 2:-0.16517318 3:-0.3039709 4:-0.24791629 
0.010826 1:-0.33469611 2:-0.40800625 3:-0.26501506 4:-0.24770805 
0.010826 1:-0.40093597 2:-0.21913608 3:-0.29348279 4:-0.24841607 
0.010826 1:-0.32144813 2:-0.31357117 3:-0.27849977 4:-0.24833277 
0.010826 1:-0.30820016 2:-0.13819173 3:-0.28748958 4:-0.24724991 
0.010826 1:-0.29495219 2:-0.39451552 3:-0.25752355 4:-0.24789086 
0.010826 1:-0.38768799 2:-0.39451552 3:-0.28898788 4:-0.2487634 
0.010826 1:-0.38768799 2:-0.21913608 3:-0.31146241 4:-0.249262 
0.010826 1:-0.26845625 2:-0.16517318 3:-0.28599128 4:-0.2485972 
0.010826 1:-0.37444002 2:-0.44847843 3:-0.28149638 4:-0.2490127 
0.010826 1:-0.44067988 2:-0.3810248 3:-0.31745562 4:-0.24992679 
0.010826 1:-0.37444002 2:-0.16517318 3:-0.32644543 4:-0.25009298 
0.010826 1:-0.26845625 2:-0.16517318 3:-0.28898788 4:-0.24905425 
0.010826 1:-0.34794408 2:-0.4349877 3:-0.3039709 4:-0.25025918 
0.010826 1:-0.42743191 2:-0.35404335 3:-0.33243863 4:-0.25092397 
0.010826 1:-0.34794408 2:-0.097719549 3:-0.32944203 4:-0.25079933 
0.010826 1:-0.28170422 2:-0.31357117 3:-0.26950996 4:-0.24735072 
0.010826 1:-0.30820016 2:-0.36753407 3:-0.28599128 4:-0.25059158 
0.010826 1:-0.36119205 2:-0.3810248 3:-0.29797769 4:-0.25163031 
0.010826 1:-0.37444002 2:-0.35404335 3:-0.31445901 4:-0.25221201 
0.010826 1:-0.34794408 2:-0.016775192 3:-0.31445901 4:-0.25212891 
0.010826 1:-0.25520827 2:-0.25960826 3:-0.25752355 4:-0.25092397 
0.010826 1:-0.33469611 2:-0.28658971 3:-0.27999808 4:-0.25171341 
0.010826 1:-0.37444002 2:-0.36753407 3:-0.3024726 4:-0.2529599 
0.010826 1:-0.36119205 2:-0.27309899 3:-0.30846581 4:-0.253043 
0.010826 1:-0.26845625 2:0.023696986 3:-0.29797769 4:-0.2526275 
0.010826 1:-0.29495219 2:-0.31357117 3:-0.26501506 4:-0.25200426 
0.010826 1:-0.42743191 2:-0.32706189 3:-0.30846581 4:-0.25316764 
0.010826 1:-0.32144813 2:-0.31357117 3:-0.31595731 4:-0.25374934 
0.010826 1:-0.30820016 2:-0.31357117 3:-0.31296071 4:-0.25387399 
0.010826 1:-0.30820016 2:-0.21913608 3:-0.31595731 4:-0.25362469 
0.010826 1:-0.21546436 2:-0.016775192 3:-0.29797769 4:-0.2528768 
0.010826 1:-0.29495219 2:-0.36753407 3:-0.28449298 4:-0.2525444 
0.010826 1:-0.36119205 2:-0.39451552 3:-0.3054692 4:-0.25320919 
0.010826 1:-0.38768799 2:-0.32706189 3:-0.31595731 4:-0.25358314 
0.010826 1:-0.32144813 2:-0.19215463 3:-0.31745562 4:-0.25399863 
0.010826 1:-0.22871233 2:-0.043756645 3:-0.26950996 4:-0.2527106 
0.010826 1:-0.32144813 2:-0.4349877 3:-0.27100827 4:-0.25350004 
0.010826 1:-0.42743191 2:-0.3810248 3:-0.299476 4:-0.25433103 
0.010826 1:-0.37444002 2:-0.28658971 3:-0.30846581 4:-0.25453878 
0.010826 1:-0.28170422 2:-0.13819173 3:-0.299476 4:-0.25470497 
0.010826 1:-0.2419603 2:-0.097719549 3:-0.25602525 4:-0.25329229 
0.010826 1:-0.34794408 2:-0.50244133 3:-0.26950996 4:-0.25420638 
0.010826 1:-0.49367177 2:-0.34055262 3:-0.3039709 4:-0.25507892 
0.010826 1:-0.33469611 2:-0.25960826 3:-0.3054692 4:-0.25487117 
0.010826 1:-0.25520827 2:-0.16517318 3:-0.28599128 4:-0.25482962 
0.010826 1:-0.40093597 2:-0.46196915 3:-0.3054692 4:-0.25566061 
0.010826 1:-0.45392785 2:-0.32706189 3:-0.33843184 4:-0.25599301 
0.010826 1:-0.32144813 2:-0.23262681 3:-0.33543524 4:-0.25578526 
0.010826 1:-0.37444002 2:-0.42149698 3:-0.299476 4:-0.25603456 
0.010826 1:-0.41418394 2:-0.24611754 3:-0.31296071 4:-0.2563254 
0.010826 1:-0.29495219 2:-0.34055262 3:-0.24553714 4:-0.25536977 
0.010826 1:-0.33469611 2:-0.19215463 3:-0.26351676 4:-0.25599301 
0.010826 1:-0.30820016 2:-0.42149698 3:-0.26950996 4:-0.25645005 
0.010826 1:-0.41418394 2:-0.13819173 3:-0.29198449 4:-0.25661625 
0.010826 1:-0.34794408 2:-0.35404335 3:-0.25153034 4:-0.25603456 
0.010826 1:-0.34794408 2:-0.20564536 3:-0.27700147 4:-0.25661625 
0.010826 1:-0.29495219 2:-0.31357117 3:-0.26201846 4:-0.25669935 
0.010826 1:-0.30820016 2:-0.15168245 3:-0.27550317 4:-0.25653315 
0.010826 1:-0.28170422 2:-0.32706189 3:-0.23355072 4:-0.2563254 
0.010826 1:-0.32144813 2:-0.32706189 3:-0.26201846 4:-0.25661625 
0.010826 1:-0.32144813 2:-0.19215463 3:-0.27849977 4:-0.25686555 
0.010826 1:-0.36119205 2:-0.42149698 3:-0.19159828 4:-0.25603456 
0.010826 1:-0.41418394 2:-0.32706189 3:-0.27250657 4:-0.2564916 
0.010826 1:-0.32144813 2:-0.20564536 3:-0.27700147 4:-0.2565747 
0.010826 1:-0.2419603 2:-0.21913608 3:-0.24703544 4:-0.25528667 
0.010826 1:-0.38768799 2:-0.44847843 3:-0.28449298 4:-0.256824 
0.010826 1:-0.44067988 2:-0.30008044 3:-0.31745562 4:-0.25441413 
0.010826 1:-0.29495219 2:-0.13819173 3:-0.30996411 4:-0.25694865 
0.010826 1:-0.26845625 2:-0.15168245 3:-0.26651336 4:-0.25615921 
0.010826 1:-0.30820016 2:-0.40800625 3:-0.28599128 4:-0.25773809 
0.010826 1:-0.40093597 2:-0.44847843 3:-0.3039709 4:-0.25840288 
0.010826 1:-0.44067988 2:-0.28658971 3:-0.32944203 4:-0.25856907 
0.010826 1:-0.28170422 2:-0.084228823 3:-0.31745562 4:-0.25836133 
0.010826 1:-0.25520827 2:-0.21913608 3:-0.27250657 4:-0.25607611 
0.010826 1:-0.32144813 2:-0.32706189 3:-0.28599128 4:-0.25826976 
0.010826 1:-0.32144813 2:-0.40800625 3:-0.3054692 4:-0.25969091 
0.010826 1:-0.40093597 2:-0.36753407 3:-0.32045222 4:-0.26017651 
0.010826 1:-0.36119205 2:-0.20564536 3:-0.32644543 4:-0.26034231 
0.010826 1:-0.38768799 2:-0.31357117 3:-0.28449298 4:-0.25938894 
0.010826 1:-0.30820016 2:-0.34055262 3:-0.29498109 4:-0.2598449 
0.010826 1:-0.33469611 2:-0.34055262 3:-0.29647939 4:-0.26050812 
0.010826 1:-0.33469611 2:-0.17866391 3:-0.29797769 4:-0.26030086 
0.010826 1:-0.36119205 2:-0.46196915 3:-0.29348279 4:-0.25943039 
0.010826 1:-0.45392785 2:-0.32706189 3:-0.32045222 4:-0.26025941 
0.010826 1:-0.32144813 2:-0.3810248 3:-0.32794373 4:-0.26038376 
0.010826 1:-0.37444002 2:-0.34055262 3:-0.32644543 4:-0.26092263 
0.010826 1:-0.33469611 2:-0.23262681 3:-0.32944203 4:-0.26079827 
0.010826 1:-0.49367177 2:-0.47545988 3:-0.35041825 4:-0.26063247 
0.010826 1:-0.46717583 2:-0.47545988 3:-0.31296071 4:-0.26171019 
0.010826 1:-0.46717583 2:-0.39451552 3:-0.3968656 4:-0.26245631 
0.010826 1:-0.38768799 2:-0.35404335 3:-0.39986221 4:-0.26262212 
0.010826 1:-0.34794408 2:-0.25960826 3:-0.38787579 4:-0.26291227 
0.010826 1:-0.29495219 2:-0.13819173 3:-0.37139447 4:-0.2621247 
0.010826 1:-0.44067988 2:-0.50244133 3:-0.3968656 4:-0.26146149 
0.010826 1:-0.49367177 2:-0.52942279 3:-0.42233673 4:-0.26403145 
0.010826 1:-0.52016771 2:-0.42149698 3:-0.42533333 4:-0.26486047 
0.010826 1:-0.41418394 2:-0.39451552 3:-0.41934013 4:-0.26531643 
0.010826 1:-0.38768799 2:-0.36753407 3:-0.41035032 4:-0.26585529 
0.010826 1:-0.38768799 2:-0.36753407 3:-0.41184862 4:-0.26597965 
0.010826 1:-0.36119205 2:-0.32706189 3:-0.42383503 4:-0.26668431 
0.010826 1:-0.61290352 2:-0.70480222 3:-0.48077049 4:-0.26888122 
0.010826 1:-0.69239135 2:-0.83970949 3:-0.52721784 4:-0.27037345 
0.010826 1:-0.82487107 2:-0.81272803 3:-0.57066859 4:-0.27215595 
0.010826 1:-0.79837512 2:-0.7452744 3:-0.60512953 4:-0.27352059 
0.010826 1:-0.73213527 2:-0.65083932 3:-0.62910235 4:-0.27467848 
0.010826 1:-0.63939946 2:-0.50244133 3:-0.65457348 4:-0.27591907 
0.010826 1:-0.49367177 2:-0.35404335 3:-0.68304121 4:-0.27798672 
0.010826 1:-0.65264743 2:-0.62385787 3:-0.71900045 4:-0.28021978 
0.010826 1:-0.61290352 2:-0.65083932 3:-0.71900045 4:-0.28131476 
0.010826 1:-0.63939946 2:-0.54291351 3:-0.71300725 4:-0.28259368 
0.010826 1:-0.53341569 2:-0.46196915 3:-0.68004461 4:-0.28308874 
0.010826 1:-0.4804238 2:-0.52942279 3:-0.57366519 4:-0.28519277 
0.010826 1:-0.52016771 2:-0.40800625 3:-0.58714991 4:-0.28638918 
0.010826 1:-0.58640757 2:-0.61036714 3:-0.60363123 4:-0.28845196 
0.010826 1:-0.59965555 2:-0.46196915 3:-0.59763802 4:-0.28923581 
0.010826 1:-0.45392785 2:-0.32706189 3:-0.5796584 4:-0.28944209 
0.010826 1:-0.50691974 2:-0.42149698 3:-0.4822688 4:-0.29084206 
0.010826 1:-0.41418394 2:-0.40800625 3:-0.47477729 4:-0.29166522 
0.010826 1:-0.45392785 2:-0.46196915 3:-0.46728578 4:-0.29294114 
0.010826 1:-0.45392785 2:-0.24611754 3:-0.45230276 4:-0.29310577 
0.010826 1:-0.45392785 2:-0.42149698 3:-0.42683163 4:-0.29405241 
0.010826 1:-0.41418394 2:-0.25960826 3:-0.43132654 4:-0.29475211 
0.010826 1:-0.28170422 2:-0.097719549 3:-0.37439108 4:-0.29434052 
0.010826 1:-0.33469611 2:-0.20564536 3:-0.28748958 4:-0.29364083 
0.010826 1:-0.26845625 2:-0.34055262 3:-0.14814753 4:-0.29133596 
0.010826 1:-0.33469611 2:-0.097719549 3:-0.18111017 4:-0.29166522 
