svm_type c_svc
kernel_type linear
nr_class 2
total_sv 1637
rho 0.295242
label 1 -1
nr_sv 1475 162
SV
0.011093 1:-1.0103427 2:-1.3253756 3:-0.25602525 4:0.56581456 
0.011093 1:-1.315046 2:-1.4737736 3:-0.42083843 4:0.54552942 
0.011093 1:-1.1693183 2:-1.4333014 3:0.0061775364 4:0.54441014 
0.011093 1:-1.0898305 2:-1.40632 3:0.42570199 4:0.5393318 
0.011093 1:-1.2488062 2:-1.4333014 3:0.17998053 4:0.51258987 
0.011093 1:-1.1560704 2:-1.3928293 3:0.17398732 4:0.50359362 
0.011093 1:-1.1958143 2:-1.3928293 3:0.031648664 4:0.49081292 
0.011093 1:-1.2090623 2:-1.3658478 3:0.42420369 4:0.4864295 
0.011093 1:-1.1030785 2:-1.3793385 3:0.12753997 4:0.47656215 
0.011093 1:-1.1693183 2:-1.6356623 3:0.07360111 4:0.46658342 
0.011093 1:-1.2488062 2:-1.257922 3:0.031648664 4:0.45389314 
0.011093 1:-1.2355582 2:-1.4872643 3:-0.019293591 4:0.44601692 
0.011093 1:-1.1825663 2:-1.3793385 3:0.021160553 4:0.43999015 
0.011093 1:-0.9970947 2:-1.3118849 3:0.4301969 4:0.4354729 
0.011093 1:-1.3812859 2:-1.3658478 3:0.036143569 4:0.42806295 
0.011093 1:-1.1560704 2:-1.1499962 3:-0.068737545 4:0.41242532 
0.011093 1:-1.3017981 2:-1.5412272 3:-0.10619509 4:0.41288954 
0.011093 1:-1.0765825 2:-0.67782077 3:-0.40585541 4:0.36614696 
0.011093 1:-1.3680379 2:-1.4198107 3:-0.63959047 4:0.31514721 
0.011093 1:-1.2488062 2:-0.94763529 3:-0.60512953 4:0.80874644 
0.011093 1:-1.3812859 2:-1.4467922 3:-0.38338089 4:0.74276425 
0.011093 1:-1.328294 2:-1.4333014 3:0.027153759 4:0.74722488 
0.011093 1:-1.2090623 2:-1.2444313 3:-0.16313055 4:0.74585592 
0.011093 1:-1.328294 2:-1.4737736 3:0.10956035 4:0.31440355 
0.011093 1:-1.2488062 2:-1.2309405 3:0.087085824 4:0.30836125 
0.011093 1:-1.3017981 2:-1.3928293 3:0.021160553 4:0.23618196 
0.011093 1:-1.1295744 2:-1.2444313 3:-0.46428918 4:0.21067325 
0.011093 1:-0.9970947 2:-1.0825426 3:-0.43432314 4:0.19098485 
0.011093 1:-1.2355582 2:-1.4467922 3:-0.42533333 4:0.16529205 
0.011093 1:-0.74538324 2:-1.3118849 3:-0.41334692 4:0.13174914 
0.011093 1:-1.2355582 2:-1.4467922 3:-0.87482382 4:0.11362056 
0.011093 1:-0.98384673 2:-1.4872643 3:-0.1211781 4:0.061883934 
0.011093 1:-1.0368386 2:-1.4737736 3:-0.6665599 4:0.026494035 
0.011093 1:-1.2885501 2:-1.5412272 3:-0.80140704 4:0.0043480031 
0.011093 1:-1.328294 2:-1.6896252 3:-0.56917029 4:-0.015788629 
0.011093 1:-1.1958143 2:-1.4872643 3:0.2474041 4:-0.040271718 
0.011093 1:-1.3017981 2:-1.6086809 3:0.20994656 4:-0.048052491 
0.011093 1:-1.0368386 2:-1.3793385 3:0.68640648 4:0.074800545 
0.011093 1:-1.3017981 2:-1.5007551 3:0.24290919 4:0.081620639 
0.011093 1:-1.1560704 2:-1.2849034 3:0.44517991 4:0.14635287 
0.011093 1:-1.0633346 2:-1.4602829 3:0.070604506 4:0.16134948 
0.011093 1:-0.91760687 2:-1.2039591 3:0.35977672 4:0.18588292 
0.011093 1:-1.2223102 2:-1.3253756 3:-0.14365263 4:0.18401525 
0.011093 1:-0.70563932 2:-0.58338569 3:0.2459058 4:0.24809547 
0.011093 1:-1.0633346 2:-1.3253756 3:-0.053754529 4:0.24723264 
0.011093 1:-1.0368386 2:-1.257922 3:0.0046792348 4:0.24911997 
0.011093 1:-1.1693183 2:-1.2444313 3:0.28186504 4:0.46358861 
0.011093 1:-1.1163265 2:-1.3388664 3:0.094577333 4:1.1212856 
0.011093 1:-1.1030785 2:-1.1499962 3:0.084089221 4:1.0913428 
0.011093 1:-1.0633346 2:-1.1904684 3:-0.10919169 4:1.0728336 
0.011093 1:-1.0368386 2:-1.3118849 3:0.3358039 4:1.0218613 
0.011093 1:-1.0103427 2:-1.3388664 3:-0.037273211 4:1.1065109 
0.011093 1:-1.1958143 2:-1.3253756 3:-0.080723958 4:1.0944106 
0.011093 1:-1.1428224 2:-1.4872643 3:0.13652978 4:1.0663947 
0.011093 1:-0.97059876 2:-1.2983942 3:0.099072237 4:1.0649996 
0.011093 1:-1.0765825 2:-1.3928293 3:0.60549819 4:1.0735311 
0.011093 1:-0.83811904 2:-1.2849034 3:0.94860926 4:1.0683994 
0.011093 1:-0.9043589 2:-1.2039591 3:0.75532835 4:1.0533795 
0.011093 1:-1.0235906 2:-1.40632 3:0.79128759 4:0.91341671 
0.011093 1:-1.1560704 2:-1.2039591 3:0.29085485 4:0.85200697 
0.011093 1:-1.1295744 2:-1.40632 3:0.2489024 4:0.83306029 
0.011093 1:-1.1163265 2:-1.3928293 3:-0.01779529 4:0.80751891 
0.011093 1:-1.1163265 2:-0.93414457 3:-0.13016791 4:0.78611376 
0.003278555666933124 1:-1.1958143 2:-1.2849034 3:0.32981069 4:0.73730187 
0.011093 1:-1.0500866 2:-1.257922 3:0.32381748 4:0.70762413 
0.011093 1:-0.94410282 2:-1.1230147 3:0.47664425 4:0.6978224 
0.011093 1:-1.0898305 2:-1.257922 3:0.37775634 4:0.70445742 
0.011093 1:-0.91760687 2:-1.2714127 3:0.82425023 4:0.71725319 
0.011093 1:-0.98384673 2:-1.3388664 3:0.71637251 4:0.73937466 
0.011093 1:-0.93085484 2:-1.3523571 3:0.19646184 4:0.72951627 
0.011093 1:-1.2753021 2:-1.5007551 3:-0.1211781 4:0.7000551 
0.011093 1:-1.1958143 2:-1.3388664 3:0.34629201 4:0.66281971 
0.011093 1:-1.1428224 2:-1.2714127 3:-0.094208673 4:0.63949066 
0.011093 1:-0.9970947 2:-1.1769776 3:-0.51672973 4:0.61566164 
0.011093 1:-1.1825663 2:-1.4602829 3:-0.60363123 4:0.58822791 
0.011093 1:-1.0765825 2:-1.2849034 3:-0.26201846 4:0.5800621 
0.011093 1:-1.2620541 2:-0.62385787 3:-0.59464142 4:0.5792268 
0.011093 1:-1.0898305 2:-1.3253756 3:0.22792618 4:0.59044525 
0.011093 1:-1.2620541 2:-2.4855781 3:0.97258209 4:0.41375166 
0.011093 1:-1.2753021 2:-2.0538748 3:0.26238712 4:0.68888092 
0.011093 1:-0.78512715 2:-2.3641615 3:1.7951497 4:1.7819184 
0.011093 1:-0.89111093 2:-2.8633184 3:0.73285383 4:1.4947 
0.011093 1:-0.95735079 2:-2.3641615 3:0.88418229 4:1.2420751 
0.011093 1:-1.1825663 2:-2.1752914 3:1.260256 4:1.285619 
0.011093 1:-1.341542 2:-2.6744482 3:1.1388936 4:1.3720247 
0.011093 1:-1.3680379 2:-2.8633184 3:0.39124106 4:1.3772724 
0.011093 1:-0.9043589 2:0.15860425 3:-0.59913632 4:-0.81812706 
0.011093 1:-0.63939946 2:-0.097719549 3:-0.37289278 4:-0.50145839 
0.011093 1:-0.26845625 2:0.037187712 3:-0.3039709 4:-0.42111057 
0.011093 1:-0.46717583 2:0.14511352 3:-0.35641146 4:-0.34590913 
0.011093 1:-0.62615149 2:0.10464134 3:-0.28599128 4:-0.21909261 
0.011093 1:-0.49367177 2:0.22605788 3:-0.25752355 4:-0.22802814 
0.011093 1:-0.65264743 2:-0.097719549 3:-0.30846581 4:-0.22978155 
0.011093 1:-0.61290352 2:0.32049296 3:-0.3024726 4:-0.23186893 
0.011093 1:-0.54666366 2:0.33398369 3:-0.31895392 4:-0.23837881 
0.011093 1:-0.58640757 2:0.41492804 3:-0.29498109 4:-0.24812453 
0.011093 1:-0.52016771 2:0.30700223 3:-0.26950996 4:-0.25686555 
0.011093 1:-0.41418394 2:0.064169164 3:-0.17811356 4:-0.31984032 
0.011093 1:-0.49367177 2:0.1316228 3:-0.11368659 4:-0.30558053 
0.011093 1:-0.52016771 2:0.45540022 3:-0.18560507 4:-0.29075974 
0.0102903952727591 1:-0.53341569 2:0.48238167 3:-0.13316452 4:-0.25478807 
0.011093 1:1.4670281 2:-1.6356623 3:1.8356038 4:2.0378514 
0.011093 1:-0.12272856 2:0.050678438 3:-0.041768116 4:0.020649792 
0.011093 1:-0.82487107 2:-1.9189676 3:-0.019293591 4:-0.074555641 
0.011093 1:-1.1825663 2:-1.7840603 3:-0.31146241 4:-0.19999942 
0.011093 1:-0.53341569 2:-0.62385787 3:0.28935654 4:0.65091024 
0.011093 1:-0.85136701 2:-0.61036714 3:0.20245505 4:0.65187992 
0.011093 1:-0.49367177 2:-0.65083932 3:0.28486164 4:0.80398976 
0.011093 1:-1.1030785 2:-1.6491531 3:-0.28599128 4:0.77942694 
0.011093 1:-0.9970947 2:-0.77225586 3:-0.1196798 4:0.67898526 
0.011093 1:-0.87786296 2:-1.2039591 3:-0.12717131 4:0.63228502 
0.011093 1:-0.71888729 2:-0.27309899 3:-0.05525283 4:0.48199651 
0.011093 1:-1.1295744 2:-1.1499962 3:-0.41934013 4:0.56723823 
0.011093 1:-1.0235906 2:-1.2444313 3:-0.19609318 4:0.52657021 
0.011093 1:1.2948044 2:1.3322974 3:0.74633854 4:2.60323 
0.011093 1:1.3080524 2:1.1299365 3:0.78978929 4:2.5990426 
0.011093 1:1.1093328 2:1.2243716 3:1.0100396 4:2.5955306 
0.011093 1:1.2020686 2:1.2108809 3:0.97258209 4:2.5907355 
0.011093 1:1.1888207 2:1.3188067 3:0.97857529 4:2.5869533 
0.011093 1:1.2948044 2:1.2378623 3:1.0190294 4:2.5838281 
0.011093 1:1.2153166 2:1.4267325 3:1.0265209 4:2.5789168 
0.011093 1:1.4007882 2:1.3322974 3:1.0624802 4:2.576293 
0.011093 1:1.3080524 2:1.2783345 3:1.0729683 4:2.5713144 
0.011093 1:1.2550605 2:1.5346583 3:1.2123103 4:2.5674123 
0.011093 1:1.506772 2:1.3592789 3:1.6303365 4:2.5637793 
0.011093 1:1.3345484 2:1.4941861 3:1.6348314 4:2.5600117 
0.011093 1:1.4670281 2:1.4267325 3:1.652811 4:2.5565132 
0.011093 1:1.4007882 2:1.4806954 3:1.6857737 4:2.5540528 
0.011093 1:1.4537801 2:1.6695656 3:1.7142414 4:2.5512379 
0.011093 1:1.6392517 2:1.5346583 3:1.7651837 4:2.5488252 
0.008793237613004263 1:1.506772 2:1.9798523 3:1.7891565 4:2.5468146 
0.011093 1:1.9439551 2:1.6290934 3:1.8715631 4:2.5458093 
0.011093 1:1.6260037 2:1.6290934 3:1.4055913 4:2.0934192 
0.011093 1:1.5995078 2:1.5751305 3:1.4295641 4:2.0914766 
0.011093 1:1.5465159 2:1.844945 3:1.4235709 4:2.0983598 
0.011093 1:1.8114753 2:1.8314543 3:1.4610284 4:2.1177466 
0.011093 1:1.7982274 2:1.6695656 3:1.4730148 4:2.1193885 
0.011093 1:1.016597 2:1.156918 3:1.0639785 4:2.3855876 
0.011093 1:1.1358288 2:0.94106636 3:0.81226381 4:2.3832291 
0.011093 1:0.92386123 2:1.1434273 3:0.708881 4:2.3793637 
0.011093 1:1.1225808 2:1.0759736 3:0.88268399 4:2.3762191 
0.011093 1:0.91061326 2:-0.86669094 3:1.1418902 4:2.3449284 
0.011093 1:1.0033491 2:0.68474257 3:2.8229846 4:-0.080818324 
0.011093 1:1.8644672 2:0.091150617 3:2.1697251 4:-0.01099614 
0.011093 1:1.1225808 2:1.0489922 3:1.9015291 4:0.22038836 
0.011093 1:0.67214976 2:-0.93414457 3:1.9614612 4:0.24228008 
0.011093 1:0.77813354 2:-0.057247371 3:1.558418 4:0.3773889 
0.011093 1:0.88411731 2:-0.59687642 3:2.3450264 4:0.58872065 
0.011093 1:0.69864571 2:1.00852 3:1.5059775 4:0.60732464 
0.011093 1:0.89736528 2:0.28002078 3:1.2377815 4:0.63466255 
0.011093 1:0.76488557 2:0.14511352 3:2.1817115 4:0.69375091 
0.011093 1:0.71189368 2:0.33398369 3:2.0888168 4:0.73647597 
0.011093 1:0.8443734 2:0.33398369 3:2.0094068 4:0.76892742 
0.011093 1:0.57941396 2:-0.17866391 3:1.7427091 4:0.8995795 
0.011093 1:0.87086934 2:-2.0403841 3:2.3809856 4:1.2488045 
0.011093 1:0.49992613 2:-0.62385787 3:2.2581249 4:1.4260915 
0.011093 1:0.32770249 2:-1.1904684 3:1.8595767 4:1.583042 
0.011093 1:1.2020686 2:-0.15168245 3:2.4544024 4:1.9822034 
0.011093 1:0.089238996 2:-1.1769776 3:2.2311555 4:2.2967771 
0.011093 1:1.1623247 2:1.6830563 3:1.4400522 4:2.3165365 
0.011093 1:0.9371092 2:-0.46196915 3:1.5464316 4:2.3138053 
0.011093 1:1.4670281 2:2.141741 3:1.5449333 4:2.2166463 
0.011093 1:0.81787745 2:-2.242745 3:2.204186 4:2.2091496 
0.011093 1:0.85762137 2:-2.1887821 3:2.238647 4:2.1910921 
0.011093 1:1.1623247 2:-0.92065384 3:1.7801667 4:2.1488675 
0.011093 1:1.493524 2:2.5599535 3:0.89916531 4:1.9096336 
0.011093 1:1.2285646 2:-1.0285797 3:2.3105654 4:1.935223 
0.011093 1:1.3742923 2:-0.61036714 3:1.4700182 4:1.9055969 
0.011093 1:1.2948044 2:-0.92065384 3:2.0348779 4:1.8969119 
0.011093 1:1.4272842 2:-2.1213285 3:1.6408246 4:1.8396363 
0.011093 1:0.75163759 2:-0.24611754 3:1.5479299 4:1.7422855 
0.011093 1:1.8114753 2:2.1687224 3:0.85871116 4:1.7184172 
0.011093 1:1.3213004 2:-0.90716312 3:2.1142879 4:1.7165316 
0.011093 1:1.1888207 2:-0.61036714 3:2.1772166 4:1.7020634 
0.011093 1:1.2550605 2:-0.85320021 3:2.2716096 4:1.7990501 
0.011093 1:2.4208821 2:-1.0555611 3:2.3959686 4:2.1431376 
0.011093 1:1.1490768 2:-0.30008044 3:1.6213467 4:1.9412874 
0.011093 1:-1.6859892 2:-2.1483099 3:-1.1789791 4:-1.7442436 
0.011093 1:-2.1099243 2:-1.703116 3:-1.1160504 4:-1.8140206 
0.011093 1:-1.818469 2:-1.8380232 3:-2.1154176 4:-1.962393 
0.011093 1:0.36744641 2:-1.2714127 3:-1.6973914 4:-1.8290141 
0.011093 1:-1.9112048 2:-2.1348192 3:-1.620978 4:-1.215729 
0.011093 1:-2.0966764 2:-1.2983942 3:-1.9191401 4:-1.2334421 
0.011093 1:-1.6065014 2:-0.73178368 3:-2.1453836 4:-1.2642332 
0.011093 1:-1.6462453 2:-0.93414457 3:-1.1550062 4:-1.2533576 
0.011093 1:-1.6065014 2:-2.2022728 3:-1.8786859 4:-1.3233126 
0.011093 1:-2.1629162 2:-1.4872643 3:-2.0000483 4:-1.3364178 
0.011093 1:-2.0966764 2:-1.9729305 3:-2.0045433 4:-1.3530387 
0.011093 1:-1.8847088 2:-0.4349877 3:-1.9820687 4:-1.3859234 
0.011093 1:-1.805221 2:-0.58338569 3:-1.4531683 4:-1.3968742 
0.011093 1:-1.6992372 2:-1.8245325 3:-1.1849723 4:-1.3663678 
0.011093 1:-1.8449649 2:-1.8919861 3:-1.1295351 4:-1.2834002 
0.011093 1:-1.8582129 2:-1.0690518 3:-1.2853585 4:-1.2899798 
0.011093 1:-1.6329974 2:-2.0538748 3:-1.7138727 4:-1.314956 
0.011093 1:-2.0436845 2:-2.4585966 3:-1.9805704 4:-1.3554187 
0.011093 1:-2.8915547 2:-2.3101986 3:-2.4195728 4:-1.4032491 
0.011093 1:-2.2689 2:-2.1078377 3:-2.3521492 4:-1.4109652 
0.011093 1:-2.0701804 2:-1.4198107 3:-2.3551458 4:-1.4172852 
0.011093 1:-1.9112048 2:-2.0538748 3:-2.1214108 4:-1.4237752 
0.011093 1:-2.0171885 2:-1.7570789 3:-2.142387 4:-1.4295065 
0.011093 1:-2.0569325 2:-0.77225586 3:-1.6794118 4:-1.4207389 
0.011093 1:-1.9906926 2:-0.98810747 3:-1.5580494 4:-1.4224068 
0.011093 1:-1.4342778 2:-0.94763529 3:-1.2194332 4:-1.4091983 
0.011093 1:-1.9112048 2:-2.1483099 3:-0.84635609 4:-1.3764002 
0.011093 1:-1.818469 2:-1.9324583 3:-1.1624977 4:-1.3202688 
0.011093 1:-1.8847088 2:-1.9054768 3:-0.45829597 4:-1.1875399 
0.011093 1:-0.73213527 2:-0.98810747 3:-0.54969237 4:-1.1371541 
0.011093 1:-1.805221 2:-2.1483099 3:-1.3632702 4:-1.1444048 
0.011093 1:-1.8847088 2:-1.5951901 3:-0.82238327 4:-1.1346113 
0.011093 1:-1.8847088 2:-1.945949 3:-0.99618625 4:-1.1338534 
0.011093 1:-1.9112048 2:-1.5142458 3:-1.2793653 4:-1.1366844 
0.011093 1:-1.6992372 2:-1.9864212 3:-0.9422474 4:-1.1348622 
0.011093 1:-1.4475258 2:-0.54291351 3:-0.86733231 4:-1.129824 
0.011093 1:-1.6992372 2:-2.0673656 3:-0.70851234 4:-1.1194663 
0.011093 1:-1.9244527 2:-2.2292543 3:-1.37226 4:-1.098794 
0.011093 1:-2.1894122 2:-2.0134027 3:-1.5400697 4:-1.1021221 
0.011093 1:-1.9774446 2:-2.4585966 3:-1.6988897 4:-1.1090314 
0.011093 1:-2.5471074 2:-1.7166067 3:-2.4120813 4:-1.1243857 
0.011093 1:-1.6859892 2:-2.2967079 3:-2.5379386 4:-1.1240835 
0.011093 1:-2.255652 2:-1.7435881 3:-2.7821618 4:-1.1275116 
0.011093 1:-1.7124852 2:-1.8380232 3:-2.6548062 4:-1.1315663 
0.011093 1:-1.805221 2:-2.0268934 3:-2.5634098 4:-1.1340126 
0.011093 1:-1.9906926 2:-2.2697265 3:-2.5709013 4:-1.1367462 
0.011093 1:-2.2291561 2:-1.5277365 3:-2.5753962 4:-1.1410273 
0.011093 1:-1.5005176 2:-1.8515139 3:-2.5214573 4:-1.1407597 
0.011093 1:-1.818469 2:-0.28658971 3:-2.4540337 4:-1.1437364 
0.011093 1:-1.6462453 2:-0.16517318 3:-2.1453836 4:-1.13857 
0.011093 1:-1.7389811 2:-1.6761345 3:-1.9146452 4:-1.1340461 
0.011093 1:-1.9377007 2:-2.0538748 3:-1.7782997 4:-1.1320071 
0.011093 1:-2.0171885 2:-1.8110418 3:-1.7543269 4:-1.1322085 
0.011093 1:-1.7124852 2:-1.6491531 3:-0.60512953 4:-1.1162355 
0.011093 1:-1.8317169 2:-1.9729305 3:-1.0021795 4:-1.1372995 
0.011093 1:-1.341542 2:-0.23262681 3:-1.0875827 4:-1.118523 
0.011093 1:-1.7389811 2:-1.2714127 3:-0.60662783 4:-1.1137799 
0.011093 1:-1.9509487 2:-1.9594398 3:-0.83886458 4:-1.1072362 
0.011093 1:-1.4607737 2:-2.2967079 3:-0.3009743 4:-1.0210616 
0.011093 1:-1.4740217 2:-0.82621876 3:-0.59613972 4:-1.0245742 
0.011093 1:-1.6197494 2:-0.54291351 3:-1.0920776 4:-1.0085408 
0.011093 1:-1.7654771 2:-2.1483099 3:-1.337799 4:-0.98212027 
0.011093 1:-2.1099243 2:-2.1213285 3:-1.3767549 4:-0.98445956 
0.011093 1:-1.9509487 2:-1.3523571 3:-1.1055623 4:-0.9786637 
0.011093 1:-1.4740217 2:-0.59687642 3:-1.7483337 4:-0.98973031 
0.011093 1:-1.6462453 2:-2.1078377 3:-0.35191655 4:-0.96628147 
0.011093 1:-2.0701804 2:-2.3236894 3:-0.56467538 4:-0.96624641 
0.011093 1:-1.7522291 2:-1.945949 3:-1.3273109 4:-0.96982613 
0.011093 1:-1.9112048 2:-0.78574658 3:-1.4097175 4:-0.97528374 
0.011093 1:-1.791973 2:-1.8919861 3:-0.6740514 4:-0.95075221 
0.011093 1:-1.7389811 2:-2.0403841 3:-0.81039685 4:-0.94945518 
0.011093 1:-1.791973 2:-1.7300974 3:-1.0935759 4:-0.96878281 
0.011093 1:-1.6065014 2:-0.82621876 3:-0.9467423 4:-0.97213463 
0.011093 1:-1.341542 2:-0.63734859 3:-1.402226 4:-0.98708276 
0.011093 1:-1.6859892 2:-1.8515139 3:-1.6659271 4:-1.0043809 
0.011093 1:-1.8847088 2:-1.8515139 3:-1.2389111 4:-1.0086761 
0.011093 1:-1.7257332 2:-1.7300974 3:-1.3333041 4:-1.0121641 
0.011093 1:-1.6462453 2:-1.4467922 3:-1.6344627 4:-1.0215381 
0.011093 1:-1.8847088 2:-1.8515139 3:-0.90478985 4:-1.0244362 
0.011093 1:-2.295396 2:-1.9999119 3:-1.1729858 4:-1.0384916 
0.011093 1:-1.9641967 2:-2.0268934 3:-1.5041105 4:-1.0434404 
0.011093 1:-1.9906926 2:-2.3101986 3:-1.5355748 4:-1.0464212 
0.011093 1:-1.9377007 2:-0.59687642 3:-2.172353 4:-1.0511363 
0.011093 1:-1.6594933 2:-2.1213285 3:-0.14515093 4:-1.0392133 
0.011093 1:-2.0039406 2:-0.96112602 3:-1.3632702 4:-1.0637591 
0.011093 1:-2.1629162 2:-1.9999119 3:-1.5026122 4:-1.068303 
0.011093 1:-1.778725 2:-0.16517318 3:-1.8232488 4:-1.0795223 
0.011093 1:-1.805221 2:-1.6761345 3:-1.3572769 4:-1.0906414 
0.011093 1:-1.8979568 2:-1.2849034 3:-1.4127141 4:-1.127076 
0.011093 1:-1.8714609 2:-1.9189676 3:-1.2703755 4:-1.1263052 
0.011093 1:-1.7522291 2:-1.8784954 3:-0.88381363 4:-1.1477464 
0.011093 1:-1.9774446 2:-1.703116 3:-1.6494458 4:-1.1439986 
0.011093 1:-1.791973 2:-2.1618006 3:-1.0156642 4:-1.0998746 
0.011093 1:-2.1231723 2:-1.703116 3:-1.089081 4:-1.1030321 
0.011093 1:-2.2424041 2:-2.1213285 3:-1.6734186 4:-1.1296898 
0.011093 1:-1.7522291 2:-0.90716312 3:-1.6674254 4:-1.1333759 
0.011093 1:-1.8582129 2:-2.1618006 3:-0.89130514 4:-1.1319349 
0.011093 1:-2.1231723 2:-1.554718 3:-1.0875827 4:-1.135554 
0.011093 1:-2.255652 2:-2.0268934 3:-1.9026587 4:-1.1701366 
0.011093 1:-1.9906926 2:-1.8784954 3:-2.0090382 4:-1.1705341 
0.011093 1:-1.8449649 2:-1.5816994 3:-2.0015466 4:-1.1703022 
0.011093 1:-1.8449649 2:-1.9999119 3:-1.2508975 4:-1.1819634 
0.011093 1:-1.9112048 2:-1.9594398 3:-1.2359145 4:-1.1842074 
0.011093 1:-1.8979568 2:-2.687939 3:-1.4112158 4:-1.2075625 
0.011093 1:-2.0569325 2:-1.0825426 3:-1.7603201 4:-1.2314411 
0.011093 1:-1.778725 2:-0.98810747 3:-1.6344627 4:-1.236881 
0.011093 1:-1.4210298 2:-0.30008044 3:-1.0681047 4:-1.2195567 
0.011093 1:-2.1761642 2:-2.1078377 3:-1.496619 4:-1.2334281 
0.011093 1:-2.0701804 2:-1.8919861 3:-1.6614322 4:-1.2360958 
0.011093 1:-1.7654771 2:-0.20564536 3:-2.0494923 4:-1.2356432 
0.011093 1:-1.6594933 2:-2.4451059 3:-1.322816 4:-1.2277277 
0.011093 1:-1.9906926 2:-2.391143 3:-1.2973449 4:-1.2535814 
0.011093 1:-2.7855709 2:-2.5125595 3:-1.5955069 4:-1.2891869 
0.011093 1:-2.4676196 2:-2.0134027 3:-1.6958931 4:-1.2943769 
0.011093 1:-1.9774446 2:-1.9594398 3:-1.685405 4:-1.2985417 
0.011093 1:-1.9244527 2:-1.8515139 3:-1.6988897 4:-1.3006947 
0.011093 1:-1.9774446 2:-0.23262681 3:-2.1873361 4:-1.3041486 
0.011093 1:-1.9906926 2:-2.2022728 3:-1.6164831 4:-1.3142491 
0.011093 1:-2.1629162 2:-2.0538748 3:-1.655439 4:-1.3169343 
0.011093 1:-2.0701804 2:-1.9594398 3:-1.5820222 4:-1.3149112 
0.011093 1:-2.0039406 2:-2.0134027 3:-1.4561649 4:-1.325832 
0.011093 1:-1.818469 2:-0.82621876 3:-1.6074933 4:-1.3304987 
0.011093 1:-2.0039406 2:-2.2157636 3:-1.6044967 4:-1.3395132 
0.011093 1:-2.1761642 2:-2.1078377 3:-1.8412284 4:-1.3435232 
0.011093 1:-2.0701804 2:-2.4046337 3:-1.8487199 4:-1.3470911 
0.011093 1:-1.9774446 2:-0.56989496 3:-2.1693564 4:-1.3536067 
0.011093 1:-1.9774446 2:-2.2292543 3:-1.5475613 4:-1.3623852 
0.011093 1:-2.1894122 2:-2.0808563 3:-1.6149848 4:-1.3703334 
0.011093 1:-1.8979568 2:-1.0285797 3:-1.9521027 4:-1.3833496 
0.011093 1:-1.9377007 2:-1.8650047 3:-1.5475613 4:-1.3857505 
0.011093 1:-2.1231723 2:-2.0268934 3:-1.402226 4:-1.3941337 
0.011093 1:-1.9906926 2:-1.703116 3:-1.4996156 4:-1.3923285 
0.011093 1:-2.1099243 2:-1.9594398 3:-1.8067674 4:-1.4237598 
0.011093 1:-2.0436845 2:-2.0268934 3:-1.794781 4:-1.4238574 
0.011093 1:-1.9906926 2:-0.66433005 3:-1.8711944 4:-1.4276453 
0.011093 1:-1.9244527 2:-2.0673656 3:-1.5325782 4:-1.4228343 
0.011093 1:-1.9509487 2:-1.0420704 3:-1.1804774 4:-1.4061333 
0.011093 1:-1.9906926 2:-1.8650047 3:-1.6314661 4:-1.4132397 
0.011093 1:-1.8449649 2:-0.40800625 3:-1.6374594 4:-1.4189471 
0.011093 1:-1.805221 2:-0.83970949 3:-1.8037708 4:-1.4632295 
0.011093 1:-1.8449649 2:-2.2157636 3:-1.0965725 4:-1.4355289 
0.011093 1:-2.1761642 2:-1.8919861 3:-1.3842464 4:-1.4361733 
0.011093 1:-1.9509487 2:-2.2697265 3:-1.5925103 4:-1.4660026 
0.011093 1:-1.778725 2:-1.1365055 3:-1.7842929 4:-1.4867506 
0.011093 1:-1.7257332 2:0.32049296 3:-2.4195728 4:-1.5108218 
0.011093 1:-2.0171885 2:-3.2680402 3:-2.0390042 4:-1.5066083 
0.011093 1:-1.8847088 2:-1.9729305 3:-3.294581 4:-1.54391 
0.011093 1:-2.0834284 2:-1.7705696 3:-2.3101968 4:-1.5469392 
0.011093 1:-1.5800055 2:-0.78574658 3:-1.1565045 4:-1.5562108 
0.011093 1:-1.8582129 2:-1.9999119 3:-0.23654733 4:-1.516219 
0.011093 1:-1.9641967 2:-1.8650047 3:-0.48077049 4:-1.5179497 
0.011093 1:-1.5800055 2:-0.6913115 3:-1.0666064 4:-1.5142421 
0.011093 1:-1.7522291 2:-0.88018166 3:-1.0081727 4:-1.4979223 
0.011093 1:-1.6594933 2:-2.0134027 3:-0.35491316 4:-1.4821386 
0.011093 1:-1.9641967 2:-2.0403841 3:-0.63959047 4:-1.4282585 
0.011093 1:-1.9774446 2:-1.8650047 3:-0.46728578 4:-1.4122579 
0.011093 1:-1.6594933 2:-1.4198107 3:-1.4606598 4:-1.4066596 
0.011093 1:-1.805221 2:-1.2309405 3:-1.5071071 4:-1.4018478 
0.011093 1:-1.3680379 2:-0.73178368 3:-0.96172532 4:-1.3911447 
0.011093 1:-1.5270136 2:-1.8784954 3:-0.32195052 4:-1.3589511 
0.011093 1:-1.6992372 2:-1.8784954 3:-0.54220086 4:-1.2906926 
0.011093 1:-1.818469 2:-1.9999119 3:-1.3557786 4:-1.2854658 
0.011093 1:-1.9641967 2:-2.2022728 3:-1.3857447 4:-1.2857874 
0.011093 1:-1.9244527 2:-2.0134027 3:-0.25452695 4:-1.2565616 
0.011093 1:-1.8847088 2:-2.1887821 3:-0.87182722 4:-1.2053404 
0.011093 1:-1.818469 2:-2.1752914 3:-0.84485779 4:-1.2006714 
0.011093 1:-0.44067988 2:0.037187712 3:-0.82687817 4:-1.1774582 
0.011093 1:-1.8979568 2:-1.9054768 3:-0.65757009 4:-1.1694506 
0.011093 1:-1.8714609 2:-1.9189676 3:-0.90928476 4:-1.171793 
0.011093 1:-2.0171885 2:-2.1752914 3:-1.7723065 4:-1.1693178 
0.011093 1:-2.1364203 2:-2.242745 3:-1.7992759 4:-1.1723231 
0.011093 1:-1.8979568 2:-2.1213285 3:-0.91677627 4:-1.1589184 
0.011093 1:-2.4278757 2:-1.5816994 3:-2.0584821 4:-1.1667999 
0.011093 1:-1.5667575 2:-0.78574658 3:-1.7303541 4:-1.1534645 
0.011093 1:-2.2026602 2:-2.0538748 3:-0.93325759 4:-1.1464129 
0.011093 1:-2.0171885 2:-1.3388664 3:-1.0740979 4:-1.1491791 
0.011093 1:-1.5535095 2:-0.75876513 3:-1.6149848 4:-1.1515357 
0.011093 1:-1.9244527 2:-2.1887821 3:-1.7932827 4:-1.171077 
0.011093 1:-2.1496683 2:-1.9054768 3:-1.7872895 4:-1.1706455 
0.011093 1:-1.8714609 2:-1.5277365 3:-1.7708082 4:-1.168654 
0.011093 1:-1.8582129 2:-0.96112602 3:-1.6988897 4:-1.1753501 
0.011093 1:-1.8979568 2:-1.9864212 3:-1.8022725 4:-1.1831843 
0.011093 1:-1.9509487 2:-0.65083932 3:-1.779798 4:-1.1845375 
0.011093 1:-1.7257332 2:-3.375966 3:-1.0636098 4:-1.188399 
0.011093 1:-1.8847088 2:-2.1213285 3:-0.45529937 4:-1.1527221 
0.011093 1:-2.0834284 2:-1.6491531 3:-0.70102083 4:-1.1523549 
0.011093 1:-1.6992372 2:-2.0134027 3:-1.1220436 4:-1.1207596 
0.011093 1:-1.8317169 2:-1.9324583 3:-1.4067209 4:-1.1026597 
0.011093 1:-1.8979568 2:-1.945949 3:-1.5310799 4:-1.0980655 
0.011093 1:-1.6329974 2:-1.9594398 3:-0.66056669 4:-1.0648757 
0.011093 1:-1.9112048 2:-2.1078377 3:-0.92726438 4:-1.0716853 
0.011093 1:-2.0701804 2:-1.5412272 3:-1.039637 4:-1.0659585 
0.011093 1:-1.7654771 2:-0.70480222 3:-1.7857912 4:-1.0357767 
0.011093 1:-1.778725 2:-1.8110418 3:-0.16462885 4:-0.97332174 
0.011093 1:-1.7654771 2:-1.4737736 3:-0.36839787 4:-0.97370943 
0.011093 1:-1.9244527 2:-2.2292543 3:-0.94074909 4:-0.93149886 
0.011093 1:-2.1894122 2:-1.8380232 3:-1.3213177 4:-0.93202893 
0.011093 1:-1.7257332 2:-2.2157636 3:-0.16313055 4:-0.96459884 
0.011093 1:-1.7257332 2:-2.4855781 3:-0.60213293 4:-0.90309659 
0.011093 1:-1.7389811 2:-0.28658971 3:-1.6584356 4:-0.96461342 
0.011093 1:-1.6462453 2:-1.8380232 3:-1.3392973 4:-0.97590543 
0.011093 1:-1.8979568 2:-1.945949 3:-1.3602736 4:-0.9751438 
0.011093 1:-1.791973 2:-1.9594398 3:-1.163996 4:-0.95211477 
0.011093 1:-1.8582129 2:-2.0268934 3:-0.94074909 4:-0.93248833 
0.011093 1:-1.778725 2:-1.945949 3:-1.0276506 4:-0.93164022 
0.011093 1:-1.4607737 2:-2.3776523 3:-0.38038428 4:-0.89143985 
0.011093 1:-1.5932534 2:-1.2309405 3:-0.98869475 4:-0.84446677 
0.011093 1:-2.7988189 2:-2.4181244 3:-1.5850188 4:-0.86794201 
0.011093 1:-2.3748838 2:-2.094347 3:-1.7932827 4:-0.87245641 
0.011093 1:-2.0569325 2:-2.836337 3:-1.8427267 4:-0.87790484 
0.011093 1:-1.341542 2:-1.0420704 3:-2.6982569 4:-0.89685173 
0.011093 1:-1.6065014 2:-2.0268934 3:-2.2247936 4:-0.90270311 
0.011093 1:-1.9906926 2:-0.42149698 3:-2.2173021 4:-0.90359195 
0.011093 1:-1.2620541 2:-0.65083932 3:-0.3923707 4:-0.8552507 
0.011093 1:-1.9906926 2:-2.2022728 3:-0.47178068 4:-0.85917789 
0.011093 1:-1.8582129 2:-2.2697265 3:-0.850851 4:-0.90273867 
0.011093 1:-2.2291561 2:-1.8919861 3:-1.1055623 4:-0.9067464 
0.011093 1:-1.8847088 2:-2.0673656 3:-0.63060066 4:-0.83983042 
0.011093 1:-2.2689 2:-2.0673656 3:-1.5026122 4:-0.86797793 
0.011093 1:-2.0304365 2:-2.1213285 3:-1.7678116 4:-0.87268325 
0.011093 1:-2.0834284 2:-2.0403841 3:-1.8262454 4:-0.87639935 
0.011093 1:-2.0039406 2:-2.0673656 3:-1.9970517 4:-0.87988562 
0.011093 1:-2.0304365 2:-2.0808563 3:-2.1244074 4:-0.8848221 
0.011093 1:-2.0436845 2:-2.4720873 3:-2.3836136 4:-0.88636028 
0.011093 1:-1.7257332 2:-1.9729305 3:-2.0569838 4:-0.91579416 
0.011093 1:-1.6594933 2:-2.1752914 3:-1.1130538 4:-0.92589321 
0.011093 1:-1.1428224 2:-0.94763529 3:-0.82987477 4:-0.92554968 
0.011093 1:-1.9774446 2:-1.8515139 3:-1.1220436 4:-0.96435346 
0.011093 1:-1.818469 2:-1.2444313 3:-1.2239281 4:-0.96827959 
0.011093 1:-1.4342778 2:-0.17866391 3:-1.4831343 4:-0.96804192 
0.011093 1:-1.6727413 2:-1.9189676 3:-0.18860168 4:-0.94222015 
0.011093 1:-1.818469 2:-2.1483099 3:-0.945244 4:-0.94911853 
0.011093 1:-1.7654771 2:-2.3101986 3:-1.4261988 4:-0.98350541 
0.011093 1:-1.8449649 2:-1.1769776 3:-1.2119417 4:-1.0017035 
0.011093 1:-2.0304365 2:-1.9729305 3:-0.95123721 4:-1.0048312 
0.011093 1:-1.9377007 2:-1.8650047 3:-1.1669926 4:-1.0077737 
0.011093 1:-1.8847088 2:-0.7452744 3:-2.0794583 4:-1.0183639 
0.011093 1:-1.9112048 2:-1.9054768 3:-0.16612715 4:-0.92893843 
0.011093 1:-1.818469 2:-1.945949 3:-1.0711013 4:-0.93333644 
0.011093 1:-1.8847088 2:-2.1483099 3:-1.183474 4:-0.90458745 
0.011093 1:-2.1099243 2:-1.8650047 3:-1.387243 4:-0.91102263 
0.011093 1:-2.1364203 2:-2.2832172 3:-1.4951207 4:-0.61785329 
0.011093 1:-2.2424041 2:-2.0403841 3:-1.6749169 4:-0.62284933 
0.011093 1:-2.0039406 2:-2.0134027 3:-1.8247471 4:-0.62713453 
0.011093 1:-1.9774446 2:-2.1078377 3:-1.9850653 4:-0.63132462 
0.011093 1:-2.0701804 2:-2.2022728 3:-2.1498785 4:-0.63576323 
0.011093 1:-2.1629162 2:-2.0134027 3:-2.3251798 4:-0.64044873 
0.011093 1:-1.9774446 2:-1.2174498 3:-2.3371662 4:-0.64458268 
0.011093 1:-2.2424041 2:-2.0673656 3:-2.4075864 4:-0.66654907 
0.011093 1:-2.0304365 2:-2.2697265 3:-2.410583 4:-0.67075084 
0.011093 1:-2.2291561 2:-2.2562357 3:-2.4390507 4:-0.6756517 
0.011093 1:-2.2159081 2:-2.2832172 3:-2.455532 4:-0.68035151 
0.011093 1:-2.2424041 2:-2.4451059 3:-2.4645219 4:-0.68550516 
0.011093 1:-2.4013797 2:-2.3101986 3:-2.5124675 4:-0.69069926 
0.011093 1:-2.2689 2:-2.2157636 3:-2.6338299 4:-0.69584185 
0.011093 1:-2.1761642 2:-2.2967079 3:-2.5079726 4:-0.70036592 
0.011093 1:-2.255652 2:-1.7300974 3:-2.6982569 4:-0.70509492 
0.011093 1:-0.98384673 2:-0.030265918 3:-0.69952253 4:-0.65869435 
0.011093 1:-2.1364203 2:-2.1078377 3:-1.0651081 4:-0.64989488 
0.011093 1:-2.0701804 2:-1.3928293 3:-1.2464026 4:-0.65426447 
0.011093 1:-1.3680379 2:-1.5412272 3:-1.3303075 4:-0.65646048 
0.011093 1:-1.0368386 2:-0.0032844662 3:-0.61112274 4:-0.65377226 
0.011093 1:0.81787745 2:-1.1230147 3:-0.58714991 4:-0.23887859 
0.011093 1:-1.1030785 2:-1.9054768 3:-0.69952253 4:-0.24158573 
0.011093 1:-1.8714609 2:-2.2157636 3:-0.90628816 4:-0.24675013 
0.011093 1:-2.1761642 2:-2.4181244 3:-0.9482406 4:-0.25283525 
0.011093 1:-2.3748838 2:-2.4181244 3:-1.3902396 4:-0.25935851 
0.011093 1:-2.3748838 2:-2.2967079 3:-1.640456 4:-0.2660211 
0.011093 1:-2.255652 2:-2.2022728 3:-1.8801842 4:-0.27228 
0.011093 1:-2.1629162 2:-2.3371801 3:-2.1064278 4:-0.27761454 
0.011093 1:-2.295396 2:-2.2832172 3:-2.3641356 4:-0.28395511 
0.011093 1:-2.2424041 2:-2.4181244 3:-2.3386645 4:-0.2898959 
0.011093 1:-2.3748838 2:-1.8650047 3:-2.2712409 4:-0.2964396 
0.011093 1:-0.53341569 2:-0.27309899 3:-2.5933758 4:-0.32188861 
0.011093 1:-0.26845625 2:-0.50244133 3:-2.3551458 4:-0.32172474 
0.011093 1:-0.49367177 2:-0.3810248 3:-2.1558717 4:-0.32234468 
0.011093 1:-0.37444002 2:-0.61036714 3:-1.953601 4:-0.3225899 
0.011093 1:-0.59965555 2:-0.030265918 3:-1.7618184 4:-0.32357078 
0.011093 1:-0.029992752 2:0.11813207 3:-1.511602 4:-0.32336643 
0.011093 1:0.11573494 2:-0.24611754 3:-1.2299213 4:-0.3221344 
0.011093 1:-0.2419603 2:0.064169164 3:-1.0501251 4:-0.32184764 
0.011093 1:0.062743052 2:-0.21913608 3:-0.68154291 4:-0.3209464 
0.011093 1:-0.21546436 2:-1.2444313 3:-0.5811567 4:-0.32074157 
0.011093 1:-1.2223102 2:-2.3236894 3:-0.3923707 4:-0.32361165 
0.011093 1:-1.1295744 2:-2.2022728 3:-1.4621581 4:-0.35327218 
0.011093 1:-2.1629162 2:-1.1230147 3:-1.7138727 4:-0.35892838 
0.011093 1:-0.18896842 2:3.3289249 3:-2.625839 4:-2.761938 
0.011093 1:-0.16247247 2:-1.7300974 3:1.4550352 4:1.4879086 
0.011093 1:-2.0569325 2:-1.9729305 3:-2.2202987 4:-0.96102121 
0.011093 1:-1.9377007 2:-1.6761345 3:-2.191831 4:-0.97575872 
0.011093 1:-1.6462453 2:-2.2562357 3:-2.1588683 4:-0.98655046 
0.011093 1:-0.41418394 2:-1.0150889 3:0.44218331 4:-0.85190156 
0.011093 1:-0.29495219 2:-1.797551 3:-0.23954393 4:-0.83950833 
0.011093 1:-0.37444002 2:-1.703116 3:0.28935654 4:-0.80502986 
0.011093 1:0.16872683 2:-1.6761345 3:0.84222985 4:-0.21513218 
0.011093 1:-0.87786296 2:-2.1752914 3:1.15088 4:0.35883085 
0.011093 1:-0.44067988 2:-1.8784954 3:-0.58415331 4:-0.15765852 
0.011093 1:0.20847074 2:-0.78574658 3:-2.1064278 4:-0.41615612 
0.011093 1:-0.54666366 2:1.6695656 3:-1.5820222 4:-0.41952342 
0.011093 1:7.2033999 2:8.4554008 3:-0.54819407 4:-1.3177756 
0.011093 1:8.3029816 2:3.4638321 3:0.58302366 4:-1.309333 
0.011093 1:3.401232 2:2.2361761 3:1.1688596 4:-1.3042762 
0.011093 1:2.1956665 2:1.9123986 3:1.652811 4:-1.3016682 
0.011093 1:1.8777152 2:2.1552317 3:2.1142879 4:-1.304563 
0.011093 1:2.1161787 2:1.9123986 3:2.566775 4:-1.3015361 
0.011093 1:1.8777152 2:1.7774914 3:3.0027808 4:-1.2993057 
0.011093 1:1.7452355 2:1.6290934 3:3.4297968 4:-1.2979675 
0.011093 1:2.0366909 2:1.7370192 3:3.8972669 4:-1.2971261 
0.011093 1:1.7054916 2:1.7505099 3:3.2754717 4:-1.2955301 
0.011093 1:1.7187395 2:1.6021119 3:2.5308158 4:-1.2944129 
0.011093 1:1.5730119 2:1.5886212 3:2.3240502 4:-1.2932957 
0.011093 1:1.5597639 2:1.8314543 3:2.2521317 4:-1.2920508 
0.011093 1:1.7982274 2:2.0473059 3:2.2431419 4:-1.2901356 
0.011093 1:2.0101949 2:1.8179636 3:2.2311555 4:-1.2875181 
0.011093 1:1.7849794 2:1.6695656 3:2.2206673 4:-1.2906534 
0.011093 1:1.6392517 2:1.453714 3:2.2086809 4:-1.289758 
0.011093 1:1.4272842 2:1.7909821 3:2.189203 4:-1.2888626 
0.011093 1:1.7584835 2:1.9258894 3:2.1877047 4:-1.286752 
0.011093 1:1.8909632 2:1.6695656 3:2.1712234 4:-1.2843217 
0.011093 1:1.6392517 2:1.5346583 3:2.1637319 4:-1.2825628 
0.011093 1:1.506772 2:1.4267325 3:2.1397591 4:-1.2820512 
0.011093 1:1.4007882 2:1.2513531 3:2.1202811 4:-1.2812837 
0.011093 1:1.2285646 2:1.5076769 3:2.0828236 4:-1.2856307 
0.011093 1:1.4802761 2:1.4672047 3:2.0468644 4:-1.2839968 
0.011093 1:1.4405321 2:1.3322974 3:1.9824374 4:-1.2824591 
0.011093 1:1.3080524 2:1.0759736 3:1.9284985 4:-1.2819785 
0.011093 1:1.0563409 2:0.84663128 3:1.8625733 4:-1.2820746 
0.011093 1:0.83112542 2:1.0489922 3:1.7951497 4:-1.2827154 
0.011093 1:1.029845 2:1.1164458 3:1.7127431 4:-1.2823629 
0.011093 1:1.0960849 2:0.99502927 3:1.622845 4:-1.2817863 
0.011093 1:0.97685312 2:0.94106636 3:1.5479299 4:-1.28153 
0.011093 1:0.92386123 2:0.77917765 3:1.4820046 4:-1.2820105 
0.011093 1:0.76488557 2:0.8061591 3:1.4100862 4:-1.2829076 
0.011093 1:0.79138151 2:0.63077966 3:1.3606422 4:-1.2835163 
0.011093 1:0.61915787 2:0.86012201 3:1.2632526 4:-1.2842211 
0.011093 1:0.8443734 2:0.96804781 3:1.195829 4:-1.2844774 
0.011093 1:0.95035717 2:0.69823329 3:1.1553749 4:-1.284093 
0.011093 1:0.68539773 2:0.59030748 3:1.1134224 4:-1.2799726 
0.011093 1:0.57941396 2:0.45540022 3:1.0849547 4:-1.2809319 
0.011093 1:0.44693424 2:0.38794659 3:1.0190294 4:-1.2829146 
0.011093 1:0.38069438 2:0.5498353 3:0.93812115 4:-1.2846415 
0.011093 1:0.53967004 2:0.72521474 3:0.8886772 4:-1.2856648 
0.011093 1:0.71189368 2:0.64427039 3:0.86470437 4:-1.2861445 
0.011093 1:0.63240585 2:0.46889095 3:0.84972135 4:-1.2864962 
0.011093 1:0.46018221 2:0.50936313 3:0.81226381 4:-1.2882231 
0.011093 1:0.49992613 2:0.46889095 3:0.7987791 4:-1.2899499 
0.011093 1:0.46018221 2:0.26653006 3:0.75532835 4:-1.291293 
0.011093 1:0.26146263 2:0.38794659 3:0.67741667 4:-1.2881885 
0.011093 1:0.38069438 2:0.61728894 3:0.64295573 4:-1.2898483 
0.011093 1:0.6059099 2:0.59030748 3:0.64595233 4:-1.2907421 
0.011093 1:0.57941396 2:0.53634458 3:0.66093535 4:-1.2912528 
0.011093 1:0.52642207 2:0.38794659 3:0.67741667 4:-1.2922743 
0.011093 1:0.38069438 2:0.29351151 3:0.65943705 4:-1.2942533 
0.011093 1:3.5867036 2:1.8044728 3:0.94561266 4:-1.2901356 
0.011093 1:1.7717314 2:0.64427039 3:1.0939445 4:-1.2881565 
0.011093 1:3.5337117 2:1.9528708 3:1.4565335 4:-1.2880632 
0.011093 1:1.9174591 2:0.53634458 3:1.6438212 4:-1.2861445 
0.011093 1:0.52642207 2:0.83314055 3:1.6603025 4:-1.2874236 
0.011093 1:0.81787745 2:1.1299365 3:1.6842754 4:-1.2879033 
0.011093 1:1.1093328 2:0.87361273 3:1.7442074 4:-1.2875195 
0.011093 1:0.85762137 2:0.86012201 3:1.781665 4:-1.2876794 
0.011093 1:0.8443734 2:0.7521962 3:1.8341055 4:-1.2888626 
0.011093 1:0.73838962 2:0.69823329 3:1.8850478 4:-1.2901418 
0.011093 1:0.68539773 2:1.1164458 3:1.5569197 4:-1.2910372 
0.011093 1:1.0960849 2:0.87361273 3:1.4805063 4:-1.2908453 
0.011093 1:0.85762137 2:0.98153854 3:1.5059775 4:-1.2863052 
0.011093 1:0.96360514 2:0.98153854 3:1.215307 4:-1.2860817 
0.011093 1:0.96360514 2:1.0894643 3:1.1074292 4:-1.2863052 
0.011093 1:1.0695889 2:1.00852 3:1.1688596 4:-1.2868159 
0.011093 1:0.99010109 2:1.1838994 3:1.1883375 4:-1.287167 
0.011093 1:1.1623247 2:1.305316 3:1.1943307 4:-1.2920925 
0.011093 1:1.2815565 2:1.4132418 3:1.2422764 4:-1.2911651 
0.011093 1:1.3875402 2:1.3188067 3:1.3037067 4:-1.289886 
0.011093 1:1.2948044 2:1.0489922 3:1.3666354 4:-1.2897261 
0.011093 1:1.029845 2:1.2108809 3:1.4055913 4:-1.2901418 
0.011093 1:1.1888207 2:1.2783345 3:1.4160794 4:-1.289758 
0.011093 1:1.2550605 2:1.5076769 3:1.4610284 4:-1.2890225 
0.011093 1:1.4802761 2:1.305316 3:1.5194622 4:-1.2875515 
0.011093 1:1.2815565 2:1.2108809 3:1.5554214 4:-1.286816 
0.011093 1:1.1888207 2:1.2378623 3:1.5689061 4:-1.2866881 
0.011093 1:1.2153166 2:0.83314055 3:1.5943773 4:-1.2864003 
0.011093 1:0.81787745 2:1.1299365 3:1.5554214 4:-1.28688 
0.011093 1:1.1093328 2:1.4941861 3:1.5359435 4:-1.2865922 
0.011093 1:1.4670281 2:1.1029551 3:1.5449333 4:-1.2852171 
0.011093 1:1.0828369 2:1.0355014 3:1.5209605 4:-1.2846415 
0.011093 1:1.016597 2:0.81964983 3:1.5194622 4:-1.2851211 
0.011093 1:0.80462948 2:0.73870547 3:1.4760114 4:-1.2861125 
0.011093 1:0.72514165 2:1.0355014 3:1.4160794 4:-1.286816 
0.011093 1:1.016597 2:0.94106636 3:1.3636388 4:-1.2866241 
0.011093 1:0.92386123 2:0.8061591 3:1.3231847 4:-1.2864642 
0.011093 1:0.79138151 2:0.83314055 3:1.2782356 4:-1.286784 
0.011093 1:0.81787745 2:0.69823329 3:1.2332866 4:-1.2874556 
0.011093 1:0.68539773 2:0.5498353 3:1.2183036 4:-1.2887027 
0.011093 1:0.53967004 2:0.37445587 3:1.1538766 4:-1.2899819 
0.011093 1:0.36744641 2:0.71172402 3:1.0295176 4:-1.2915488 
0.011093 1:0.69864571 2:0.79266838 3:0.9860668 4:-1.2873905 
0.011093 1:0.77813354 2:0.73870547 3:0.95909737 4:-1.2877097 
0.011093 1:0.72514165 2:0.50936313 3:0.95010756 4:-1.2879012 
0.011093 1:0.49992613 2:-1.9189676 3:0.92463644 4:-1.2894014 
0.011093 1:-1.5005176 2:-0.030265918 3:-3.2136727 4:-3.3858308 
0.011093 1:-1.0500866 2:-1.0150889 3:-1.6191052 4:-1.6934486 
0.011093 1:-0.9970947 2:0.064169164 3:-1.5728659 4:-1.6443729 
0.011093 1:-1.0368386 2:-1.2444313 3:-1.3902396 4:-1.4505438 
0.011093 1:-1.1560704 2:-1.257922 3:-0.71300725 4:-1.300496 
0.011093 1:-1.2355582 2:-0.070738097 3:-0.84935269 4:-1.3182382 
0.011093 1:-0.87786296 2:-1.0960333 3:-0.68304121 4:-1.2291303 
0.011093 1:-1.0765825 2:0.050678438 3:-0.88231533 4:-1.2362187 
0.011093 1:-1.3017981 2:-0.32706189 3:-0.94074909 4:-1.1438981 
0.011093 1:-0.93085484 2:-1.0420704 3:-0.77144101 4:-1.0683996 
0.011093 1:-1.0235906 2:-1.3253756 3:-0.89280344 4:-1.075678 
0.011093 1:-1.4740217 2:-0.65083932 3:-1.2568907 4:-1.1823126 
0.011093 1:-1.4077818 2:-0.82621876 3:-1.7663133 4:-1.2921663 
0.011093 1:-1.4740217 2:-0.93414457 3:-1.6419543 4:-1.3015825 
0.011093 1:-1.341542 2:-0.88018166 3:-1.7093778 4:-1.321037 
0.011093 1:-1.3812859 2:-1.0825426 3:-1.4247005 4:-1.3265957 
0.011093 1:-1.4210298 2:-1.0015982 3:-1.4741445 4:-1.3440545 
0.011093 1:-1.4475258 2:-0.78574658 3:-1.4891275 4:-1.3586963 
0.011093 1:-1.4077818 2:-0.67782077 3:-1.6104899 4:-1.3965394 
0.011093 1:-1.2488062 2:-0.85320021 3:-1.3407956 4:-1.3919274 
0.011093 1:-1.2620541 2:-0.28658971 3:-1.2628839 4:-1.3824453 
0.011093 1:-1.1560704 2:-0.70480222 3:-1.1550062 4:-1.3654675 
0.011093 1:-1.5137656 2:-0.47545988 3:-1.2299213 4:-1.3549364 
0.011093 1:-1.1825663 2:-2.0403841 3:-1.2044502 4:-1.3466762 
0.011093 1:-1.5137656 2:-0.11121028 3:-1.6179814 4:-1.3879105 
0.011093 1:-1.3812859 2:-0.28658971 3:-1.5011139 4:-1.3764604 
0.011093 1:-1.4342778 2:-0.75876513 3:-1.5145986 4:-1.3698406 
0.011093 1:-1.2223102 2:-0.28658971 3:-1.4831343 4:-1.3922891 
0.011093 1:-1.0633346 2:-0.81272803 3:-1.432192 4:-1.3810399 
0.011093 1:-1.1428224 2:-1.4602829 3:-1.4351886 4:-1.3771291 
0.011093 1:-1.5667575 2:-0.39451552 3:-1.0935759 4:-1.3610615 
0.011093 1:-1.2620541 2:-0.7452744 3:-1.0740979 4:-1.3554351 
0.011093 1:-0.98384673 2:-1.8515139 3:-1.1250402 4:-1.3515617 
0.011093 1:-0.85136701 2:-1.4467922 3:-1.3273109 4:-1.3583116 
0.011093 1:-1.1295744 2:-1.5007551 3:-1.243406 4:-1.3491733 
0.011093 1:-1.3547899 2:-0.56989496 3:-1.1804774 4:-1.3424943 
0.011093 1:-1.0235906 2:-1.5277365 3:-1.0935759 4:-1.3336225 
0.011093 1:-1.2090623 2:-1.1499962 3:-1.0920776 4:-1.3269074 
0.011093 1:-1.1295744 2:-0.17866391 3:-1.1160504 4:-1.327531 
0.011093 1:-1.5005176 2:-0.47545988 3:-1.0755962 4:-1.3224879 
0.011093 1:-1.5270136 2:-0.3810248 3:-1.4187073 4:-1.3264013 
0.011093 1:-1.2355582 2:-2.2292543 3:-1.417209 4:-1.3216411 
0.011093 1:-1.4607737 2:-0.63734859 3:-1.4546666 4:-1.3396942 
0.011093 1:-1.1958143 2:-1.40632 3:-1.1160504 4:-1.3271531 
0.011093 1:-1.4210298 2:-0.48895061 3:-1.0531217 4:-1.3233902 
0.011093 1:-0.89111093 2:-1.2983942 3:-0.74746818 4:-1.3077259 
0.011093 1:-1.2620541 2:-1.3388664 3:-0.73398347 4:-1.2990553 
0.011093 1:-1.1958143 2:-1.1365055 3:-0.71001064 4:-1.2925278 
0.011093 1:-1.1163265 2:0.14511352 3:-0.78192912 4:-1.2930756 
0.011093 1:-1.0633346 2:-1.3118849 3:-0.70701404 4:-1.2797712 
0.011093 1:-1.4077818 2:-0.25960826 3:-0.99019305 4:-1.267265 
0.011093 1:-1.5535095 2:-0.44847843 3:-1.4157107 4:-1.2723082 
0.011093 1:-1.341542 2:-0.11121028 3:-1.4381852 4:-1.2706935 
0.011093 1:-1.3680379 2:-0.44847843 3:-1.4202056 4:-1.266427 
0.011093 1:-1.0765825 2:-1.5816994 3:-1.3033381 4:-1.2730624 
0.011093 1:-1.0500866 2:-1.2039591 3:-1.243406 4:-1.2670732 
0.011093 1:-1.0898305 2:-1.2849034 3:-1.149013 4:-1.2604798 
0.011093 1:-1.2620541 2:-0.3810248 3:-1.1909655 4:-1.2617918 
0.011093 1:-1.4475258 2:-0.25960826 3:-1.3692634 4:-1.2673161 
0.011093 1:-1.3945339 2:-0.62385787 3:-1.3797515 4:-1.2652871 
0.011093 1:-1.1428224 2:-1.7300974 3:-1.3962328 4:-1.2628585 
0.011093 1:-1.1693183 2:-1.3793385 3:-1.2269247 4:-1.2641733 
0.011093 1:-1.3017981 2:-0.31357117 3:-1.1939621 4:-1.261431 
0.011093 1:-1.4475258 2:-0.4349877 3:-1.4067209 4:-1.2607452 
0.011093 1:-1.1693183 2:-0.40800625 3:-1.3932362 4:-1.2585349 
0.011093 1:-1.5005176 2:-0.3810248 3:-0.99019305 4:-1.2500962 
0.011093 1:-1.1693183 2:-2.1752914 3:-1.0021795 4:-1.2484014 
0.011093 1:-1.5005176 2:-0.58338569 3:-1.3692634 4:-1.256127 
0.011093 1:-1.4077818 2:-0.98810747 3:-1.2314196 4:-1.2578265 
0.011093 1:-1.5005176 2:-0.63734859 3:-1.3467888 4:-1.2609821 
0.011093 1:-1.4475258 2:-0.21913608 3:-1.3243143 4:-1.261763 
0.011093 1:-1.4342778 2:-0.097719549 3:-1.1355283 4:-1.2540448 
0.011093 1:-1.4740217 2:-0.44847843 3:-1.1415215 4:-1.2518635 
0.011093 1:-1.5270136 2:-0.32706189 3:-1.1744841 4:-1.2517197 
0.011093 1:-1.4475258 2:-0.47545988 3:-1.5190935 4:-1.2600459 
0.011093 1:-1.0103427 2:-2.3236894 3:-1.4771411 4:-1.258356 
0.011093 1:-1.3945339 2:-0.0032844662 3:-1.526585 4:-1.2696232 
0.011093 1:-1.5932534 2:-0.16517318 3:-1.5220901 4:-1.267772 
0.011093 1:-1.5270136 2:-0.59687642 3:-1.1864706 4:-1.2665755 
0.011093 1:-0.93085484 2:-1.4198107 3:-1.1774808 4:-1.2650298 
0.011093 1:-1.5932534 2:-0.44847843 3:-1.2029519 4:-1.2644613 
0.011093 1:-1.341542 2:-0.89367239 3:-1.1415215 4:-1.2638042 
0.011093 1:-1.4740217 2:-0.75876513 3:-1.2104434 4:-1.2648866 
0.011093 1:-1.5270136 2:-0.86669094 3:-1.2898534 4:-1.2665849 
0.011093 1:-1.5137656 2:-0.58338569 3:-1.4306937 4:-1.26947 
0.011093 1:-1.5667575 2:-0.20564536 3:-1.3422939 4:-1.2700454 
0.011093 1:-1.6197494 2:-0.55640424 3:-1.277867 4:-1.2695061 
0.011093 1:-1.2090623 2:-1.6221716 3:-1.1370266 4:-1.2653591 
0.011093 1:-1.3945339 2:-0.46196915 3:-1.1310334 4:-1.2655541 
0.011093 1:-1.2885501 2:-0.66433005 3:-1.1265385 4:-1.2647086 
0.011093 1:-1.0765825 2:-0.46196915 3:-1.1595011 4:-1.2632848 
0.011093 1:-1.5005176 2:-0.25960826 3:-1.119047 4:-1.261425 
0.011093 1:-1.4342778 2:-0.73178368 3:-1.0875827 4:-1.260398 
0.011093 1:-1.2753021 2:0.01020626 3:-1.1669926 4:-1.258863 
0.011093 1:-1.6462453 2:-0.63734859 3:-1.1160504 4:-1.2571612 
0.011093 1:-1.1693183 2:-0.77225586 3:-1.1235419 4:-1.2563824 
0.011093 1:-1.4607737 2:-0.19215463 3:-1.2673788 4:-1.2573398 
0.011093 1:-1.5535095 2:-0.55640424 3:-1.2613856 4:-1.2566814 
0.011093 1:-1.2488062 2:-0.52942279 3:-1.2119417 4:-1.2560312 
0.011093 1:-1.1693183 2:-1.554718 3:-1.0785928 4:-1.2520193 
0.011093 1:-1.0898305 2:-1.2983942 3:-0.99918286 4:-1.2504796 
0.011093 1:-1.2753021 2:-0.070738097 3:-1.0336438 4:-1.2512319 
0.011093 1:-1.341542 2:-0.63734859 3:-1.3932362 4:-1.2564836 
0.011093 1:-1.4210298 2:-0.54291351 3:-1.466653 4:-1.2566653 
0.011093 1:-1.1428224 2:-0.070738097 3:-1.481636 4:-1.2551754 
0.011093 1:-1.5270136 2:-0.36753407 3:-1.1085589 4:-1.2532451 
0.011093 1:-1.3547899 2:-2.1752914 3:-1.0785928 4:-1.252519 
0.011093 1:-1.4740217 2:-0.057247371 3:-1.4441784 4:-1.2595155 
0.011093 1:-1.6065014 2:-0.42149698 3:-1.4456767 4:-1.2586634 
0.011093 1:-1.0898305 2:-0.61036714 3:-1.4112158 4:-1.2571522 
0.011093 1:-0.97059876 2:-1.5007551 3:-1.0920776 4:-1.2557913 
0.011093 1:-1.1030785 2:-1.5682087 3:-1.0576166 4:-1.2537845 
0.011093 1:-1.5270136 2:-0.39451552 3:-1.1070606 4:-1.2547211 
0.011093 1:-1.0898305 2:-1.4198107 3:-1.1295351 4:-1.2465652 
0.011093 1:-1.1693183 2:-1.3928293 3:-1.0830877 4:-1.2410054 
0.011093 1:-1.4740217 2:-0.35404335 3:-1.0066744 4:-1.2421937 
0.011093 1:-1.4872697 2:-0.51593206 3:-1.0276506 4:-1.2439137 
0.011093 1:-1.3812859 2:-0.70480222 3:-1.37226 4:-1.2559137 
0.011093 1:-1.1693183 2:-0.28658971 3:-1.4276971 4:-1.2564968 
0.011093 1:-1.0500866 2:-0.50244133 3:-1.4112158 4:-1.2535457 
0.011093 1:-1.2488062 2:-2.1887821 3:-1.0860844 4:-1.2561081 
0.011093 1:-0.77187918 2:-0.79923731 3:-1.3138262 4:-1.2548829 
0.011093 1:-1.0500866 2:-0.44847843 3:-0.98120324 4:-1.2413956 
0.011093 1:-1.4872697 2:-0.20564536 3:-1.1609994 4:-1.2350243 
0.011093 1:-1.1958143 2:-0.89367239 3:-1.1520096 4:-1.2326138 
0.011093 1:-1.5402616 2:-0.86669094 3:-1.2359145 4:-1.2286945 
0.011093 1:-1.315046 2:-0.59687642 3:-1.6614322 4:-1.2346008 
0.011093 1:-1.5137656 2:-0.52942279 3:-1.6674254 4:-1.2341448 
0.011093 1:-1.1295744 2:-1.0960333 3:-1.561046 4:-1.2331676 
0.011093 1:-1.3945339 2:-0.65083932 3:-1.2868568 4:-1.2355129 
0.011093 1:-1.4872697 2:-0.6913115 3:-1.2703755 4:-1.2372013 
0.011093 1:-1.5270136 2:-0.90716312 3:-1.3707617 4:-1.2422084 
0.011093 1:-1.5137656 2:-1.0285797 3:-1.4411818 4:-1.2439641 
0.011093 1:-1.3680379 2:-0.46196915 3:-1.4366869 4:-1.2374289 
0.011093 1:-1.2620541 2:-1.1634869 3:-1.3153245 4:-1.2396398 
0.011093 1:-1.3812859 2:-0.94763529 3:-1.3677651 4:-1.2341122 
0.011093 1:-1.4210298 2:-0.97461675 3:-1.4441784 4:-1.236551 
0.011093 1:-1.3812859 2:-1.3118849 3:-1.6029984 4:-1.2670006 
0.011093 1:-1.1825663 2:-0.27309899 3:-1.749832 4:-1.2749939 
0.011093 1:-1.1958143 2:-1.797551 3:-1.4891275 4:-1.2748328 
0.011093 1:-1.2090623 2:-0.56989496 3:-0.87632212 4:-1.2755737 
0.011093 1:-1.4210298 2:-0.4349877 3:-1.0186608 4:-1.2708382 
0.011093 1:-1.2223102 2:-0.52942279 3:-1.0006812 4:-1.2530955 
0.011093 1:-1.0368386 2:-1.3523571 3:-0.98869475 4:-1.2532575 
0.011093 1:-1.2620541 2:-0.20564536 3:-0.96022702 4:-1.2552271 
0.011093 1:-0.89111093 2:-1.1769776 3:-0.96921683 4:-1.2547421 
0.011093 1:-1.1825663 2:0.01020626 3:-0.90179325 4:-1.2524153 
0.011093 1:-0.8116231 2:-1.0960333 3:-0.66356329 4:-1.2491112 
0.011093 1:-1.0765825 2:0.091150617 3:-0.69952253 4:-1.2517998 
0.011093 1:-0.89111093 2:-1.1769776 3:-0.65457348 4:-1.2490089 
0.011093 1:-0.87786296 2:-1.3523571 3:-0.6695565 4:-1.2285746 
0.011093 1:-0.94410282 2:-1.0555611 3:-1.0186608 4:-1.2100348 
0.011093 1:-1.1958143 2:-1.257922 3:-0.92576608 4:-1.2112036 
0.011093 1:-0.93085484 2:-1.1634869 3:-0.70251913 4:-1.2069515 
0.011093 1:-1.0235906 2:-1.2849034 3:-0.59913632 4:-1.1979752 
0.011093 1:-1.2488062 2:-1.2444313 3:-0.52422124 4:-1.1956078 
0.011093 1:-0.9970947 2:-1.0150889 3:-0.47028238 4:-1.1931632 
0.011093 1:-1.0633346 2:-1.2849034 3:-0.53620765 4:-1.1923726 
0.011093 1:-1.1030785 2:-1.3118849 3:-0.55568558 4:-1.1905937 
0.011093 1:-0.94410282 2:-1.2849034 3:-0.52721784 4:-1.1838152 
0.011093 1:-1.0368386 2:-1.1904684 3:-0.58714991 4:-1.1781608 
0.011093 1:-1.2620541 2:-1.1365055 3:-0.61112274 4:-1.175636 
0.011093 1:-1.0898305 2:-1.40632 3:-0.68304121 4:-1.1653679 
0.011093 1:-1.0235906 2:-1.1499962 3:-0.67554971 4:-1.1606477 
0.011093 1:-1.1295744 2:-1.4602829 3:-0.6725531 4:-1.1572889 
0.011093 1:-0.94410282 2:-1.1904684 3:-0.64258707 4:-1.1528775 
0.011093 1:-1.1428224 2:-1.2983942 3:-0.65457348 4:-1.1506118 
0.011093 1:-0.9970947 2:-1.2309405 3:-0.64558367 4:-1.1496843 
0.011093 1:-1.0235906 2:-1.3658478 3:-0.61411934 4:-1.1460123 
0.011093 1:-1.1825663 2:-1.3523571 3:-0.62460745 4:-1.1435754 
0.011093 1:-1.0633346 2:-1.2309405 3:-0.52422124 4:-1.1351519 
0.011093 1:-1.1295744 2:-1.2983942 3:-0.45230276 4:-1.1284164 
0.011093 1:-1.1428224 2:-1.4467922 3:-0.49725181 4:-1.1214832 
0.011093 1:-0.97059876 2:-1.1230147 3:-0.52871615 4:-1.1153609 
0.011093 1:-1.1030785 2:-1.3793385 3:-0.54969237 4:-1.1096381 
0.011093 1:-1.0898305 2:-1.5007551 3:-0.63659386 4:-1.1085258 
0.011093 1:-1.0368386 2:-1.3388664 3:-0.6680582 4:-1.1079454 
0.011093 1:-0.89111093 2:-1.40632 3:-0.61861424 4:-1.102745 
0.011093 1:-1.3017981 2:-0.124701 3:-0.86283741 4:-1.1042308 
0.011093 1:-0.95735079 2:-1.4872643 3:-0.64858028 4:-1.0970094 
0.011093 1:-1.0103427 2:-1.4467922 3:-0.69053272 4:-1.0928449 
0.011093 1:-1.2223102 2:-1.3793385 3:-0.71300725 4:-1.0888786 
0.011093 1:-1.0765825 2:-1.5816994 3:-0.73698007 4:-1.0792557 
0.011093 1:-0.95735079 2:-1.40632 3:-0.70401744 4:-1.0750065 
0.011093 1:-0.97059876 2:-1.3658478 3:-0.69053272 4:-1.0736792 
0.011093 1:-1.1560704 2:-1.4467922 3:-0.67554971 4:-1.0718415 
0.011093 1:-0.89111093 2:-1.40632 3:-0.6680582 4:-1.0683878 
0.011093 1:-1.5005176 2:-0.50244133 3:-0.93775249 4:-1.0702973 
0.011093 1:-1.0500866 2:-1.3793385 3:-1.0980708 4:-1.0695131 
0.011093 1:-1.1693183 2:-1.4737736 3:-0.97221343 4:-1.0675695 
0.011093 1:-1.0103427 2:-1.3253756 3:-0.66206499 4:-1.0630416 
0.011093 1:-1.1560704 2:-1.5412272 3:-0.66506159 4:-1.0617092 
0.011093 1:-1.2090623 2:-1.3928293 3:-0.68753612 4:-1.0601718 
0.011093 1:-0.89111093 2:-1.2983942 3:-0.72799026 4:-1.0495274 
0.011093 1:-1.0765825 2:-1.5682087 3:-0.7594546 4:-1.0486507 
0.011093 1:-0.95735079 2:-1.2849034 3:-0.70551574 4:-1.0467642 
0.011093 1:-0.9970947 2:-1.4737736 3:-0.72649196 4:-1.0449868 
0.011093 1:-1.1030785 2:-1.2849034 3:-0.7669461 4:-1.0318393 
0.011093 1:-1.0898305 2:-1.6221716 3:-0.7639495 4:-1.0135468 
0.011093 1:-0.9043589 2:-1.1769776 3:-0.72349536 4:-1.0109968 
0.011093 1:-1.1560704 2:0.091150617 3:-0.91677627 4:-1.010027 
0.011093 1:-1.1693183 2:-1.5682087 3:-0.78342742 4:-0.98631617 
0.011093 1:-1.0500866 2:-1.3118849 3:-0.72948856 4:-0.98589803 
0.011093 1:-1.2885501 2:-0.34055262 3:-0.87931873 4:-0.98520112 
0.011093 1:-1.328294 2:0.050678438 3:-1.3363007 4:-0.99320791 
0.011093 1:-1.5005176 2:-0.3810248 3:-1.198457 4:-0.99067183 
0.011093 1:-1.315046 2:-0.11121028 3:-1.089081 4:-0.98704326 
0.011093 1:-1.1693183 2:-0.70480222 3:-1.0261523 4:-0.97667356 
0.011093 1:-1.1295744 2:-0.56989496 3:-1.0351421 4:-0.97360448 
0.011093 1:-1.3017981 2:-0.0032844662 3:-1.1415215 4:-0.96841981 
0.011093 1:-1.0500866 2:0.023696986 3:-0.98419984 4:-0.95404665 
0.011093 1:-1.0633346 2:-1.5277365 3:-0.82238327 4:-0.94707717 
0.011093 1:-0.98384673 2:-1.4602829 3:-0.89280344 4:-0.87629181 
0.011093 1:-1.0765825 2:-1.5007551 3:-0.84335949 4:-0.87528816 
0.011093 1:-0.9970947 2:-1.3118849 3:-0.73398347 4:-0.8694865 
0.011093 1:-0.89111093 2:-1.1769776 3:-0.65307518 4:-0.86740323 
0.011093 1:-0.89111093 2:-1.1904684 3:-0.74746818 4:-0.87403358 
0.011093 1:-1.0633346 2:-1.2849034 3:-0.66356329 4:-0.87080754 
0.011093 1:-0.71888729 2:-1.6761345 3:-0.64408537 4:-0.8716057 
0.011093 1:-0.83811904 2:-1.3658478 3:-0.62910235 4:-0.86980977 
0.011093 1:-0.95735079 2:-1.5142458 3:-0.69652593 4:-0.87135427 
0.011093 1:-1.0103427 2:-1.4467922 3:-0.70102083 4:-0.87049222 
0.011093 1:-0.89111093 2:-1.3388664 3:-0.63509556 4:-0.86848079 
0.011093 1:-1.0500866 2:-1.3388664 3:-0.78642403 4:-0.87192896 
0.011093 1:-0.89111093 2:-1.5682087 3:-0.69952253 4:-0.87195458 
0.011093 1:-1.0103427 2:-1.2849034 3:-0.70701404 4:-0.87396189 
0.011093 1:-1.0633346 2:-1.3793385 3:-0.71900045 4:-0.87424865 
0.011093 1:-1.0898305 2:-1.3388664 3:-0.73398347 4:-0.87790484 
0.011093 1:-1.1295744 2:-1.6221716 3:-0.75495969 4:-0.87704456 
0.011093 1:-1.1030785 2:-1.257922 3:-0.82687817 4:-0.88585948 
0.011093 1:-0.95735079 2:-1.4198107 3:-0.73698007 4:-0.88382049 
0.011093 1:-0.95735079 2:-1.257922 3:-0.74746818 4:-0.89149694 
0.011093 1:-1.328294 2:-0.11121028 3:-0.98719644 4:-0.90056715 
0.011093 1:-1.0103427 2:-1.5682087 3:-0.79841044 4:-0.90156468 
0.011093 1:-0.71888729 2:-1.5412272 3:-0.73098687 4:-0.90031777 
0.011093 1:-0.79837512 2:-1.2983942 3:-0.72799026 4:-0.89949837 
0.011093 1:-1.0898305 2:-1.2983942 3:-0.68453952 4:-0.90013964 
0.011093 1:-1.1560704 2:0.01020626 3:-0.95872871 4:-0.90334308 
0.011093 1:-0.89111093 2:-1.5816994 3:-0.74297328 4:-0.90152905 
0.011093 1:-1.315046 2:-0.24611754 3:-0.79541384 4:-0.90060278 
0.011093 1:-1.5270136 2:-0.47545988 3:-1.119047 4:-0.91031156 
0.011093 1:-1.4475258 2:-0.28658971 3:-1.1325317 4:-0.91441038 
0.011093 1:-1.4740217 2:-0.59687642 3:-1.1160504 4:-0.91671667 
0.011093 1:-1.3680379 2:-0.75876513 3:-1.1130538 4:-0.91813593 
0.011093 1:-1.4872697 2:-2.8633184 3:-1.1969587 4:-0.91927162 
0.011093 1:-1.0368386 2:-1.3658478 3:-1.2838602 4:-0.9255037 
0.011093 1:-1.341542 2:-1.2174498 3:-1.3692634 4:-0.92932794 
0.011093 1:-1.4740217 2:-0.36753407 3:-1.5595477 4:-0.93630484 
0.011093 1:-1.341542 2:-2.0134027 3:-1.700388 4:-0.94478945 
0.011093 1:-1.5270136 2:-0.057247371 3:-1.9580959 4:-0.96846173 
0.011093 1:-0.95735079 2:-2.0134027 3:-1.6824084 4:-0.96601281 
0.011093 1:-1.2223102 2:-0.58338569 3:-1.2389111 4:-0.97737185 
0.011093 1:-0.94410282 2:-1.9054768 3:-1.2464026 4:-0.97681322 
0.011093 1:-0.8116231 2:-0.62385787 3:-1.2658805 4:-0.98316771 
0.011093 1:-0.61290352 2:0.41492804 3:-1.0471285 4:-0.98269226 
0.011093 1:-0.94410282 2:-1.1499962 3:-1.0531217 4:-0.9803047 
0.011093 1:-1.0765825 2:-1.4333014 3:-0.94074909 4:-0.98107283 
0.011093 1:-1.5137656 2:-0.92065384 3:-0.81339346 4:-0.97855896 
0.011093 1:-1.2223102 2:-0.21913608 3:-0.78192912 4:-0.97129549 
0.011093 1:-0.77187918 2:-1.0150889 3:-0.73548177 4:-0.96508961 
0.011093 1:-1.0103427 2:-0.21913608 3:-0.68903442 4:-0.96161919 
0.011093 1:-1.0765825 2:-1.0015982 3:-0.55418727 4:-0.96102325 
0.011093 1:-0.91760687 2:-1.1769776 3:-0.62610575 4:-0.95604879 
0.011093 1:-0.95735079 2:-0.19215463 3:-0.50624162 4:-0.95359003 
0.011093 1:-0.65264743 2:-1.4467922 3:-0.53620765 4:-0.94908334 
0.011093 1:-1.0500866 2:0.023696986 3:-0.54369916 4:-0.94595091 
0.011093 1:-1.2488062 2:-0.32706189 3:-0.73548177 4:-0.93983272 
0.011093 1:-1.4342778 2:-0.39451552 3:-0.91078306 4:-0.94438214 
0.011093 1:-0.85136701 2:-1.1365055 3:-0.93026098 4:-0.93990326 
0.011093 1:-1.0898305 2:-1.3118849 3:-0.81189515 4:-0.93895106 
0.011093 1:-1.1825663 2:-1.3253756 3:-0.68753612 4:-0.93873945 
0.011093 1:-1.0103427 2:-1.3388664 3:-0.58714991 4:-0.93623551 
0.011093 1:-1.1825663 2:-1.0690518 3:-0.60812613 4:-0.93436124 
0.011093 1:-0.98384673 2:-1.1499962 3:-0.55119067 4:-0.9307921 
0.011093 1:-1.1163265 2:0.064169164 3:-1.0066744 4:-0.93248833 
0.011093 1:-0.77187918 2:0.1855857 3:-0.96622022 4:-0.9280004 
0.011093 1:-0.86461498 2:-1.8110418 3:-0.95872871 4:-0.9288322 
0.011093 1:-0.87786296 2:-1.5412272 3:-0.90928476 4:-0.93178157 
0.011093 1:-0.97059876 2:-0.81272803 3:-0.87482382 4:-0.92888385 
0.011093 1:-0.79837512 2:0.01020626 3:-0.93175928 4:-0.93185224 
0.011093 1:-1.1030785 2:-0.94763529 3:-0.71750215 4:-0.92983798 
0.011093 1:-0.55991163 2:-1.4333014 3:-0.42233673 4:-0.91448135 
0.011093 1:-1.0633346 2:-1.2309405 3:-0.51373313 4:-0.91189121 
0.011093 1:-0.86461498 2:-1.0420704 3:-0.59014651 4:-0.90874721 
0.011093 1:-1.0633346 2:-0.043756645 3:-1.0935759 4:-0.91394913 
0.011093 1:-0.87786296 2:0.2395486 3:-1.0306472 4:-0.91390247 
0.011093 1:-1.0633346 2:-0.030265918 3:-1.0321455 4:-0.9127292 
0.011093 1:-1.0235906 2:-2.1618006 3:-0.64858028 4:-0.91144927 
0.011093 1:-0.9970947 2:-0.23262681 3:-1.0875827 4:-0.91990899 
0.011093 1:-1.4342778 2:-1.3658478 3:-1.1535079 4:-0.91898748 
0.011093 1:-1.341542 2:-1.4602829 3:-1.0651081 4:-0.92058177 
0.011093 1:-1.4077818 2:-0.98810747 3:-0.97071513 4:-0.92111292 
0.011093 1:-0.97059876 2:-1.703116 3:-1.05462 4:-0.92571616 
0.011093 1:-1.1560704 2:-1.0825426 3:-1.0860844 4:-0.92830106 
0.011093 1:-0.87786296 2:-0.42149698 3:-0.90778646 4:-0.92504338 
0.011093 1:-1.1560704 2:-1.109524 3:-0.59164481 4:-0.92458305 
0.011093 1:-0.78512715 2:-0.56989496 3:-0.56617369 4:-0.92242307 
0.011093 1:-0.55991163 2:-0.3810248 3:-0.72649196 4:-0.92196275 
0.011093 1:-0.89111093 2:0.21256715 3:-1.0411353 4:-0.92916655 
0.011093 1:-0.95735079 2:0.1855857 3:-1.0021795 4:-0.92619816 
0.011093 1:-1.0633346 2:-0.030265918 3:-0.9467423 4:-0.92429978 
0.011093 1:-0.97059876 2:-0.084228823 3:-0.62161085 4:-0.92320208 
0.011093 1:-0.8116231 2:-0.21913608 3:-0.61112274 4:-0.92114833 
0.011093 1:-1.328294 2:-1.5007551 3:-0.71600385 4:-0.92114833 
0.011093 1:-1.4740217 2:-2.539541 3:-0.78942063 4:-0.92582239 
0.011093 1:-1.4740217 2:-0.61036714 3:-1.37226 4:-0.93708192 
0.011093 1:-0.59965555 2:-1.5682087 3:-1.3812498 4:-0.93687032 
0.011093 1:-0.73213527 2:-1.1904684 3:-1.1894672 4:-0.93926846 
0.011093 1:-1.2090623 2:-0.7452744 3:-0.93026098 4:-0.93813992 
0.011093 1:-1.2090623 2:-0.043756645 3:-0.93475589 4:-0.94473481 
0.011093 1:-1.0633346 2:-0.25960826 3:-0.82687817 4:-0.93813992 
0.011093 1:-0.79837512 2:-1.0690518 3:-0.70701404 4:-0.93866892 
0.011093 1:-1.0500866 2:0.064169164 3:-0.71600385 4:-0.94163133 
0.011093 1:-0.9043589 2:0.19907643 3:-0.61711594 4:-0.93859839 
0.011093 1:-1.3945339 2:-1.2309405 3:-0.64258707 4:-0.93517402 
0.011093 1:-1.2090623 2:-1.5682087 3:-0.68903442 4:-0.93637658 
0.011093 1:-1.0368386 2:-0.25960826 3:-1.1505113 4:-0.94106706 
0.011093 1:-1.4607737 2:-1.3928293 3:-1.0036778 4:-0.93754038 
0.011093 1:-1.3680379 2:-1.5007551 3:-0.89879665 4:-0.94290093 
0.011093 1:-0.77187918 2:-0.084228823 3:-0.86283741 4:-0.94413527 
0.011093 1:-0.85136701 2:0.38794659 3:-0.84036288 4:-0.94131393 
0.011093 1:-0.95735079 2:0.40143732 3:-0.87182722 4:-0.93979746 
0.011093 1:-1.3547899 2:-1.3118849 3:-0.56317708 4:-0.93888052 
0.011093 1:-1.2885501 2:-1.3388664 3:-0.63809216 4:-0.93930372 
0.011093 1:-0.54666366 2:-0.31357117 3:-0.72199706 4:-0.93905686 
0.011093 1:-0.98384673 2:0.15860425 3:-0.83137308 4:-0.93859839 
0.011093 1:-0.89111093 2:-0.030265918 3:-0.84935269 4:-0.93556544 
0.011093 1:-0.83811904 2:0.19907643 3:-0.5751635 4:-0.92893843 
0.011093 1:-0.8116231 2:-0.31357117 3:-0.57366519 4:-0.92483092 
0.011093 1:-0.87786296 2:0.091150617 3:-0.60363123 4:-0.92302503 
0.011093 1:-0.83811904 2:-0.32706189 3:-0.59464142 4:-0.92111292 
0.011093 1:-0.78512715 2:-0.0032844662 3:-0.65007858 4:-0.92033577 
0.011093 1:-0.62615149 2:-1.8110418 3:-0.61411934 4:-0.91671667 
0.011093 1:-1.0633346 2:-1.3118849 3:-0.96172532 4:-0.9221398 
0.011093 1:-1.1295744 2:-0.46196915 3:-0.91677627 4:-0.9174263 
0.011093 1:-0.73213527 2:0.077659891 3:-0.98719644 4:-0.91756823 
0.011093 1:-1.6727413 2:-1.2039591 3:-0.56467538 4:-0.91398461 
0.011093 1:-1.1825663 2:-1.5277365 3:-0.81788836 4:-0.91756823 
0.011093 1:-1.0235906 2:-0.28658971 3:-1.1580028 4:-0.9204777 
0.011093 1:-0.71888729 2:-0.124701 3:-0.92876268 4:-0.91636186 
0.011093 1:-1.0500866 2:-0.24611754 3:-0.61411934 4:-0.91490712 
0.011093 1:-0.89111093 2:-0.11121028 3:-0.62011255 4:-0.91391364 
0.011093 1:-0.77187918 2:-0.17866391 3:-0.63359726 4:-0.91031156 
0.011093 1:-1.0103427 2:-0.124701 3:-0.70551574 4:-0.90924496 
0.011093 1:-0.94410282 2:-0.48895061 3:-0.72499366 4:-0.90878276 
0.011093 1:-0.58640757 2:-0.31357117 3:-0.70401744 4:-0.90700509 
0.011093 1:-1.0103427 2:-0.15168245 3:-0.7594546 4:-0.90657844 
0.011093 1:-1.0500866 2:-0.016775192 3:-0.77293931 4:-0.9066851 
0.011093 1:-0.89111093 2:-0.31357117 3:-0.67854631 4:-0.90376972 
0.011093 1:-1.0368386 2:0.050678438 3:-0.73847837 4:-0.90430302 
0.011093 1:-0.77187918 2:-0.32706189 3:-0.6710548 4:-0.89974775 
0.011093 1:-1.0235906 2:-0.11121028 3:-0.69652593 4:-0.90013964 
0.011093 1:-0.86461498 2:-0.097719549 3:-0.67854631 4:-0.89714706 
0.011093 1:-0.94410282 2:-0.13819173 3:-0.68603782 4:-0.89736082 
0.011093 1:-0.95735079 2:-0.23262681 3:-0.70401744 4:-0.89718269 
0.011093 1:-0.85136701 2:-2.539541 3:-0.69203102 4:-0.89717302 
0.011093 1:-1.0368386 2:0.17209497 3:-1.0711013 4:-0.90523415 
0.011093 1:-1.0765825 2:-2.1213285 3:-1.0276506 4:-0.9024197 
0.011093 1:-1.2488062 2:-0.28658971 3:-1.605995 4:-0.96428335 
0.011093 1:-1.3547899 2:-0.75876513 3:-1.4531683 4:-0.96260072 
0.011093 1:-1.0235906 2:-1.7435881 3:-1.2344162 4:-0.9748929 
0.011093 1:-1.341542 2:-0.75876513 3:-1.183474 4:-0.99174732 
0.011093 1:-1.1560704 2:0.33398369 3:-1.2643822 4:-1.0139963 
0.011093 1:-1.1030785 2:-0.56989496 3:-1.1280368 4:-1.0129712 
0.011093 1:-1.0368386 2:-0.24611754 3:-1.2104434 4:-1.0232976 
0.011093 1:-1.1560704 2:-0.31357117 3:-1.1969587 4:-1.0231941 
0.011093 1:-0.94410282 2:-0.40800625 3:-1.1535079 4:-1.021124 
0.011093 1:-2.6000993 2:-2.2292543 3:-1.1774808 4:-1.0296011 
0.011093 1:-0.91760687 2:-0.62385787 3:-1.6943948 4:-1.0591469 
0.011093 1:-1.4475258 2:-1.2444313 3:-1.3258126 4:-1.0623583 
0.011093 1:-1.2223102 2:-0.19215463 3:-1.1175487 4:-1.0633072 
0.011093 1:-1.0633346 2:-1.0420704 3:-1.0486268 4:-1.0647157 
0.011093 1:-1.0500866 2:-0.043756645 3:-0.46878408 4:-1.0552521 
0.011093 1:-0.91760687 2:-0.65083932 3:-0.14964583 4:-1.0582907 
0.011093 1:-1.0633346 2:-0.65083932 3:-1.3348024 4:-1.0635459 
0.011093 1:-0.83811904 2:0.10464134 3:-0.98719644 4:-1.0679959 
0.011093 1:-1.1030785 2:-0.043756645 3:-0.90928476 4:-1.0696635 
0.011093 1:-1.1030785 2:-0.35404335 3:-1.2179349 4:-1.0956586 
0.011093 1:-1.0633346 2:-1.1904684 3:-1.0711013 4:-1.0869124 
0.011093 1:-1.0500866 2:0.064169164 3:-0.88830854 4:-1.0895566 
0.011093 1:-0.91760687 2:0.36096514 3:-0.82088496 4:-1.0851997 
0.011093 1:-1.1030785 2:-0.70480222 3:-0.81189515 4:-1.07895 
0.011093 1:-1.1295744 2:-0.17866391 3:-0.79541384 4:-1.0788821 
0.011093 1:-1.1825663 2:-1.5951901 3:-0.88980684 4:-1.0821768 
0.011093 1:-1.1825663 2:-1.0555611 3:-0.98270154 4:-1.0833529 
0.011093 1:-1.0633346 2:0.01020626 3:-1.2254264 4:-1.0938619 
0.011093 1:-1.1295744 2:-0.58338569 3:-1.1010674 4:-1.0848106 
0.011093 1:-1.1030785 2:0.1316228 3:-0.89580005 4:-1.0897689 
0.011093 1:-1.0898305 2:-0.6913115 3:-0.84785439 4:-1.0902425 
0.011093 1:-1.0898305 2:-0.084228823 3:-0.87482382 4:-1.0939305 
0.011093 1:-1.3547899 2:-1.0960333 3:-0.86433571 4:-1.0959267 
0.011093 1:-1.0765825 2:-0.11121028 3:-1.0006812 4:-1.0964302 
0.011093 1:-1.0633346 2:-0.27309899 3:-1.258389 4:-1.0980583 
0.011093 1:-1.1030785 2:-0.63734859 3:-1.3018398 4:-1.0931161 
0.011093 1:-1.2885501 2:-1.8110418 3:-1.3288092 4:-1.0925737 
0.011093 1:-0.83811904 2:-0.51593206 3:-1.2299213 4:-1.0957575 
0.011093 1:-1.328294 2:-0.19215463 3:-1.2314196 4:-1.1235574 
0.011093 1:-1.1030785 2:-0.50244133 3:-1.149013 4:-1.1265063 
0.011093 1:-1.0368386 2:0.1855857 3:-1.0261523 4:-1.1278439 
0.011093 1:-0.74538324 2:-0.27309899 3:-0.88980684 4:-1.1223041 
0.011093 1:-0.9970947 2:-0.71829295 3:-0.77593591 4:-1.1266973 
0.011093 1:-0.97059876 2:-0.057247371 3:-0.80590195 4:-1.120256 
0.011093 1:-1.0500866 2:-1.2444313 3:-0.77593591 4:-1.1215841 
0.011093 1:-1.2223102 2:-1.3523571 3:-0.83436968 4:-1.1212141 
0.011093 1:-1.1693183 2:-0.39451552 3:-1.0186608 4:-1.1251243 
0.011093 1:-1.0235906 2:-0.75876513 3:-1.1669926 4:-1.1260371 
0.011093 1:-0.95735079 2:-0.54291351 3:-1.5655409 4:-1.1443098 
0.011093 1:-1.0103427 2:-0.61036714 3:-1.5250867 4:-1.1449441 
0.011093 1:-1.1560704 2:-2.0268934 3:-1.3737583 4:-1.1473466 
0.011093 1:-1.0103427 2:0.29351151 3:-1.2598873 4:-1.1576215 
0.011093 1:-0.97059876 2:-0.20564536 3:-1.1295351 4:-1.1659623 
0.011093 1:-0.94410282 2:-1.797551 3:-1.0980708 4:-1.1672212 
0.011093 1:-1.2488062 2:-1.3388664 3:-1.2883551 4:-1.1754493 
0.011093 1:-0.70563932 2:-0.78574658 3:-1.0830877 4:-1.1756146 
0.011093 1:-1.4210298 2:-0.46196915 3:-1.2179349 4:-1.18074 
0.011093 1:-1.0898305 2:-0.59687642 3:-1.1535079 4:-1.1867158 
0.011093 1:-1.328294 2:-0.40800625 3:-1.1864706 4:-1.1841699 
0.011093 1:-0.91760687 2:0.050678438 3:-1.0935759 4:-1.1879583 
0.011093 1:-1.2488062 2:-0.21913608 3:-0.95423381 4:-1.1891772 
0.011093 1:-0.85136701 2:-0.27309899 3:-0.8523493 4:-1.1871778 
0.011093 1:-0.83811904 2:-0.93414457 3:-0.87632212 4:-1.1910393 
0.011093 1:-1.0103427 2:-0.59687642 3:-1.1894672 4:-1.1963641 
0.011093 1:-0.86461498 2:-2.2832172 3:-1.1250402 4:-1.1980739 
0.011093 1:-0.8116231 2:-1.1365055 3:-1.322816 4:-1.208921 
0.011093 1:-1.1163265 2:0.14511352 3:-1.3348024 4:-1.2097727 
0.011093 1:-1.0898305 2:-0.89367239 3:-1.2793653 4:-1.2099365 
0.011093 1:-1.0368386 2:-0.32706189 3:-1.3333041 4:-1.2205358 
0.011093 1:-0.95735079 2:-0.34055262 3:-1.2613856 4:-1.2217106 
0.011093 1:-0.97059876 2:-0.043756645 3:-1.2239281 4:-1.2217433 
0.011093 1:-0.98384673 2:-1.4467922 3:-0.82687817 4:-1.2220043 
0.011093 1:-1.4210298 2:-2.1078377 3:-0.90029495 4:-1.2240603 
0.011093 1:-0.79837512 2:-0.3810248 3:-1.2748704 4:-1.2332001 
0.011093 1:-1.0633346 2:-0.6913115 3:-1.0920776 4:-1.2412655 
0.011093 1:-1.1030785 2:0.077659891 3:-1.1445181 4:-1.2416744 
0.011093 1:-0.95735079 2:-0.56989496 3:-0.93026098 4:-1.2429726 
0.011093 1:-1.1693183 2:-0.66433005 3:-0.93475589 4:-1.2420783 
0.011093 1:-1.2753021 2:-0.25960826 3:-1.039637 4:-1.2416095 
0.011093 1:-1.1693183 2:-0.16517318 3:-1.0636098 4:-1.2438341 
0.011093 1:-1.4607737 2:-0.46196915 3:-1.0576166 4:-1.2377215 
0.011093 1:-1.1560704 2:-0.27309899 3:-1.0561183 4:-1.2367833 
0.011093 1:-0.89111093 2:0.22605788 3:-0.97670833 4:-1.23206 
0.011093 1:-1.1030785 2:-1.0555611 3:-0.850851 4:-1.2263774 
0.011093 1:-1.0368386 2:-0.23262681 3:-0.86283741 4:-1.2246298 
0.011093 1:-1.0765825 2:-1.0015982 3:-0.78642403 4:-1.221164 
0.011093 1:-1.1428224 2:0.1316228 3:-1.1460164 4:-1.2070684 
0.011093 1:-0.95735079 2:0.037187712 3:-1.0066744 4:-1.2012304 
0.011093 1:-1.1428224 2:-0.32706189 3:-1.307833 4:-1.1944479 
0.011093 1:-1.9641967 2:-0.81272803 3:-1.6764152 4:-1.197219 
0.011093 1:-1.3945339 2:-0.124701 3:-1.2508975 4:-1.1864187 
0.011093 1:-1.341542 2:-0.65083932 3:-1.4381852 4:-1.1826909 
0.011093 1:-1.1693183 2:-0.20564536 3:-1.447175 4:-1.1809384 
0.011093 1:-1.2753021 2:0.023696986 3:-1.4276971 4:-1.1783592 
0.011093 1:-1.5535095 2:-1.797551 3:-1.0591149 4:-1.1766397 
0.011093 1:-1.341542 2:-0.084228823 3:-1.3392973 4:-1.1813012 
0.011093 1:-1.4342778 2:-0.44847843 3:-1.3842464 4:-1.1744434 
0.011093 1:-1.328294 2:-1.0150889 3:-1.1445181 4:-1.1697493 
0.011093 1:-1.1560704 2:-0.73178368 3:-1.1819757 4:-1.1671271 
0.011093 1:-1.4077818 2:-0.83970949 3:-1.5026122 4:-1.1739315 
0.011093 1:-1.1693183 2:-0.90716312 3:-1.1864706 4:-1.1684216 
0.011093 1:-0.97059876 2:0.32049296 3:-1.0845861 4:-1.1666956 
0.011093 1:-0.98384673 2:-0.36753407 3:-1.0006812 4:-1.1625765 
0.011093 1:-1.0633346 2:0.077659891 3:-0.91827457 4:-1.1593175 
0.011093 1:-0.93085484 2:-0.67782077 3:-0.89580005 4:-1.1558589 
0.011093 1:-1.4475258 2:-0.50244133 3:-0.98719644 4:-1.159384 
0.011093 1:-0.83811904 2:-0.124701 3:-1.5940086 4:-1.1681819 
0.011093 1:-0.73213527 2:-0.56989496 3:-1.1624977 4:-1.1611738 
0.011093 1:-0.85136701 2:-0.7452744 3:-1.1385249 4:-1.1445057 
0.011093 1:-0.87786296 2:0.22605788 3:-0.77893252 4:-1.1376158 
0.011093 1:-0.95735079 2:0.023696986 3:-0.76844441 4:-1.1343381 
0.011093 1:-1.0898305 2:-0.124701 3:-0.72948856 4:-1.1335434 
0.011093 1:-0.95735079 2:0.01020626 3:-0.64708197 4:-1.1299243 
0.011093 1:-0.9970947 2:-0.057247371 3:-0.6710548 4:-1.1259031 
0.011093 1:-1.0500866 2:-0.21913608 3:-0.69053272 4:-1.1188525 
0.011093 1:-0.9043589 2:0.32049296 3:-0.6695565 4:-1.1363448 
0.011093 1:-0.98384673 2:-0.057247371 3:-0.6740514 4:-1.1318679 
0.011093 1:-1.1295744 2:-0.16517318 3:-0.70251913 4:-1.1316378 
0.011093 1:-0.98384673 2:0.26653006 3:-0.66506159 4:-1.1219683 
0.011093 1:-0.91760687 2:0.25303933 3:-0.63659386 4:-1.1182539 
0.011093 1:-1.0898305 2:-0.0032844662 3:-0.61411934 4:-1.1157309 
0.011093 1:-0.89111093 2:0.25303933 3:-0.57216689 4:-1.1128062 
0.011093 1:-1.0765825 2:-0.070738097 3:-0.59314312 4:-1.1123681 
0.011093 1:-0.77187918 2:0.11813207 3:-0.50773992 4:-1.1086606 
0.011093 1:-0.95735079 2:-0.016775192 3:-0.47028238 4:-1.1043659 
0.011093 1:-0.9043589 2:0.25303933 3:-0.62610575 4:-1.0925433 
0.011093 1:-1.0500866 2:-1.2714127 3:-0.63659386 4:-1.0908787 
0.011093 1:-1.0235906 2:0.15860425 3:-0.61711594 4:-1.0883023 
0.011093 1:-0.9970947 2:-0.043756645 3:-0.61411934 4:-1.0835694 
0.011093 1:-1.1295744 2:-1.2309405 3:-0.51373313 4:-1.0767423 
0.011093 1:-1.2090623 2:-2.687939 3:-0.73698007 4:-1.077014 
0.011093 1:-1.4872697 2:-1.1904684 3:-1.307833 4:-1.0862344 
0.011093 1:-1.1693183 2:-1.5951901 3:-1.3662668 4:-1.0913533 
0.011093 1:-1.0235906 2:0.050678438 3:-1.546063 4:-1.0917262 
0.011093 1:-0.93085484 2:0.73870547 3:-1.1070606 4:-1.087096 
0.011093 1:-0.79837512 2:-1.3253756 3:-0.78792233 4:-1.0882345 
0.011093 1:-0.77187918 2:0.14511352 3:-0.40136051 4:-1.0825164 
0.011093 1:-0.83811904 2:-1.0960333 3:-0.46728578 4:-1.0788142 
0.011093 1:-0.8116231 2:-0.50244133 3:-0.44780786 4:-1.0614017 
0.011093 1:-0.93085484 2:0.17209497 3:-0.57216689 4:-1.057507 
0.011093 1:-1.4077818 2:-1.40632 3:-0.56317708 4:-1.0557304 
0.011093 1:-1.3812859 2:-1.5816994 3:-0.70851234 4:-1.0596252 
0.011093 1:-0.79837512 2:0.46889095 3:-0.77743422 4:-1.0598302 
0.011093 1:-1.4872697 2:-1.2714127 3:-0.89130514 4:-1.0582927 
0.011093 1:-1.2488062 2:-1.4198107 3:-0.92726438 4:-1.0587027 
0.011093 1:-1.0633346 2:-0.56989496 3:-0.91377966 4:-1.0532929 
0.011093 1:-0.77187918 2:0.1855857 3:-1.0126676 4:-1.048925 
0.011093 1:-1.0235906 2:0.077659891 3:-1.0875827 4:-1.0445348 
0.011093 1:-1.0765825 2:-0.11121028 3:-0.72049875 4:-1.0400038 
0.011093 1:-0.87786296 2:0.22605788 3:-0.62610575 4:-1.0325624 
0.011093 1:-0.89111093 2:-0.23262681 3:-0.61861424 4:-1.0263683 
0.011093 1:-1.1030785 2:-1.9054768 3:-0.64858028 4:-1.0237117 
0.011093 1:-0.9043589 2:0.59030748 3:-0.89280344 4:-1.0219866 
0.011093 1:-0.74538324 2:-1.5142458 3:-0.55119067 4:-1.0162087 
0.011093 1:-0.86461498 2:-0.65083932 3:-0.57366519 4:-1.0104773 
0.011093 1:-0.75863121 2:-1.1634869 3:-0.53470935 4:-0.99896168 
0.011093 1:-1.6329974 2:-1.3388664 3:-0.37139447 4:-0.97782575 
0.011093 1:-1.315046 2:-1.3253756 3:-0.44780786 4:-0.97967623 
0.011093 1:-0.71888729 2:-1.1365055 3:-0.64408537 4:-0.964704 
0.011093 1:-1.0235906 2:-1.0825426 3:-0.49575351 4:-0.96130369 
0.011093 1:-1.3547899 2:-1.2444313 3:-0.45080446 4:-0.95186381 
0.011093 1:-1.2223102 2:-1.5007551 3:-0.75196309 4:-0.95260292 
0.011093 1:-0.69239135 2:0.87361273 3:-0.84935269 4:-0.94376877 
0.011093 1:-0.8116231 2:-1.2444313 3:-0.68603782 4:-0.9427246 
0.011093 1:-0.71888729 2:-0.043756645 3:-0.29498109 4:-0.93202893 
0.011093 1:-1.4872697 2:-1.3658478 3:-0.40285881 4:-0.92422896 
0.011093 1:-1.341542 2:-1.6491531 3:-0.41634352 4:-0.92522043 
0.011093 1:-0.62615149 2:-1.554718 3:-0.7609529 4:-0.92107751 
0.011093 1:-1.1560704 2:-0.77225586 3:-0.4912586 4:-0.91387816 
0.011093 1:-0.75863121 2:0.21256715 3:-0.40435711 4:-0.91366527 
0.011093 1:-1.3017981 2:-1.1499962 3:-0.47777389 4:-0.90764505 
0.011093 1:-0.9970947 2:-1.5816994 3:-0.63060066 4:-0.89743207 
0.011093 1:-0.83811904 2:-0.097719549 3:-0.6680582 4:-0.8882204 
0.011093 1:-0.9043589 2:-1.2849034 3:-0.60812613 4:-0.8826758 
0.011093 1:-0.63939946 2:-1.3388664 3:-0.47327899 4:-0.87631102 
0.011093 1:-0.70563932 2:0.50936313 3:-0.45380106 4:-0.86539179 
0.011093 1:-0.85136701 2:-1.3118849 3:-0.4867637 4:-0.86232926 
0.011093 1:-0.98384673 2:-1.1499962 3:-0.46878408 4:-0.8523714 
0.011093 1:-1.0765825 2:-1.2174498 3:-0.46279087 4:-0.84409507 
0.011093 1:-0.74538324 2:-0.7452744 3:-0.47927219 4:-0.83564567 
0.011093 1:-0.73213527 2:0.5498353 3:-0.68004461 4:-0.83510243 
0.011093 1:-1.0765825 2:-0.11121028 3:-0.65307518 4:-0.83180678 
0.011093 1:-1.1295744 2:-1.0015982 3:-0.53171275 4:-0.83187906 
0.011093 1:-1.0368386 2:0.023696986 3:-0.56018048 4:-0.82745154 
0.011093 1:-1.0765825 2:-0.79923731 3:-0.50773992 4:-0.82369643 
0.011093 1:-0.78512715 2:0.37445587 3:-0.65757009 4:-0.8240601 
0.011093 1:-0.71888729 2:-0.070738097 3:-0.42982824 4:-0.81751411 
0.011093 1:-0.94410282 2:-0.016775192 3:-0.51073653 4:-0.81387624 
0.011093 1:-1.0368386 2:-1.1634869 3:-0.52272294 4:-0.81158037 
0.011093 1:-1.4210298 2:-1.2983942 3:-0.61861424 4:-0.80717085 
0.011093 1:-1.2753021 2:-1.5951901 3:-0.70401744 4:-0.81128884 
0.011093 1:-0.83811904 2:0.023696986 3:-1.3303075 4:-0.81620855 
0.011093 1:-1.0103427 2:0.1316228 3:-1.13403 4:-0.81121595 
0.011093 1:-1.0633346 2:-0.0032844662 3:-0.94074909 4:-0.81026845 
0.011093 1:-0.69239135 2:-0.73178368 3:-0.60063462 4:-0.80826412 
0.011093 1:-1.0103427 2:-0.057247371 3:-0.71600385 4:-0.81018666 
0.011093 1:-0.95735079 2:-1.5816994 3:-0.75196309 4:-0.798321 
0.011093 1:-0.94410282 2:0.22605788 3:-0.8538476 4:-0.78629558 
0.011093 1:-0.79837512 2:-0.51593206 3:-1.1804774 4:-1.3649346 
0.011093 1:-1.4077818 2:-0.98810747 3:-1.3857447 4:-1.5341435 
0.011093 1:-1.5800055 2:-2.2292543 3:-1.3827481 4:-1.5030857 
0.011093 1:-1.4342778 2:-1.9864212 3:-1.3692634 4:-1.4779182 
0.011093 1:-1.3547899 2:-1.0825426 3:-1.3557786 4:-1.455779 
0.011093 1:-1.8449649 2:-0.58338569 3:-1.4276971 4:-1.4572388 
0.011093 1:-1.778725 2:-2.2022728 3:-1.402226 4:-1.4495744 
0.011093 1:-1.6727413 2:-0.48895061 3:-1.5160969 4:-1.4552364 
0.011093 1:-1.7654771 2:-0.52942279 3:-1.4247005 4:-1.4510278 
0.011093 1:-1.6462453 2:-0.6913115 3:-1.3737583 4:-1.444275 
0.011093 1:-1.5270136 2:-0.86669094 3:-1.4067209 4:-1.4425376 
0.011093 1:-1.328294 2:-0.61036714 3:-1.3917379 4:-1.4418075 
0.011093 1:-1.1428224 2:-1.1365055 3:-1.387243 4:-1.4396311 
0.011093 1:-1.5932534 2:-0.63734859 3:-1.4681513 4:-1.4409393 
0.011093 1:-1.5402616 2:-0.93414457 3:-1.4651547 4:-1.4427631 
0.011093 1:-1.818469 2:-0.71829295 3:-1.4771411 4:-1.4436863 
0.011093 1:-1.2753021 2:-1.1769776 3:-1.3437922 4:-1.4422631 
0.011093 1:-2.1231723 2:-2.1752914 3:-1.8082657 4:-1.4577881 
0.011093 1:-2.1364203 2:-2.0134027 3:-1.923635 4:-1.4615733 
0.011093 1:-2.6663392 2:-1.8919861 3:-2.0734651 4:-1.5151972 
0.011093 1:-1.7124852 2:-0.86669094 3:-1.700388 4:-1.5114302 
0.011093 1:-1.4210298 2:-0.94763529 3:-1.4396835 4:-1.5144287 
0.011093 1:-1.4475258 2:-0.96112602 3:-1.4097175 4:-1.5127235 
0.011093 1:-1.2753021 2:-0.77225586 3:-1.4202056 4:-1.5075448 
0.011093 1:-1.8449649 2:-1.9729305 3:-1.3857447 4:-1.487369 
0.011093 1:-1.5535095 2:-0.47545988 3:-1.4276971 4:-1.4881101 
0.011093 1:-1.6727413 2:-0.6913115 3:-1.4711479 4:-1.4880799 
0.011093 1:-1.341542 2:-1.109524 3:-1.3617719 4:-1.4858558 
0.011093 1:-1.6065014 2:-0.3810248 3:-1.3857447 4:-1.4837677 
0.011093 1:-1.8317169 2:-1.945949 3:-1.4097175 4:-1.4802893 
0.011093 1:-1.9112048 2:-1.1365055 3:-1.5101037 4:-1.4818051 
0.011093 1:-1.5005176 2:-1.0015982 3:-1.5955069 4:-1.4841308 
0.011093 1:-1.5137656 2:-0.59687642 3:-1.5400697 4:-1.4838585 
0.011093 1:-1.4740217 2:-0.94763529 3:-1.3917379 4:-1.4812897 
0.011093 1:-1.7124852 2:-0.39451552 3:-1.4501716 4:-1.4443361 
0.011093 1:-1.3812859 2:-1.109524 3:-1.3977311 4:-1.4351755 
0.011093 1:-1.7257332 2:-2.3371801 3:-1.4291954 4:-1.4358371 
0.011093 1:-1.4872697 2:-0.44847843 3:-1.3572769 4:-1.425274 
0.011093 1:-1.315046 2:-1.1230147 3:-1.3827481 4:-1.4209216 
0.011093 1:-1.6197494 2:-2.0268934 3:-1.3617719 4:-1.4160902 
0.011093 1:-1.1030785 2:-0.78574658 3:-1.3737583 4:-1.4096627 
0.011093 1:-1.7654771 2:-0.73178368 3:-1.4232022 4:-1.4108701 
0.011093 1:-1.5005176 2:-0.90716312 3:-1.4157107 4:-1.4101581 
0.011093 1:-1.5137656 2:-2.1618006 3:-1.4306937 4:-1.4113926 
0.011093 1:-1.5800055 2:-0.61036714 3:-1.432192 4:-1.4131233 
0.011093 1:-1.2488062 2:-0.44847843 3:-1.4007277 4:-1.4141122 
0.011093 1:-1.7124852 2:-0.58338569 3:-1.3827481 4:-1.4129687 
0.011093 1:-1.5137656 2:-0.48895061 3:-1.3602736 4:-1.4122324 
0.011093 1:-1.6462453 2:-0.58338569 3:-1.3677651 4:-1.4057618 
0.011093 1:-1.7257332 2:-0.55640424 3:-1.3542803 4:-1.406469 
0.011093 1:-1.6329974 2:-0.40800625 3:-1.2868568 4:-1.4047632 
0.011093 1:-1.2488062 2:-0.85320021 3:-1.3333041 4:-1.4032125 
0.011093 1:-1.7124852 2:-0.65083932 3:-1.6599339 4:-1.4073098 
0.011093 1:-1.1295744 2:-1.9864212 3:-1.4202056 4:-1.4156884 
0.011093 1:-1.805221 2:-0.66433005 3:-1.4351886 4:-1.4139577 
0.011093 1:-1.5137656 2:-0.46196915 3:-1.6674254 4:-1.4126597 
0.011093 1:-1.2885501 2:-0.6913115 3:-1.7048829 4:-1.423611 
0.011093 1:-1.5005176 2:-0.54291351 3:-1.3962328 4:-1.4254588 
0.011093 1:-1.7654771 2:-0.52942279 3:-1.352782 4:-1.4215077 
0.011093 1:-1.4475258 2:-0.62385787 3:-1.3812498 4:-1.4332387 
0.011093 1:-1.7124852 2:-0.66433005 3:-1.3662668 4:-1.432962 
0.011093 1:-1.5932534 2:-0.30008044 3:-1.3213177 4:-1.4259207 
0.011093 1:-1.6859892 2:-1.0150889 3:-1.4486733 4:-1.4433252 
0.011093 1:-1.7124852 2:-0.54291351 3:-1.4621581 4:-1.4473689 
0.011093 1:-1.0368386 2:-1.6626438 3:-1.4097175 4:-1.4346836 
0.011093 1:-1.6594933 2:-1.6086809 3:-1.3962328 4:-1.4344377 
0.011093 1:-1.5800055 2:-0.46196915 3:-1.4351886 4:-1.4354675 
0.011093 1:-1.341542 2:-1.1230147 3:-1.3752566 4:-1.4350525 
0.011093 1:-1.7389811 2:-0.63734859 3:-1.3947345 4:-1.4356674 
0.011093 1:-1.1693183 2:-0.78574658 3:-1.3587752 4:-1.4329313 
0.011093 1:-1.6859892 2:-0.36753407 3:-1.4037243 4:-1.4339765 
0.011093 1:-1.6462453 2:-0.61036714 3:-1.37226 4:-1.4327776 
0.011093 1:-1.7124852 2:-0.70480222 3:-1.3467888 4:-1.4345914 
0.011093 1:-1.3945339 2:-0.66433005 3:-1.2868568 4:-1.4051044 
0.011093 1:-1.5270136 2:-0.62385787 3:-1.2449043 4:-1.4005142 
0.011093 1:-1.3812859 2:-0.51593206 3:-1.3602736 4:-1.3979821 
0.011093 1:-1.6065014 2:-0.34055262 3:-1.402226 4:-1.3863429 
0.011093 1:-1.5800055 2:-0.4349877 3:-1.3662668 4:-1.3867571 
0.011093 1:-2.0701804 2:-2.0268934 3:-1.8652012 4:-1.3816167 
0.011093 1:-1.9906926 2:-1.797551 3:-1.9805704 4:-1.3837238 
0.011093 1:-1.6329974 2:-0.79923731 3:-1.3333041 4:-1.393698 
0.011093 1:-1.6859892 2:-0.58338569 3:-1.2943483 4:-1.3908967 
0.011093 1:-1.6859892 2:-2.3506708 3:-1.3647685 4:-1.3978578 
0.011093 1:-1.6329974 2:-0.084228823 3:-1.6764152 4:-1.4091364 
0.011093 1:-1.6462453 2:-0.3810248 3:-1.3797515 4:-1.4066596 
0.011093 1:-1.5535095 2:-0.27309899 3:-1.3932362 4:-1.4089197 
0.011093 1:-1.7124852 2:-0.75876513 3:-1.3497854 4:-1.4121395 
0.011093 1:-1.5402616 2:-0.30008044 3:-1.3497854 4:-1.4146067 
0.011093 1:-1.2885501 2:-1.0285797 3:-1.3917379 4:-1.416152 
0.011093 1:-1.6329974 2:-0.40800625 3:-1.3422939 4:-1.4154412 
0.011093 1:-1.5800055 2:-2.3236894 3:-1.3333041 4:-1.4121652 
0.011093 1:-1.5137656 2:-0.79923731 3:-1.322816 4:-1.4128451 
0.011093 1:-1.6462453 2:-0.46196915 3:-1.3902396 4:-1.4146376 
0.011093 1:-1.6992372 2:-0.96112602 3:-1.3902396 4:-1.4152557 
0.011093 1:-1.6329974 2:-0.48895061 3:-1.4366869 4:-1.4159665 
0.011093 1:-1.4210298 2:-1.1230147 3:-1.3422939 4:-1.4168937 
0.011093 1:-1.7124852 2:-0.7452744 3:-1.3797515 4:-1.4188546 
0.011093 1:-1.6197494 2:-1.8919861 3:-1.3977311 4:-1.4178673 
0.011093 1:-1.5800055 2:-0.59687642 3:-1.3707617 4:-1.4185461 
0.011093 1:-1.5800055 2:-1.797551 3:-1.322816 4:-1.3811481 
0.011093 1:-1.6329974 2:-1.8784954 3:-1.3902396 4:-1.3842538 
0.011093 1:-1.805221 2:-0.42149698 3:-2.0420008 4:-1.3932934 
0.011093 1:-1.7522291 2:-0.86669094 3:-1.7033846 4:-1.38246 
0.011093 1:-2.0834284 2:-2.391143 3:-1.6569373 4:-1.3890604 
0.011093 1:-1.5402616 2:-0.23262681 3:-1.3318058 4:-1.3924219 
0.011093 1:-1.5270136 2:-0.27309899 3:-1.5550528 4:-1.3976093 
0.011093 1:-1.5535095 2:-0.6913115 3:-1.3153245 4:-1.4037707 
0.011093 1:-1.778725 2:-0.77225586 3:-1.417209 4:-1.4049803 
0.011093 1:-1.6197494 2:-0.73178368 3:-1.3827481 4:-1.4036467 
0.011093 1:-1.4077818 2:-0.50244133 3:-1.4187073 4:-1.4009174 
0.011093 1:-1.6462453 2:-0.34055262 3:-1.3273109 4:-1.4027472 
0.011093 1:-1.6992372 2:-0.3810248 3:-1.9281299 4:-1.4142359 
0.011093 1:-1.7124852 2:-0.40800625 3:-1.4067209 4:-1.4132778 
0.011093 1:-1.3945339 2:-1.7570789 3:-1.4756428 4:-1.4133705 
0.011093 1:-1.6727413 2:-0.51593206 3:-1.3482871 4:-1.4092602 
0.011093 1:-0.46717583 2:0.1316228 3:-0.13765942 4:-0.26106582 
0.011093 1:-1.5932534 2:-1.6626438 3:-0.24703544 4:-0.11183289 
0.011093 1:-0.20221639 2:0.22605788 3:-0.44181465 4:-0.12413728 
0.011093 1:-0.20221639 2:-0.097719549 3:-0.41184862 4:-0.1198811 
0.011093 1:-0.33469611 2:0.091150617 3:-0.31895392 4:-0.1203961 
0.011093 1:-0.58640757 2:0.32049296 3:-0.095706974 4:-0.12217839 
0.011093 1:-1.0500866 2:-1.5007551 3:-0.22306261 4:-0.12417086 
0.011093 1:-0.36119205 2:-0.73178368 3:-0.54819407 4:-0.14429047 
0.011093 1:-0.42743191 2:0.091150617 3:-0.25003204 4:-0.17628485 
0.011093 1:-0.70563932 2:0.22605788 3:-0.37588938 4:-0.22564851 
0.011093 1:-0.98384673 2:-0.75876513 3:-0.61411934 4:-0.34184039 
0.011093 1:-1.1030785 2:-0.28658971 3:-1.0815894 4:-0.35726437 
0.011093 1:-0.28170422 2:-1.2714127 3:-1.0621115 4:-0.35754847 
0.011093 1:-1.2488062 2:-0.32706189 3:-1.1055623 4:-0.36059238 
0.011093 1:-0.32144813 2:-1.0690518 3:-1.1295351 4:-0.35880662 
0.011093 1:-1.0500866 2:-0.28658971 3:-1.2029519 4:-0.36294633 
0.011093 1:-0.28170422 2:-1.1769776 3:-1.1699892 4:-0.36249989 
0.011093 1:-1.1560704 2:-0.48895061 3:-1.2374128 4:-0.36504428 
0.011093 1:-0.4804238 2:-1.2039591 3:-1.1804774 4:-0.36678542 
0.011093 1:-1.1825663 2:-0.61036714 3:-1.2299213 4:-0.3697008 
0.011093 1:-0.59965555 2:-1.0960333 3:-1.1370266 4:-0.37059162 
0.011093 1:-1.0765825 2:-0.48895061 3:-0.95573211 4:-0.373507 
0.011093 1:-0.4804238 2:-1.1499962 3:-0.88531193 4:-0.3739598 
0.011093 1:-1.1295744 2:-0.6913115 3:-0.98120324 4:-0.37674726 
0.011093 1:-0.67914338 2:-1.257922 3:-0.91677627 4:-0.37808039 
0.011093 1:-1.2355582 2:-0.48895061 3:-1.0201591 4:-0.38135263 
0.011093 1:-0.4804238 2:-1.109524 3:-0.95573211 4:-0.38224138 
0.011093 1:-1.0898305 2:-0.63734859 3:-1.0471285 4:-0.38452703 
0.011093 1:-0.62615149 2:-1.1365055 3:-0.98719644 4:-0.3858974 
0.011093 1:-1.1163265 2:-0.82621876 3:-1.0591149 4:-0.38892027 
0.011093 1:-0.8116231 2:-1.2849034 3:-1.0171625 4:-0.39061307 
0.011093 1:-1.2620541 2:-0.81272803 3:-1.0920776 4:-0.39339698 
0.011093 1:-0.79837512 2:-1.1499962 3:-1.0606132 4:-0.39492505 
0.011093 1:-1.1295744 2:-0.73178368 3:-1.13403 4:-0.39790075 
0.011093 1:-0.71888729 2:-1.1769776 3:-1.0875827 4:-0.39999179 
0.011093 1:-1.1560704 2:-0.92065384 3:-1.1415215 4:-0.40292728 
0.011093 1:-0.9043589 2:-1.1904684 3:-1.104064 4:-0.40459332 
0.011093 1:-1.1693183 2:-0.86669094 3:-1.1819757 4:-0.40732148 
0.011093 1:-0.85136701 2:-1.0555611 3:-1.1550062 4:-0.40940772 
0.011093 1:-1.0368386 2:-0.97461675 3:-1.2014536 4:-0.41173468 
0.011093 1:-0.95735079 2:-1.109524 3:-1.183474 4:-0.41426224 
0.011093 1:-1.0898305 2:-1.0285797 3:-1.2149383 4:-0.41645893 
0.011093 1:-1.0103427 2:-1.2309405 3:-1.1864706 4:-0.41661904 
0.011093 1:-1.2090623 2:-1.1499962 3:-1.2329179 4:-0.42062186 
0.011093 1:-1.1295744 2:-1.1634869 3:-1.2329179 4:-0.42291882 
0.011093 1:-1.1428224 2:-0.96112602 3:-1.2808636 4:-0.42611377 
0.011093 1:-0.94410282 2:-1.109524 3:-1.2568907 4:-0.4291889 
0.011093 1:-1.0898305 2:-0.89367239 3:-1.277867 4:-0.43238385 
0.011093 1:-0.87786296 2:-1.1769776 3:-1.2449043 4:-0.43389171 
0.011093 1:-1.1560704 2:-1.1634869 3:-1.2793653 4:-0.43668092 
0.011093 1:-1.1428224 2:-1.0555611 3:-1.2913517 4:-0.43954982 
0.011093 1:-1.0368386 2:-0.82621876 3:-1.3003415 4:-0.44202026 
0.011093 1:-0.8116231 2:-1.257922 3:-1.2688772 4:-0.44330402 
0.011093 1:-1.2355582 2:-1.1499962 3:-1.2943483 4:-0.44648445 
0.011093 1:-1.1295744 2:-1.1904684 3:-1.2853585 4:-0.44934683 
0.011093 1:-1.1693183 2:-0.96112602 3:-1.2898534 4:-0.45193092 
0.011093 1:-0.94410282 2:-1.2174498 3:-1.2673788 4:-0.45358595 
0.011093 1:-1.1958143 2:-0.98810747 3:-1.2958466 4:-0.45620385 
0.011093 1:-0.97059876 2:-1.0420704 3:-1.2823619 4:-0.45858375 
0.011093 1:-1.0235906 2:-1.1769776 3:-1.2988432 4:-0.46124132 
0.011093 1:-1.1560704 2:-1.1499962 3:-1.2988432 4:-0.46350474 
0.011093 1:-1.1295744 2:-0.96112602 3:-1.2973449 4:-0.46627502 
0.011093 1:-0.94410282 2:-1.1499962 3:-1.2868568 4:-0.46821421 
0.011093 1:-1.1295744 2:-0.70480222 3:-1.322816 4:-0.47090534 
0.011093 1:-0.69239135 2:-1.2039591 3:-1.2613856 4:-0.47240921 
0.011093 1:-1.1825663 2:-0.97461675 3:-1.2673788 4:-0.47525863 
0.011093 1:-0.95735079 2:-1.1769776 3:-1.243406 4:-0.47689302 
0.011093 1:-1.1560704 2:-1.1365055 3:-1.2673788 4:-0.4797755 
0.011093 1:-1.1163265 2:-1.1365055 3:-1.258389 4:-0.48186879 
0.011093 1:-1.1163265 2:-0.88018166 3:-1.2748704 4:-0.48179 
0.011093 1:-0.86461498 2:-1.1634869 3:-1.2568907 4:-0.48663585 
0.011093 1:-1.1428224 2:-0.96112602 3:-1.2553924 4:-0.49022098 
0.011093 1:-0.94410282 2:-1.109524 3:-1.2344162 4:-0.49177509 
0.011093 1:-1.0898305 2:-2.1618006 3:-1.2508975 4:-0.49464462 
0.011093 1:-1.1693183 2:-0.50244133 3:-1.605995 4:-0.51026546 
0.011093 1:-0.49367177 2:-1.2174498 3:-1.5535545 4:-0.51104987 
0.011093 1:-1.1958143 2:-0.97461675 3:-1.5580494 4:-0.51329395 
0.011093 1:-0.95735079 2:-1.1769776 3:-1.5400697 4:-0.51568105 
0.011093 1:-1.1560704 2:-1.1499962 3:-1.5445647 4:-0.51865513 
0.011093 1:-1.1295744 2:-1.1769776 3:-1.5745307 4:-0.520682 
0.011093 1:-1.1560704 2:-0.83970949 3:-1.576029 4:-0.52341517 
0.011093 1:-0.82487107 2:-1.1634869 3:-1.5625443 4:-0.52513317 
0.011093 1:-1.1428224 2:-0.96112602 3:-1.5685375 4:-0.52806157 
0.011093 1:-0.94410282 2:-1.2714127 3:-1.4351886 4:-0.53024811 
0.011093 1:-1.2488062 2:-0.92065384 3:-1.2538941 4:-0.53259527 
0.011093 1:-0.9043589 2:-1.1634869 3:-1.2239281 4:-0.53450423 
0.011093 1:-1.1428224 2:-0.90716312 3:-1.2973449 4:-0.53711444 
0.011093 1:-0.89111093 2:-1.1769776 3:-1.2628839 4:-0.53894549 
0.011093 1:-1.1560704 2:-0.88018166 3:-1.2853585 4:-0.540996 
0.011093 1:-0.86461498 2:-1.2849034 3:-1.2523958 4:-0.54305621 
0.011093 1:-1.2620541 2:-1.0285797 3:-1.2673788 4:-0.54655467 
0.011093 1:-1.0103427 2:-1.109524 3:-1.2508975 4:-0.54892585 
0.011093 1:-1.0898305 2:-0.79923731 3:-1.2808636 4:-0.55075576 
0.011093 1:-0.78512715 2:-1.2309405 3:-1.2404094 4:-0.55238476 
0.011093 1:-1.2090623 2:-0.55640424 3:-1.2703755 4:-0.55564275 
0.011093 1:-0.54666366 2:-1.1499962 3:-1.1909655 4:-0.55703903 
0.011093 1:-1.1295744 2:-0.93414457 3:-1.2164366 4:-0.55896304 
0.011093 1:-0.91760687 2:-1.2039591 3:-1.1909655 4:-0.56113023 
0.011093 1:-1.1825663 2:-0.71829295 3:-1.2239281 4:-0.56368442 
0.011093 1:-0.70563932 2:-1.1365055 3:-1.1729858 4:-0.56515501 
0.011093 1:-1.1163265 2:-0.61036714 3:-1.2014536 4:-0.5675157 
0.011093 1:-0.59965555 2:-1.2309405 3:-1.1265385 4:-0.56786776 
0.011093 1:-1.2090623 2:-0.83970949 3:-1.149013 4:-0.57103414 
0.011093 1:-0.82487107 2:-1.2714127 3:-1.119047 4:-0.57269456 
0.011093 1:1.029845 2:-1.6221716 3:-0.91827457 4:-0.57207673 
0.011093 1:-0.66589541 2:-0.097719549 3:-0.43731975 4:-0.64185069 
0.011093 1:0.10248697 2:0.4958724 3:-0.56467538 4:-0.6756517 
0.011093 1:-0.8116231 2:-1.5007551 3:-0.9422474 4:-0.70156454 
0.011093 1:-1.4740217 2:-1.0555611 3:-0.96322362 4:-0.70408575 
0.011093 1:-0.36119205 2:0.48238167 3:-0.50474332 4:-0.73531677 
0.011093 1:-0.44067988 2:-0.28658971 3:-0.45230276 4:-0.74059873 
0.011093 1:-0.66589541 2:0.1855857 3:-0.78043082 4:-0.7493716 
0.011093 1:-0.65264743 2:0.01020626 3:-0.40435711 4:-0.7483731 
0.011093 1:-0.71888729 2:-0.043756645 3:-0.42982824 4:-0.74852103 
0.011093 1:-0.83811904 2:0.14511352 3:-0.83287138 4:-0.75814437 
0.011093 1:-0.77187918 2:-0.070738097 3:-0.45080446 4:-0.75588038 
0.011093 1:-0.096232612 2:0.32049296 3:-0.54519746 4:-0.73258036 
0.011093 1:-0.056488696 2:0.96804781 3:-0.49875011 4:-0.69880729 
0.011093 1:-1.3812859 2:-1.9999119 3:-0.47477729 4:-0.55936617 
0.011093 1:-0.85136701 2:0.19907643 3:-0.50024841 4:-0.5519969 
0.011093 1:-0.0034968079 2:-0.82621876 3:-0.80590195 4:-0.55339318 
0.011093 1:-0.8116231 2:-1.4872643 3:-0.87182722 4:-0.55455675 
0.011093 1:1.0828369 2:0.28002078 3:-0.84186119 4:-0.55950484 
0.011093 1:-0.70563932 2:-0.084228823 3:-0.37738768 4:-0.55851289 
0.011093 1:-0.65264743 2:-0.24611754 3:-0.46578748 4:-0.55715539 
0.011093 1:-0.67914338 2:-0.13819173 3:-0.48077049 4:-0.55494461 
0.011093 1:-0.87786296 2:0.19907643 3:-0.83586798 4:-0.55676753 
0.011093 1:-0.74538324 2:-0.043756645 3:-0.83586798 4:-0.55222961 
0.011093 1:-1.2355582 2:-0.59687642 3:-0.83287138 4:-0.56085933 
0.011093 1:-0.58640757 2:-1.4467922 3:-0.9437457 4:-0.56538721 
0.011093 1:-1.4210298 2:-0.77225586 3:-1.05462 4:-0.56569681 
0.011093 1:-0.75863121 2:-1.5277365 3:-1.0411353 4:-0.56651626 
0.011093 1:-1.5005176 2:-0.6913115 3:-1.2329179 4:-0.57273317 
0.011093 1:-0.67914338 2:-1.3388664 3:-1.2763687 4:-0.57084107 
0.011093 1:-1.315046 2:-0.73178368 3:-1.3407956 4:-0.57562925 
0.011093 1:-0.71888729 2:-1.4333014 3:-1.417209 4:-0.57653276 
0.011093 1:-1.4077818 2:-0.65083932 3:-1.4786394 4:-0.57393987 
0.011093 1:-0.63939946 2:-1.4872643 3:-1.3677651 4:-0.5680575 
0.011093 1:-1.4607737 2:-0.71829295 3:-1.2883551 4:-0.56704573 
0.011093 1:-0.70563932 2:-1.3523571 3:-1.228423 4:-0.56607609 
0.011093 1:-1.328294 2:-0.63734859 3:-1.3123279 4:-0.5685606 
0.011093 1:-0.62615149 2:-1.3793385 3:-1.2224298 4:-0.56368442 
0.011093 1:-1.3547899 2:-0.67782077 3:-1.2898534 4:-0.56395532 
0.011093 1:-0.66589541 2:-1.554718 3:-1.1954604 4:-0.56450831 
0.011093 1:-1.5270136 2:-0.48895061 3:-1.2913517 4:-0.57261733 
0.011093 1:-0.4804238 2:-1.3793385 3:-1.1969587 4:-0.56991432 
0.011093 1:-1.3547899 2:-0.59687642 3:-1.2688772 4:-0.57559064 
0.011093 1:-0.58640757 2:-1.4333014 3:-1.1759825 4:-0.57342823 
0.011093 1:-1.4077818 2:-0.83970949 3:-1.2628839 4:-0.57611678 
0.011093 1:-0.82487107 2:-1.4198107 3:-1.1909655 4:-0.57775305 
0.011093 1:-1.3945339 2:-0.42149698 3:-1.2688772 4:-0.58039354 
0.011093 1:-0.41418394 2:-1.554718 3:-1.1654943 4:-0.58068774 
0.011093 1:-1.5270136 2:-0.44847843 3:-1.2673788 4:-0.58597791 
0.011093 1:-0.44067988 2:-1.3388664 3:-1.163996 4:-0.57444297 
0.011093 1:-1.315046 2:-0.63734859 3:-1.2374128 4:-0.57686492 
0.011093 1:-0.62615149 2:-1.4872643 3:-1.1355283 4:-0.57389161 
0.011093 1:-1.4607737 2:-0.47545988 3:-1.2464026 4:-0.573351 
0.011093 1:-0.46717583 2:-1.40632 3:-1.1460164 4:-0.573351 
0.011093 1:-1.3812859 2:-0.47545988 3:-1.2359145 4:-0.57582233 
0.011093 1:-0.46717583 2:-1.4602829 3:-1.1295351 4:-0.57589956 
0.011093 1:-1.4342778 2:-0.81272803 3:-1.198457 4:-0.57837088 
0.011093 1:-0.79837512 2:-1.4467922 3:-1.1310334 4:-0.57927619 
0.011093 1:-1.4210298 2:-0.47545988 3:-1.2449043 4:-0.58208883 
0.011093 1:-0.46717583 2:-1.5412272 3:-1.1250402 4:-0.58201177 
0.011093 1:-1.5137656 2:-0.4349877 3:-1.2464026 4:-0.58439472 
0.011093 1:-0.42743191 2:-1.3928293 3:-1.1460164 4:-0.58435611 
0.011093 1:-1.3680379 2:-0.55640424 3:-1.2299213 4:-0.58118973 
0.011093 1:-0.54666366 2:-1.4333014 3:-1.1265385 4:-0.57783028 
0.011093 1:-1.4077818 2:-0.42149698 3:-1.2329179 4:-0.58050913 
0.011093 1:-0.41418394 2:-1.4333014 3:-1.1235419 4:-0.58031648 
0.011093 1:-1.4077818 2:-0.25960826 3:-1.2299213 4:-0.58239707 
0.011093 1:-0.25520827 2:-1.4333014 3:-1.0965725 4:-0.58189618 
0.011093 1:-1.4077818 2:-0.47545988 3:-1.1654943 4:-0.58463177 
0.011093 1:-0.46717583 2:-1.4737736 3:-1.0576166 4:-0.58459324 
0.011093 1:-1.4475258 2:-0.21913608 3:-1.1684909 4:-0.58763706 
0.011093 1:-0.21546436 2:-1.4467922 3:-1.0216574 4:-0.58678941 
0.011093 1:-0.056488696 2:-1.4467922 3:-0.98569814 4:-0.58805868 
0.011093 1:-0.20221639 2:-1.4602829 3:-0.9482406 4:-0.59036536 
0.011093 1:-0.21546436 2:-1.2983942 3:-0.92876268 4:-0.59182626 
0.011093 1:-1.2753021 2:-0.44847843 3:-1.0441319 4:-0.59394071 
0.011093 1:-0.44067988 2:-1.4198107 3:-0.93475589 4:-0.59394071 
0.011093 1:-1.3945339 2:-0.39451552 3:-1.039637 4:-0.59686251 
0.011093 1:-0.38768799 2:-1.4737736 3:-0.91977287 4:-0.59667028 
0.011093 1:-0.10948058 2:-1.3523571 3:-0.91078306 4:-0.59822198 
0.011093 1:0.009751164 2:-1.4602829 3:-0.89280344 4:-0.59933443 
0.011093 1:0.12898291 2:-1.3793385 3:-0.8553459 4:-0.60086885 
0.011093 1:1.493524 2:-1.4602829 3:-0.6710548 4:-0.59737805 
0.011093 1:-0.52016771 2:-0.124701 3:-0.40285881 4:-0.60190458 
0.011093 1:0.022999136 2:0.37445587 3:-0.44031635 4:-0.59361874 
0.011093 1:0.009751164 2:-0.28658971 3:-0.55568558 4:-0.58181913 
0.011093 1:-0.18896842 2:0.94106636 3:-0.54819407 4:-0.57698076 
0.011093 1:0.38069438 2:-1.2444313 3:-0.77293931 4:-0.42386415 
0.011093 1:-1.2223102 2:-0.55640424 3:-0.7624512 4:-0.42643326 
0.011093 1:-1.2753021 2:-1.5007551 3:-1.2538941 4:-0.43560508 
0.011093 1:0.23496669 2:-0.0032844662 3:-0.33094033 4:-0.44377348 
0.011093 1:0.1819748 2:0.50936313 3:-0.32794373 4:-0.44529179 
0.011093 1:-0.5731596 2:-0.32706189 3:-0.54519746 4:-0.44672298 
0.011093 1:-1.2355582 2:-0.35404335 3:-0.59014651 4:-0.45081777 
0.011093 1:-0.34794408 2:0.73870547 3:-0.59164481 4:-0.45085753 
0.011093 1:-0.87786296 2:0.17209497 3:-0.50174672 4:-0.44879025 
0.011093 1:-0.63939946 2:-0.20564536 3:-0.45829597 4:-0.44827343 
0.011093 1:-0.73213527 2:-0.11121028 3:-0.40585541 4:-0.44938658 
0.011093 1:-1.1295744 2:-0.31357117 3:-0.52571954 4:-0.45205019 
0.011093 1:-0.30820016 2:1.2378623 3:-0.51672973 4:-0.45145386 
0.011093 1:0.089238996 2:0.90059418 3:-0.38487919 4:-0.44799515 
0.011093 1:0.089238996 2:0.64427039 3:-0.38487919 4:-0.44425163 
0.011093 1:-0.44067988 2:-1.1769776 3:-0.19759149 4:-0.44150227 
0.011093 1:-1.1560704 2:-0.55640424 3:-0.86733231 4:-0.45640217 
0.011093 1:-0.54666366 2:-1.3658478 3:-0.89879665 4:-0.45687815 
0.011093 1:-1.341542 2:-0.77225586 3:-0.88681024 4:-0.45945639 
0.011093 1:-0.75863121 2:-0.30008044 3:-1.069603 4:-0.46068601 
0.011093 1:-1.1560704 2:-2.1618006 3:-0.50024841 4:-0.45993237 
0.011093 1:-0.18896842 2:0.95455709 3:-0.3024726 4:-0.46215362 
0.011093 1:-0.12272856 2:0.76568692 3:-0.53620765 4:-0.45699715 
0.011093 1:-0.096232612 2:0.57681676 3:-0.58415331 4:-0.46147931 
0.011093 1:-1.1825663 2:-0.44847843 3:-0.54220086 4:-0.45949605 
0.011093 1:-0.44067988 2:0.94106636 3:-0.5796584 4:-0.46227261 
0.011093 1:0.40719032 2:-1.40632 3:-0.77893252 4:-0.46572096 
0.011093 1:-1.3812859 2:-0.48895061 3:-0.89280344 4:-0.47173642 
0.011093 1:-0.55991163 2:0.64427039 3:-0.50773992 4:-0.48907847 
0.011093 1:0.16872683 2:0.2395486 3:-0.42083843 4:-0.47597099 
0.011093 1:-1.1825663 2:-0.31357117 3:-0.53620765 4:-0.46060668 
0.011093 1:-0.30820016 2:0.81964983 3:-0.53470935 4:-0.46032902 
0.011093 1:-1.1030785 2:-0.31357117 3:-0.48077049 4:-0.45735413 
0.011093 1:-0.30820016 2:0.4958724 3:-0.47477729 4:-0.45703681 
0.011093 1:-0.44067988 2:0.84663128 3:-0.50024841 4:-0.4573938 
0.011093 1:0.22171872 2:0.11813207 3:-0.40136051 4:-0.45276578 
0.011093 1:-0.9043589 2:-1.4602829 3:-0.23654733 4:-0.31631728 
-0.101498 1:0.20847074 2:-0.90716312 3:0.90066361 4:1.5051148 
-0.101498 1:-0.85136701 2:-0.71829295 3:-0.850851 4:-0.9471597 
-0.101498 1:-0.54666366 2:-0.50244133 3:-0.66056669 4:-0.86282045 
-0.101498 1:1.2948044 2:1.6021119 3:1.7232312 4:2.010333 
-0.101498 1:1.0695889 2:2.2766482 3:2.33304 4:1.9928104 
-0.101498 1:1.3610443 2:1.6830563 3:2.0109051 4:2.0096825 
-0.101498 1:0.95035717 2:1.305316 3:1.6887703 4:1.504457 
-0.101498 1:-2.1894122 2:1.3188067 3:0.72686062 4:2.6064718 
-0.101498 1:1.5995078 2:0.10464134 3:1.8940376 4:2.5438657 
-0.101498 1:-2.3616358 2:1.7640007 3:1.354649 4:2.0924124 
-0.101498 1:1.7319875 2:1.6560748 3:1.3876116 4:2.0928529 
-0.101498 1:2.1161787 2:2.1957039 3:0.7957825 4:2.0862352 
-0.101498 1:-2.0436845 2:-0.47545988 3:-0.4897603 4:-0.9076806 
-0.101498 1:-2.8253148 2:-2.2832172 3:-2.4075864 4:-0.66152428 
-0.101498 1:-0.5731596 2:-0.50244133 3:-0.69952253 4:-0.65808855 
-0.101498 1:-0.63939946 2:-0.61036714 3:-0.582655 4:-0.64636606 
-0.101498 1:-0.55991163 2:-0.40800625 3:-0.51672973 4:-0.62227292 
-0.101498 1:-0.49367177 2:-0.4349877 3:-0.52871615 4:-0.65926228 
-0.101498 1:-0.37444002 2:-0.50244133 3:-0.50024841 4:-0.65634689 
-0.101498 1:-0.46717583 2:-0.48895061 3:-0.52721784 4:-0.65498385 
-0.101498 1:-0.41418394 2:-0.52942279 3:-0.58714991 4:-0.65142481 
-0.101498 1:-0.54666366 2:-0.51593206 3:-0.582655 4:-0.65221991 
-0.101498 1:-0.53341569 2:-0.59687642 3:-0.56917029 4:-0.65221991 
-0.101498 1:-0.61290352 2:-0.50244133 3:-0.59613972 4:-0.65297716 
-0.101498 1:-0.9970947 2:-1.3253756 3:-0.73398347 4:-1.1217158 
-0.101498 1:-1.0368386 2:-0.98810747 3:-1.3198194 4:-1.1865258 
-0.101498 1:-0.97059876 2:-1.0015982 3:-1.2823619 4:-1.3846664 
-0.101498 1:-1.0103427 2:-1.0150889 3:-1.0935759 4:-1.3571058 
-0.101498 1:-0.97059876 2:-0.93414457 3:-1.039637 4:-1.3169948 
-0.101498 1:-1.0765825 2:-1.4467922 3:-1.0141659 4:-1.3209495 
-0.101498 1:-1.1958143 2:-1.4872643 3:-0.76844441 4:-1.2754335 
-0.101498 1:-0.98384673 2:-1.4333014 3:-0.78792233 4:-1.2649444 
-0.101498 1:-1.1428224 2:-1.3253756 3:-1.1325317 4:-1.2600532 
-0.101498 1:-1.1958143 2:-1.0690518 3:-1.4142124 4:-1.2560338 
-0.101498 1:-1.1163265 2:-1.4602829 3:-0.98569814 4:-1.2524477 
-0.101498 1:-1.1030785 2:-1.554718 3:-1.0366404 4:-1.2534114 
-0.101498 1:-0.89111093 2:-0.70480222 3:-1.337799 4:-1.2569084 
-0.101498 1:-1.0898305 2:-1.1230147 3:-1.2898534 4:-1.2396073 
-0.101498 1:-1.3547899 2:-1.4737736 3:-1.4681513 4:-1.2412655 
-0.101498 1:-1.1163265 2:-1.4198107 3:-1.1460164 4:-1.2743081 
-0.101498 1:-1.0103427 2:-1.3253756 3:-0.79541384 4:-1.2517998 
-0.101498 1:-1.0368386 2:-1.554718 3:-0.80590195 4:-1.2511508 
-0.101498 1:-0.97059876 2:-1.4737736 3:-0.71450555 4:-1.2178617 
-0.101498 1:-1.0633346 2:-1.5007551 3:-0.75046479 4:-1.2105589 
-0.101498 1:-0.93085484 2:-1.5007551 3:-0.62460745 4:-1.1684216 
-0.101498 1:-1.0500866 2:-1.4872643 3:-0.6725531 4:-1.1495456 
-0.101498 1:-1.1163265 2:-1.3253756 3:-0.6710548 4:-1.1003811 
-0.101498 1:-0.9970947 2:-1.5007551 3:-0.69952253 4:-1.1002798 
-0.101498 1:-0.94410282 2:-1.5277365 3:-0.70701404 4:-1.0823466 
-0.101498 1:-0.93085484 2:-1.5277365 3:-0.72049875 4:-1.0676036 
-0.101498 1:-1.2090623 2:-1.1230147 3:-1.0381387 4:-1.0697518 
-0.101498 1:-1.1295744 2:-1.5142458 3:-0.73548177 4:-1.0527109 
-0.101498 1:-0.94410282 2:-1.5412272 3:-0.71900045 4:-1.0359829 
-0.101498 1:-1.1030785 2:-1.5142458 3:-0.78942063 4:-1.0174878 
-0.101498 1:-0.89111093 2:-1.3928293 3:-0.82388157 4:-1.0071173 
-0.101498 1:-1.0368386 2:-1.5816994 3:-0.86883062 4:-0.99851049 
-0.101498 1:-0.9970947 2:-0.40800625 3:-0.90179325 4:-0.98872049 
-0.101498 1:-0.97059876 2:-1.1499962 3:-1.0066744 4:-0.97346454 
-0.101498 1:-0.9043589 2:-1.3523571 3:-0.75645799 4:-0.94233667 
-0.101498 1:-1.0765825 2:-1.5277365 3:-0.82238327 4:-0.87170366 
-0.101498 1:-0.93085484 2:-1.4333014 3:-0.83586798 4:-0.87718794 
-0.101498 1:-1.1030785 2:-1.5951901 3:-0.9497389 4:-0.87697287 
-0.101498 1:-0.83811904 2:-1.3388664 3:-0.81039685 4:-0.8760409 
-0.101498 1:-0.97059876 2:-1.554718 3:-0.78192912 4:-0.87261142 
-0.101498 1:-0.98384673 2:-1.5951901 3:-0.73098687 4:-0.86988161 
-0.101498 1:-0.91760687 2:-1.554718 3:-0.6725531 4:-0.87189305 
-0.01008018855269877 1:-0.9043589 2:-1.5816994 3:-0.6710548 4:-0.87149794 
-0.101498 1:-0.98384673 2:-1.6356623 3:-0.69952253 4:-0.87124651 
-0.101498 1:-0.85136701 2:-1.2039591 3:-0.63359726 4:-0.86589465 
-0.101498 1:-0.95735079 2:-1.5277365 3:-0.65157688 4:-0.86553547 
-0.101498 1:-1.0368386 2:-1.6221716 3:-0.73248517 4:-0.87643519 
-0.101498 1:-0.97059876 2:-1.40632 3:-0.78192912 4:-0.8824254 
-0.101498 1:-0.9970947 2:-1.3523571 3:-0.8568442 4:-0.89895795 
-0.101498 1:-0.98384673 2:-1.3928293 3:-0.79541384 4:-0.89914211 
-0.101498 1:-0.95735079 2:-1.5951901 3:-0.70102083 4:-0.90053153 
-0.101498 1:-0.9970947 2:-1.6221716 3:-0.71900045 4:-0.90120842 
-0.101498 1:-0.95735079 2:-1.3388664 3:-0.67854631 4:-0.90113717 
-0.101498 1:-0.83811904 2:-0.92065384 3:-1.0336438 4:-0.91306209 
-0.101498 1:-2.295396 2:-2.6069946 3:-1.8981638 4:-0.9580158 
-0.101498 1:-0.97059876 2:-1.4467922 3:-0.65906839 4:-0.95148252 
-0.101498 1:-0.66589541 2:-0.55640424 3:-0.56617369 4:-0.91845526 
-0.101498 1:-0.9043589 2:-1.5142458 3:-0.64258707 4:-0.9106671 
-0.101498 1:-0.82487107 2:-1.0150889 3:-1.0740979 4:-0.91923585 
-0.101498 1:-0.74538324 2:-1.3523571 3:-0.56917029 4:-0.92182111 
-0.101498 1:-0.89111093 2:-1.2309405 3:-0.96022702 4:-0.93902159 
-0.101498 1:-0.91760687 2:-1.2309405 3:-0.88830854 4:-0.94000906 
-0.101498 1:-1.315046 2:-1.3118849 3:-1.6749169 4:-0.94985764 
-0.101498 1:-1.2885501 2:-1.0825426 3:-1.6644288 4:-0.9502096 
-0.101498 1:-0.98384673 2:-0.83970949 3:-1.5700358 4:-0.95172839 
-0.101498 1:-1.0368386 2:-1.0960333 3:-1.447175 4:-0.95246602 
-0.101498 1:-1.1693183 2:-1.0690518 3:-1.4906258 4:-0.96389774 
-0.101498 1:-1.1030785 2:-0.93414457 3:-1.6239746 4:-0.96593092 
-0.101498 1:-1.0235906 2:-1.0420704 3:-1.3677651 4:-0.95541858 
-0.101498 1:-1.2620541 2:-0.92065384 3:-1.2464026 4:-0.95316605 
-0.101498 1:-1.3812859 2:-0.58338569 3:-1.4606598 4:-0.95351978 
-0.101498 1:-1.1428224 2:-1.1499962 3:-1.3003415 4:-0.96800693 
-0.101498 1:-0.89111093 2:-0.79923731 3:-1.2209315 4:-0.97367088 
-0.101498 1:-1.0500866 2:-0.90716312 3:-1.4261988 4:-0.98412092 
-0.101498 1:-1.0633346 2:-0.81272803 3:-1.3707617 4:-0.98359824 
-0.101498 1:-0.86461498 2:-0.85320021 3:-1.3917379 4:-0.9875742 
-0.101498 1:-1.2223102 2:-1.1365055 3:-1.1819757 4:-0.99639336 
-0.101498 1:-1.0368386 2:-1.1230147 3:-1.2404094 4:-1.005039 
-0.101498 1:-1.0103427 2:-0.48895061 3:-1.0516234 4:-1.0117146 
-0.101498 1:-1.0103427 2:-0.70480222 3:-0.92726438 4:-1.0176952 
-0.101498 1:-1.1295744 2:-0.93414457 3:-0.41184862 4:-1.0529848 
-0.101498 1:-1.1693183 2:-0.77225586 3:-1.3348024 4:-1.0614701 
-0.101498 1:-0.74538324 2:-0.63734859 3:-1.2613856 4:-1.0588063 
-0.101498 1:-0.9970947 2:-1.0555611 3:-0.850851 4:-1.0711949 
-0.101498 1:-0.73213527 2:-0.73178368 3:-1.1864706 4:-1.0831834 
-0.101498 1:-0.77187918 2:-0.77225586 3:-1.0666064 4:-1.0888341 
-0.101498 1:-0.91760687 2:-1.1230147 3:-1.0081727 4:-1.0823806 
-0.101498 1:-0.94410282 2:-0.89367239 3:-1.039637 4:-1.0860988 
-0.101498 1:-1.1295744 2:-0.85320021 3:-1.228423 4:-1.0917313 
-0.101498 1:-0.86461498 2:-0.63734859 3:-1.0081727 4:-1.0864378 
