svm_type c_svc
kernel_type rbf
gamma 0.125
nr_class 4
total_sv 30197
rho 0.433197 0.429683 -0.756287 0.0302707 -0.865072 -0.871355
label 1 2 3 4
nr_sv 26542 712 2739 204
SV
0.001113 0.001113 0.001113 1:0.49698522 2:0.51972418 3:-1.9451146 4:-2.0397824 5:-0.50746794 6:-0.50447489 7:-5.2512164 8:-7.8622823 
0.001113 0.001113 0.001113 1:0.51015905 2:0.60017605 3:-1.2898912 4:-1.3443961 5:-0.49247444 6:-0.41225994 7:-4.1568122 8:-6.1793036 
0.001113 0.001113 0.001113 1:0.58920204 2:0.80130571 3:-0.87697687 4:-0.90617154 5:-0.40251345 6:-0.18172256 7:-3.467131 8:-5.1187094 
0.001113 0.001113 0.001113 1:0.7868095 2:0.90857487 3:-0.56049163 4:-0.57028685 5:-0.17761096 6:-0.058769286 7:-2.9385131 8:-4.3057989 
0.001113 0.001113 0 1:0.89220014 2:0.64040198 3:-0.31559233 4:-0.31037607 5:-0.057662968 6:-0.36615246 7:-2.5294635 8:-3.6767611 
0.001113 0.001113 0 1:0.62872353 2:0.49290689 3:-0.17312687 4:-0.15917798 5:-0.35753295 6:-0.53521321 7:-2.2915068 8:-3.3108304 
0.001113 0.001113 0 1:0.48381139 2:0.47949825 3:-0.082467038 4:-0.062961011 5:-0.52246144 6:-0.55058237 7:-2.1400798 8:-3.0779654 
0.001113 0.001113 0 1:0.47063756 2:0.4660896 3:-0.011587531 4:0.012263165 5:-0.53745494 6:-0.56595153 7:-2.0216914 8:-2.8959073 
0.001113 0.001113 0 1:0.45746373 2:0.7074452 3:0.044906284 4:0.072219855 5:-0.55244844 6:-0.28930667 7:-1.9273311 8:-2.7507997 
0.001113 0.001113 0 1:0.69459268 2:0.7074452 3:0.42253072 4:0.14842475 5:-0.28256545 6:-0.28930667 7:-1.2965938 8:-2.5663681 
0.001113 0.001113 0 1:0.69459268 2:0.72085385 3:0.80015516 4:0.21290582 5:-0.28256545 6:-0.27393751 7:-0.66585657 8:-2.4103106 
0.001113 0.001113 0 1:0.70776651 2:0.62699334 3:0.82413132 4:0.26942488 5:-0.26757195 6:-0.38152162 7:-0.62580976 8:-2.2735227 
0.001113 0.001113 0 1:0.6155497 2:0.66721927 3:0.83611939 4:0.3102442 5:-0.37252645 6:-0.33541415 7:-0.60578636 8:-2.1747315 
0 0.001113 0 1:0.65507119 2:0.57335876 3:0.84361194 4:0.34924123 5:-0.32754595 6:-0.44299826 7:-0.59327173 8:-2.0803506 
0.001113 0.001113 0 1:0.47063756 2:0.69403656 3:0.77018497 4:0.39382662 5:-0.53745494 6:-0.30467583 7:-0.71591509 8:-1.9724448 
0.001113 0.001113 0 1:0.37842075 2:0.35882045 3:0.81064473 4:0.47855763 5:-0.64240943 6:-0.6889048 7:-0.64833609 8:-1.7673782 
0.001113 0.001113 0 1:0.35207309 2:0.47949825 3:0.77168348 4:0.48087403 5:-0.67239643 6:-0.55058237 7:-0.71341216 8:-1.761772 
0.001113 0.001113 0 1:0.24668244 2:0.42586367 3:0.61134294 4:0.53127048 5:-0.79234442 6:-0.612059 7:-0.98122521 8:-1.6398022 
0.001113 0 0 1:0.41794224 2:0.65381062 3:0.58736679 4:0.53402155 5:-0.59742893 6:-0.3507833 7:-1.021272 8:-1.633144 
0.001113 0.001113 0 1:0.22033478 2:0.13087349 3:0.57687722 4:0.55311128 5:-0.82233142 6:-0.9501805 7:-1.0387925 8:-1.5869429 
0.001113 0.001113 0 1:0.12811797 2:0.17109942 3:0.52592789 4:0.54472511 5:-0.92728591 6:-0.90407302 7:-1.123892 8:-1.6072392 
0.001113 0.001113 0 1:0.16763946 2:0.18450807 3:0.4959577 4:0.53811469 5:-0.88230541 6:-0.88870386 7:-1.1739505 8:-1.6232378 
0.001113 0.001113 0 1:0.18081329 2:0.17109942 3:0.47048303 4:0.53227215 5:-0.86731191 6:-0.90407302 7:-1.2165002 8:-1.6373779 
0.001113 0.001113 0 1:0.16763946 2:0.090647558 3:0.44800539 4:0.52628792 5:-0.88230541 6:-0.99628797 7:-1.2540441 8:-1.651861 
0.001113 0.001113 0 1:0.088596477 2:0.18450807 3:0.43002327 4:0.51808952 5:-0.97226641 6:-0.88870386 7:-1.2840792 8:-1.6717028 
0.001113 0.001113 0 1:0.18081329 2:-0.056847531 3:0.4030501 4:0.51312029 5:-0.86731191 6:-1.1653487 7:-1.3291319 8:-1.6837294 
0.001113 0.001113 0 1:-0.056315659 2:-0.030030242 3:0.32362908 4:0.50122031 5:-1.1371949 6:-1.1346104 7:-1.4617869 8:-1.7125298 
0.001113 0.001113 0 1:-0.029967998 2:0.090647558 3:0.24270956 4:0.49062672 5:-1.1072079 6:-0.99628797 7:-1.5969449 8:-1.7381685 
0.001113 0.001113 0 1:0.088596477 2:0.17109942 3:0.20524682 4:0.48391647 5:-0.97226641 6:-0.90407302 7:-1.6595181 8:-1.7544087 
0.001113 0.001113 0 1:0.16763946 2:0.37222909 3:0.18576619 4:0.47972503 5:-0.88230541 6:-0.67353564 7:-1.6920561 8:-1.7645528 
0.001113 0.001113 0 1:0.36524692 2:0.41245502 3:0.2022498 4:0.48117511 5:-0.65740293 6:-0.62742816 7:-1.6645239 8:-1.7610434 
0.001113 0.001113 0 1:0.088596477 2:-0.056847531 3:0.22472745 4:0.47760342 5:-0.97226641 6:-1.1653487 7:-1.62698 8:-1.7696876 
0.001113 0.001113 0 1:-0.056315659 2:0.023604336 3:0.19775427 4:0.46803317 5:-1.1371949 6:-1.0731338 7:-1.6720327 8:-1.7928496 
0.001113 0.001113 0 1:0.022727324 2:0.14428214 3:0.18127066 4:0.46084955 5:-1.0472339 6:-0.93481134 7:-1.6995649 8:-1.8102354 
0.001113 0.001113 0 1:0.1412918 2:0.19791671 3:0.1872647 4:0.45690769 5:-0.91229241 6:-0.8733347 7:-1.6895532 8:-1.8197755 
0.001113 0.001113 0 1:0.19398712 2:0.30518587 3:0.18876321 4:0.45440768 5:-0.85231842 6:-0.75038143 7:-1.6870503 8:-1.8258261 
0.001113 0.001113 0 1:0.29937777 2:0.38563774 3:0.22922297 4:0.45454315 5:-0.73237042 6:-0.65816648 7:-1.6194713 8:-1.8254982 
0.001113 0 0 1:0.37842075 2:0.33200316 3:0.27567677 4:0.45654814 5:-0.64240943 6:-0.71964312 7:-1.5418806 8:-1.8206457 
0.001113 0.001113 0 1:0.32572543 2:0.23814265 3:0.30264995 4:0.45725514 5:-0.70238343 6:-0.82722723 7:-1.4968279 8:-1.8189346 
0.001113 0.001113 0 1:0.23350861 2:0.063830269 3:0.3101425 4:0.45582641 5:-0.80733792 6:-1.0270263 7:-1.4843133 8:-1.8223924 
0.001113 0.001113 0 1:0.062248816 2:0.077238913 3:0.27567677 4:0.4505915 5:-1.0022534 6:-1.0116571 7:-1.5418806 8:-1.835062 
0.001113 0.001113 0 1:0.075422647 2:0.11746485 3:0.23821403 4:0.44582266 5:-0.98725991 6:-0.96554966 7:-1.6044537 8:-1.8466036 
0.001113 0.001113 0 1:0.11494414 2:0.27836858 3:0.24121105 4:0.44207053 5:-0.94227941 6:-0.78111975 7:-1.5994479 8:-1.8556845 
0.001113 0.001113 0 1:0.2730301 2:0.21132536 3:0.27867379 4:0.44182538 5:-0.76235742 6:-0.85796555 7:-1.5368747 8:-1.8562778 
0.001113 0.001113 0 1:0.20716095 2:0.17109942 3:0.29965293 4:0.44019959 5:-0.83732492 6:-0.90407302 7:-1.5018338 8:-1.8602126 
0.001113 0.001113 0 1:0.16763946 2:0.19791671 3:0.30264995 4:0.43780458 5:-0.88230541 6:-0.8733347 7:-1.4968279 8:-1.866009 
0.001113 0.001113 0 1:0.19398712 2:0.19791671 3:0.30264995 4:0.43602154 5:-0.85231842 6:-0.8733347 7:-1.4968279 8:-1.8703243 
0.001113 0.001113 0 1:0.19398712 2:0.3454118 3:0.29066187 4:0.43429253 5:-0.85231842 6:-0.70427396 7:-1.5168513 8:-1.8745089 
0.001113 0.001113 0 1:0.33889926 2:0.49290689 3:0.28616634 4:0.43548728 5:-0.68738993 6:-0.53521321 7:-1.5243601 8:-1.8716174 
0.001113 0 0 1:0.48381139 2:0.5867674 3:0.30414846 4:0.4394768 5:-0.52246144 6:-0.4276291 7:-1.494325 8:-1.8619619 
0.001113 0 0 1:0.57602821 2:0.69403656 3:0.34310971 4:0.44512544 5:-0.41750694 6:-0.30467583 7:-1.4292489 8:-1.848291 
0.001113 0.001113 0 1:0.68141885 2:0.90857487 3:0.41353966 4:0.452612 5:-0.29755895 6:-0.058769286 7:-1.3116114 8:-1.830172 
0.001113 0 0 1:0.4442899 2:0.61358469 3:0.59785636 4:0.47455994 5:-0.56744193 6:-0.39689078 7:-1.0037515 8:-1.7770534 
0.001113 0 0 1:0.70776651 2:0.92198351 3:0.74920583 4:0.49155258 5:-0.26757195 6:-0.043400127 7:-0.75095604 8:-1.7359277 
0.001113 0.001113 0 1:0.32572543 2:0.69403656 3:0.77018497 4:0.53585641 5:-0.70238343 6:-0.30467583 7:-0.71591509 8:-1.6287033 
0.001113 0.001113 0 1:0.22033478 2:0.49290689 3:0.65330121 4:0.55698242 5:-0.82233142 6:-0.53521321 7:-0.91114329 8:-1.577574 
0.001113 0 0 1:0.28620394 2:0.33200316 3:0.60684741 4:0.55947531 5:-0.74736392 6:-0.71964312 7:-0.98873399 8:-1.5715407 
0.001113 0.001113 0 1:0.2730301 2:0.65381062 3:0.52293087 4:0.55756126 5:-0.76235742 6:-0.3507833 7:-1.1288978 8:-1.576173 
0.001113 0 0 1:0.28620394 2:0.35882045 3:0.55290106 4:0.56537833 5:-0.74736392 6:-0.6889048 7:-1.0788393 8:-1.5572541 
0.001113 0 0 1:0.35207309 2:0.45268096 3:0.54690703 4:0.56507339 5:-0.67239643 6:-0.58132069 7:-1.088851 8:-1.5579921 
0.001113 0.001113 0 1:0.1412918 2:0.33200316 3:0.53192193 4:0.56375367 5:-0.91229241 6:-0.71964312 7:-1.1138803 8:-1.5611861 
0.001113 0 0 1:0.32572543 2:0.43927231 3:0.4959577 4:0.56317187 5:-0.70238343 6:-0.59668985 7:-1.1739505 8:-1.5625942 
0.001113 0 0 1:0.37842075 2:0.49290689 3:0.50345025 4:0.56579373 5:-0.64240943 6:-0.53521321 7:-1.1614359 8:-1.5562488 
0.000854978738291651 0 0 1:0.36524692 2:0.43927231 3:0.52293087 4:0.56710957 5:-0.65740293 6:-0.59668985 7:-1.1288978 8:-1.5530642 
0.001113 0 0 1:0.43111607 2:0.62699334 3:0.51543832 4:0.56767615 5:-0.58243543 6:-0.38152162 7:-1.1414125 8:-1.5516929 
0.001113 0.001113 0.001113 1:-2.980906 2:-0.55296738 3:0.30564697 4:0.54972045 5:-4.4657517 6:-1.7340076 7:-1.491822 8:-1.5951494 
0.001113 0.001113 0.001113 1:-2.6779079 2:0.17109942 3:-0.20684334 4:0.511125 5:-4.1209012 6:-0.90407302 7:-2.3478226 8:-1.6885584 
0.001113 0.001113 0 1:0.16763946 2:0.023604336 3:-0.26828224 4:0.50948846 5:-0.88230541 6:-1.0731338 7:-2.4504426 8:-1.6925192 
0.001113 0.001113 0 1:0.022727324 2:0.14428214 3:-0.32972114 4:0.50648118 5:-1.0472339 6:-0.93481134 7:-2.5530625 8:-1.6997974 
0.001113 0.001113 0.001113 1:0.1412918 2:-2.2692739 3:-0.36418686 4:0.50464989 5:-0.91229241 6:-3.7012599 7:-2.6106298 8:-1.7042295 
0.001113 0.001113 0.001113 1:-1.1497436 2:0.25155129 3:-0.86918462 4:0.46657352 5:-2.3816553 6:-0.81185807 7:-3.4541158 8:-1.7963822 
0.001113 0.001113 0 1:0.24668244 2:0.224734 3:-0.90964438 4:0.46604752 5:-0.79234442 6:-0.84259639 7:-3.5216948 8:-1.7976552 
0.001113 0.001113 0 1:0.22033478 2:0.010195691 3:-0.95759669 4:0.46528422 5:-0.82233142 6:-1.0885029 7:-3.6017884 8:-1.7995026 
0.001113 0.001113 0 1:0.0095534939 2:0.010195691 3:-0.96059371 4:0.46258774 5:-1.0622274 6:-1.0885029 7:-3.6067943 8:-1.8060286 
0.001113 0.001113 0 1:0.0095534939 2:0.03701298 3:-0.62043201 4:0.45992845 5:-1.0622274 6:-1.0577646 7:-3.0386301 8:-1.8124647 
0.001113 0.001113 0 1:0.035901155 2:-0.08366482 3:-0.55449759 4:0.45754523 5:-1.0322404 6:-1.196087 7:-2.9285014 8:-1.8182325 
0.001113 0.001113 0 1:-0.08266332 2:0.03701298 3:-0.25929118 4:0.45412338 5:-1.1671819 6:-1.0577646 7:-2.435425 8:-1.8265141 
0.001113 0.001113 0 1:0.035901155 2:0.21132536 3:-0.27427628 4:0.4518116 5:-1.0322404 6:-0.85796555 7:-2.4604543 8:-1.8321091 
0.001113 0.001113 0 1:0.20716095 2:0.17109942 3:-0.25329714 4:0.45105716 5:-0.83732492 6:-0.90407302 7:-2.4254133 8:-1.833935 
0.001113 0.001113 0 1:0.16763946 2:0.33200316 3:-0.25030012 4:0.44996291 5:-0.88230541 6:-0.71964312 7:-2.4204075 8:-1.8365833 
0.001113 0.001113 0 1:0.32572543 2:0.21132536 3:0.040410755 4:0.45027339 5:-0.70238343 6:-0.85796555 7:-1.9348399 8:-1.8358319 
0.001113 0.001113 0 1:0.20716095 2:0.1040562 3:0.19475725 4:0.44954397 5:-0.83732492 6:-0.98091882 7:-1.6770385 8:-1.8375973 
0.001113 0.001113 0 1:0.10177031 2:0.13087349 3:0.17827365 4:0.44790936 5:-0.95727291 6:-0.9501805 7:-1.7045707 8:-1.8415533 
0.001113 0.001113 0 1:0.12811797 2:0.29177722 3:0.16778408 4:0.44652318 5:-0.92728591 6:-0.76575059 7:-1.7220912 8:-1.8449082 
0.001113 0.001113 0 1:0.28620394 2:0.35882045 3:0.19925278 4:0.44650925 5:-0.74736392 6:-0.6889048 7:-1.6695298 8:-1.8449419 
0.001113 0.001113 0 1:0.35207309 2:0.45268096 3:0.23821403 4:0.44705621 5:-0.67239643 6:-0.58132069 7:-1.6044537 8:-1.8436181 
0.001113 0 0 1:0.4442899 2:0.45268096 3:0.28466783 4:0.44837619 5:-0.56744193 6:-0.58132069 7:-1.526863 8:-1.8404235 
0.001113 0.001113 0 1:0.29937777 2:0.26495994 3:0.37457841 4:0.44975606 5:-0.73237042 6:-0.79648891 7:-1.3766875 8:-1.837084 
0.001113 0.001113 0 1:0.25985627 2:0.17109942 3:0.38057245 4:0.44950369 5:-0.77735092 6:-0.90407302 7:-1.3666758 8:-1.8376947 
0.001113 0.001113 0 1:0.16763946 2:0.090647558 3:0.38057245 4:0.44849384 5:-0.88230541 6:-0.99628797 7:-1.3666758 8:-1.8401388 
0.001113 0.001113 0 1:0.088596477 2:0.17109942 3:0.35359928 4:0.44684854 5:-0.97226641 6:-0.90407302 7:-1.4117284 8:-1.8441207 
0.001113 0.001113 0 1:0.16763946 2:0.35882045 3:0.34910375 4:0.44586738 5:-0.88230541 6:-0.6889048 7:-1.4192372 8:-1.8464954 
0.001113 0 0 1:0.35207309 2:0.38563774 3:0.37757543 4:0.44639157 5:-0.67239643 6:-0.65816648 7:-1.3716816 8:-1.8452267 
0.001113 0.001113 0 1:0.2730301 2:0.010195691 3:0.40454861 4:0.44699946 5:-0.76235742 6:-1.0885029 7:-1.326629 8:-1.8437555 
0.001113 0.001113 0 1:0.0095534939 2:0.03701298 3:0.36558736 4:0.44478385 5:-1.0622274 6:-1.0577646 7:-1.391705 8:-1.8491177 
0.001113 0.001113 0 1:0.035901155 2:-0.070256175 3:0.31913356 4:0.44280286 5:-1.0322404 6:-1.1807179 7:-1.4692957 8:-1.8539121 
0.001113 0.001113 0 1:-0.069489489 2:0.03701298 3:0.26069168 4:0.44001721 5:-1.1521884 6:-1.0577646 7:-1.5669098 8:-1.860654 
0.001113 0.001113 0 1:0.035901155 2:0.15769078 3:0.23072148 4:0.43808757 5:-1.0322404 6:-0.91944218 7:-1.6169683 8:-1.8653241 
0.001113 0.001113 0 1:0.15446563 2:0.30518587 3:0.21873341 4:0.43710124 5:-0.89729891 6:-0.75038143 7:-1.6369917 8:-1.8677112 
0.001113 0.001113 0 1:0.29937777 2:0.11746485 3:0.2337185 4:0.43724518 5:-0.73237042 6:-0.96554966 7:-1.6119625 8:-1.8673629 
0.001113 0.001113 0 1:0.11494414 2:0.15769078 3:0.23671552 4:0.43597175 5:-0.94227941 6:-0.91944218 7:-1.6069566 8:-1.8704448 
0.001113 0.001113 0 1:0.15446563 2:0.023604336 3:0.23521701 4:0.43501459 5:-0.89729891 6:-1.0731338 7:-1.6094596 8:-1.8727614 
0.001113 0.001113 0 1:0.022727324 2:-0.043438887 3:0.19775427 4:0.43306871 5:-1.0472339 6:-1.1499796 7:-1.6720327 8:-1.8774708 
0.001113 0.001113 0 1:-0.043141828 2:-0.043438887 3:0.14980196 4:0.43064795 5:-1.1222014 6:-1.1499796 7:-1.7521263 8:-1.8833295 
0.001113 0.001113 0 1:-0.043141828 2:0.077238913 3:0.11383773 4:0.42825454 5:-1.1222014 6:-1.0116571 7:-1.8121965 8:-1.8891221 
0.001113 0.001113 0 1:0.075422647 2:0.23814265 3:0.12133028 4:0.42677255 5:-0.98725991 6:-0.82722723 7:-1.7996819 8:-1.8927088 
0.001113 0.001113 0 1:0.23350861 2:0.224734 3:0.14380792 4:0.42647991 5:-0.80733792 6:-0.84259639 7:-1.762138 8:-1.8934171 
0.001113 0.001113 0 1:0.22033478 2:0.13087349 3:0.17677514 4:0.42609332 5:-0.82233142 6:-0.9501805 7:-1.7070737 8:-1.8943527 
0.001113 0.001113 0 1:0.12811797 2:0.050421624 3:0.1872647 4:0.42503445 5:-0.92728591 6:-1.0423955 7:-1.6895532 8:-1.8969154 
0.001113 0.001113 0 1:0.049074985 2:-0.030030242 3:0.17527663 4:0.42341048 5:-1.0172469 6:-1.1346104 7:-1.7095766 8:-1.9008457 
0.001113 0.001113 0 1:-0.029967998 2:0.26495994 3:0.13781388 4:0.42123069 5:-1.1072079 6:-0.79648891 7:-1.7721497 8:-1.9061212 
0.001113 0.001113 0 1:0.25985627 2:0.27836858 3:0.15429749 4:0.42116627 5:-0.77735092 6:-0.78111975 7:-1.7446175 8:-1.9062772 
0.001113 0.001113 0 1:0.2730301 2:0.23814265 3:0.16778408 4:0.4211971 5:-0.76235742 6:-0.82722723 7:-1.7220912 8:-1.9062025 
0.001113 0.001113 0 1:0.23350861 2:0.29177722 3:0.19176023 4:0.42094545 5:-0.80733792 6:-0.76575059 7:-1.6820444 8:-1.9068116 
0.001113 0.001113 0 1:0.28620394 2:0.37222909 3:0.22922297 4:0.42107068 5:-0.74736392 6:-0.67353564 7:-1.6194713 8:-1.9065085 
0.001113 0.001113 0 1:0.36524692 2:0.33200316 3:0.27567677 4:0.42175291 5:-0.65740293 6:-0.71964312 7:-1.5418806 8:-1.9048574 
0.001113 0.001113 0 1:0.32572543 2:0.26495994 3:0.30414846 4:0.42215023 5:-0.70238343 6:-0.79648891 7:-1.494325 8:-1.9038958 
0.001113 0.001113 0 1:0.25985627 2:0.31859451 3:0.30714548 4:0.422083 5:-0.77735092 6:-0.73501227 7:-1.4893191 8:-1.9040585 
0.001113 0.001113 0 1:0.3125516 2:0.4660896 3:0.31763505 4:0.42238284 5:-0.71737692 6:-0.56595153 7:-1.4717986 8:-1.9033328 
0.001113 0.001113 0 1:0.45746373 2:0.78789707 3:0.35509779 4:0.42368182 5:-0.55244844 6:-0.19709172 7:-1.4092255 8:-1.900189 
0.001113 0 0 1:0.77363566 2:0.84153165 3:0.43751582 4:0.42714276 5:-0.19260446 6:-0.13561508 7:-1.2715646 8:-1.8918128 
0.001113 0.001113 0 1:0.2730301 2:0.37222909 3:0.62932506 4:0.43610624 5:-0.76235742 6:-0.67353564 7:-0.9511901 8:-1.8701193 
0.001113 0.001113 0 1:0.36524692 2:0.5867674 3:0.63831612 4:0.43667807 5:-0.65740293 6:-0.4276291 7:-0.93617255 8:-1.8687354 
0.001113 0.001113 0 1:0.37842075 2:0.39904638 3:0.72373117 4:0.45033839 5:-0.64240943 6:-0.64279732 7:-0.79350578 8:-1.8356746 
0.001113 0.001113 0 1:0.39159458 2:0.74767114 3:0.67877588 4:0.45098877 5:-0.62741593 6:-0.24319919 7:-0.86859355 8:-1.8341005 
0.001113 0.001113 0 1:0.33889926 2:0.47949825 3:0.74920583 4:0.45683662 5:-0.68738993 6:-0.55058237 7:-0.75095604 8:-1.8199475 
0.001113 0 0 1:0.47063756 2:0.61358469 3:0.73721776 4:0.4579435 5:-0.53745494 6:-0.39689078 7:-0.77097945 8:-1.8172687 
0.001113 0.001113 0.001113 1:0.60237587 2:-2.4569949 3:0.73422074 4:0.45986898 5:-0.38751995 6:-3.9164282 7:-0.7759853 8:-1.8126086 
0.001113 0.001113 0.001113 1:-0.6359642 2:-2.4033603 3:0.21573639 4:0.43713726 5:-1.7969089 6:-3.8549515 7:-1.6419976 8:-1.8676241 
0.001113 0.001113 0 1:-0.75452868 2:0.80130571 3:-0.25030012 4:0.41442162 5:-1.9318503 6:-0.18172256 7:-2.4204075 8:-1.9226006 
0.001113 0.001113 0 1:0.7868095 2:0.65381062 3:-0.20384632 4:0.41763789 5:-0.17761096 6:-0.3507833 7:-2.3428168 8:-1.9148166 
0.001113 0.001113 0 1:0.64189736 2:0.80130571 3:-0.17537464 4:0.41993773 5:-0.34253945 6:-0.18172256 7:-2.2952612 8:-1.9092505 
0.001113 0.001113 0 1:0.7868095 2:0.3454118 3:-0.1693806 4:0.42309919 5:-0.17761096 6:-0.70427396 7:-2.2852495 8:-1.9015991 
0.001113 0.001113 0 1:0.33889926 2:0.51972418 3:-0.21283738 4:0.42351582 5:-0.68738993 6:-0.50447489 7:-2.3578343 8:-1.9005908 
0.001113 0.001113 0 1:0.51015905 2:0.73426249 3:-0.19335675 4:0.4249624 5:-0.49247444 6:-0.25856835 7:-2.3252963 8:-1.8970897 
0.001113 0.001113 0 1:0.72094034 2:0.72085385 3:-0.16488507 4:0.42766242 5:-0.25257846 6:-0.27393751 7:-2.2777407 8:-1.8905551 
0.001113 0.001113 0 1:0.70776651 2:0.57335876 3:-0.15289699 4:0.43025931 5:-0.26757195 6:-0.44299826 7:-2.2577173 8:-1.8842701 
0.001113 0.001113 0 1:0.56285438 2:0.85494029 3:0.18576619 4:0.43196998 5:-0.43250044 6:-0.12024592 7:-1.6920561 8:-1.8801299 
0.001113 0.001113 0 1:0.43111607 2:0.4660896 3:0.83012536 4:0.43832708 5:-0.58243543 6:-0.56595153 7:-0.61579806 8:-1.8647445 
0.001113 0.001113 0 1:0.45746373 2:0.61358469 3:0.79266261 4:0.43935553 5:-0.55244844 6:-0.39689078 7:-0.6783712 8:-1.8622554 
0.001113 0 0 1:0.60237587 2:0.74767114 3:0.78816708 4:0.44121898 5:-0.38751995 6:-0.24319919 7:-0.68587998 8:-1.8577455 
0.001113 0.001113 0 1:0.39159458 2:0.43927231 3:0.81963579 4:0.449794 5:-0.62741593 6:-0.59668985 7:-0.63331854 8:-1.8369921 
0.001113 0 0 1:0.43111607 2:0.47949825 3:0.78816708 4:0.45059659 5:-0.58243543 6:-0.55058237 7:-0.68587998 8:-1.8350497 
0.001113 0.001113 0 1:0.47063756 2:0.65381062 3:0.77767752 4:0.45161661 5:-0.53745494 6:-0.3507833 7:-0.70340046 8:-1.832581 
0.001113 0.001113 0 1:0.45746373 2:0.7074452 3:0.75070434 4:0.46425426 5:-0.55244844 6:-0.28930667 7:-0.74845312 8:-1.8019953 
0 0.001113 0 1:0.36524692 2:0.23814265 3:0.80165367 4:0.47064152 5:-0.65740293 6:-0.82722723 7:-0.66335365 8:-1.7865368 
0.001113 0.001113 0 1:0.23350861 2:0.47949825 3:0.75519987 4:0.47025025 5:-0.80733792 6:-0.55058237 7:-0.74094434 8:-1.7874838 
0.001113 0 0 1:0.66824502 2:0.85494029 3:0.6817729 4:0.47429431 5:-0.31255245 6:-0.12024592 7:-0.8635877 8:-1.7776963 
0.001113 0 0 1:0.49698522 2:0.66721927 3:0.71024458 4:0.4820389 5:-0.50746794 6:-0.33541415 7:-0.81603211 8:-1.7589528 
0.001113 0.001113 0 1:0.89220014 2:1.0828872 3:0.91104488 4:0.50130346 5:-0.057662968 6:0.14102978 7:-0.48064007 8:-1.7123286 
0.001113 0.001113 0 1:0.41794224 2:0.37222909 3:0.97847781 4:0.50776412 5:-0.59742893 6:-0.67353564 7:-0.36800841 8:-1.6966924 
0.001113 0.001113 0 1:0.36524692 2:0.42586367 3:0.92902699 4:0.50791979 5:-0.65740293 6:-0.612059 7:-0.45060496 8:-1.6963157 
0.001113 0.001113 0 1:0.41794224 2:0.78789707 3:0.89456127 4:0.5083354 5:-0.59742893 6:-0.19709172 7:-0.50817225 8:-1.6953098 
0.001113 0 0 1:0.65507119 2:0.89516622 3:0.84960598 4:0.52403856 5:-0.32754595 6:-0.074138445 7:-0.58326002 8:-1.6573049 
0.001113 0.001113 0 1:0.40476841 2:0.828123 3:0.91853743 4:0.52971053 5:-0.61242243 6:-0.15098424 7:-0.46812544 8:-1.6435776 
0.001113 0.001113 0 1:0.35207309 2:0.47949825 3:0.87657916 4:0.53723645 5:-0.67239643 6:-0.55058237 7:-0.53820736 8:-1.6253633 
0.001113 0.001113 0 1:0.48381139 2:0.97561809 3:0.77168348 4:0.53869876 5:-0.52246144 6:0.018076508 7:-0.71341216 8:-1.6218242 
0.001113 0.001113 0 1:0.68141885 2:0.9488008 3:1.090866 4:0.56495676 5:-0.29755895 6:-0.01266181 7:-0.18028899 8:-1.5582744 
0.001113 0.001113 0 1:0.83950482 2:1.1097045 3:1.1163407 4:0.58323761 5:-0.11763696 6:0.1717681 7:-0.13773925 8:-1.514031 
0.001113 0.001113 0 1:0.7868095 2:1.1633391 3:1.1313258 4:0.59309173 5:-0.17761096 6:0.23324473 7:-0.11270999 8:-1.490182 
0.001113 0.001113 0 1:0.6155497 2:0.92198351 3:1.161296 4:0.61860501 5:-0.37252645 6:-0.043400127 7:-0.062651481 8:-1.4284345 
0.001113 0.001113 0 1:0.87902631 2:1.243791 3:1.1897677 4:0.63358451 5:-0.072656467 6:0.32545968 7:-0.015095893 8:-1.3921811 
0.001113 0 0 1:0.52333288 2:0.76107978 3:1.1358213 4:0.64760388 5:-0.47748094 6:-0.22783003 7:-0.10520122 8:-1.3582513 
0.001113 0 0 1:0.81315716 2:1.203565 3:0.94700911 4:0.6524673 5:-0.14762396 6:0.27935221 7:-0.42056985 8:-1.3464808 
0.001113 0 0 1:0.60237587 2:0.90857487 3:1.0159406 4:0.67329054 5:-0.38751995 6:-0.058769286 7:-0.30543527 8:-1.2960842 
0 0.001113 0 1:1.1425029 2:1.4181034 3:1.240717 4:0.69792721 5:0.22721351 6:0.52525875 7:0.07000358 8:-1.2364584 
0.001113 0.001113 0.001113 1:1.1029814 2:-2.7117591 3:0.95450166 4:0.70245152 5:0.18223302 6:-4.2084422 7:-0.40805523 8:-1.2255086 
0.001113 0.001113 0 1:-0.14853247 2:0.97561809 3:0.30714548 4:0.69038352 5:-1.2421494 6:0.018076508 7:-1.4893191 8:-1.2547157 
0.001113 0 0 1:0.68141885 2:0.78789707 3:0.14680494 4:0.69460938 5:-0.29755895 6:-0.19709172 7:-1.7571322 8:-1.2444882 
0.001113 0.001113 0 1:0.77363566 2:0.9488008 3:0.095855613 4:0.69601694 5:-0.19260446 6:-0.01266181 7:-1.8422316 8:-1.2410816 
0.001113 0.001113 0 1:0.93172163 2:1.1901564 3:0.14980196 4:0.69817856 5:-0.012682471 6:0.26398305 7:-1.7521263 8:-1.2358501 
0.001113 0.001113 0 1:0.33889926 2:0.73426249 3:0.90355233 4:0.72088117 5:-0.68738993 6:-0.25856835 7:-0.4931547 8:-1.1809051 
0.001113 0 0 1:0.52333288 2:0.85494029 3:1.0219346 4:0.78231004 5:-0.47748094 6:-0.12024592 7:-0.29542357 8:-1.0322345 
0.001113 0 0 1:0.43111607 2:0.78789707 3:0.86459108 4:0.78032092 5:-0.58243543 6:-0.19709172 7:-0.55823077 8:-1.0370486 
0.001113 0 0 1:0.77363566 2:1.1499305 3:0.81514026 4:0.78134098 5:-0.19260446 6:0.21787557 7:-0.64082731 8:-1.0345798 
0.001113 0.001113 0 1:1.4191534 2:-1.0893132 3:1.155302 4:0.79623964 5:0.54207699 6:-2.348774 7:-0.072663184 8:-0.99852195 
0.001113 0 0 1:0.56285438 2:0.76107978 3:1.4714875 4:1.27719 5:-0.43250044 6:-0.22783003 7:0.45545414 8:0.16547755 
0.001113 0 0 1:0.47063756 2:0.61358469 3:1.1178392 4:1.3255687 5:-0.53745494 6:-0.39689078 7:-0.13523633 8:0.282564 
0.001113 0 0 1:0.60237587 2:0.73426249 3:1.0623944 4:1.3247277 5:-0.38751995 6:-0.25856835 7:-0.22784458 8:0.28052847 
0.001113 0 0 1:0.72094034 2:1.0024354 3:1.0339227 4:1.3260173 5:-0.25257846 6:0.048814826 7:-0.27540016 8:0.28364962 
0.001113 0 0 1:0.56285438 2:0.90857487 3:0.9919644 4:1.3298862 5:-0.43250044 6:-0.058769286 7:-0.34548208 8:0.29301307 
0.001113 0 0 1:0.62872353 2:0.74767114 3:1.0668899 4:1.332185 5:-0.35753295 6:-0.24319919 7:-0.2203358 8:0.29857686 
0.001113 0 0 1:0.73411417 2:1.0024354 3:1.0369197 4:1.3380164 5:-0.23758496 6:0.048814826 7:-0.27039431 8:0.31268989 
0.001113 0 0 1:0.57602821 2:1.05607 3:1.2736842 4:1.3859267 5:-0.41750694 6:0.11029146 7:0.12506795 8:0.42864281 
0.001113 0.001113 0 1:0.49698522 2:0.73426249 3:1.4040546 4:1.5489275 5:-0.50746794 6:-0.25856835 7:0.34282248 8:0.82313847 
0.001113 0 0 1:0.72094034 2:0.73426249 3:1.3276306 4:1.54916 5:-0.25257846 6:-0.25856835 7:0.21517327 8:0.82370111 
0.001113 0 0 1:0.72094034 2:1.0694786 3:1.2616961 4:1.5495668 5:-0.25257846 6:0.12566062 7:0.10504454 8:0.82468574 
0.001113 0 0 1:0.62872353 2:0.88175758 3:1.5179413 4:1.5772176 5:-0.35753295 6:-0.089507604 7:0.53304483 8:0.89160635 
0.001113 0 0 1:0.7868095 2:0.57335876 3:1.2572006 4:1.5836904 5:-0.17761096 6:-0.44299826 7:0.097535763 8:0.90727181 
0.001113 0 0 1:0.56285438 2:0.41245502 3:1.2197379 4:1.5806581 5:-0.43250044 6:-0.62742816 7:0.034962621 8:0.89993304 
0.001113 0.001113 0 1:0.40476841 2:0.4660896 3:1.1597975 4:1.5771593 5:-0.61242243 6:-0.56595153 7:-0.065154407 8:0.89146522 
0.001113 0.001113 0 1:0.45746373 2:0.47949825 3:1.1043526 4:1.5734855 5:-0.55244844 6:-0.55058237 7:-0.15776266 8:0.88257401 
0.001113 0.001113 0 1:0.47063756 2:0.72085385 3:1.0219346 4:1.5706282 5:-0.53745494 6:-0.27393751 7:-0.29542357 8:0.87565863 
0.001113 0 0 1:0.70776651 2:0.828123 3:0.96648974 4:1.5687463 5:-0.26757195 6:-0.15098424 7:-0.38803182 8:0.87110401 
0.001113 0 0 1:0.81315716 2:0.7074452 3:0.9604957 4:1.5675839 5:-0.14762396 6:-0.28930667 7:-0.39804352 8:0.86829078 
0.001113 0 0 1:0.69459268 2:1.0292527 3:0.93502103 4:1.5660147 5:-0.28256545 6:0.079553143 7:-0.44059326 8:0.86449292 
0.001113 0 0 1:1.0107646 2:0.90857487 3:0.94101507 4:1.5639224 5:0.077278523 6:-0.058769286 7:-0.43058156 8:0.85942911 
0.001113 0 0 1:0.89220014 2:0.98902674 3:0.94101507 4:1.5611907 5:-0.057662968 6:0.033445667 7:-0.43058156 8:0.85281803 
0.001113 0 0 1:0.97124312 2:1.0962959 3:0.92153445 4:1.5604933 5:0.032298026 6:0.15639894 7:-0.46311959 8:0.85113009 
0.001113 0 0 1:1.0766338 2:1.4046947 3:0.95450166 4:1.559854 5:0.15224602 6:0.50988959 7:-0.40805523 8:0.84958281 
0.001113 0.001113 0 1:0.51015905 2:0.49290689 3:1.3620963 4:1.5575873 5:-0.49247444 6:-0.53521321 7:0.27274056 8:0.84409702 
0.001113 0.001113 0 1:0.48381139 2:0.54654147 3:1.2826753 4:1.5560181 5:-0.52246144 6:-0.47373657 7:0.1400855 8:0.84029916 
0.001113 0.001113 0 1:0.53650672 2:1.0292527 3:1.1927647 4:1.5551463 5:-0.46248744 6:0.079553143 7:-0.010090042 8:0.83818924 
0.001113 0 0 1:0.79998333 2:1.2303823 3:1.5089502 4:1.561307 5:-0.16261746 6:0.31009053 7:0.51802728 8:0.85309935 
0.001113 0 0 1:0.68141885 2:0.45268096 3:1.4160426 4:1.5600865 5:-0.29755895 6:-0.58132069 7:0.36284589 8:0.85014546 
0.001113 0.001113 0 1:0.4442899 2:0.37222909 3:1.323135 4:1.5562506 5:-0.56744193 6:-0.67353564 7:0.20766449 8:0.8408618 
0.001113 0.001113 0 1:0.36524692 2:0.4660896 3:1.2152423 4:1.5524728 5:-0.65740293 6:-0.56595153 7:0.027453844 8:0.83171881 
0.001113 0.001113 0 1:0.45746373 2:0.43927231 3:1.1148422 4:1.5495087 5:-0.55244844 6:-0.59668985 7:-0.14024218 8:0.82454508 
0.001113 0.001113 0 1:0.43111607 2:0.66721927 3:1.0249316 4:1.5464865 5:-0.58243543 6:-0.33541415 7:-0.29041772 8:0.81723069 
0.001113 0 0 1:0.65507119 2:0.64040198 3:0.96349272 4:1.5449224 5:-0.32754595 6:-0.36615246 7:-0.39303767 8:0.8134454 
0.001113 0 0 1:0.62872353 2:0.65381062 3:0.90505084 4:1.5431267 5:-0.35753295 6:-0.3507833 7:-0.49065177 8:0.80909934 
0.001113 0 0 1:0.64189736 2:0.51972418 3:0.86159406 4:1.5398828 5:-0.34253945 6:-0.50447489 7:-0.56323662 8:0.80124838 
0.001113 0.001113 0 1:0.51015905 2:0.51972418 3:0.82862685 4:1.5360596 5:-0.49247444 6:-0.50447489 7:-0.61830098 8:0.79199547 
0.001113 0.001113 0 1:0.51015905 2:0.68062791 3:0.74920583 4:1.5335108 5:-0.49247444 6:-0.32004499 7:-0.75095604 8:0.78582686 
0.001113 0.001113 0 1:0.66824502 2:0.97561809 3:0.71923564 4:1.5313096 5:-0.31255245 6:0.018076508 7:-0.80101456 8:0.78049942 
0.001113 0 0 1:0.95806929 2:1.1231132 3:0.75070434 4:1.5307303 5:0.017304527 6:0.18713726 7:-0.74845312 8:0.77909747 
0.001113 0 0 1:1.1029814 2:1.05607 3:0.82562983 4:1.5307246 5:0.18223302 6:0.11029146 7:-0.62330683 8:0.77908359 
0.001113 0 0 1:1.0371123 2:0.93539216 3:0.90205382 4:1.5310132 5:0.10726552 6:-0.028030969 7:-0.49565762 8:0.77978225 
0.001113 0 0 1:0.9185478 2:1.1767478 3:0.95450166 4:1.5294544 5:-0.02767597 6:0.24861389 7:-0.40805523 8:0.77600946 
0.001113 0 0 1:0.93172163 2:1.1499305 3:1.0683884 4:1.5266253 5:-0.012682471 6:0.21787557 7:-0.21783287 8:0.76916255 
0.001113 0 0 1:0.70776651 2:0.68062791 3:1.1867707 4:1.524951 5:-0.26757195 6:-0.32004499 7:-0.020101744 8:0.76511029 
0.001113 0 0 1:0.66824502 2:0.74767114 3:1.2047528 4:1.5224106 5:-0.31255245 6:-0.24319919 7:0.0099333639 8:0.75896204 
0.001113 0 0 1:0.73411417 2:0.98902674 3:1.2122453 4:1.5198125 5:-0.23758496 6:0.033445667 7:0.022447992 8:0.75267406 
0.001113 0 0 1:0.97124312 2:1.4181034 3:1.2137438 4:1.5183691 5:0.032298026 6:0.52525875 7:0.024950918 8:0.74918073 
0.001113 0 0 1:0.66824502 2:0.89516622 3:1.5224368 4:1.514443 5:-0.31255245 6:-0.074138445 7:0.54055361 8:0.73967889 
0.001113 0 0 1:0.58920204 2:0.72085385 3:1.3156425 4:1.5124223 5:-0.40251345 6:-0.27393751 7:0.19514986 8:0.73478824 
0.001113 0 0 1:0.70776651 2:0.76107978 3:1.2527051 4:1.5098241 5:-0.26757195 6:-0.22783003 7:0.090026986 8:0.72850025 
0.001113 0 0 1:0.747288 2:0.73426249 3:1.1957617 4:1.5075147 5:-0.22259146 6:-0.25856835 7:-0.0050841902 8:0.72291094 
0.001113 0 0 1:0.72094034 2:0.96220945 3:1.1388183 4:1.5059165 5:-0.25257846 6:0.0027073491 7:-0.10019537 8:0.719043 
0.001113 0.001113 0 1:0.41794224 2:0.33200316 3:1.090866 4:1.5012553 5:-0.59742893 6:-0.71964312 7:-0.18028899 8:0.70776186 
0.001113 0.001113 0 1:0.32572543 2:0.3454118 3:0.99795844 4:1.4965365 5:-0.70238343 6:-0.70427396 7:-0.33547038 8:0.69634145 
0.001113 0.001113 0 1:0.33889926 2:0.41245502 3:0.93202401 4:1.4925658 5:-0.68738993 6:-0.62742816 7:-0.44559911 8:0.68673159 
0.001113 0.001113 0 1:0.40476841 2:0.41245502 3:0.91104488 4:1.4900914 5:-0.61242243 6:-0.62742816 7:-0.48064007 8:0.68074284 
0.001113 0.001113 0 1:0.40476841 2:0.62699334 3:0.87657916 4:1.487179 5:-0.61242243 6:-0.38152162 7:-0.53820736 8:0.67369424 
0.001113 0 0 1:0.6155497 2:0.61358469 3:0.86159406 4:1.4847126 5:-0.37252645 6:-0.39689078 7:-0.56323662 8:0.66772512 
0.001113 0 0 1:0.60237587 2:0.85494029 3:0.84810747 4:1.480927 5:-0.38751995 6:-0.12024592 7:-0.58576295 8:0.65856322 
0.001113 0 0 1:0.83950482 2:0.92198351 3:0.83611939 4:1.4781165 5:-0.11763696 6:-0.043400127 7:-0.60578636 8:0.6517612 
0.001113 0 0 1:0.90537397 2:1.1901564 3:0.81514026 4:1.4763958 5:-0.042669469 6:0.26398305 7:-0.64082731 8:0.6475967 
0.001113 0 0 1:1.1688506 2:1.431512 3:0.81514026 4:1.4763958 5:0.25720051 6:0.54062791 7:-0.64082731 8:0.6475967 
0.001113 0 0 1:0.70776651 2:0.7074452 3:1.084872 4:1.4722661 5:-0.26757195 6:-0.28930667 7:-0.19030069 8:0.6376019 
0.001113 0 0 1:0.69459268 2:0.62699334 3:1.1178392 4:1.4699144 5:-0.28256545 6:-0.38152162 7:-0.13523633 8:0.63191042 
0.001113 0 0 1:0.6155497 2:0.88175758 3:1.1418154 4:1.4684231 5:-0.37252645 6:-0.089507604 7:-0.095189515 8:0.62830118 
0.001113 0 0 1:0.69459268 2:1.0694786 3:1.4774815 4:1.4662199 5:-0.28256545 6:0.12566062 7:0.46546584 8:0.62296899 
0.001113 0.001113 0 1:0.37842075 2:0.29177722 3:1.2212364 4:1.4584448 5:-0.64240943 6:-0.76575059 7:0.037465546 8:0.60415162 
0.001113 0.001113 0 1:0.28620394 2:0.26495994 3:1.1298273 4:1.4538712 5:-0.74736392 6:-0.79648891 7:-0.11521292 8:0.59308257 
0.001113 0.001113 0 1:0.25985627 2:0.25155129 3:1.0039525 4:1.4495263 5:-0.77735092 6:-0.81185807 7:-0.32545868 8:0.58256698 
0.001113 0.001113 0 1:0.24668244 2:0.7074452 3:0.8840717 4:1.4460812 5:-0.79234442 6:-0.28930667 7:-0.52569273 8:0.57422915 
0.001113 0 0 1:0.69459268 2:1.015844 3:0.82862685 4:1.4450555 5:-0.28256545 6:0.064183984 7:-0.61830098 8:0.57174672 
0.001113 0 0 1:0.77363566 2:0.53313282 3:0.8675881 4:1.4419214 5:-0.19260446 6:-0.48910573 7:-0.55322492 8:0.56416154 
0.001113 0 0 1:0.52333288 2:0.49290689 3:0.80764771 4:1.4382744 5:-0.47748094 6:-0.53521321 7:-0.65334194 8:0.55533515 
0.001113 0 0 1:0.48381139 2:0.72085385 3:0.76568944 4:1.4338297 5:-0.52246144 6:-0.27393751 7:-0.72342386 8:0.54457799 
0.001113 0 0 1:0.70776651 2:1.1633391 3:0.73571925 4:1.4312085 5:-0.26757195 6:0.23324473 7:-0.77348238 8:0.53823403 
0.001113 0 0 1:1.1425029 2:1.3510601 3:0.77617901 4:1.4320062 5:0.22721351 6:0.44841296 7:-0.70590338 8:0.5401648 
0.001113 0 0 1:0.66824502 2:0.7074452 3:1.2422155 4:1.4233469 5:-0.31255245 6:-0.28930667 7:0.072506506 8:0.5192075 
0.001113 0 0 1:0.62872353 2:0.9488008 3:1.1418154 4:1.4182918 5:-0.35753295 6:-0.01266181 7:-0.095189515 8:0.50697315 
0.001113 0 0 1:0.93172163 2:1.3376515 3:1.0998571 4:1.418235 5:-0.012682471 6:0.4330438 7:-0.16527143 8:0.50683568 
0.001113 0 0 1:0.58920204 2:0.4660896 3:1.3291291 4:1.4115896 5:-0.40251345 6:-0.56595153 7:0.2176762 8:0.49075233 
0.001113 0 0 1:0.45746373 2:0.65381062 3:1.2721857 4:1.4071025 5:-0.55244844 6:-0.3507833 7:0.12256502 8:0.47989263 
0.001113 0 0 1:0.64189736 2:0.81471436 3:1.2167409 4:1.4055155 5:-0.34253945 6:-0.1663534 7:0.029956769 8:0.47605163 
0.001113 0 0 1:0.69459268 2:0.98902674 3:1.2826753 4:1.398382 5:-0.28256545 6:0.033445667 7:0.1400855 8:0.45878715 
0.001113 0 0 1:0.54968055 2:0.60017605 3:1.16729 4:1.3941359 5:-0.44749394 6:-0.41225994 7:-0.052639778 8:0.44851067 
0.001113 0 0 1:0.58920204 2:0.55995011 3:1.1238333 4:1.3926639 5:-0.40251345 6:-0.45836742 7:-0.12522462 8:0.44494816 
0.001113 0 0 1:0.54968055 2:0.74767114 3:1.0728839 4:1.3920977 5:-0.44749394 6:-0.24319919 7:-0.2103241 8:0.44357796 
0.001113 0 0 1:0.73411417 2:1.1231132 3:1.0369197 4:1.3933433 5:-0.23758496 6:0.18713726 7:-0.27039431 8:0.44659239 
0.001113 0 0 1:0.68141885 2:0.73426249 3:1.0593973 4:1.3996841 5:-0.29755895 6:-0.25856835 7:-0.23285043 8:0.4619386 
0.001113 0 0 1:0.72094034 2:0.80130571 3:1.0309257 4:1.3999672 5:-0.25257846 6:-0.18172256 7:-0.28040602 8:0.4626237 
0.001113 0 0 1:0.7868095 2:1.0426613 3:1.0099465 4:1.4022178 5:-0.17761096 6:0.094922302 7:-0.31544698 8:0.46807068 
0.001113 0 0 1:0.60237587 2:1.0024354 3:1.1957617 4:1.4136344 5:-0.38751995 6:0.048814826 7:-0.0050841902 8:0.49570105 
0.001113 0 0 1:0.747288 2:1.05607 3:1.1373198 4:1.4093745 5:-0.22259146 6:0.11029146 7:-0.10269829 8:0.48539121 
0.001113 0 0 1:0.6155497 2:0.68062791 3:1.2616961 4:1.4080681 5:-0.37252645 6:-0.32004499 7:0.10504454 8:0.48222953 
0.001113 0 0 1:0.66824502 2:0.9488008 3:1.2197379 4:1.4065911 5:-0.31255245 6:-0.01266181 7:0.034962621 8:0.478655 
0.001113 0 0 1:0.60237587 2:0.84153165 3:1.155302 4:1.4006466 5:-0.38751995 6:-0.13561508 7:-0.072663184 8:0.46426793 
0.001113 0 0 1:0.68141885 2:0.92198351 3:1.2452125 4:1.4065345 5:-0.29755895 6:-0.043400127 7:0.077512357 8:0.47851798 
0.001113 0 0 1:0.62872353 2:0.68062791 3:1.2002572 4:1.4008164 5:-0.35753295 6:-0.32004499 7:0.0024245868 8:0.46467899 
0.001113 0 0 1:0.66824502 2:0.76107978 3:1.1568005 4:1.3993444 5:-0.31255245 6:-0.22783003 7:-0.070160258 8:0.46111648 
0.001113 0 0 1:0.68141885 2:0.7074452 3:1.0833735 4:1.3941925 5:-0.29755895 6:-0.28930667 7:-0.19280362 8:0.44864769 
0.001113 0 0 1:0.69459268 2:0.80130571 3:1.0429137 4:1.391475 5:-0.28256545 6:-0.18172256 7:-0.26038261 8:0.44207074 
0.001113 0 0 1:0.7868095 2:0.97561809 3:1.011445 4:1.3901728 5:-0.17761096 6:0.018076508 7:-0.31294405 8:0.43891929 
0.001113 0 0 1:0.57602821 2:0.65381062 3:1.1238333 4:1.3890971 5:-0.41750694 6:-0.3507833 7:-0.12522462 8:0.43631591 
0.001113 0 0 1:0.64189736 2:0.77448842 3:1.1013556 4:1.3893236 5:-0.34253945 6:-0.21246087 7:-0.16276851 8:0.43686399 
0.001113 0 0 1:0.51015905 2:0.31859451 3:1.0608958 4:1.3893236 5:-0.49247444 6:-0.73501227 7:-0.2303475 8:0.43686399 
0.001113 0.001113 0 1:0.3125516 2:0.57335876 3:1.0069495 4:1.3865495 5:-0.71737692 6:-0.44299826 7:-0.32045283 8:0.43015003 
0.001113 0 0 1:0.56285438 2:0.4660896 3:0.96199421 4:1.3846952 5:-0.43250044 6:-0.56595153 7:-0.3955406 8:0.42566241 
0.001113 0 0 1:0.45746373 2:0.54654147 3:0.88706872 4:1.3820994 5:-0.55244844 6:-0.47373657 7:-0.52068688 8:0.41937984 
0.001113 0 0 1:0.53650672 2:0.66721927 3:0.8211343 4:1.3801242 5:-0.46248744 6:-0.33541415 7:-0.63081561 8:0.41459962 
0.001113 0 0 1:0.65507119 2:0.68062791 3:0.78666857 4:1.3788263 5:-0.32754595 6:-0.32004499 7:-0.6883829 8:0.41145833 
0.001113 0 0 1:0.66824502 2:0.68062791 3:0.79715814 4:1.3774719 5:-0.31255245 6:-0.32004499 7:-0.67086242 8:0.40818047 
0.001113 0 0 1:0.66824502 2:0.60017605 3:0.80015516 4:1.3745374 5:-0.31255245 6:-0.41225994 7:-0.66585657 8:0.40107842 
0.001113 0 0 1:0.58920204 2:0.64040198 3:0.78067454 4:1.3715465 5:-0.40251345 6:-0.36615246 7:-0.69839461 8:0.39383981 
0.001113 0 0 1:0.62872353 2:0.57335876 3:0.7596954 4:1.3699664 5:-0.35753295 6:-0.44299826 7:-0.73343557 8:0.39001563 
0.001113 0 0 1:0.56285438 2:0.93539216 3:0.73721776 4:1.3687249 5:-0.43250044 6:-0.028030969 7:-0.77097945 8:0.38701092 
0.001113 0 0 1:0.9185478 2:0.90857487 3:0.78367156 4:1.3683299 5:-0.02767597 6:-0.058769286 7:-0.69338875 8:0.38605488 
0.001113 0 0 1:0.51015905 2:0.35882045 3:0.87957617 4:1.3641777 5:-0.49247444 6:-0.6889048 7:-0.53320151 8:0.37600566 
0.001113 0.001113 0 1:0.35207309 2:0.5867674 3:0.85859704 4:1.3597339 5:-0.67239643 6:-0.4276291 7:-0.56824247 8:0.36525071 
0.001113 0 0 1:0.57602821 2:0.76107978 3:0.84960598 4:1.3577088 5:-0.41750694 6:-0.22783003 7:-0.58326002 8:0.36034972 
0.001113 0 0 1:0.747288 2:0.92198351 3:0.85859704 4:1.3578776 5:-0.22259146 6:-0.043400127 7:-0.56824247 8:0.36075814 
0.001113 0 0 1:0.90537397 2:1.2169737 3:0.88557021 4:1.3579901 5:-0.042669469 6:0.29472137 7:-0.52318981 8:0.36103042 
0.001113 0 0 1:0.56285438 2:0.74767114 3:0.96798825 4:1.3523088 5:-0.43250044 6:-0.24319919 7:-0.38552889 8:0.34728042 
0.001113 0 0 1:0.73411417 2:0.97561809 3:0.95000613 4:1.3510712 5:-0.23758496 6:0.018076508 7:-0.415564 8:0.34428538 
0.001113 0.001113 0 1:0.93172163 2:-0.52615009 3:1.4040546 4:1.3382407 5:-0.012682471 6:-1.7032693 7:0.34282248 8:0.3132327 
0.001113 0 0 1:0.60237587 2:0.39904638 3:1.387571 4:1.3956079 5:-0.38751995 6:-0.64279732 7:0.3152903 8:0.45207318 
0.001113 0.001113 0 1:0.39159458 2:0.68062791 3:1.3156425 4:1.392947 5:-0.62741593 6:-0.32004499 7:0.19514986 8:0.44563325 
0.001113 0 0 1:0.66824502 2:1.2169737 3:1.240717 4:1.3920977 5:-0.31255245 6:0.29472137 7:0.07000358 8:0.44357796 
0.001113 0 0 1:0.69459268 2:0.89516622 3:1.2601976 4:1.4530137 5:-0.28256545 6:-0.074138445 7:0.10254161 8:0.59100713 
0.001113 0 0 1:0.7868095 2:1.0426613 3:1.1208362 4:1.450098 5:-0.17761096 6:0.094922302 7:-0.13023047 8:0.58395061 
0.001113 0 0 1:0.76046183 2:1.0962959 3:1.2991589 4:1.4640066 5:-0.20759796 6:0.15639894 7:0.16761768 8:0.6176123 
0.001113 0 0 1:0.73411417 2:1.05607 3:1.2062513 4:1.463433 5:-0.23758496 6:0.11029146 7:0.01243629 8:0.61622413 
0.001113 0 0 1:0.69459268 2:0.89516622 3:1.158299 4:1.4730691 5:-0.28256545 6:-0.074138445 7:-0.067657332 8:0.63954533 
0.001113 0 0 1:0.79998333 2:1.1633391 3:1.2512066 4:1.5121336 5:-0.16261746 6:0.23324473 7:0.08752406 8:0.73408957 
0.001113 0 0 1:0.70776651 2:0.78789707 3:1.3426157 4:1.5229879 5:-0.26757195 6:-0.19709172 7:0.24020253 8:0.76035937 
0.001113 0 0 1:0.86585248 2:1.1499305 3:1.1852721 4:1.5161751 5:-0.087649966 6:0.21787557 7:-0.02260467 8:0.74387088 
0.001113 0 0 1:0.77363566 2:1.1901564 3:1.2257319 4:1.5149049 5:-0.19260446 6:0.26398305 7:0.044974324 8:0.74079675 
0.001113 0.001113 0.001113 1:-1.9665211 2:1.3108342 3:-2.0385217 4:-2.138915 5:-3.1119776 6:1.0012991 7:-4.9246773 8:-7.4671937 
0.001113 0.001113 0.001113 1:1.2874151 2:1.1365218 3:-1.1168133 4:-1.1607092 5:0.9789823 6:0.78067944 7:-3.2056826 8:-4.8635402 
0.001113 0.001113 0.001113 1:1.1161553 2:1.1499305 3:-0.60664572 4:-0.61927003 5:0.76366862 6:0.79765019 7:-2.2542152 8:-3.4224122 
0.001113 0.001113 0 1:1.1293291 2:1.4181034 3:-0.26378671 4:-0.25539495 5:0.78023121 6:1.1370651 7:-1.6147799 8:-2.4538997 
0.001113 0.001113 0 1:1.3928057 2:1.2303823 3:0.028208605 4:0.054498666 5:1.111483 6:0.89947466 7:-1.0702059 8:-1.6290676 
0.001113 0.001113 0 1:1.2083721 2:1.2974256 3:0.21835878 4:0.25630439 5:0.87960675 6:0.98432839 7:-0.715574 8:-1.0919289 
0.001113 0 0 1:0.11494414 2:0.15769078 3:0.76269242 4:0.68371448 5:-0.49508827 6:-0.45818503 7:0.29961337 8:0.045692313 
0.001113 0 0 1:0.15446563 2:0.19791671 3:0.68926545 4:0.66570189 5:-0.4454005 6:-0.40727279 7:0.16267137 8:-0.0022511179 
0.001113 0 0 1:0.035901155 2:0.077238913 3:0.47797558 4:0.62980117 5:-0.59446382 6:-0.56000951 7:-0.23138622 8:-0.097806702 
0.001113 0 0 1:0.075422647 2:0.13087349 3:0.40454861 4:0.61190347 5:-0.54477605 6:-0.49212652 7:-0.36832822 8:-0.14544434 
0.001113 0 0 1:0.12811797 2:0.21132536 3:0.33262014 4:0.59792322 5:-0.47852568 6:-0.39030204 7:-0.50247548 8:-0.18265502 
0.001113 0.001113 0 1:-0.12218481 2:-0.39206364 3:0.22173043 4:0.55224446 5:-0.79321491 6:-1.1539856 7:-0.70928585 8:-0.30423645 
0.001113 0.001113 0 1:-0.38566142 2:-0.41888093 3:0.1243273 4:0.51998403 5:-1.1244667 6:-1.1879271 7:-0.8909436 8:-0.39010282 
0.001113 0.001113 0 1:-0.41200908 2:-0.32502042 3:0.046404794 4:0.4886465 5:-1.1575919 6:-1.0691319 7:-1.0362698 8:-0.47351273 
0.001113 0.001113 0 1:-0.31979227 2:-0.08366482 3:-0.0030460254 4:0.46291906 5:-1.0416538 6:-0.76365846 7:-1.128496 8:-0.54199048 
0.001113 0.001113 0 1:-0.08266332 2:-0.0032129533 3:-0.0300192 4:0.44796653 5:-0.74352714 6:-0.66183398 7:-1.1788013 8:-0.58178906 
0.001113 0.001113 0 1:-0.0036203366 2:-0.11048211 3:-0.052496845 4:0.4368674 5:-0.64415159 6:-0.79759995 7:-1.2207223 8:-0.6113312 
0.001113 0.001113 0 1:-0.10901098 2:0.3454118 3:-0.068980451 4:0.42249733 5:-0.77665232 6:-0.22059458 7:-1.2514644 8:-0.64957946 
0.001113 0.001113 0 1:0.33889926 2:1.1231132 3:-0.039010258 4:0.42497959 5:-0.21352423 6:0.76370869 7:-1.1955697 8:-0.64297254 
0.001113 0.001113 0.001113 1:0.28620394 2:-2.1485961 3:0.84511045 4:0.56371274 5:-0.2797746 6:-3.3771534 7:0.45332378 8:-0.27371175 
0.001113 0.001113 0 1:-1.2024389 2:0.45268096 3:0.4809726 4:0.44883138 5:-2.1513473 6:-0.084828614 7:-0.22579675 8:-0.57948713 
0.001113 0 0 1:0.4442899 2:0.81471436 3:0.49296068 4:0.45311182 5:-0.081023507 6:0.37338153 7:-0.20343887 8:-0.56809403 
0.001113 0.001113 0 1:1.1029814 2:1.5655984 3:0.40754563 4:0.5445577 5:0.74710603 6:1.3237433 7:-0.36273875 8:-0.324696 
0.001113 0.001113 0 1:-0.12218481 2:-0.08366482 3:0.7746805 4:0.5949192 5:-0.79321491 6:-0.76365846 7:0.32197125 8:-0.19065071 
0.001113 0.001113 0 1:-0.08266332 2:0.11746485 3:0.59036381 4:0.5853612 5:-0.74352714 6:-0.50909727 7:-0.021781116 8:-0.21609088 
0.001113 0 0 1:0.11494414 2:0.27836858 3:0.48247111 4:0.57994328 5:-0.49508827 6:-0.30544831 7:-0.22300201 8:-0.23051154 
0.001113 0 0 1:0.45746373 2:0.81471436 3:0.38956351 4:0.57906858 5:-0.064460917 6:0.37338153 7:-0.39627556 8:-0.2328397 
0.001113 0.001113 0 1:0.79998333 2:1.2840169 3:0.43302029 4:0.58678073 5:0.36616644 6:0.96735765 7:-0.31522826 8:-0.21231258 
0.001113 0.001113 0.001113 1:1.0502861 2:-2.2424566 3:0.57837573 4:0.6145119 5:0.68085567 6:-3.4959486 7:-0.044138994 8:-0.13850158 
0.001113 0.001113 0 1:-0.78087634 2:0.66721927 3:0.14530643 4:0.54699626 5:-1.6213444 6:0.18670332 7:-0.85181732 8:-0.31820539 
0.001113 0 0 1:0.65507119 2:0.96220945 3:0.19925278 4:0.552091 5:0.18397794 6:0.56005974 7:-0.75120687 8:-0.3046449 
0.001113 0 0 1:0.68141885 2:1.0962959 3:0.47348005 4:0.59274762 5:0.21710313 6:0.7297672 7:-0.23977042 8:-0.19643072 
0.001113 0.001113 0 1:-0.09583715 2:-0.056847531 3:0.54840554 4:0.6508286 5:-0.76008973 6:-0.72971697 7:-0.10003369 8:-0.041838775 
0.001113 0.001113 0 1:-0.056315659 2:-0.15070804 3:0.43002327 4:0.64434519 5:-0.71040195 6:-0.84851219 7:-0.32081773 8:-0.059095417 
0.001113 0.001113 0 1:-0.14853247 2:0.14428214 3:0.31913356 4:0.63679877 5:-0.82634009 6:-0.47515578 7:-0.52762809 8:-0.079181461 
0.001113 0 0 1:0.1412918 2:0.61358469 3:0.29815442 4:0.63309811 5:-0.46196309 6:0.11882034 7:-0.56675438 8:-0.089031348 
0.001113 0.001113 0.001113 1:0.60237587 2:-2.2960912 3:0.32512759 4:0.63529928 5:0.11772758 6:-3.5638316 7:-0.51644915 8:-0.083172584 
0.001113 0.001113 0.001113 1:-0.64913803 2:-1.0356786 3:-0.086962567 4:0.58856766 5:-1.4557185 6:-1.9685814 7:-1.2850012 8:-0.20755637 
0.001113 0.001113 0 1:2.1041925 2:-1.3440774 3:-0.25030012 4:0.57111677 5:2.0058629 6:-2.3589086 7:-1.5896273 8:-0.25400474 
0.001113 0.001113 0.001113 1:2.7497102 2:1.1231132 3:-0.25479565 4:0.55768876 5:2.8174299 6:0.76370869 7:-1.5980115 8:-0.28974558 
0 0.001113 0 1:1.1029814 2:-1.1429477 3:-0.11243723 4:0.56620896 5:0.74710603 6:-2.1043474 7:-1.3325117 8:-0.26706766 
0.001113 0.001113 0 1:1.9461066 2:-1.1965823 3:-0.10344617 4:0.5669736 5:1.8071118 6:-2.1722304 7:-1.3157433 8:-0.26503246 
0.001113 0.001113 0 1:2.5125813 2:-1.1965823 3:0.33112163 4:0.55315101 5:2.5193032 6:-2.1722304 7:-0.50527022 8:-0.30182352 
0.001113 0.001113 0 1:2.5257551 2:-1.1161304 3:0.39855457 4:0.55988302 5:2.5358658 6:-2.0704059 7:-0.37950716 8:-0.28390518 
0.001113 0.001113 0 1:2.4335383 2:0.73426249 3:0.39256053 4:0.54735367 5:2.4199277 6:0.27155706 7:-0.39068609 8:-0.3172541 
0 0.001113 0.001113 1:0.72094034 2:-1.3038515 3:0.34910375 4:0.55114817 5:0.2667909 6:-2.3079964 7:-0.4717334 8:-0.30715441 
0.001113 0.001113 0 1:2.8287532 2:-1.2636255 3:0.41054265 4:0.54167517 5:2.9168054 6:-2.2570841 7:-0.35714928 8:-0.33236833 
0.001113 0.001113 0 1:2.6443196 2:0.47949825 3:0.43152178 4:0.53156772 5:2.6849291 6:-0.050887121 7:-0.31802299 8:-0.35927096 
0.001113 0.001113 0.001113 1:0.47063756 2:-1.2636255 3:0.19775427 4:0.53276251 5:-0.047898326 6:-2.2570841 7:-0.7540016 8:-0.35609082 
0.001113 0.001113 0 1:2.4467121 2:0.55995011 3:0.17827365 4:0.52017214 5:2.4364903 6:0.050937356 7:-0.79033315 8:-0.38960214 
0 0.001113 0.001113 1:0.54968055 2:-1.1831737 3:0.15879302 4:0.52218738 5:0.051477218 6:-2.1552596 7:-0.8266647 8:-0.38423826 
0.001113 0.001113 0 1:2.1964094 2:-1.4647552 3:0.10035114 4:0.50918071 5:2.1218011 6:-2.5116453 7:-0.93565936 8:-0.41885762 
0.001113 0.001113 0 1:2.1041925 2:-1.2233996 3:0.46748601 4:0.50912983 5:2.0058629 6:-2.2061719 7:-0.25094936 8:-0.41899304 
0.001113 0.001113 0 1:2.6443196 2:-1.2368082 3:0.2636887 4:0.50061288 5:2.6849291 6:-2.2231426 7:-0.63103328 8:-0.44166228 
0.001113 0.001113 0 1:2.2491047 2:-1.3306688 3:0.26518721 4:0.50403612 5:2.1880514 6:-2.3419379 7:-0.62823854 8:-0.43255076 
0.001113 0.001113 0 1:1.9461066 2:-1.2233996 3:0.40754563 4:0.50382077 5:1.8071118 6:-2.2061719 7:-0.36273875 8:-0.43312396 
0.001113 0.001113 0 1:2.7365364 2:-1.2368082 3:0.49895472 4:0.49684681 5:2.8008673 6:-2.2231426 7:-0.19225993 8:-0.45168628 
0.001113 0.001113 0 1:2.1700617 2:-1.2904428 3:0.50494876 4:0.49947663 5:2.0886759 6:-2.2910256 7:-0.18108099 8:-0.4446866 
0.001113 0.001113 0 1:2.3940168 2:-1.2904428 3:0.45699645 4:0.48809981 5:2.3702399 6:-2.2910256 7:-0.2705125 8:-0.47496783 
0.001113 0.001113 0 1:2.3544953 2:-1.1161304 3:0.47348005 4:0.49186434 5:2.3205521 6:-2.0704059 7:-0.23977042 8:-0.46494792 
0.001113 0.001113 0 1:2.2359309 2:-1.3440774 3:0.51693683 4:0.48217793 5:2.1714888 6:-2.3589086 7:-0.15872312 8:-0.49072987 
0.001113 0.001113 0 1:2.2095832 2:-1.2636255 3:0.029921188 4:0.46975245 5:2.1383636 6:-2.2570841 7:-1.0670119 8:-0.5238023 
0.001113 0.001113 0 1:2.459886 2:-1.1965823 3:0.06588542 4:0.46217309 5:2.4530529 6:-2.1722304 7:-0.99993825 8:-0.54397602 
0.001113 0.001113 0 1:1.6562823 2:-1.2770342 3:-0.0030460254 4:0.46123773 5:1.4427348 6:-2.2740549 7:-1.128496 8:-0.54646561 
0.001113 0.001113 0 1:2.143714 2:-1.1831737 3:-0.042007277 4:0.45006055 5:2.0555507 6:-2.1552596 7:-1.2011592 8:-0.57621551 
0.001113 0.001113 0 1:2.2886262 2:-1.1831737 3:0.40454861 4:0.45421777 5:2.2377392 6:-2.1552596 7:-0.36832822 8:-0.56515039 
0.001113 0.001113 0 1:2.2886262 2:-1.3708947 3:0.41204116 4:0.44594621 5:2.2377392 6:-2.3928501 7:-0.35435454 8:-0.58716649 
0 0.001113 0.001113 1:0.25985627 2:-1.0356786 3:0.38057245 4:0.4478443 5:-0.31289978 6:-1.9685814 7:-0.41304397 8:-0.58211442 
0.001113 0.001113 0 1:2.459886 2:-1.397712 3:0.45250092 4:0.44284361 5:2.4530529 6:-2.4267916 7:-0.27889671 8:-0.59542455 
0.001113 0.001113 0 1:2.9077962 2:-1.1831737 3:0.49895472 4:0.43809693 5:3.016181 6:-2.1552596 7:-0.19225993 8:-0.60805862 
0.001113 0.001113 0.001113 1:2.6838411 2:-1.9876923 3:0.56488914 4:0.44482763 5:2.7346169 6:-3.1735044 7:-0.069291606 8:-0.59014376 
0.001113 0.001113 0 1:-1.0970483 2:0.224734 3:-0.065983432 4:0.4196351 5:-2.0188466 6:-0.3733313 7:-1.2458749 8:-0.65719777 
0.001113 0.001113 0 1:0.22033478 2:0.77448842 3:-0.070478961 4:0.41930832 5:-0.36258755 6:0.32246929 7:-1.2542591 8:-0.65806753 
0 0.001113 0.001113 1:0.57602821 2:-1.1563564 3:0.3416112 4:0.4247968 5:0.0846024 6:-2.1213182 7:-0.48570707 8:-0.64345905 
0.001113 0.001113 0 1:2.5916243 2:-1.169765 3:0.4030501 4:0.4211875 5:2.6186788 6:-2.1382889 7:-0.37112295 8:-0.65306579 
0.001113 0.001113 0 1:2.3940168 2:-1.3306688 3:0.34610673 4:0.42590383 5:2.3702399 6:-2.3419379 7:-0.47732287 8:-0.64051253 
0.001113 0.001113 0.001113 1:-1.2551342 2:-2.3497257 3:-0.12892084 4:0.39050401 5:-2.2175977 6:-3.6317146 7:-1.3632538 8:-0.73473489 
0.001113 0.001113 0.001113 1:2.6706673 2:-0.96863535 3:-0.39865258 4:0.37175626 5:2.7180543 6:-1.8837277 7:-1.866306 8:-0.78463506 
0.001113 0.001113 0 1:2.222757 2:-1.1027218 3:-0.41513619 4:0.37691202 5:2.1549262 6:-2.0534352 7:-1.8970481 8:-0.77091216 
0.001113 0.001113 0 1:-0.57009505 2:1.243791 3:-0.67887389 4:0.35747522 5:-1.356343 6:0.91644541 7:-2.3889214 8:-0.82264635 
0.001113 0.001113 0 1:1.2215459 2:1.5119639 3:-0.36718388 4:0.36374392 5:0.89616934 6:1.2558603 7:-1.8076166 8:-0.8059612 
0.001113 0.001113 0.001113 1:-1.9138258 2:-2.3094998 3:0.077873497 4:0.35834597 5:-3.0457272 6:-3.5808023 7:-0.97758038 8:-0.82032872 
0.001113 0.001113 0.001113 1:-0.95213613 2:-1.0490872 3:-0.81673678 4:0.30425598 5:-1.8366581 6:-1.9855522 7:-2.646037 8:-0.96429801 
0.001113 0.001113 0.001113 1:3.2239681 2:1.8874059 3:-0.82422933 4:0.31506477 5:3.4136831 6:1.7310412 7:-2.6600107 8:-0.93552865 
0.001113 0.001113 0.001113 1:1.8538898 2:1.659459 3:-0.65639624 4:0.32484833 5:1.6911737 6:1.4425385 7:-2.3470004 8:-0.90948811 
0.001113 0.001113 0 1:1.6299346 2:1.4181034 3:-0.4166347 4:0.33323558 5:1.4096097 6:1.1370651 7:-1.8998428 8:-0.8871641 
0.001113 0.001113 0 1:1.3928057 2:1.659459 3:-0.040508767 4:0.34016814 5:1.111483 6:1.4425385 7:-1.1983644 8:-0.86871196 
0.001113 0.001113 0 1:1.6299346 2:1.8739973 3:0.4030501 4:0.34841523 5:1.4096097 6:1.7140705 7:-0.37112295 8:-0.84676098 
0.001113 0.001113 0 1:1.8407159 2:1.659459 3:0.89456127 4:0.35780759 5:1.6746111 6:1.4425385 7:0.54555002 8:-0.82176172 
0.001113 0.001113 0 1:1.6299346 2:1.5655984 3:1.23772 4:0.36590691 5:1.4096097 6:1.3237433 7:1.1855443 8:-0.80020404 
0.001113 0.001113 0 1:1.5377178 2:1.243791 3:1.5673921 4:0.37340858 5:1.2936715 6:0.91644541 7:1.8003859 8:-0.78023713 
0.001113 0.001113 0 1:1.2215459 2:1.7399108 3:1.6273325 4:0.3790439 5:0.89616934 6:1.544363 7:1.9121753 8:-0.76523781 
0.001113 0.001113 0.001113 1:1.7089776 2:1.6728676 3:1.9300315 4:0.3873972 5:1.5089852 6:1.4595093 7:2.4767117 8:-0.74300415 
0.001113 0.001113 0.001113 1:1.6431085 2:1.1901564 3:2.2342289 4:0.3953072 5:1.4261722 6:0.84856242 7:3.0440428 8:-0.72195041 
0.001113 0.001113 0.001113 1:1.1688506 2:-2.3497257 3:2.0004614 4:0.40048159 5:0.82991898 6:-3.6317146 7:2.6080642 8:-0.70817794 
0.001113 0.001113 0 1:-0.6359642 2:0.53313282 3:1.2691887 4:0.38122474 5:-1.4391559 6:0.016995863 7:1.2442337 8:-0.75943317 
0.001113 0.001113 0 1:0.52333288 2:0.828123 3:1.1702871 4:0.38280646 5:0.018352037 6:0.39035228 7:1.0597812 8:-0.75522315 
0.001113 0.001113 0 1:0.81315716 2:1.3912861 3:1.0773795 4:0.38597862 5:0.38272903 6:1.1031236 7:0.88650766 8:-0.74677994 
0.001113 0.001113 0 1:1.366458 2:1.7801368 3:1.0234331 4:0.3921732 5:1.0783578 6:1.5952753 7:0.78589721 8:-0.73029206 
0.001113 0.001113 0 1:1.7484991 2:1.7667281 3:1.0369197 4:0.40041297 5:1.558673 6:1.5783045 7:0.81104982 8:-0.70836057 
0 0.001113 0 1:1.7353253 2:1.3510601 3:1.0593973 4:0.40851294 5:1.5421104 6:1.0522114 7:0.85297084 8:-0.6868012 
0.001113 0.001113 0 1:1.1951982 2:1.4717379 3:1.0129435 4:0.41937341 5:0.86304416 6:1.2049481 7:0.76633406 8:-0.6578943 
0.001113 0.001113 0 1:1.445501 2:1.5387812 3:0.99046589 4:0.42573301 5:1.1777334 6:1.2898018 7:0.72441304 8:-0.64096718 
0.001113 0.001113 0 1:1.5113702 2:1.5655984 3:1.0294271 4:0.43239525 5:1.2605463 6:1.3237433 7:0.79707615 8:-0.62323455 
0 0.001113 0 1:1.5377178 2:1.0828872 3:1.466992 4:0.43914485 5:1.2936715 6:0.71279646 7:1.6131387 8:-0.60526941 
0 0.001113 0 1:1.0634599 2:0.60017605 3:1.6602997 4:0.44331097 5:0.69741826 6:0.10184959 7:1.9736594 8:-0.59418059 
0.001113 0.001113 0 1:0.58920204 2:0.78789707 3:1.6677923 4:0.44492464 5:0.10116499 6:0.33944004 7:1.9876331 8:-0.58988557 
0.001113 0.001113 0 1:0.77363566 2:1.6058244 3:1.6632967 4:0.4475012 5:0.33304126 6:1.3746556 7:1.9792489 8:-0.58302762 
0.001113 0.001113 0 1:1.5772393 2:1.3376515 3:1.6872729 4:0.45429197 5:1.3433593 6:1.0352406 7:2.0239647 8:-0.56495287 
0.001113 0.001113 0 1:1.3137627 2:1.5655984 3:1.6378221 4:0.45964614 5:1.0121075 6:1.3237433 7:1.9317384 8:-0.55070189 
0.001113 0.001113 0 1:1.5377178 2:1.3912861 3:1.6153444 4:0.46612901 5:1.2936715 6:1.1031236 7:1.8898174 8:-0.53344669 
0.001113 0.001113 0 1:1.366458 2:1.431512 3:1.61984 4:0.47166918 5:1.0783578 6:1.1540359 7:1.8982016 8:-0.51870063 
0.001113 0.001113 0 1:1.4059795 2:1.0292527 3:1.6438161 4:0.47737107 5:1.1280456 6:0.64491347 7:1.9429174 8:-0.50352411 
0.001113 0.001113 0 1:1.0107646 2:1.3510601 3:1.5943653 4:0.4809865 5:0.63116789 6:1.0522114 7:1.8506911 8:-0.49390108 
0.001113 0.001113 0 1:1.3269365 2:1.2571996 3:1.5733862 4:0.48620124 5:1.0286701 6:0.93341616 7:1.8115648 8:-0.48002119 
0.001113 0.001113 0 1:1.2347197 2:1.4717379 3:1.5389204 4:0.49090291 5:0.91273193 6:1.2049481 7:1.7472859 8:-0.46750695 
0 0.001113 0 1:1.445501 2:0.90857487 3:1.5823772 4:0.49664496 5:1.1777334 6:0.49217676 7:1.8283332 8:-0.45222354 
0.001113 0.001113 0 1:0.89220014 2:1.0694786 3:1.6168429 4:0.49952788 5:0.48210458 6:0.69582571 7:1.8926121 8:-0.44455017 
0.001113 0.001113 0 1:1.0502861 2:1.7130935 3:1.6483116 4:0.50319005 5:0.68085567 6:1.5104215 7:1.9513016 8:-0.43480271 
0.001113 0.001113 0 1:1.68263 2:1.5119639 3:1.6602997 4:0.51001719 5:1.47586 6:1.2558603 7:1.9736594 8:-0.41663117 
0.001113 0.001113 0 1:1.4850225 2:1.431512 3:1.6797803 4:0.51579864 5:1.2274212 6:1.1540359 7:2.009991 8:-0.40124292 
0 0.001113 0 1:1.4059795 2:0.86834894 3:1.6647952 4:0.52114036 5:1.1280456 6:0.44126452 7:1.9820437 8:-0.38702506 
0 0.001113 0 1:0.85267865 2:0.47949825 3:1.6063534 4:0.5236797 5:0.4324168 6:-0.050887121 7:1.873049 8:-0.38026618 
0.001113 0.001113 0 1:0.47063756 2:0.77448842 3:1.4999592 4:0.52429993 5:-0.047898326 6:0.32246929 7:1.6746228 8:-0.37861534 
0.001113 0.001113 0 1:0.76046183 2:1.2706083 3:1.4714875 4:0.52635161 5:0.31647867 6:0.9503869 7:1.6215229 8:-0.37315448 
0.001113 0.001113 0 1:1.2478936 2:1.84718 3:1.4624964 4:0.53079426 5:0.92929453 6:1.680129 7:1.6047545 8:-0.36132963 
0.001113 0.001113 0 1:1.8143683 2:1.7801368 3:1.5284309 4:0.53799009 5:1.6414859 6:1.5952753 7:1.7277228 8:-0.34217676 
0.001113 0.001113 0 1:1.7484991 2:1.2840169 3:1.5628966 4:0.54481005 5:1.558673 6:0.96735765 7:1.7920017 8:-0.32402434 
0 0.001113 0 1:1.2610674 2:1.1097045 3:1.6048549 4:0.54920016 5:0.94585712 6:0.74673795 7:1.8702543 8:-0.31233935 
0.001113 0.001113 0 1:1.0898076 2:1.1499305 3:1.6093504 4:0.55272506 5:0.73054344 6:0.79765019 7:1.8786385 8:-0.30295725 
0 0.001113 0 1:1.1293291 2:1.0828872 3:1.546413 4:0.55641578 5:0.78023121 6:0.71279646 7:1.7612596 8:-0.29313382 
0 0.001113 0 1:1.0634599 2:1.2706083 3:1.4984607 4:0.55976158 5:0.69741826 6:0.9503869 7:1.6718281 8:-0.28422843 
0.001113 0.001113 0 1:1.2478936 2:1.6728676 3:1.4804786 4:0.56397051 5:0.92929453 6:1.4595093 7:1.6382913 8:-0.27302568 
0.001113 0.001113 0 1:1.6431085 2:1.6728676 3:1.5703891 4:0.5700437 5:1.4261722 6:1.4595093 7:1.8059754 8:-0.25686088 
0.001113 0.001113 0 1:1.6431085 2:1.3376515 3:1.7037565 4:0.57607321 5:1.4261722 6:1.0352406 7:2.0547068 8:-0.24081237 
0.001113 0.001113 0 1:1.3137627 2:1.4851466 3:1.7666939 4:0.58049193 5:1.0121075 6:1.2219188 7:2.1720856 8:-0.22905123 
0.001113 0.001113 0.001113 1:1.4586749 2:1.8203627 3:1.7906701 4:0.58556635 5:1.194296 6:1.6461875 7:2.2168014 8:-0.21554483 
0.001113 0.001113 0 1:1.7880206 2:1.243791 3:1.787673 4:0.59216106 5:1.6083607 6:0.91644541 7:2.2112119 8:-0.19799194 
0.001113 0.001113 0 1:1.2215459 2:1.3242428 3:1.7277327 4:0.59604148 5:0.89616934 6:1.0182699 7:2.0994225 8:-0.18766358 
0.001113 0.001113 0 1:1.3005889 2:1.3510601 3:1.7322282 4:0.60026537 5:0.99554489 6:1.0522114 7:2.1078067 8:-0.17642101 
0.001113 0.001113 0 1:1.3269365 2:1.3108342 3:1.7592014 4:0.60458271 5:1.0286701 6:1.0012991 7:2.1581119 8:-0.16492971 
0.001113 0.001113 0 1:1.2874151 2:1.4181034 3:1.7771835 4:0.60868561 5:0.9789823 6:1.1370651 7:2.1916488 8:-0.15400918 
0.001113 0.001113 0.001113 1:1.3928057 2:1.7935454 3:1.8146462 4:0.61324916 5:1.111483 6:1.612246 7:2.2615171 8:-0.14186256 
0.001113 0.001113 0.001113 1:1.761673 2:1.8203627 3:1.8730881 4:0.61948764 5:1.5752356 6:1.6461875 7:2.3705118 8:-0.12525784 
0.001113 0.001113 0 1:1.7880206 2:1.4717379 3:1.8895717 4:0.62580428 5:1.6083607 6:1.2049481 7:2.4012539 8:-0.10844508 
0.001113 0.001113 0 1:1.445501 2:0.77448842 3:1.8670941 4:0.63050335 5:1.1777334 6:0.32246929 7:2.3593328 8:-0.095937733 
0.001113 0.001113 0 1:0.76046183 2:0.4660896 3:1.8041566 4:0.63203316 5:0.31647867 6:-0.067857868 7:2.241954 8:-0.091865892 
0.001113 0.001113 0 1:0.45746373 2:0.51972418 3:1.6902699 4:0.63216977 5:-0.064460917 6:2.5117039e-05 7:2.0295541 8:-0.091502282 
0.001113 0.001113 0 1:0.51015905 2:0.86834894 3:1.5449145 4:0.63254509 5:0.0017894462 6:0.44126452 7:1.7584649 8:-0.090503311 
0.001113 0.001113 0 1:0.85267865 2:1.3778774 3:1.5029562 4:0.63447021 5:0.4324168 6:1.0861529 7:1.6802123 8:-0.08537928 
0.001113 0.001113 0 1:0.29937777 2:0.21132536 3:1.2751827 4:0.64156986 5:-0.26321201 6:-0.39030204 7:1.2554126 8:-0.066482433 
0.001113 0.001113 0 1:0.20716095 2:0.30518587 3:1.0983586 4:0.64055587 5:-0.37915014 6:-0.27150682 7:0.92563394 8:-0.069181331 
0.001113 0 0 1:0.49698522 2:1.0694786 3:0.8211343 4:0.64023925 5:-0.014773145 6:0.69582571 7:0.40860802 8:-0.070024051 
0.001113 0.001113 0.001113 1:0.7868095 2:-1.1831737 3:0.98447185 4:0.65582136 5:0.34960385 6:-2.1552596 7:0.71323411 8:-0.028549738 
0.001113 0 0 1:0.15446563 2:0.18450807 3:0.85560002 4:0.65812478 5:-0.4454005 6:-0.42424354 7:0.47288692 8:-0.022418822 
0.001113 0 0 1:0.18081329 2:0.42586367 3:0.77767752 4:0.65700544 5:-0.41227532 6:-0.11877011 7:0.32756072 8:-0.025398131 
0.001113 0.001113 0 1:0.98441695 2:1.5387812 3:1.1403169 4:0.67538069 5:0.59804271 6:1.2898018 7:1.0038865 8:0.023510577 
0.001113 0.001113 0 1:0.9185478 2:1.3778774 3:1.4385203 4:0.69338172 5:0.51522976 6:1.0861529 7:1.5600387 8:0.071423232 
0.001113 0.001113 0 1:1.3532842 2:1.6058244 3:1.4535054 4:0.69683733 5:1.0617953 6:1.3746556 7:1.5879861 8:0.080620902 
0 0.001113 0 1:1.5772393 2:1.5119639 3:1.4999592 4:0.70114983 5:1.3433593 6:1.2558603 7:1.6746228 8:0.092099331 
0 0.001113 0 1:0.87902631 2:0.9488008 3:1.5853742 4:0.70662084 5:0.46554199 6:0.54308899 7:1.8339227 8:0.1066613 
0.001113 0.001113 0 1:0.93172163 2:1.5119639 3:1.5793802 4:0.70836046 5:0.53179235 6:1.2558603 7:1.8227438 8:0.11129158 
0.001113 0.001113 0 1:1.4850225 2:1.7935454 3:1.5763832 4:0.71223205 5:1.2274212 6:1.612246 7:1.8171543 8:0.12159646 
0.001113 0.001113 0 1:1.761673 2:1.3644688 3:1.6408191 4:0.71714909 5:1.5752356 6:1.0691821 7:1.9373279 8:0.13468395 
0.001113 0.001113 0 1:1.3401104 2:1.431512 3:1.6453146 4:0.72041499 5:1.0452327 6:1.1540359 7:1.9457121 8:0.14337667 
0.001113 0.001113 0 1:1.4059795 2:1.4449206 3:1.6692908 4:0.73162129 5:1.1280456 6:1.1710066 7:1.9904279 8:0.17320405 
0 0.001113 0 1:1.4191534 2:1.2303823 3:1.6932669 4:0.74287829 5:1.1446082 6:0.89947466 7:2.0351436 8:0.20316639 
0.001113 0.001113 0 1:1.2083721 2:1.3778774 3:1.7262341 4:0.75509873 5:0.87960675 6:1.0861529 7:2.0966278 8:0.23569308 
0.001113 0.001113 0 1:1.3532842 2:1.5924157 3:1.7262341 4:0.75535227 5:1.0617953 6:1.3576848 7:2.0966278 8:0.23636791 
0 0.001113 0 1:1.5640655 2:1.243791 3:1.7247356 4:0.75707632 5:1.3267967 6:0.91644541 7:2.093833 8:0.24095674 
0 0.001113 0 1:1.2215459 2:1.0694786 3:1.6947654 4:0.75743127 5:0.89616934 6:0.69582571 7:2.0379383 8:0.2419015 
0 0.001113 0 1:1.0502861 2:0.96220945 3:1.7142461 4:0.75611288 5:0.68085567 6:0.56005974 7:2.0742699 8:0.23839239 
0 0.001113 0 1:0.94489546 2:0.77448842 3:1.7157446 4:0.75509873 5:0.54835494 6:0.32246929 7:2.0770646 8:0.23569308 
0.001113 0.001113 0 1:0.76046183 2:1.1633391 3:1.6333265 4:0.75312115 5:0.31647867 6:0.81462093 7:1.9233542 8:0.23042943 
0.001113 0.001113 0 1:1.1425029 2:1.5790071 3:1.5628966 4:0.75388176 5:0.7967938 6:1.3407141 7:1.7920017 8:0.23245391 
0 0.001113 0 1:1.5508917 2:1.4985552 3:1.5868727 4:0.75788763 5:1.3102341 6:1.2388896 7:1.8367174 8:0.24311619 
0 0.001113 0 1:0.83950482 2:0.97561809 3:1.5284309 4:0.75768023 5:0.41585421 6:0.57703049 7:1.7277228 8:0.24256416 
0 0.001113 0 1:0.95806929 2:1.2303823 3:1.4999592 4:0.75859562 5:0.56491753 6:0.89947466 7:1.6746228 8:0.2450006 
0 0.001113 0 1:1.2083721 2:1.4851466 3:1.4834756 4:0.76032467 5:0.87960675 6:1.2219188 7:1.6438808 8:0.24960277 
0.001113 0.001113 0 1:1.0634599 2:1.7935454 3:1.3186395 4:0.77950488 5:0.69741826 6:1.612246 7:1.3364599 8:0.30065399 
0 0.001113 0 1:0.81315716 2:1.2974256 3:1.3740844 4:0.80860929 5:0.38272903 6:0.98432839 7:1.4398651 8:0.37812009 
0 0.001113 0 1:1.2742412 2:1.5924157 3:1.4175411 4:0.8186334 5:0.96241971 6:1.3576848 7:1.5209124 8:0.4048009 
0 0.001113 0 1:1.5640655 2:1.4181034 3:1.5074517 4:0.82506502 5:1.3267967 6:1.1370651 7:1.6885965 8:0.42191969 
0 0.001113 0 1:0.90537397 2:1.1901564 3:1.5628966 4:0.8344809 5:0.49866717 6:0.84856242 7:1.7920017 8:0.44698159 
0 0.001113 0 1:1.1688506 2:1.2974256 3:1.6063534 4:0.83772244 5:0.82991898 6:0.98432839 7:1.873049 8:0.45560946 
0 0.001113 0 1:1.2742412 2:1.3912861 3:1.6303295 4:0.83839133 5:0.96241971 6:1.1031236 7:1.9177648 8:0.45738982 
0.001113 0.001113 0 1:1.366458 2:1.6862762 3:1.5853742 4:0.84024363 5:1.0783578 6:1.47648 7:1.8339227 8:0.46232003 
0.001113 0.001113 0 1:1.6562823 2:1.619233 3:1.6213385 4:0.84151462 5:1.4427348 6:1.3916263 7:1.9009963 8:0.46570298 
0 0.001113 0 1:1.5904132 2:1.2169737 3:1.6617982 4:0.84326918 5:1.3599219 6:0.88250392 7:1.9764542 8:0.47037303 
0 0.001113 0 1:0.95806929 2:1.0292527 3:1.6692908 4:0.84688197 5:0.56491753 6:0.64491347 7:1.9904279 8:0.47998905 
0 0.001113 0 1:0.68141885 2:0.93539216 3:1.4744845 4:0.86805074 5:0.21710313 6:0.52611825 7:1.6271123 8:0.53633316 
0.001113 0.001113 0 1:0.9185478 2:1.6460503 3:1.475983 4:0.86851656 5:0.51522976 6:1.4255678 7:1.6299071 8:0.537573 
0.001113 0.001113 0 1:1.1688506 2:1.619233 3:1.5149443 4:0.87320129 5:0.82991898 6:1.3916263 7:1.7025702 8:0.55004218 
0 0.001113 0 1:1.5904132 2:1.4851466 3:1.5404189 4:0.87621213 5:1.3599219 6:1.2219188 7:1.7500807 8:0.55805601 
0 0.001113 0 1:1.4586749 2:1.4449206 3:1.5179413 4:0.87839239 5:1.194296 6:1.1710066 7:1.7081597 8:0.56385913 
0 0.001113 0 1:0.7868095 2:1.1365218 3:1.4475113 4:0.87647168 5:0.34960385 6:0.78067944 7:1.5768071 8:0.55874686 
0.001113 0.001113 0 1:1.0502861 2:1.6058244 3:1.5224368 4:0.88088411 5:0.68085567 6:1.3746556 7:1.7165439 8:0.57049126 
0 0.001113 0 1:1.5772393 2:1.5387812 3:1.5973623 4:0.88529654 5:1.3433593 6:1.2898018 7:1.8562806 8:0.58223566 
0 0.001113 0 1:1.0371123 2:1.2169737 3:1.5703891 4:0.89228398 5:0.66429307 6:0.88250392 7:1.8059754 8:0.60083384 
0.001113 0.001113 0 1:1.2610674 2:1.6326417 3:1.5029562 4:0.90458743 5:0.94585712 6:1.408597 7:1.6802123 8:0.63358149 
0.001113 0.001113 0 1:0.747288 2:1.1365218 3:1.5673921 4:0.91450283 5:0.29991608 6:0.78067944 7:1.8003859 8:0.65997293 
0.001113 0.001113 0 1:1.1161553 2:1.6460503 3:1.5748847 4:0.92770189 5:0.76366862 6:1.4255678 7:1.8143596 8:0.69510438 
0 0.001113 0 1:1.6167608 2:1.3912861 3:1.5793802 4:0.93723455 5:1.3930471 6:1.1031236 7:1.8227438 8:0.72047708 
0 0.001113 0 1:0.83950482 2:1.0694786 3:1.5449145 4:0.94029068 5:0.41585421 6:0.69582571 7:1.7584649 8:0.72861146 
0 0.001113 0 1:1.0502861 2:1.4985552 3:1.5209383 4:0.94249712 5:0.68085567 6:1.2388896 7:1.7137491 8:0.73448428 
0 0.001113 0 1:0.77363566 2:0.9488008 3:1.5254338 4:0.94880127 5:0.33304126 6:0.54308899 7:1.7221333 8:0.75126378 
0 0.001113 0 1:0.93172163 2:1.1901564 3:1.5044547 4:0.94780311 5:0.53179235 6:0.84856242 7:1.683007 8:0.74860702 
0 0.001113 0 1:1.1161553 2:1.3510601 3:1.4250337 4:0.94895887 5:0.76366862 6:1.0522114 7:1.5348861 8:0.75168326 
0.001113 0 0 1:0.45746373 2:0.68062791 3:1.2272304 4:1.0318313 5:-0.064460917 6:0.20367407 7:1.1659811 8:0.9722618 
0.001113 0 0 1:0.43111607 2:0.68062791 3:1.0444122 4:1.0464364 5:-0.097586098 6:0.20367407 7:0.82502349 8:1.0111356 
0.001113 0.001113 0 1:0.66824502 2:1.2706083 3:0.99346291 4:1.0388931 5:0.20054053 6:0.9503869 7:0.73000251 8:0.99105792 
0.001113 0.001113 0 1:0.69459268 2:1.2169737 3:1.2392185 4:1.0778089 5:0.23366572 6:0.88250392 7:1.188339 8:1.0946385 
0.001113 0.001113 0 1:1.1951982 2:1.84718 3:1.3261321 4:1.087767 5:0.86304416 6:1.680129 7:1.3504336 8:1.1211437 
0 0.001113 0 1:1.8143683 2:1.4583293 3:1.4565024 4:1.0941803 5:1.6414859 6:1.1879773 7:1.5935755 8:1.1382137 
0.001113 0.001113 0 1:1.0107646 2:1.5790071 3:1.3770814 4:1.1160478 5:0.63116789 6:1.3407141 7:1.4454546 8:1.1964176 
0 0.001113 0 1:1.5508917 2:1.6460503 3:1.4115471 4:1.1225685 5:1.3102341 6:1.4255678 7:1.5097335 8:1.2137735 
0 0.001113 0 1:1.6167608 2:1.5924157 3:1.4565024 4:1.1205646 5:1.3930471 6:1.3576848 7:1.5935755 8:1.2084397 
0 0.001113 0 1:1.0634599 2:1.3510601 3:1.6213385 4:1.1437443 5:0.69741826 6:1.0522114 7:1.9009963 8:1.2701363 
0 0.001113 0 1:1.3269365 2:1.4985552 3:1.6932669 4:1.1399413 5:1.0286701 6:1.2388896 7:2.0351436 8:1.2600138 
0 0.001113 0 1:1.4718487 2:1.3644688 3:1.7247356 4:1.1467405 5:1.2108586 6:1.0691821 7:2.093833 8:1.2781112 
0.001113 0.001113 0.001113 1:1.3401104 2:-2.1754134 3:1.6707893 4:1.1572587 5:1.0452327 6:-3.4110949 7:1.9932226 8:1.3061071 
0.001113 0.001113 0 1:-0.46470441 2:0.35882045 3:1.1073496 4:1.1486339 5:-1.2238423 6:-0.20362384 7:0.94240235 8:1.2831508 
0.001113 0 0 1:0.35207309 2:0.21132536 3:1.0324242 4:1.1388003 5:-0.19696164 6:-0.39030204 7:0.80266561 8:1.2569771 
0.001113 0.001113 0.001113 1:0.20716095 2:-1.8938318 3:0.87957617 4:1.1390563 5:-0.37915014 6:-3.0547092 7:0.51760268 8:1.2576583 
0.001113 0.001113 0.001113 1:-1.426394 2:0.61358469 3:0.14380792 4:1.1188856 5:-2.4329114 6:0.11882034 7:-0.85461205 8:1.2039708 
0.001113 0 0 1:0.60237587 2:0.50631554 3:0.091360084 4:1.1359752 5:0.11772758 6:-0.016945629 7:-0.95242776 8:1.2494576 
0.001113 0.001113 0 1:0.49698522 2:0.50631554 3:0.026924168 4:1.1347006 5:-0.014773145 6:-0.016945629 7:-1.0726014 8:1.246065 
0.001113 0.001113 0 1:0.49698522 2:0.41245502 3:-0.067481942 4:1.1354319 5:-0.014773145 6:-0.13574085 7:-1.2486696 8:1.2480116 
0.001113 0.001113 0 1:0.40476841 2:0.14428214 3:-0.18886123 4:1.1273912 5:-0.13071128 6:-0.47515578 7:-1.4750432 8:1.2266099 
0.001113 0.001113 0 1:0.1412918 2:-0.070256175 3:-0.32522561 4:1.1324982 5:-0.46196309 6:-0.74668771 7:-1.729364 8:1.2402028 
0.001113 0.001113 0 1:-0.069489489 2:-0.030030242 3:-0.089959587 4:1.1377681 5:-0.72696454 6:-0.69577548 7:-1.2905907 8:1.2542296 
0.001113 0.001113 0 1:-0.029967998 2:0.050421624 3:-0.040508767 4:1.1284235 5:-0.67727677 6:-0.593951 7:-1.1983644 8:1.2293574 
0.001113 0.001113 0 1:0.049074985 2:0.14428214 3:-0.07497449 4:1.1340737 5:-0.57790123 6:-0.47515578 7:-1.2626433 8:1.2443964 
0.001113 0.001113 0 1:0.1412918 2:0.010195691 3:-0.082467038 4:1.1407562 5:-0.46196309 6:-0.64486324 7:-1.276617 8:1.2621829 
0.001113 0.001113 0 1:0.0095534939 2:0.03701298 3:0.13032134 4:1.1316832 5:-0.627589 6:-0.61092174 7:-0.87976466 8:1.2380338 
0.001113 0.001113 0 1:0.035901155 2:-0.016621598 3:0.29665591 4:1.1369532 5:-0.59446382 6:-0.67880473 7:-0.56954911 8:1.2520605 
0.001113 0.001113 0 1:-0.016794167 2:-0.17752533 3:0.22622596 4:1.1420601 5:-0.66071418 6:-0.88245368 7:-0.70090164 8:1.2656535 
0.001113 0.001113 0 1:-0.17488013 2:-0.2579772 3:0.14980196 4:1.1311943 5:-0.85946527 6:-0.98427816 7:-0.84343311 8:1.2367323 
0.001113 0.001113 0 1:-0.25392312 2:-0.39206364 3:0.06438691 4:1.1349973 5:-0.95884081 6:-1.1539856 7:-1.002733 8:1.2468547 
0.001113 0.001113 0 1:-0.38566142 2:-0.16411669 3:-0.025523671 4:1.1265763 5:-1.1244667 6:-0.86548294 7:-1.1704171 8:1.2244408 
0.001113 0.001113 0 1:-0.1617063 2:0.077238913 3:-0.059989393 4:1.1226227 5:-0.84290268 6:-0.56000951 7:-1.234696 8:1.2139177 
0.001113 0.001113 0 1:0.075422647 2:0.33200316 3:-0.043505787 4:1.1373335 5:-0.54477605 6:-0.23756533 7:-1.2039539 8:1.2530728 
0.001113 0.001113 0 1:0.32572543 2:0.81471436 3:-0.0030460254 4:1.1353505 5:-0.23008682 6:0.37338153 7:-1.128496 8:1.2477949 
0.001113 0.001113 0 1:0.79998333 2:1.1231132 3:0.082369026 4:1.1379311 5:0.36616644 6:0.76370869 7:-0.96919617 8:1.2546634 
0.001113 0.001113 0.001113 1:1.1029814 2:-1.3843033 3:0.19176023 4:1.1330415 5:0.74710603 6:-2.4098208 7:-0.76518054 8:1.2416489 
0.001113 0.001113 0 1:1.8934113 2:0.86834894 3:0.24720509 4:1.1455915 5:1.7408615 6:0.44126452 7:-0.66177536 8:1.2750529 
0.001113 0 0 1:0.85267865 2:0.77448842 3:0.34610673 4:1.1396696 5:0.4324168 6:0.32246929 7:-0.47732287 8:1.2592908 
0.001113 0 0 1:0.65507119 2:0.97561809 3:0.55589808 4:1.1441246 5:0.18397794 6:0.57703049 7:-0.086060014 8:1.2711485 
0.001113 0.001113 0.001113 1:1.0239384 2:-1.3306688 3:0.84361194 4:1.1554603 5:0.64773048 6:-2.3419379 7:0.45052904 8:1.3013202 
0.001113 0.001113 0.001113 1:-2.5725173 2:0.84153165 3:0.34910375 4:1.1341824 5:-3.8738568 6:0.40732302 7:-0.4717334 8:1.2446856 
0.001113 0.001113 0 1:0.82633099 2:1.1365218 3:0.31763505 4:1.1432553 5:0.39929162 6:0.78067944 7:-0.53042283 8:1.2688348 
0.001113 0.001113 0.001113 1:0.9185478 2:-1.169765 3:0.48846515 4:1.1533893 5:0.51522976 6:-2.1382889 7:-0.21182307 8:1.2958081 
0.001113 0.001113 0.001113 1:-1.9006519 2:0.66721927 3:-0.042007277 4:1.126359 5:-3.0291647 6:0.18670332 7:-1.2011592 8:1.2238624 
0.001113 0.001113 0 1:0.65507119 2:0.86834894 3:-0.042007277 4:1.1371161 5:0.18397794 6:0.44126452 7:-1.2011592 8:1.2524943 
0.001113 0.001113 0 1:0.85267865 2:1.0024354 3:-0.053995354 4:1.1451569 5:0.4324168 6:0.61097198 7:-1.223517 8:1.273896 
0.001113 0.001113 0 1:0.98441695 2:0.93539216 3:-0.058490883 4:1.148539 5:0.59804271 6:0.52611825 7:-1.2319012 8:1.2828981 
0.001113 0 0 1:0.9185478 2:0.5867674 3:0.19475725 4:1.1499559 5:0.51522976 6:0.084878848 7:-0.75959107 8:1.2866695 
0.001113 0 0 1:0.57602821 2:0.38563774 3:0.17677514 4:1.1570407 5:0.0846024 6:-0.16968234 7:-0.79312789 8:1.3055269 
0.001113 0 0 1:0.37842075 2:0.37222909 3:0.5124413 4:1.1634715 5:-0.16383646 6:-0.18665309 7:-0.16710732 8:1.3226435 
0.001113 0.001113 0 1:0.36524692 2:0.74767114 3:0.45999346 4:1.1542613 5:-0.18039905 6:0.2885278 7:-0.26492303 8:1.298129 
0.001113 0 0 1:0.73411417 2:0.78789707 3:0.41653668 4:1.1555504 5:0.28335349 6:0.33944004 7:-0.34597034 8:1.30156 
0.001113 0 0 1:0.77363566 2:0.90857487 3:0.40005308 4:1.164188 5:0.33304126 6:0.49217676 7:-0.37671242 8:1.3245506 
0.001113 0 0 1:0.89220014 2:1.1365218 3:0.63232208 4:1.1874195 5:0.48210458 6:0.78067944 7:0.056471455 8:1.3863849 
0.001113 0 0 1:0.57602821 2:0.77448842 3:0.96349272 4:1.2177981 5:0.0846024 6:0.32246929 7:0.67410782 8:1.4672423 
0.001113 0.001113 0 1:0.76046183 2:1.3242428 3:0.98447185 4:1.2173463 5:0.31647867 6:1.0182699 7:0.71323411 8:1.46604 
0 0.001113 0 1:0.9185478 2:1.2571996 3:1.1627945 4:1.247478 5:0.51522976 6:0.93341616 7:1.0458075 8:1.5462404 
0.001113 0.001113 0.001113 1:0.9185478 2:-1.1563564 3:1.1747826 4:1.2978817 5:0.51522976 6:-2.1213182 7:1.0681654 8:1.680398 
0.001113 0.001113 0.001113 1:-1.5449585 2:0.86834894 3:0.72972521 4:1.2787451 5:-2.5819747 6:0.44126452 7:0.23812921 8:1.6294627 
0.001113 0 0 1:0.57602821 2:0.51972418 3:0.65779674 4:1.293129 5:0.0846024 6:2.5117039e-05 7:0.10398194 8:1.6677479 
0.001113 0 0 1:0.51015905 2:0.64040198 3:0.59186232 4:1.2816885 5:0.0017894462 6:0.15276183 7:-0.018986381 8:1.6372971 
0.001113 0 0 1:0.62872353 2:0.72085385 3:0.57987424 4:1.2765236 5:0.15085276 6:0.25458631 7:-0.041344259 8:1.6235499 
0.001113 0 0 1:0.70776651 2:0.30518587 3:0.58436977 4:1.272636 5:0.25022831 6:-0.27150682 7:-0.032960055 8:1.6132025 
0.001113 0.001113 0 1:0.29937777 2:0.35882045 3:0.51393981 4:1.2700703 5:-0.26321201 6:-0.20362384 7:-0.16431258 8:1.6063734 
0.001113 0.001113 0 1:0.35207309 2:0.21132536 3:0.41353966 4:1.2656968 5:-0.19696164 6:-0.39030204 7:-0.35155981 8:1.5947326 
0.001113 0.001113 0 1:0.20716095 2:0.15769078 3:0.30714548 4:1.2597178 5:-0.37915014 6:-0.45818503 7:-0.54998597 8:1.5788186 
0.001113 0.001113 0 1:0.15446563 2:0.49290689 3:0.22023192 4:1.2565939 5:-0.4454005 6:-0.033916375 7:-0.71208058 8:1.5705037 
0.001113 0 0 1:0.48381139 2:0.54654147 3:0.40454861 4:1.2509097 5:-0.031335735 6:0.033966609 7:-0.36832822 8:1.5553744 
0.001113 0 0 1:0.53650672 2:0.53313282 3:0.64131314 4:1.2463293 5:0.034914628 6:0.016995863 7:0.073239863 8:1.5431828 
0.001113 0 0 1:0.52333288 2:0.50631554 3:0.60385039 4:1.2420799 5:0.018352037 6:-0.016945629 7:0.003371496 8:1.5318725 
0.001113 0 0 1:0.49698522 2:0.14428214 3:0.59485934 4:1.2390447 5:-0.014773145 6:-0.47515578 7:-0.013396912 8:1.5237937 
0.001113 0.001113 0 1:0.1412918 2:-0.070256175 3:0.55290106 4:1.2359406 5:-0.46196309 6:-0.74668771 7:-0.091649483 8:1.5155316 
0.001113 0.001113 0 1:-0.069489489 2:0.29177722 3:0.47348005 4:1.2253034 5:-0.72696454 6:-0.28847757 7:-0.23977042 8:1.4872189 
0.001113 0.001113 0 1:0.28620394 2:0.43927231 3:0.42552774 4:1.2216059 5:-0.2797746 6:-0.10179936 7:-0.32920193 8:1.4773775 
0.001113 0.001113 0 1:0.43111607 2:0.828123 3:0.44051284 4:1.2330846 5:-0.097586098 6:0.39035228 7:-0.30125458 8:1.50793 
0.001113 0 0 1:0.81315716 2:0.92198351 3:0.49296068 4:1.2391551 5:0.38272903 6:0.5091475 7:-0.20343887 8:1.5240875 
0.001113 0 0 1:0.62872353 2:0.42586367 3:0.62632804 4:1.2399829 5:0.15085276 6:-0.11877011 7:0.045292516 8:1.5262908 
0.001113 0 0 1:0.41794224 2:0.47949825 3:0.61883549 4:1.238031 5:-0.11414869 6:-0.050887121 7:0.031318843 8:1.5210957 
0.001113 0 0 1:0.47063756 2:0.5867674 3:0.61134294 4:1.2342902 5:-0.047898326 6:0.084878848 7:0.017345169 8:1.5111388 
0.001113 0 0 1:0.57602821 2:0.84153165 3:0.61733698 4:1.2293941 5:0.0846024 6:0.40732302 7:0.028524108 8:1.498107 
0.001113 0 0 1:0.82633099 2:1.1365218 3:0.65479972 4:1.2255982 5:0.39929162 6:0.78067944 7:0.098392475 8:1.4880037 
0.001113 0 0 1:0.51015905 2:0.57335876 3:0.95450166 4:1.2170162 5:0.0017894462 6:0.067908102 7:0.65733941 8:1.4651614 
0.001113 0 0 1:0.56285438 2:0.5867674 3:0.88706872 4:1.2108548 5:0.068039809 6:0.084878848 7:0.53157635 8:1.4487618 
0.001113 0.001113 0.001113 1:0.57602821 2:-1.3843033 3:0.88107468 4:1.2096585 5:0.0846024 6:-2.4098208 7:0.52039741 8:1.4455777 
0.001113 0.001113 0.001113 1:-1.5581323 2:0.88175758 3:0.44800539 4:1.1915224 5:-2.5985373 6:0.45823526 7:-0.28728091 8:1.3973054 
0.001113 0 0 1:0.86585248 2:0.85494029 3:0.4809726 4:1.1919051 5:0.4489794 6:0.42429377 7:-0.22579675 8:1.398324 
0.001113 0 0 1:0.49698522 2:0.60017605 3:0.41204116 4:1.1854542 5:-0.014773145 6:0.10184959 7:-0.35435454 8:1.3811538 
0.001113 0.001113 0 1:0.58920204 2:0.84153165 3:0.35509779 4:1.181518 5:0.10116499 6:0.40732302 7:-0.46055446 8:1.3706771 
0.001113 0.001113 0 1:0.82633099 2:1.1499305 3:0.36858437 4:1.1792766 5:0.39929162 6:0.79765019 7:-0.43540185 8:1.3647112 
0.001113 0 0 1:0.86585248 2:0.93539216 3:0.52442938 4:1.1782406 5:0.4489794 6:0.52611825 7:-0.14474944 8:1.3619538 
0.001113 0.001113 0 1:0.65507119 2:1.1231132 3:1.0474093 4:1.1709923 5:0.18397794 6:0.76370869 7:0.83061296 8:1.3426613 
0.001113 0 0 1:0.53650672 2:0.7074452 3:0.96499123 4:1.160206 5:0.034914628 6:0.23761556 7:0.67690255 8:1.3139519 
0.001113 0 0 1:0.39159458 2:0.57335876 3:0.93651954 4:1.1520567 5:-0.14727387 6:0.067908102 7:0.6238026 8:1.292261 
0.001113 0 0 1:0.56285438 2:0.92198351 3:0.87508065 4:1.147167 5:0.068039809 6:0.5091475 7:0.50921847 8:1.2792464 
0.001113 0.001113 0 1:0.6155497 2:1.1097045 3:1.161296 4:1.1264681 5:0.13429017 6:0.74673795 7:1.0430128 8:1.2241529 
0.001113 0 0 1:0.45746373 2:0.42586367 3:1.1627945 4:1.1262515 5:-0.064460917 6:-0.11877011 7:1.0458075 8:1.2235763 
0.001113 0 0 1:0.41794224 2:0.49290689 3:1.1103467 4:1.1224061 5:-0.11414869 6:-0.033916375 7:0.94799182 8:1.2133411 
0.001113 0 0 1:0.29937777 2:0.38563774 3:0.94401209 4:1.1208895 5:-0.26321201 6:-0.16968234 7:0.63777627 8:1.2093046 
0.001113 0 0 1:0.37842075 2:0.37222909 3:0.87807766 4:1.1188856 5:-0.16383646 6:-0.18665309 7:0.51480794 8:1.2039708 
0.001113 0 0 1:0.36524692 2:0.25155129 3:0.85560002 4:1.1168816 5:-0.18039905 6:-0.33938981 7:0.47288692 8:1.1986369 
0.001113 0.001113 0 1:0.24668244 2:0.15769078 3:0.79565963 4:1.114644 5:-0.32946237 6:-0.45818503 7:0.36109754 8:1.1926811 
0.001113 0.001113 0 1:0.15446563 2:0.23814265 3:0.69076396 4:1.1124946 5:-0.4454005 6:-0.35636055 7:0.16546611 8:1.1869601 
0.001113 0.001113 0 1:0.23350861 2:0.49290689 3:0.59186232 4:1.1102165 5:-0.34602496 6:-0.033916375 7:-0.018986381 8:1.1808966 
0.001113 0 0 1:0.48381139 2:0.84153165 3:0.52143236 4:1.1089746 5:-0.031335735 6:0.40732302 7:-0.15033891 8:1.1775912 
0.001113 0.001113 0 1:0.82633099 2:1.3510601 3:0.53192193 4:1.1171277 5:0.39929162 6:1.0522114 7:-0.13077577 8:1.1992919 
0 0.001113 0 1:1.1556768 2:1.5790071 3:0.99645993 4:1.1265764 5:0.81335639 6:1.3407141 7:0.73559198 8:1.2244412 
0.001113 0.001113 0.001113 1:1.0898076 2:-1.8938318 3:1.2676902 4:1.1382211 5:0.73054344 6:-3.0547092 7:1.241439 8:1.2554353 
0.001113 0.001113 0 1:-0.75452868 2:1.0828872 3:0.76269242 4:1.1192335 5:-1.5882193 6:0.71279646 7:0.29961337 8:1.2048967 
0.001113 0.001113 0 1:0.22033478 2:0.50631554 3:0.67278184 4:1.1121063 5:-0.36258755 6:-0.016945629 7:0.13192929 8:1.1859265 
0.001113 0 0 1:0.49698522 2:0.9488008 3:0.60235188 4:1.1080567 5:-0.014773145 6:0.54308899 7:0.00057676132 8:1.175148 
0.001113 0 0 1:0.93172163 2:1.1767478 3:0.57537871 4:1.1082727 5:0.53179235 6:0.83159168 7:-0.049728463 8:1.1757229 
0.001113 0 0 1:0.51015905 2:0.45268096 3:0.5424115 4:1.1023543 5:0.0017894462 6:-0.084828614 7:-0.11121263 8:1.1599701 
0.001113 0 0 1:0.4442899 2:0.68062791 3:0.80465069 4:1.098694 5:-0.081023507 6:0.20367407 7:0.37786594 8:1.1502277 
0 0.001113 0 1:1.2610674 2:1.5790071 3:1.1538034 4:1.0794076 5:0.94585712 6:1.3407141 7:1.0290391 8:1.0988936 
0 0.001113 0 1:1.5508917 2:1.6728676 3:1.2601976 4:1.0823053 5:1.3102341 6:1.4595093 7:1.2274653 8:1.1066065 
0 0.001113 0 1:0.93172163 2:1.1231132 3:1.5584011 4:1.0855601 5:0.53179235 6:0.76370869 7:1.7836175 8:1.1152696 
0.001113 0.001113 0 1:0.41794224 2:0.55995011 3:1.2766812 4:1.077583 5:-0.11414869 6:0.050937356 7:1.2582074 8:1.0940373 
0.001113 0.001113 0 1:0.18081329 2:0.29177722 3:0.84211343 4:1.0655354 5:-0.41227532 6:-0.28847757 7:0.44773431 8:1.0619705 
0.001113 0 0 1:0.28620394 2:0.26495994 3:0.74920583 4:1.060346 5:-0.2797746 6:-0.32241906 7:0.27446076 8:1.0481582 
0.001113 0 0 1:0.25985627 2:0.64040198 3:0.65330121 4:1.0557452 5:-0.31289978 6:0.15276183 7:0.09559774 8:1.0359123 
0.001113 0 0 1:0.62872353 2:0.84153165 3:0.63831612 4:1.0546217 5:0.15085276 6:0.40732302 7:0.067650394 8:1.032922 
0.001113 0.001113 0.001113 1:0.68141885 2:-1.2502169 3:0.66229227 4:1.0508233 5:0.21710313 6:-2.2401134 7:0.11236615 8:1.022812 
0.001113 0.001113 0.001113 1:-1.742566 2:0.81471436 3:0.21423788 4:1.032833 5:-2.8304136 6:0.37338153 7:-0.72325952 8:0.97492792 
0.001113 0 0 1:0.54968055 2:0.31859451 3:0.22772446 4:1.02608 5:0.051477218 6:-0.25453608 7:-0.69810691 8:0.95695371 
0.001113 0 0 1:0.3125516 2:0.41245502 3:0.21423788 4:1.0209222 5:-0.24664941 6:-0.13574085 7:-0.72325952 8:0.94322538 
0.001113 0 0 1:0.40476841 2:0.74767114 3:0.23971254 4:1.0177318 5:-0.13071128 6:0.2885278 7:-0.67574903 8:0.93473363 
0.001113 0 0 1:0.73411417 2:0.85494029 3:0.29066187 4:1.0168279 5:0.28335349 6:0.42429377 7:-0.58072805 8:0.93232763 
0.001113 0 0 1:0.83950482 2:0.92198351 3:0.3565963 4:1.0161366 5:0.41585421 6:0.5091475 7:-0.45775973 8:0.93048775 
0.001113 0 0 1:0.33889926 2:0.57335876 3:0.34011269 4:1.0151992 5:-0.21352423 6:0.067908102 7:-0.48850181 8:0.92799255 
0.001113 0 0 1:0.56285438 2:0.92198351 3:0.54391001 4:1.0137678 5:0.068039809 6:0.5091475 7:-0.10841789 8:0.92418284 
0.001113 0.001113 0.001113 1:0.79998333 2:-2.3363171 3:0.90505084 4:0.99770517 5:0.36616644 6:-3.6147438 7:0.56511317 8:0.88142945 
0.001113 0.001113 0 1:-0.39883525 2:1.0828872 3:0.47497856 4:0.97959649 5:-1.1410293 6:0.71279646 7:-0.23697569 8:0.83323026 
0.001113 0 0 1:0.52333288 2:0.68062791 3:0.4495039 4:0.97229353 5:0.018352037 6:0.20367407 7:-0.28448618 8:0.81379225 
0.001113 0 0 1:0.66824502 2:0.92198351 3:0.45250092 4:0.97081814 5:0.20054053 6:0.5091475 7:-0.27889671 8:0.80986524 
0.001113 0 0 1:0.45746373 2:0.60017605 3:0.50794577 4:0.96402077 5:-0.064460917 6:0.10184959 7:-0.17549152 8:0.79177295 
0.001113 0 0 1:0.24668244 2:0.15769078 3:0.97548079 4:0.95442246 5:-0.32946237 6:-0.45818503 7:0.6964657 8:0.76622549 
0.001113 0.001113 0 1:0.15446563 2:0.42586367 3:0.91703892 4:0.94958928 5:-0.4454005 6:-0.11877011 7:0.58747104 8:0.75336121 
0.001113 0 0 1:0.41794224 2:0.90857487 3:0.86159406 4:0.94633214 5:-0.11414869 6:0.49217676 7:0.48406586 8:0.74469181 
0.001113 0 0 1:0.2730301 2:0.224734 3:1.0893675 4:0.93744406 5:-0.29633719 6:-0.3733313 7:0.90886553 8:0.72103473 
0.001113 0 0 1:0.22033478 2:0.30518587 3:0.99346291 4:0.93388241 5:-0.36258755 6:-0.27150682 7:0.73000251 8:0.71155481 
0.001113 0 0 1:0.29937777 2:0.50631554 3:0.90205382 4:0.93084453 5:-0.26321201 6:-0.016945629 7:0.5595237 8:0.70346901 
0.001113 0 0 1:0.28620394 2:0.31859451 3:0.71923564 4:0.92255141 5:-0.2797746 6:-0.25453608 7:0.21856607 8:0.68139554 
0.001113 0 0 1:0.24668244 2:0.13087349 3:0.55439957 4:0.91717266 5:-0.32946237 6:-0.49212652 7:-0.088854748 8:0.66707912 
0.001113 0 0 1:0.12811797 2:0.33200316 3:0.47048303 4:0.91398719 5:-0.47852568 6:-0.23756533 7:-0.24535989 8:0.65860047 
0.001113 0 0 1:0.32572543 2:0.43927231 3:0.42103221 4:0.9110106 5:-0.23008682 6:-0.10179936 7:-0.33758614 8:0.65067779 
0.001113 0 0 1:0.3125516 2:0.39904638 3:0.4495039 4:0.9070185 5:-0.24664941 6:-0.1527116 7:-0.28448618 8:0.64005217 
0.001113 0.001113 0 1:0.0095534939 2:0.090647558 3:0.40454861 4:0.90108304 5:-0.627589 6:-0.54303876 7:-0.36832822 8:0.62425398 
0.001113 0.001113 0 1:0.088596477 2:0.23814265 3:0.37158139 4:0.89618889 5:-0.52821346 6:-0.35636055 7:-0.42981238 8:0.61122739 
0.001113 0 0 1:0.23350861 2:0.39904638 3:0.35210077 4:0.89290876 5:-0.34602496 6:-0.1527116 7:-0.46614393 8:0.60249681 
0.001113 0.001113 0 1:0.39159458 2:1.0694786 3:0.36408885 4:0.89181539 5:-0.14727387 6:0.69582571 7:-0.44378605 8:0.59958662 
0.001113 0 0 1:0.18081329 2:0.35882045 3:0.59186232 4:0.89447073 5:-0.41227532 6:-0.20362384 7:-0.018986381 8:0.60665423 
0.001113 0 0 1:0.22033478 2:0.47949825 3:0.57687722 4:0.89162968 5:-0.36258755 6:-0.050887121 7:-0.046933728 8:0.59909233 
0.001113 0.001113 0.001113 1:0.36524692 2:-1.2233996 3:0.64431016 4:0.87522582 5:-0.18039905 6:-2.2061719 7:0.078829332 8:0.55543079 
0.001113 0.001113 0.001113 1:0.19398712 2:-2.376543 3:0.48696664 4:0.86665329 5:-0.39571273 6:-3.6656561 7:-0.21461781 8:0.53261362 
0.001113 0.001113 0.001113 1:-1.3605249 2:-1.2904428 3:-0.54250951 4:0.8267189 5:-2.3500984 6:-2.2910256 7:-2.1346005 8:0.42632178 
0.001113 0.001113 0.001113 1:1.5508917 2:-1.2502169 3:-0.59945288 4:0.81517595 5:1.3102341 6:-2.2401134 7:-2.2408005 8:0.39559832 
0.001113 0.001113 0.001113 1:-1.1497436 2:0.18450807 3:-1.0445103 4:0.79531578 5:-2.085097 6:-0.42424354 7:-3.0708367 8:0.34273726 
0.001113 0.001113 0.001113 1:0.18081329 2:-1.2636255 3:-1.0624924 4:0.79210259 5:-0.41227532 6:-2.2570841 7:-3.1043735 8:0.33418485 
0.001113 0.001113 0.001113 1:1.5113702 2:-1.3440774 3:-0.7882651 4:0.78088196 5:1.2605463 6:-2.3589086 7:-2.592937 8:0.30431931 
0.001113 0.001113 0 1:2.0119757 2:0.21132536 3:-0.30574498 4:0.7754285 5:1.8899248 6:-0.39030204 7:-1.6930325 8:0.28980405 
0.001113 0 0 1:0.20716095 2:0.21132536 3:-0.12742233 4:0.77212295 5:-0.37915014 6:-0.39030204 7:-1.360459 8:0.28100579 
0.001113 0.001113 0.001113 1:0.20716095 2:-2.376543 3:0.040410755 4:0.7688174 5:-0.37915014 6:-3.6656561 7:-1.0474487 8:0.27220753 
0.001113 0.001113 0.001113 1:-0.99165763 2:-1.1965823 3:-0.37467643 4:0.74886174 5:-1.8863459 6:-2.1722304 7:-1.8215903 8:0.21909232 
0.001113 0.001113 0 1:-0.10901098 2:-0.17752533 3:-0.17687315 4:0.74652921 5:-0.77665232 6:-0.88245368 7:-1.4526853 8:0.21288391 
0.001113 0.001113 0.001113 1:-0.17488013 2:-1.397712 3:-0.055493864 4:0.74827213 5:-0.85946527 6:-2.4267916 7:-1.2263118 8:0.21752296 
0.001113 0.001113 0 1:2.143714 2:0.19791671 3:-0.38216897 4:0.75757852 5:2.0555507 6:-0.40727279 7:-1.8355639 8:0.24229345 
0.001113 0.001113 0.001113 1:0.19398712 2:-1.3038515 3:-0.38366748 4:0.75600203 5:-0.39571273 6:-2.3079964 7:-1.8383587 8:0.23809735 
0.001113 0.001113 0 1:1.4586749 2:-1.3708947 3:-0.12142829 4:0.7527662 5:1.194296 6:-2.3928501 7:-1.3492801 8:0.22948467 
0.001113 0.001113 0 1:0.075422647 2:0.25155129 3:-0.02852069 4:0.74876033 5:-0.54477605 6:-0.33938981 7:-1.1760065 8:0.21882239 
0.001113 0.001113 0.001113 1:0.24668244 2:-1.1965823 3:0.011939071 4:0.7499773 5:-0.32946237 6:-2.1722304 7:-1.1005487 8:0.22206157 
0.001113 0.001113 0.001113 1:0.035901155 2:-1.3172601 3:0.42103221 4:0.75366272 5:-0.59446382 6:-2.3249671 7:-0.33758614 8:0.23187089 
0.001113 0.001113 0.001113 1:1.4323272 2:-1.4513466 3:0.14980196 4:0.74913665 5:1.1611708 6:-2.4946746 7:-0.84343311 8:0.21982404 
0.001113 0.001113 0.001113 1:-0.10901098 2:-1.2233996 3:-0.018031122 4:0.7492674 5:-0.77665232 6:-2.2061719 7:-1.1564434 8:0.22017205 
0.001113 0.001113 0.001113 1:1.3796319 2:-2.3899517 3:-0.045004296 4:0.74414597 5:1.0949204 6:-3.6826268 7:-1.2067486 8:0.20654053 
0.001113 0.001113 0.001113 1:0.81315716 2:-1.3708947 3:-0.59945288 4:0.72038679 5:0.38272903 6:-2.3928501 7:-2.2408005 8:0.1433016 
0.001113 0.001113 0.001113 1:0.97124312 2:-1.3306688 3:-0.63841413 4:0.71993305 5:0.58148012 6:-2.3419379 7:-2.3134636 8:0.14209392 
0.001113 0.001113 0.001113 1:0.82633099 2:-1.4379379 3:-0.6953575 4:0.70898663 5:0.39929162 6:-2.4777038 7:-2.4196635 8:0.11295824 
0.001113 0.001113 0.001113 1:0.77363566 2:-1.5586157 3:-0.6189335 4:0.70039044 5:0.33304126 6:-2.6304405 7:-2.277132 8:0.090078092 
0.001113 0.001113 0.001113 1:0.57602821 2:-1.5049811 3:-0.74031279 4:0.69058777 5:0.0846024 6:-2.5625576 7:-2.5035055 8:0.063986698 
0.001113 0.001113 0.001113 1:0.62872353 2:-1.3843033 3:-0.24580459 4:0.68842616 5:0.15085276 6:-2.4098208 7:-1.5812431 8:0.058233212 
0.001113 0.001113 0.001113 1:1.0766338 2:-1.3843033 3:-0.21733291 4:0.68276436 5:0.71398085 6:-2.4098208 7:-1.5281431 8:0.043163424 
0.001113 0.001113 0.001113 1:1.1161553 2:-1.4379379 3:-0.20684334 4:0.68847873 5:0.76366862 6:-2.4777038 7:-1.50858 8:0.058373148 
0.001113 0.001113 0.001113 1:0.73411417 2:-1.5586157 3:-0.21733291 4:0.68430401 5:0.28335349 6:-2.6304405 7:-1.5281431 8:0.047261446 
0.001113 0.001113 0.001113 1:0.98441695 2:-1.3708947 3:-0.19335675 4:0.68767672 5:0.59804271 6:-2.3928501 7:-1.4834274 8:0.05623845 
0.001113 0.001113 0 1:1.1951982 2:-1.3038515 3:-0.1079417 4:0.68136083 5:0.86304416 6:-2.3079964 7:-1.3241275 8:0.039427702 
0.001113 0.001113 0.001113 1:1.2610674 2:-1.4781638 3:-0.02702218 4:0.67578538 5:0.94585712 6:-2.5286161 7:-1.1732118 8:0.024587739 
0.001113 0.001113 0.001113 1:0.85267865 2:-1.4245293 3:-0.062986412 4:0.66783811 5:0.4324168 6:-2.4607331 7:-1.2402854 8:0.0034347864 
0.001113 0.001113 0.001113 1:0.65507119 2:-1.357486 3:-0.11393574 4:0.66186851 5:0.18397794 6:-2.3758793 7:-1.3353064 8:-0.01245428 
0.001113 0.001113 0.001113 1:0.86585248 2:-1.3440774 3:-0.076473 4:0.65593749 5:0.4489794 6:-2.3589086 7:-1.265438 8:-0.028240631 
0.001113 0.001113 0.001113 1:0.82633099 2:-1.3172601 3:-0.091458096 4:0.64947197 5:0.39929162 6:-2.3249671 7:-1.2933854 8:-0.045449668 
0.001113 0.001113 0.001113 1:0.69459268 2:-1.5049811 3:-0.14989997 4:0.6396316 5:0.23366572 6:-2.5625576 7:-1.40238 8:-0.071641413 
0.001113 0.001113 0.001113 1:0.70776651 2:-1.5183898 3:-0.2158344 4:0.63050489 5:0.25022831 6:-2.5795283 7:-1.5253484 8:-0.095933625 
0.001113 0.001113 0.001113 1:0.97124312 2:-1.3038515 3:-0.21283738 4:0.62287295 5:0.58148012 6:-2.3079964 7:-1.5197589 8:-0.11624727 
0.001113 0.001113 0.001113 1:1.0766338 2:-1.397712 3:-0.15889103 4:0.61836583 5:0.71398085 6:-2.4267916 7:-1.4191485 8:-0.12824371 
0.001113 0.001113 0.001113 1:0.68141885 2:-1.5586157 3:-0.18586421 4:0.60803745 5:0.21710313 6:-2.6304405 7:-1.4694537 8:-0.15573436 
0.001113 0.001113 0.001113 1:0.4442899 2:-1.5586157 3:-0.25629416 4:0.59836126 5:-0.081023507 6:-2.6304405 7:-1.6008062 8:-0.18148912 
0.001113 0.001113 0.001113 1:0.68141885 2:-1.3708947 3:-0.26378671 4:0.58993457 5:0.21710313 6:-2.3928501 7:-1.6147799 8:-0.20391811 
0.001113 0.001113 0.001113 1:0.65507119 2:-1.3843033 3:-0.25329714 4:0.58244945 5:0.18397794 6:-2.4098208 7:-1.5952167 8:-0.22384099 
0.001113 0.001113 0.001113 1:0.6155497 2:-1.4915725 3:-0.30274796 4:0.57080316 5:0.13429017 6:-2.5455868 7:-1.687443 8:-0.25483946 
0.001113 0.001113 0.001113 1:0.56285438 2:-1.585433 3:-0.37167941 4:0.56824786 5:0.068039809 6:-2.664382 7:-1.8160008 8:-0.26164081 
0.001113 0.001113 0.001113 1:0.81315716 2:-1.5988416 3:-0.35969133 4:0.56981196 5:0.38272903 6:-2.6813528 7:-1.7936429 8:-0.25747771 
0.001113 0.001113 0.001113 1:1.0107646 2:-1.4111206 3:-0.29975094 4:0.56241254 5:0.63116789 6:-2.4437623 7:-1.6818535 8:-0.27717247 
0.001113 0.001113 0.001113 1:0.89220014 2:-1.3843033 3:-0.28027032 4:0.55633619 5:0.48210458 6:-2.4098208 7:-1.645522 8:-0.29334564 
0.001113 0.001113 0.001113 1:0.47063756 2:-1.585433 3:-0.30124945 4:0.5490356 5:-0.047898326 6:-2.664382 7:-1.6846483 8:-0.31277736 
0.001113 0.001113 0.001113 1:0.45746373 2:-1.4245293 3:-0.32972114 4:0.54253643 5:-0.064460917 6:-2.4607331 7:-1.7377482 8:-0.33007594 
0.001113 0.001113 0.001113 1:0.81315716 2:-1.4111206 3:-0.28326734 4:0.53826713 5:0.38272903 6:-2.4437623 7:-1.6511114 8:-0.34143938 
0.001113 0.001113 0.001113 1:0.81315716 2:-1.4915725 3:-0.2622882 4:0.53378399 5:0.38272903 6:-2.5455868 7:-1.6119851 8:-0.35337198 
0.001113 0.001113 0.001113 1:0.69459268 2:-1.6390676 3:-0.30724349 4:0.52701055 5:0.23366572 6:-2.732265 7:-1.6958272 8:-0.3714006 
0.001113 0.001113 0.001113 1:0.58920204 2:-1.5317984 3:-0.3701809 4:0.52012354 5:0.10116499 6:-2.596499 7:-1.813206 8:-0.38973148 
0.001113 0.001113 0.001113 1:0.73411417 2:-1.4781638 3:-0.33421666 4:0.5170135 5:0.28335349 6:-2.5286161 7:-1.7461324 8:-0.39800937 
0.001113 0.001113 0.001113 1:1.0239384 2:-1.4111206 3:-0.27577479 4:0.51278578 5:0.64773048 6:-2.4437623 7:-1.6371378 8:-0.40926212 
0.001113 0.001113 0.001113 1:1.1951982 2:-1.5452071 3:-0.23231801 4:0.50784719 5:0.86304416 6:-2.6134698 7:-1.5560905 8:-0.42240699 
0.001113 0.001113 0.001113 1:0.94489546 2:-1.5720244 3:-0.22332695 4:0.50009362 5:0.54835494 6:-2.6474113 7:-1.539322 8:-0.44304437 
0.001113 0.001113 0.001113 1:1.0502861 2:-1.4245293 3:-0.17537464 4:0.49554201 5:0.68085567 6:-2.4607331 7:-1.4498905 8:-0.45515922 
0.001113 0.001113 0 1:1.3928057 2:-1.3038515 3:-0.071977471 4:0.49167593 5:1.111483 6:-2.3079964 7:-1.2570538 8:-0.46544941 
0.001113 0.001113 0.001113 1:1.0239384 2:-1.4781638 3:-0.019529632 4:0.48653355 5:0.64773048 6:-2.5286161 7:-1.1592381 8:-0.4791367 
0.001113 0.001113 0.001113 1:0.6155497 2:-1.4513466 3:-0.07347598 4:0.475401 5:0.13429017 6:-2.4946746 7:-1.2598486 8:-0.50876777 
0.001113 0.001113 0.001113 1:0.70776651 2:-1.3440774 3:-0.11843127 4:0.46831666 5:0.25022831 6:-2.3589086 7:-1.3436906 8:-0.5276239 
0.001113 0.001113 0.001113 1:0.81315716 2:-1.3172601 3:-0.1079417 4:0.46234075 5:0.38272903 6:-2.3249671 7:-1.3241275 8:-0.54352975 
0.001113 0.001113 0.001113 1:0.77363566 2:-1.4111206 3:-0.12742233 4:0.46330461 5:0.33304126 6:-2.4437623 7:-1.360459 8:-0.54096429 
0.001113 0.001113 0.001113 1:0.60237587 2:-1.4647552 3:-0.22932099 4:0.46503081 5:0.11772758 6:-2.5116453 7:-1.550501 8:-0.53636972 
0.001113 0.001113 0.001113 1:0.73411417 2:-1.4647552 3:-0.26078969 4:0.45623575 5:0.28335349 6:-2.5116453 7:-1.6091904 8:-0.55977919 
0.001113 0.001113 0.001113 1:1.1293291 2:-1.3843033 3:-0.20384632 4:0.45222514 5:0.78023121 6:-2.4098208 7:-1.5029905 8:-0.57045408 
0.001113 0.001113 0 1:1.4191534 2:-1.3708947 3:-0.12742233 4:0.44728848 5:1.1446082 6:-2.3928501 7:-1.360459 8:-0.58359381 
0.001113 0.001113 0.001113 1:0.93172163 2:-1.4647552 3:-0.11992978 4:0.4406366 5:0.53179235 6:-2.5116453 7:-1.3464854 8:-0.60129887 
0 0.001113 0 1:0.82633099 2:-1.0759045 3:-0.11992978 4:0.43160281 5:0.39929162 6:-2.0194937 7:-1.3464854 8:-0.62534375 
0 0.001113 0 1:0.58920204 2:-1.0222699 3:-0.077971509 4:0.42558381 5:0.10116499 6:-1.9516107 7:-1.2682328 8:-0.64136431 
0 0.001113 0.001113 1:0.83950482 2:-1.3172601 3:-0.016532612 4:0.42014971 5:0.41585421 6:-2.3249671 7:-1.1536487 8:-0.65582805 
0.001113 0.001113 0.001113 1:0.97124312 2:-1.4647552 3:-0.02702218 4:0.41403557 5:0.58148012 6:-2.5116453 7:-1.1732118 8:-0.67210183 
0.001113 0.001113 0.001113 1:1.0239384 2:-1.4513466 3:-0.082467038 4:0.40547872 5:0.64773048 6:-2.4946746 7:-1.276617 8:-0.69487726 
0.001113 0.001113 0 1:1.4850225 2:-1.3306688 3:-0.018031122 4:0.40048723 5:1.2274212 6:-2.3419379 7:-1.1564434 8:-0.70816293 
0.001113 0.001113 0 1:1.8670636 2:-1.3172601 3:0.071879458 4:0.3982054 5:1.7077363 6:-2.3249671 7:-0.98875932 8:-0.71423638 
0.001113 0.001113 0 1:1.7353253 2:-1.4647552 3:0.16928259 4:0.39573342 5:1.5421104 6:-2.5116453 7:-0.80710156 8:-0.72081595 
0.001113 0.001113 0 1:1.7089776 2:-1.3843033 3:0.25170062 4:0.39330512 5:1.5089852 6:-2.4098208 7:-0.65339115 8:-0.72727927 
0.001113 0.001113 0 1:2.380843 2:-1.2502169 3:0.42103221 4:0.39354217 5:2.3536773 6:-2.2401134 7:-0.33758614 8:-0.72664834 
0.001113 0.001113 0 1:2.0383234 2:-1.3440774 3:0.5588951 4:0.38903829 5:1.92305 6:-2.3589086 7:-0.080470544 8:-0.73863613 
0.001113 0.001113 0 1:1.9724542 2:-1.357486 3:0.61284145 4:0.3862564 5:1.840237 6:-2.3758793 7:0.020139904 8:-0.74604059 
0.001113 0.001113 0 1:2.1568879 2:-1.2636255 3:0.64131314 4:0.38115004 5:2.0721133 6:-2.2570841 7:0.073239863 8:-0.75963198 
0.001113 0.001113 0 1:2.0646711 2:-1.1563564 3:0.70125352 4:0.37892783 5:1.9561751 6:-2.1213182 7:0.18502925 8:-0.76554676 
0.001113 0.001113 0 1:1.6431085 2:-1.3306688 3:0.71923564 4:0.37424701 5:1.4261722 6:-2.3419379 7:0.21856607 8:-0.77800553 
0 0.001113 0 1:1.1820244 2:-1.3440774 3:0.5738802 4:0.36948487 5:0.84648157 6:-2.3589086 7:-0.052523198 8:-0.79068072 
0.001113 0.001113 0 1:1.7221515 2:-1.2368082 3:0.53791597 4:0.36514674 5:1.5255478 6:-2.2231426 7:-0.11959683 8:-0.80222737 
0.001113 0.001113 0 1:2.1568879 2:-1.2368082 3:0.57238169 4:0.36241183 5:2.0721133 6:-2.2231426 7:-0.055317932 8:-0.80950678 
0.001113 0.001113 0 1:1.7880206 2:-1.4245293 3:0.53342044 4:0.35971647 5:1.6083607 6:-2.4607331 7:-0.12798103 8:-0.81668092 
0.001113 0.001113 0 1:1.9461066 2:-1.1563564 3:0.48996366 4:0.35346189 5:1.8071118 6:-2.1213182 7:-0.20902834 8:-0.83332848 
0.001113 0.001113 0 1:2.1041925 2:-1.1161304 3:0.56189212 4:0.35068731 5:2.0058629 6:-2.0704059 7:-0.074881075 8:-0.84071349 
0.001113 0.001113 0 1:1.5772393 2:-1.4111206 3:0.63232208 4:0.34654894 5:1.3433593 6:-2.4437623 7:0.056471455 8:-0.85172841 
0.001113 0.001113 0 1:1.524544 2:-1.2904428 3:0.59036381 4:0.34277772 5:1.2771089 6:-2.2910256 7:-0.021781116 8:-0.86176615 
0.001113 0.001113 0 1:1.8011944 2:-1.209991 3:0.54391001 4:0.33677442 5:1.6249233 6:-2.1892011 7:-0.10841789 8:-0.87774491 
0.001113 0.001113 0 1:2.0514972 2:-1.1027218 3:0.59785636 4:0.33508599 5:1.9396126 6:-2.0534352 7:-0.0078074427 8:-0.88223893 
0.001113 0.001113 0 1:1.8011944 2:-1.3843033 3:0.58736679 4:0.32988 5:1.6249233 6:-2.4098208 7:-0.027370585 8:-0.89609551 
0.001113 0.001113 0 1:1.5377178 2:-1.3172601 3:0.49296068 4:0.32588277 5:1.2936715 6:-2.3249671 7:-0.20343887 8:-0.90673478 
0 0.001113 0 1:1.7484991 2:-1.0624959 3:0.52293087 4:0.32326335 5:1.558673 6:-2.0025229 7:-0.14754418 8:-0.91370679 
0.001113 0.001113 0 1:1.5508917 2:-1.2368082 3:0.55140256 4:0.32186009 5:1.3102341 6:-2.2231426 7:-0.094444218 8:-0.9174418 
0 0.001113 0 1:1.3005889 2:-1.3306688 3:0.49146217 4:0.3197552 5:0.99554489 6:-2.3419379 7:-0.20623361 8:-0.92304431 
0.001113 0.001113 0 1:1.9856281 2:-1.3172601 3:0.082369026 4:0.31409538 5:1.8567996 6:-2.3249671 7:-0.96919617 8:-0.93810885 
0.001113 0.001113 0 1:1.6299346 2:-1.2636255 3:0.10035114 4:0.31378965 5:1.4096097 6:-2.2570841 7:-0.93565936 8:-0.93892258 
0.001113 0.001113 0 1:1.8143683 2:-1.5720244 3:0.091360084 4:0.30613436 5:1.6414859 6:-2.6474113 7:-0.95242776 8:-0.95929839 
0.001113 0.001113 0 1:1.5377178 2:-1.3440774 3:0.052398833 4:0.29696862 5:1.2936715 6:-2.3589086 7:-1.0250909 8:-0.98369449 
0.001113 0.001113 0 1:1.5508917 2:-1.1965823 3:0.079372007 4:0.29119932 5:1.3102341 6:-2.1722304 7:-0.97478564 8:-0.99905041 
0.001113 0.001113 0 1:1.4850225 2:-1.4647552 3:0.059891381 4:0.28858939 5:1.2274212 6:-2.5116453 7:-1.0111172 8:-1.0059972 
0.001113 0.001113 0.001113 1:1.1293291 2:-1.4245293 3:-0.013535593 4:0.27796307 5:0.78023121 6:-2.4607331 7:-1.1480592 8:-1.0342808 
0 0.001113 0 1:1.0898076 2:-1.2770342 3:0.2337185 4:0.27192403 5:0.73054344 6:-2.2740549 7:-0.68692797 8:-1.0503547 
0.001113 0.001113 0 1:1.4191534 2:-1.3306688 3:0.22173043 4:0.26572245 5:1.1446082 6:-2.3419379 7:-0.70928585 8:-1.0668612 
0.001113 0.001113 0 1:1.3796319 2:-1.3440774 3:0.20524682 4:0.26167029 5:1.0949204 6:-2.3589086 7:-0.74002793 8:-1.0776467 
0.001113 0.001113 0 1:1.4586749 2:-1.3843033 3:0.17827365 4:0.25419265 5:1.194296 6:-2.4098208 7:-0.79033315 8:-1.0975497 
0.001113 0.001113 0 1:1.4850225 2:-1.3172601 3:0.1872647 4:0.24823822 5:1.2274212 6:-2.3249671 7:-0.77356475 8:-1.1133983 
0.001113 0.001113 0 1:1.7221515 2:-1.2233996 3:0.26668572 4:0.24645251 5:1.5255478 6:-2.2061719 7:-0.62544381 8:-1.1181513 
0.001113 0.001113 0 1:1.5904132 2:-1.3172601 3:0.32962312 4:0.24046772 5:1.3599219 6:-2.3249671 7:-0.50806495 8:-1.1340808 
0.001113 0.001113 0.001113 1:-1.1365698 2:-0.21775126 3:-0.29525541 4:0.22175146 5:-2.0685344 6:-0.93336592 7:-1.6734693 8:-1.1838972 
0.001113 0.001113 0.001113 1:-0.21440163 2:-1.1429477 3:-0.1693806 4:0.2169429 5:-0.90915304 6:-2.1043474 7:-1.4387116 8:-1.1966959 
0.001113 0.001113 0.001113 1:2.1173664 2:-2.3899517 3:-0.37917195 4:0.20659305 5:2.0224255 6:-3.6826268 7:-1.8299745 8:-1.2242437 
0.001113 0.001113 0.001113 1:1.603587 2:-1.5452071 3:-0.67587687 4:0.19716509 5:1.3764845 6:-2.6134698 7:-2.3833319 8:-1.2493377 
0.001113 0.001113 0.001113 1:1.5377178 2:-1.3172601 3:-0.70734557 4:0.19616022 5:1.2936715 6:-2.3249671 7:-2.4420214 8:-1.2520124 
0.001113 0.001113 0 1:1.761673 2:-0.84795755 3:-0.34620474 4:0.19457428 5:1.5752356 6:-1.730991 7:-1.7684903 8:-1.2562336 
0.001113 0.001113 0.001113 1:-1.0707006 2:0.090647558 3:-0.40314811 4:0.18109157 5:-1.9857214 6:-0.54303876 7:-1.8746902 8:-1.29212 
0.001113 0.001113 0 1:0.088596477 2:-0.1372994 3:-0.6339186 4:0.17818348 5:-0.52821346 6:-0.83154144 7:-2.3050794 8:-1.2998604 
0.001113 0.001113 0 1:-0.13535864 2:-0.19093398 3:-0.38216897 4:0.17373046 5:-0.8097775 6:-0.89942443 7:-1.8355639 8:-1.3117128 
0.001113 0.001113 0.001113 1:-0.18805396 2:-1.2770342 3:-0.10344617 4:0.16914113 5:-0.87602786 6:-2.2740549 7:-1.3157433 8:-1.3239281 
0.001113 0.001113 0 1:1.6562823 2:0.14428214 3:-0.41363768 4:0.16088054 5:1.4427348 6:-0.47515578 7:-1.8942534 8:-1.345915 
0.001113 0.001113 0 1:0.062248816 2:-0.056847531 3:-0.44360787 4:0.15775337 5:-0.56133864 6:-0.72971697 7:-1.950148 8:-1.3542384 
0.001113 0.001113 0.001113 1:-0.056315659 2:-2.416769 3:-0.3551958 4:0.15731867 5:-0.71040195 6:-3.7165683 7:-1.7852587 8:-1.3553955 
0.001113 0.001113 0.001113 1:1.3928057 2:-1.357486 3:-0.50654528 4:0.14074483 5:1.111483 6:-2.3758793 7:-2.0675269 8:-1.3995094 
0.001113 0.001113 0 1:1.3401104 2:-0.78091433 3:-0.46908254 4:0.13605572 5:1.0452327 6:-1.6461373 7:-1.9976585 8:-1.4119903 
0.001113 0.001113 0.001113 1:-1.3078296 2:0.050421624 3:-0.71783514 4:0.11993893 5:-2.2838481 6:-0.593951 7:-2.4615845 8:-1.4548877 
0.001113 0.001113 0.001113 1:0.049074985 2:-1.2636255 3:-0.72832471 4:0.11996337 5:-0.57790123 6:-2.2570841 7:-2.4811476 8:-1.4548226 
0.001113 0.001113 0 1:1.8670636 2:-1.1161304 3:-0.54550653 4:0.11094987 5:1.7077363 6:-2.0704059 7:-2.14019 8:-1.4788135 
