svm_type c_svc
kernel_type linear
nr_class 2
total_sv 17744
rho -1.6171
label 1 -1
nr_sv 17584 160
SV
0.01009 1:-2.7988189 2:-0.81272803 3:0.30583786 4:0.55007244 
0.01009 1:-2.4411236 2:0.17209497 3:-0.20508299 4:0.51148451 
0.01009 1:0.12898291 2:-2.3641615 3:-0.36540127 4:0.50488972 
0.01009 1:-1.0633346 2:0.25303933 3:-0.86883062 4:0.4669464 
0.01009 1:0.6059099 2:-2.3506708 3:0.73435213 4:0.46032483 
0.01009 1:-0.75863121 2:-2.391143 3:0.21743807 4:0.43759683 
0.01009 1:1.0695889 2:-2.8902999 3:0.95610077 4:0.70310025 
0.01009 1:-0.12272856 2:-0.40800625 3:0.22193297 4:0.53128342 
0.01009 1:-0.40093597 2:-0.40800625 3:0.12454337 4:0.49915773 
0.01009 1:-0.40093597 2:-0.32706189 3:0.04663168 4:0.4690399 
0.01009 1:0.28795857 2:-1.8784954 3:0.84672475 4:0.5499419 
0.01009 1:-1.4872697 2:0.4419095 3:0.48113915 4:0.43568353 
0.01009 1:1.0563409 2:-1.9729305 3:0.57852876 4:0.6062528 
0.01009 1:0.6059099 2:-2.1887821 3:0.32531578 4:0.62974021 
0.01009 1:-0.78512715 2:-1.0285797 3:-0.088215466 4:0.58296479 
0.01009 1:0.73838962 2:-1.3118849 3:0.34928861 4:0.54658337 
0.01009 1:0.48667815 2:-1.2714127 3:0.19796015 4:0.52847404 
0.01009 1:0.56616599 2:-1.1769776 3:0.1590043 4:0.51804413 
0.01009 1:0.24821466 2:-1.0150889 3:0.37775634 4:0.44479467 
0.01009 1:-1.3812859 2:0.2395486 3:-0.065740942 4:0.41687202 
0.01009 1:0.59266193 2:-1.1769776 3:0.3417971 4:0.42208564 
0.01009 1:-1.3547899 2:-2.4855781 3:-0.13016791 4:0.38794402 
0.01009 1:-2.2026602 2:-2.0403841 3:0.079594316 4:0.35599475 
0.01009 1:-0.75863121 2:-1.0555611 3:-0.81639006 4:0.30199017 
0.01009 1:1.1755727 2:-2.0673656 3:1.9989187 4:0.39829235 
0.01009 1:0.79138151 2:-1.1769776 3:0.9830702 4:0.65427313 
0.01009 1:1.3477963 2:-1.9054768 3:1.6707906 4:1.1578138 
0.01009 1:0.22171872 2:-1.6491531 3:0.87968739 4:1.139613 
0.01009 1:-1.6992372 2:0.63077966 3:0.14402129 4:1.1193901 
0.01009 1:-0.18896842 2:-0.24611754 3:0.14851619 4:1.1317518 
0.01009 1:-0.2419603 2:-0.39451552 3:0.0646113 4:1.1356088 
0.01009 1:-0.38768799 2:-0.16517318 3:-0.025286798 4:1.1271886 
0.01009 1:1.1093328 2:-1.40632 3:0.19196694 4:1.1335988 
0.01009 1:1.029845 2:-1.3523571 3:0.84372815 4:1.155961 
0.01009 1:-2.4676196 2:0.84663128 3:0.34928861 4:1.1347396 
0.01009 1:0.9371092 2:-1.3793385 3:0.48863066 4:1.1539447 
0.01009 1:-1.7124852 2:0.65776111 3:-0.041768116 4:1.1269169 
0.01009 1:0.92386123 2:-1.0825426 3:1.1748528 4:1.2992616 
0.01009 1:-1.6329974 2:0.87361273 3:0.72985722 4:1.2801214 
0.01009 1:0.57941396 2:-1.6356623 3:0.88118569 4:1.2102086 
0.01009 1:1.0828369 2:-1.6086809 3:1.2662492 4:1.1387237 
0.01009 1:0.68539773 2:-1.3253756 3:0.66243365 4:1.0513885 
0.01009 1:-1.6859892 2:0.81964983 3:0.21294316 4:1.0333999 
0.01009 1:0.80462948 2:-2.2562357 3:0.90515851 4:0.99816943 
0.01009 1:0.38069438 2:-1.2174498 3:0.64445403 4:0.87585969 
0.01009 1:0.19522277 2:-2.5125595 3:0.48713236 4:0.86723608 
0.01009 1:-1.1560704 2:-1.3118849 3:-0.54220086 4:0.82730551 
0.01009 1:-0.93085484 2:0.19907643 3:-1.0441319 4:0.79590538 
0.01009 1:0.19522277 2:-1.257922 3:-1.0606132 4:0.7926925 
0.01009 1:0.036247108 2:-2.1078377 3:0.022658854 4:0.76874849 
0.01009 1:-1.1163265 2:-1.1904684 3:-0.37439108 4:0.74940508 
0.01009 1:-0.17572044 2:-1.40632 3:-0.056751132 4:0.74891707 
0.01009 1:0.19522277 2:-1.3118849 3:-0.38338089 4:0.75659539 
0.01009 1:0.24821466 2:-1.2039591 3:0.012170743 4:0.75057124 
0.01009 1:0.036247108 2:-1.3523571 3:0.41821048 4:0.75430715 
0.01009 1:-0.096232612 2:-1.2309405 3:-0.01779529 4:0.7498614 
0.01009 1:1.3345484 2:-2.5800132 3:-0.044764719 4:0.74474046 
0.01009 1:0.64565382 2:-1.1904684 3:-0.59613972 4:0.72098355 
0.01009 1:0.77813354 2:-1.1230147 3:-0.63959047 4:0.72052985 
0.01009 1:0.63240585 2:-1.2714127 3:-0.69352933 4:0.70958448 
0.01009 1:0.6059099 2:-1.3793385 3:-0.61861424 4:0.70098911 
0.01009 1:0.39394235 2:-1.5007551 3:-0.73997668 4:0.69118738 
0.01009 1:0.61915787 2:-1.40632 3:-0.26501506 4:0.68907624 
0.01009 1:1.0960849 2:-1.3793385 3:-0.23804563 4:0.68381581 
0.01009 1:1.0960849 2:-1.4333014 3:-0.23055412 4:0.68902842 
0.01009 1:0.72514165 2:-1.5412272 3:-0.23804563 4:0.68560793 
0.01009 1:0.97685312 2:-1.3658478 3:-0.2140728 4:0.6882766 
0.01009 1:1.1888207 2:-1.2983942 3:-0.10919169 4:0.68201144 
0.01009 1:1.2418126 2:-1.4872643 3:-0.026785099 4:0.6763864 
0.01009 1:0.87086934 2:-1.4333014 3:-0.06424264 4:0.66848987 
0.01009 1:0.65890179 2:-1.1769776 3:-0.11368659 4:0.66247086 
0.01009 1:0.68539773 2:-1.3523571 3:-0.077727355 4:0.65654041 
0.01009 1:0.83112542 2:-1.3253756 3:-0.092710371 4:0.65007551 
0.01009 1:0.69864571 2:-1.5142458 3:-0.15114413 4:0.64023608 
0.01009 1:0.69864571 2:-1.5142458 3:-0.2155711 4:0.63106069 
0.01009 1:0.97685312 2:-1.2849034 3:-0.2125745 4:0.62347903 
0.01009 1:1.0563409 2:-1.40632 3:-0.17961187 4:0.61897233 
0.01009 1:0.68539773 2:-1.5682087 3:-0.18560507 4:0.60864495 
0.01009 1:0.44693424 2:-1.5682087 3:-0.25602525 4:0.59901895 
0.01009 1:0.68539773 2:-1.3928293 3:-0.26351676 4:0.5905438 
0.01009 1:0.67214976 2:-1.3928293 3:-0.25302865 4:0.58305938 
0.01009 1:0.61915787 2:-1.5007551 3:-0.3054692 4:0.57141421 
0.01009 1:0.55291801 2:-1.5816994 3:-0.37289278 4:0.5685152 
0.01009 1:0.80462948 2:-1.5816994 3:-0.36090636 4:0.5703741 
0.01009 1:1.0033491 2:-1.4333014 3:-0.299476 4:0.56302439 
0.01009 1:0.89736528 2:-1.3928293 3:-0.27999808 4:0.55694862 
0.01009 1:0.48667815 2:-1.5951901 3:-0.3009743 4:0.54964873 
0.01009 1:0.46018221 2:-1.4333014 3:-0.32944203 4:0.54315018 
0.01009 1:0.80462948 2:-1.40632 3:-0.28449298 4:0.53878384 
0.01009 1:0.81787745 2:-1.5142458 3:-0.26351676 4:0.53439858 
0.01009 1:0.71189368 2:-1.6491531 3:-0.3054692 4:0.52762578 
0.01009 1:0.57941396 2:-1.5277365 3:-0.36989617 4:0.52069084 
0.01009 1:0.73838962 2:-1.4737736 3:-0.33393693 4:0.51762969 
0.01009 1:1.0033491 2:-1.3928293 3:-0.27700147 4:0.51335379 
0.01009 1:1.1755727 2:-1.5412272 3:-0.23355072 4:0.50846425 
0.01009 1:0.95035717 2:-1.5816994 3:-0.22156431 4:0.50071142 
0.01009 1:1.043093 2:-1.40632 3:-0.17661526 4:0.49611193 
0.01009 1:1.016597 2:-1.4872643 3:-0.020791893 4:0.48715265 
0.01009 1:0.6059099 2:-1.4467922 3:-0.076229053 4:0.47597298 
0.01009 1:0.71189368 2:-1.3523571 3:-0.1181815 4:0.4689375 
0.01009 1:0.80462948 2:-1.3118849 3:-0.10919169 4:0.46291397 
0.01009 1:0.76488557 2:-1.4198107 3:-0.13016791 4:0.46474513 
0.01009 1:0.6059099 2:-1.4737736 3:-0.23205242 4:0.46560391 
0.01009 1:0.73838962 2:-1.4737736 3:-0.26201846 4:0.45680969 
0.01009 1:1.1490768 2:-1.3793385 3:-0.20358469 4:0.45284752 
0.01009 1:0.77813354 2:-1.3118849 3:-0.1196798 4:0.44126008 
0.01009 1:0.65890179 2:-1.2309405 3:-0.1196798 4:0.43217937 
0.01009 1:0.75163759 2:-1.0420704 3:-0.076229053 4:0.42616107 
0.01009 1:0.8443734 2:-1.3118849 3:-0.016296988 4:0.42072749 
0.01009 1:0.97685312 2:-1.4737736 3:-0.028283401 4:0.41466159 
0.01009 1:1.016597 2:-1.4467922 3:-0.10170018 4:0.40605803 
0.01009 1:1.1888207 2:-1.3253756 3:0.57103725 4:0.37006801 
0.01009 1:0.85762137 2:-1.4198107 3:-0.013300385 4:0.27860209 
0.01009 1:1.0695889 2:-1.2444313 3:0.22792618 4:0.27256363 
0.01009 1:-1.3680379 2:-0.21913608 3:-0.29647939 4:0.22239585 
0.01009 1:-0.21546436 2:-1.1499962 3:-0.17062206 4:0.21754196 
0.01009 1:2.0896828 2:-2.4720873 3:-0.37888598 4:0.2071931 
0.01009 1:-1.0500866 2:0.091150617 3:-0.40735371 4:0.18169441 
0.01009 1:-0.20221639 2:-1.257922 3:-0.1226764 4:0.16979055 
0.01009 1:-0.056488696 2:-2.5125595 3:-0.33543524 4:0.15600209 
0.01009 1:-1.2753021 2:0.064169164 3:-0.71750215 4:0.12054808 
0.01009 1:0.062743052 2:-1.257922 3:-0.72799026 4:0.12061749 
0.01009 1:0.26146263 2:-2.5125595 3:-0.067239244 4:0.094249025 
0.01009 1:0.44693424 2:-1.3388664 3:-0.12717131 4:0.07391035 
0.01009 1:0.68539773 2:-1.9189676 3:0.84972135 4:0.086172212 
0.01009 1:-1.315046 2:0.22605788 3:0.29684805 4:0.07226349 
0.01009 1:0.26146263 2:-1.0015982 3:0.052624887 4:0.065173678 
0.01009 1:1.5465159 2:-2.5125595 3:-0.27400487 4:0.054709867 
0.01009 1:0.87086934 2:-1.257922 3:-0.4852654 4:0.0349785 
0.01009 1:-1.4342778 2:-0.39451552 3:-0.71600385 4:0.013701101 
0.01009 1:-0.38768799 2:-1.3118849 3:-0.93475589 4:0.01254616 
0.01009 1:-0.13597653 2:-1.3523571 3:-0.53620765 4:-0.011605412 
0.01009 1:0.44693424 2:-1.2039591 3:0.45416972 4:-0.034049325 
0.01009 1:0.075991024 2:-1.2174498 3:0.4331935 4:-0.035050129 
0.01009 1:-0.043240724 2:-1.3253756 3:0.23841429 4:-0.040413164 
0.01009 1:0.1819748 2:-1.4333014 3:0.68041327 4:0.017549598 
0.01009 1:-1.7522291 2:0.90059418 3:0.18747203 4:0.016139638 
0.01009 1:0.59266193 2:-1.1769776 3:0.44368161 4:0.15051874 
0.01009 1:-1.6065014 2:-1.2849034 3:0.16200091 4:0.17649901 
0.01009 1:2.3413942 2:-2.4046337 3:0.37625804 4:0.19230588 
0.01009 1:0.95035717 2:-1.2444313 3:-0.13915772 4:0.18854045 
0.01009 1:0.85762137 2:-1.0825426 3:-0.059747735 4:0.25141855 
0.01009 1:0.73838962 2:-1.0555611 3:0.37925464 4:0.25321855 
0.01009 1:2.0366909 2:-2.5665224 3:0.23991259 4:0.24783106 
0.01009 1:-0.5731596 2:-1.1230147 3:0.057119792 4:0.22286759 
0.01009 1:0.9371092 2:-1.1499962 3:0.3402988 4:0.29781921 
0.01009 1:1.2550605 2:-2.4316152 3:1.5838892 4:0.46720272 
0.01009 1:1.1490768 2:-2.3776523 3:0.63396592 4:0.45902026 
0.01009 1:0.72514165 2:-2.391143 3:0.3373022 4:0.43246613 
0.01009 1:0.96360514 2:-2.4316152 3:0.42420369 4:0.40453696 
0.01009 1:0.65890179 2:-1.2039591 3:0.54406782 4:1.1056346 
0.01009 1:0.49992613 2:-1.0825426 3:0.53357971 4:1.1119708 
0.01009 1:0.96360514 2:-2.4585966 3:0.70138949 4:1.1405523 
0.01009 1:0.75163759 2:-1.1230147 3:0.48563406 4:1.0996314 
0.01009 1:0.59266193 2:-1.0825426 3:0.23691599 4:1.0817944 
0.01009 1:2.5268658 2:-2.5530317 3:0.2504007 4:1.0720287 
0.01009 1:-0.42743191 2:-1.0285797 3:0.29235315 4:1.1008961 
0.01009 1:1.0033491 2:-1.1634869 3:0.15151279 4:1.0823846 
0.01009 1:-1.3680379 2:-1.1365055 3:-0.044764719 4:0.81401955 
0.01009 1:2.7918253 2:-2.4585966 3:-0.011802083 4:0.78624081 
0.01009 1:0.85762137 2:-1.257922 3:0.21294316 4:0.75848081 
0.01009 1:1.016597 2:-1.2174498 3:0.78079948 4:0.74923305 
0.01009 1:-0.44067988 2:-1.0690518 3:0.58002706 4:0.7185317 
0.01009 1:1.016597 2:-1.1769776 3:1.2482696 4:0.72279831 
0.01009 1:0.46018221 2:-1.0015982 3:0.72386402 4:0.74509538 
0.01009 1:0.44693424 2:-0.94763529 3:0.35378351 4:0.74220578 
0.01009 1:0.61915787 2:-1.7840603 3:0.26088881 4:0.73239795 
0.01009 1:1.9307071 2:-2.4451059 3:-0.19309658 4:0.69719819 
0.01009 1:0.43368627 2:-1.1634869 3:-0.086717165 4:0.63934158 
0.01009 1:1.7849794 2:-2.5665224 3:-0.15713734 4:0.63715504 
0.01009 1:-1.1428224 2:-0.043756645 3:-0.73548177 4:0.60340713 
0.01009 1:-0.043240724 2:-1.2039591 3:-0.61112274 4:0.60172903 
0.01009 1:-0.89111093 2:0.30700223 3:-0.52122464 4:0.56292639 
0.01009 1:0.92386123 2:-1.109524 3:0.22942448 4:0.59029742 
0.01009 1:0.72514165 2:-1.2849034 3:1.2317883 4:0.56877978 
0.01009 1:-3.1432662 2:1.156918 3:1.2497679 4:0.87778189 
0.01009 1:-1.315046 2:-1.2983942 3:0.59201347 4:0.75676289 
0.01009 1:-1.6197494 2:0.94106636 3:1.2093137 4:1.565039 
0.01009 1:1.2550605 2:-1.7840603 3:1.2707441 4:1.5879493 
0.01009 1:-0.4804238 2:-2.5530317 3:0.708881 4:1.5441953 
0.01009 1:1.2153166 2:-1.9324583 3:1.766682 4:1.6575427 
0.01009 1:1.957203 2:-2.2967079 3:1.7561938 4:1.6715381 
0.01009 1:1.3610443 2:-2.9982257 3:1.8940376 4:1.6717034 
0.01009 1:1.3610443 2:-1.6491531 3:2.0783287 4:1.677265 
0.01009 1:-2.8253148 2:1.6560748 3:1.4550352 4:1.8474714 
0.01009 1:1.6789956 2:-2.5665224 3:1.4670216 4:1.8268815 
0.01009 1:0.89736528 2:-3.0386978 3:1.7247295 4:1.791416 
0.01009 1:-2.295396 2:1.5346583 3:1.0534904 4:1.7813173 
0.01009 1:-2.6133473 2:1.1838994 3:0.63396592 4:1.7614051 
0.01009 1:1.1755727 2:-2.0403841 3:1.9314951 4:1.8029351 
0.01009 1:0.8443734 2:-1.6761345 3:1.3516524 4:1.784383 
0.01009 1:1.043093 2:-3.524364 3:1.0040464 4:1.7570919 
0.01009 1:-1.9774446 2:1.0894643 3:0.92913134 4:1.7937064 
0.01009 1:1.2550605 2:-1.9999119 3:0.94711096 4:1.7941811 
0.01009 1:1.7054916 2:-3.2545495 3:1.906024 4:1.7696121 
0.01009 1:-3.1035222 2:1.7774914 3:0.79128759 4:1.7130918 
0.01009 1:1.2550605 2:-1.703116 3:1.7097465 4:1.7295693 
0.01009 1:-0.87786296 2:-2.2832172 3:0.74783684 4:1.6957187 
0.01009 1:1.0960849 2:-3.4299289 3:2.1292709 4:1.671578 
0.01009 1:-1.9641967 2:-2.9577535 3:-0.035774909 4:1.603284 
0.01009 1:-2.3351399 2:1.0894643 3:1.215307 4:1.6209652 
0.01009 1:1.3080524 2:-1.5007551 3:2.000417 4:1.6185585 
0.01009 1:0.85762137 2:-1.4333014 3:1.4565335 4:1.5883445 
0.01009 1:-1.3945339 2:0.7521962 3:0.86170777 4:1.5639155 
0.01009 1:0.47343018 2:-1.0825426 3:0.27587183 4:1.4638872 
0.01009 1:-2.1099243 2:0.36096514 3:-0.26801166 4:1.4393154 
0.01009 1:0.97685312 2:-1.5682087 3:0.84372815 4:1.3972157 
0.01009 1:-1.2355582 2:0.61728894 3:0.43768841 4:1.3771031 
0.01009 1:0.64565382 2:-1.40632 3:1.2242968 4:1.3982913 
0.01009 1:-1.2885501 2:0.56332603 3:0.63546422 4:1.3763695 
0.01009 1:2.3016503 2:-2.0538748 3:2.2086809 4:1.4170046 
0.01009 1:1.8644672 2:-2.4181244 3:1.8670682 4:1.4474238 
0.01009 1:1.3477963 2:-2.4585966 3:2.2776028 4:1.4528762 
0.01009 1:-3.0372824 2:1.7909821 3:1.0984394 4:1.4085376 
0.01009 1:-2.1099243 2:1.1838994 3:1.6318348 4:1.4438737 
0.01009 1:0.99010109 2:-2.0673656 3:1.3576456 4:1.4945274 
0.01009 1:0.55291801 2:-1.2983942 3:1.1044326 4:1.4285336 
0.01009 1:0.83112542 2:-1.5816994 3:0.96958548 4:1.339339 
0.01009 1:-1.2223102 2:0.61728894 3:0.44218331 4:1.3165304 
0.01009 1:0.71189368 2:-0.97461675 3:1.0639785 4:1.2498009 
0.01009 1:0.83112542 2:-1.40632 3:1.1718562 4:1.3069739 
0.01009 1:0.72514165 2:-1.2039591 3:1.4760114 4:1.2944798 
0.01009 1:0.71189368 2:-1.3658478 3:1.4760114 4:1.3819877 
0.01009 1:0.88411731 2:-2.0538748 3:1.2497679 4:1.4126315 
0.01009 1:1.0033491 2:-1.0825426 3:1.2213002 4:1.4033052 
0.01009 1:0.089238996 2:-1.3928293 3:0.62647441 4:1.3873656 
0.01009 1:0.42043829 2:-0.82621876 3:0.4346918 4:1.2462688 
0.01009 1:0.32770249 2:-1.7435881 3:0.45117312 4:1.228127 
0.01009 1:-1.5800055 2:0.45540022 3:0.012170743 4:1.2057121 
0.01009 1:0.65890179 2:-2.6339761 3:0.65793875 4:1.1608654 
0.01009 1:0.56616599 2:-1.1365055 3:0.72985722 4:1.115797 
0.01009 1:-1.9377007 2:0.73870547 3:0.2444075 4:1.0959715 
0.01009 1:-2.4278757 2:-0.59687642 3:-2.9829342 4:-3.1409383 
0.01009 1:-0.58640757 2:-0.65083932 3:-2.2192998 4:-2.3304607 
0.01009 1:-0.63939946 2:-0.54291351 3:-1.8539639 4:-1.9427142 
0.01009 1:-0.53341569 2:-0.47545988 3:-1.6083923 4:-1.6820786 
0.01009 1:-0.46717583 2:-0.50244133 3:-1.4309434 4:-1.4937445 
0.01009 1:-0.49367177 2:-0.54291351 3:-1.3089032 4:-1.3642181 
0.01009 1:-0.53341569 2:-0.46196915 3:-1.2235535 4:-1.2736328 
0.01009 1:-0.45392785 2:-0.63734859 3:-1.1461829 4:-1.1915161 
0.01009 1:-0.62615149 2:-0.6913115 3:-1.1057121 4:-1.1485627 
0.01009 1:-0.67914338 2:-0.81272803 3:-1.0785928 4:-1.1197799 
0.01009 1:-0.79837512 2:-0.67782077 3:-0.89430174 4:-1.1089134 
0.01009 1:-0.66589541 2:-0.73178368 3:-0.69502763 4:-1.0862631 
0.01009 1:-0.71888729 2:-0.58338569 3:-0.71001064 4:-1.0718464 
0.01009 1:-0.5731596 2:-0.54291351 3:-0.70251913 4:-1.0465241 
0.01009 1:-0.53341569 2:-0.56989496 3:-0.70251913 4:-1.0210874 
0.01009 1:-0.55991163 2:-0.66433005 3:-0.71300725 4:-1.0007011 
0.01009 1:-0.65264743 2:-0.65083932 3:-0.73098687 4:-0.98938255 
0.01009 1:-0.63939946 2:-0.71829295 3:-0.74297328 4:-0.97833477 
0.01009 1:-0.70563932 2:-0.81272803 3:-0.77144101 4:-0.97276484 
0.01009 1:-0.79837512 2:-0.89367239 3:-0.79091893 4:-0.97355616 
0.01009 1:-0.87786296 2:-0.78574658 3:-0.81339346 4:-0.97904618 
0.01009 1:-0.77187918 2:-0.75876513 3:-0.81039685 4:-0.97797452 
0.01009 1:-0.74538324 2:-0.62385787 3:-0.81938666 4:-0.97553446 
0.01009 1:-0.61290352 2:-0.56989496 3:-0.80740025 4:-0.96629269 
0.01009 1:-0.55991163 2:-0.65083932 3:-0.80590195 4:-0.95507069 
0.01009 1:-0.63939946 2:-0.66433005 3:-0.81788836 4:-0.94856713 
0.01009 1:-0.65264743 2:-0.86669094 3:-0.82837647 4:-0.94315284 
0.01009 1:-0.70563932 2:-0.83970949 3:-0.8583425 4:-0.94448559 
0.01009 1:-0.82487107 2:-0.73178368 3:-0.87182722 4:-0.94706242 
0.01009 1:-0.71888729 2:-0.81272803 3:-0.86283741 4:-0.94510511 
0.01009 1:-0.79837512 2:-0.71829295 3:-0.8538476 4:-0.94644685 
0.01009 1:-0.70563932 2:-0.66433005 3:-0.84635609 4:-0.9441083 
0.01009 1:-0.65264743 2:-0.48895061 3:-0.83586798 4:-0.93990427 
0.01009 1:-0.4804238 2:-0.44847843 3:-0.82088496 4:-0.92961711 
0.01009 1:-0.44067988 2:-0.6913115 3:-0.80740025 4:-0.91846773 
0.01009 1:-0.67914338 2:-0.75876513 3:-0.81189515 4:-0.91619099 
0.01009 1:-0.74538324 2:-0.6913115 3:-0.82238327 4:-0.91627361 
0.01009 1:-0.67914338 2:-0.56989496 3:-0.80290534 4:-0.91416556 
0.01009 1:-0.55991163 2:-0.67782077 3:-0.78642403 4:-0.90832057 
0.01009 1:-0.66589541 2:-0.67782077 3:-0.76844441 4:-0.90608577 
0.01009 1:-0.66589541 2:-0.52942279 3:-0.7624512 4:-0.90395493 
0.01009 1:-0.52016771 2:-0.46196915 3:-0.73098687 4:-0.89754785 
0.01009 1:-0.45392785 2:-0.40800625 3:-0.70251913 4:-0.88948195 
0.01009 1:-0.40093597 2:-0.44847843 3:-0.6740514 4:-0.88024567 
0.01009 1:-0.44067988 2:-0.63734859 3:-0.6695565 4:-0.87251895 
0.01009 1:-0.62615149 2:-0.6913115 3:-0.69053272 4:-0.8702161 
0.01009 1:-0.67914338 2:-0.62385787 3:-0.69053272 4:-0.86943519 
0.01009 1:-0.61290352 2:-0.55640424 3:-0.67554971 4:-0.86693629 
0.01009 1:-0.49367177 2:-0.55640424 3:-0.65307518 4:-0.85751735 
0.01009 1:-0.54666366 2:-0.40800625 3:-0.63959047 4:-0.85373454 
0.01009 1:-0.40093597 2:-0.39451552 3:-0.60962443 4:-0.84652858 
0.01009 1:-0.38768799 2:-0.40800625 3:-0.59464142 4:-0.83926661 
0.01009 1:-0.40093597 2:-0.46196915 3:-0.58864821 4:-0.83257637 
0.01009 1:-0.45392785 2:-0.59687642 3:-0.59464142 4:-0.8273484 
0.01009 1:-0.58640757 2:-0.61036714 3:-0.61112274 4:-0.82531662 
0.01009 1:-0.59965555 2:-0.54291351 3:-0.60812613 4:-0.8236502 
0.01009 1:-0.53341569 2:-0.32706189 3:-0.59164481 4:-0.82058163 
0.01009 1:-0.32144813 2:-0.92065384 3:-0.55868218 4:-0.81302552 
0.01009 1:-0.33469611 2:-0.34055262 3:-0.50174672 4:-0.79423382 
0.01009 1:-0.33469611 2:-0.4349877 3:-0.49425521 4:-0.78781717 
0.01009 1:-0.42743191 2:-0.44847843 3:-0.49875011 4:-0.7834502 
0.01009 1:-0.44067988 2:-0.54291351 3:-0.50324502 4:-0.77947467 
0.01009 1:-0.53341569 2:-0.59687642 3:-0.51223483 4:-0.77741675 
0.01009 1:-0.58640757 2:-0.36753407 3:-0.51223483 4:-0.77643253 
0.01009 1:-0.26845625 2:-0.36753407 3:-0.43881805 4:-0.75615158 
0.01009 1:-0.36119205 2:-0.35404335 3:-0.37738768 4:-0.75143903 
0.01009 1:-0.34794408 2:-0.46196915 3:-0.43432314 4:-0.74661747 
0.01009 1:-0.45392785 2:-0.40800625 3:-0.44780786 4:-0.74379033 
0.01009 1:-0.40093597 2:-0.50244133 3:-0.45529937 4:-0.74011695 
0.01009 1:-0.49367177 2:-0.48895061 3:-0.46279087 4:-0.73812918 
0.01009 1:-0.4804238 2:-0.34055262 3:-0.46728578 4:-0.73596813 
0.01009 1:-0.34794408 2:-0.39451552 3:-0.3983639 4:-0.7137718 
0.01009 1:-0.38768799 2:-0.50244133 3:-0.41184862 4:-0.71055913 
0.01009 1:-0.49367177 2:-0.42149698 3:-0.42683163 4:-0.7090889 
0.01009 1:-0.41418394 2:-0.39451552 3:-0.43432314 4:-0.7064185 
0.01009 1:-0.38768799 2:-0.4349877 3:-0.42683163 4:-0.70340341 
0.01009 1:-0.42743191 2:-0.36753407 3:-0.42982824 4:-0.70106081 
0.01009 1:-0.33469611 2:-0.42149698 3:-0.38338089 4:-0.68201744 
0.01009 1:-0.41418394 2:-0.44847843 3:-0.40136051 4:-0.67984448 
0.01009 1:-0.44067988 2:-0.46196915 3:-0.41184862 4:-0.67809443 
0.01009 1:-0.45392785 2:-0.35404335 3:-0.41934013 4:-0.67656771 
0.01009 1:-0.34794408 2:-0.3810248 3:-0.40285881 4:-0.67360008 
0.01009 1:-0.37444002 2:-0.31357117 3:-0.3983639 4:-0.67105871 
0.01009 1:-0.34794408 2:-0.51593206 3:-0.36390297 4:-0.65457948 
0.01009 1:-0.50691974 2:-0.47545988 3:-0.3983639 4:-0.65408416 
0.01009 1:-0.46717583 2:-0.48895061 3:-0.41334692 4:-0.65308406 
0.01009 1:-0.4804238 2:-0.35404335 3:-0.42083843 4:-0.65227322 
0.01009 1:-0.33469611 2:-0.50244133 3:-0.35491316 4:-0.63151209 
0.01009 1:-0.49367177 2:-0.48895061 3:-0.3968656 4:-0.63110797 
0.01009 1:-0.4804238 2:-0.4349877 3:-0.41184862 4:-0.63055354 
0.01009 1:-0.42743191 2:-0.25960826 3:-0.40285881 4:-0.62938429 
0.01009 1:-0.28170422 2:-1.0150889 3:-0.33393693 4:-0.61631352 
0.01009 1:-0.49367177 2:-0.3810248 3:-0.38637749 4:-0.6108722 
0.01009 1:-0.37444002 2:-0.39451552 3:-0.3908724 4:-0.60936183 
0.01009 1:-0.33469611 2:-0.4349877 3:-0.32045222 4:-0.59022702 
0.01009 1:-0.42743191 2:-0.4349877 3:-0.25602525 4:-0.58951897 
0.01009 1:-0.42743191 2:-0.30008044 3:-0.35341485 4:-0.58882191 
0.01009 1:-0.34794408 2:-0.31357117 3:-0.3024726 4:-0.57518 
0.01009 1:-0.26845625 2:-0.3810248 3:-0.30846581 4:-0.57136747 
0.01009 1:-0.37444002 2:-0.44847843 3:-0.32794373 4:-0.57033288 
0.01009 1:-0.44067988 2:-1.0150889 3:-0.33993014 4:-0.56994706 
0.01009 1:-0.38768799 2:-0.42149698 3:-0.31595731 4:-0.55855764 
0.01009 1:-0.41418394 2:-0.25960826 3:-0.33843184 4:-0.55802672 
0.01009 1:-0.25520827 2:-0.36753407 3:-0.32794373 4:-0.55605548 
0.01009 1:-0.36119205 2:-0.40800625 3:-0.33393693 4:-0.55506973 
0.01009 1:-0.40093597 2:-0.23262681 3:-0.34891995 4:-0.55445438 
0.01009 1:-0.22871233 2:-0.36753407 3:-0.29498109 4:-0.54489219 
0.01009 1:-0.36119205 2:-0.39451552 3:-0.31895392 4:-0.5440188 
0.01009 1:-0.38768799 2:-0.25960826 3:-0.34142844 4:-0.54338547 
0.01009 1:-0.21546436 2:-0.40800625 3:-0.26351676 4:-0.5295531 
0.01009 1:-0.40093597 2:-0.47545988 3:-0.29348279 4:-0.52914975 
0.01009 1:-0.46717583 2:-0.27309899 3:-0.32045222 4:-0.52929126 
0.01009 1:-0.28170422 2:-0.4349877 3:-0.29198449 4:-0.51791786 
0.01009 1:-0.42743191 2:-0.46196915 3:-0.32494712 4:-0.5178101 
0.01009 1:-0.45392785 2:-0.34055262 3:-0.35191655 4:-0.51790818 
0.01009 1:-0.21546436 2:-0.3810248 3:-0.3024726 4:-0.51003326 
0.01009 1:-0.37444002 2:-0.32706189 3:-0.32045222 4:-0.509579 
0.01009 1:-0.32144813 2:-0.3810248 3:-0.33393693 4:-0.50873675 
0.01009 1:-0.37444002 2:-0.3810248 3:-0.34592335 4:-0.5082948 
0.01009 1:-0.37444002 2:-0.35404335 3:-0.35641146 4:-0.50785776 
0.01009 1:-0.30820016 2:-0.30008044 3:-0.3039709 4:-0.50159391 
0.01009 1:-0.29495219 2:-0.3810248 3:-0.31595731 4:-0.50063758 
0.01009 1:-0.37444002 2:-0.39451552 3:-0.32344882 4:-0.50025581 
0.01009 1:-0.38768799 2:-0.65083932 3:-0.34292674 4:-0.49997167 
0.01009 1:-0.26845625 2:-0.48895061 3:-0.33094033 4:-0.49425011 
0.01009 1:-0.4804238 2:-0.46196915 3:-0.36689957 4:-0.49463834 
0.01009 1:-0.45392785 2:-0.51593206 3:-0.38338089 4:-0.49484318 
0.01009 1:-0.50691974 2:-0.3810248 3:-0.40735371 4:-0.49540291 
0.01009 1:-0.37444002 2:-0.39451552 3:-0.40735371 4:-0.49506903 
0.01009 1:-0.38768799 2:-0.28658971 3:-0.40735371 4:-0.49482687 
0.01009 1:-0.28170422 2:-0.50244133 3:-0.36240466 4:-0.489639 
0.01009 1:-0.49367177 2:-0.46196915 3:-0.39986221 4:-0.4901189 
0.01009 1:-0.45392785 2:-0.48895061 3:-0.42083843 4:-0.49033686 
0.01009 1:-0.4804238 2:-0.34055262 3:-0.42083843 4:-0.49072335 
0.01009 1:-0.32144813 2:-0.32706189 3:-0.37139447 4:-0.48841251 
0.01009 1:-0.33469611 2:-0.47545988 3:-0.35790976 4:-0.48542126 
0.01009 1:-0.46717583 2:-0.51593206 3:-0.3983639 4:-0.48573566 
0.01009 1:-0.50691974 2:-0.44847843 3:-0.42383503 4:-0.48629348 
0.01009 1:-0.44067988 2:-0.3810248 3:-0.41784183 4:-0.48643739 
0.01009 1:-0.26845625 2:-0.34055262 3:-0.36839787 4:-0.48387859 
0.01009 1:-0.28170422 2:-0.48895061 3:-0.36390297 4:-0.48146909 
0.01009 1:-0.4804238 2:-0.56989496 3:-0.40435711 4:-0.48186772 
0.01009 1:-0.55991163 2:-0.44847843 3:-0.42982824 4:-0.48273553 
0.01009 1:-0.44067988 2:-0.44847843 3:-0.42683163 4:-0.48288959 
0.01009 1:-0.44067988 2:-0.27309899 3:-0.41934013 4:-0.48304227 
0.01009 1:-0.29495219 2:-0.42149698 3:-0.3983639 4:-0.480564 
0.01009 1:-0.41418394 2:-0.32706189 3:-0.41484522 4:-0.48057076 
0.01009 1:-0.32144813 2:-0.48895061 3:-0.41334692 4:-0.48004276 
0.01009 1:-0.4804238 2:-0.55640424 3:-0.44181465 4:-0.480432 
0.01009 1:-0.54666366 2:-0.47545988 3:-0.47178068 4:-0.48119649 
0.01009 1:-0.46717583 2:-0.3810248 3:-0.47028238 4:-0.48150199 
0.01009 1:-0.30820016 2:-0.40800625 3:-0.38937409 4:-0.47780622 
0.01009 1:-0.40093597 2:-0.35404335 3:-0.40585541 4:-0.47775055 
0.01009 1:-0.34794408 2:-0.3810248 3:-0.41184862 4:-0.47740136 
0.01009 1:-0.37444002 2:-0.40800625 3:-0.40735371 4:-0.47720147 
0.01009 1:-0.40093597 2:-0.4349877 3:-0.41634352 4:-0.47714902 
0.01009 1:-0.42743191 2:-0.24611754 3:-0.41035032 4:-0.47724217 
0.01009 1:-0.29495219 2:-0.40800625 3:-0.32045222 4:-0.47260934 
0.01009 1:-0.40093597 2:-0.32706189 3:-0.35191655 4:-0.47257684 
0.01009 1:-0.32144813 2:-0.32706189 3:-0.35341485 4:-0.47211968 
0.01009 1:-0.32144813 2:-0.3810248 3:-0.34442505 4:-0.47166621 
0.01009 1:-0.37444002 2:-0.32706189 3:-0.34742165 4:-0.47149738 
0.01009 1:-0.32144813 2:-0.46196915 3:-0.29498109 4:-0.46674774 
0.01009 1:-0.45392785 2:-0.42149698 3:-0.33393693 4:-0.46701376 
0.01009 1:-0.41418394 2:-0.28658971 3:-0.34742165 4:-0.46707271 
0.01009 1:-0.28170422 2:-0.35404335 3:-0.33393693 4:-0.46645057 
0.01009 1:-0.34794408 2:-0.35404335 3:-0.33693354 4:-0.46617225 
0.01009 1:-0.2419603 2:-0.39451552 3:-0.33243863 4:-0.46381168 
0.01009 1:-0.38768799 2:-0.50244133 3:-0.35491316 4:-0.46374821 
0.01009 1:-0.49367177 2:-0.58338569 3:-0.3968656 4:-0.4642153 
0.01009 1:-0.5731596 2:-0.36753407 3:-0.42533333 4:-0.46507492 
0.01009 1:-0.36119205 2:-0.32706189 3:-0.41484522 4:-0.4648759 
0.01009 1:-0.32144813 2:-0.31357117 3:-0.40435711 4:-0.46448183 
0.01009 1:-0.30820016 2:-0.35404335 3:-0.40735371 4:-0.46402543 
0.01009 1:-0.26845625 2:-0.32706189 3:-0.39986221 4:-0.4623537 
0.01009 1:-0.32144813 2:-0.48895061 3:-0.39986221 4:-0.46197614 
0.01009 1:-0.4804238 2:-0.52942279 3:-0.42683163 4:-0.46237025 
0.01009 1:-0.52016771 2:-0.30008044 3:-0.44181465 4:-0.462953 
0.01009 1:-0.2419603 2:-0.36753407 3:-0.34442505 4:-0.45915826 
0.01009 1:-0.36119205 2:-0.35404335 3:-0.34592335 4:-0.45899032 
0.01009 1:-0.34794408 2:-0.47545988 3:-0.35790976 4:-0.45876133 
0.01009 1:-0.46717583 2:-0.44847843 3:-0.38038428 4:-0.45909223 
0.01009 1:-0.44067988 2:-0.32706189 3:-0.393869 4:-0.45929717 
0.01009 1:-0.30820016 2:-0.30008044 3:-0.33393693 4:-0.45638476 
0.01009 1:-0.29495219 2:-0.4349877 3:-0.34592335 4:-0.45592743 
0.01009 1:-0.42743191 2:-0.40800625 3:-0.36240466 4:-0.45607854 
0.01009 1:-0.40093597 2:-0.35404335 3:-0.38038428 4:-0.45610797 
0.01009 1:-0.34794408 2:-0.40800625 3:-0.37888598 4:-0.45589675 
0.01009 1:-0.40093597 2:-0.3810248 3:-0.38487919 4:-0.4559266 
0.01009 1:-0.26845625 2:-0.3810248 3:-0.33693354 4:-0.4530301 
0.01009 1:-0.37444002 2:-0.39451552 3:-0.35641146 4:-0.45295131 
0.01009 1:-0.38768799 2:-0.4349877 3:-0.36540127 4:-0.45293174 
0.01009 1:-0.42743191 2:-0.31357117 3:-0.38038428 4:-0.45308781 
0.01009 1:-0.30820016 2:-0.34055262 3:-0.36689957 4:-0.45271807 
0.01009 1:-0.33469611 2:-0.32706189 3:-0.35940806 4:-0.45246702 
0.01009 1:-0.26845625 2:-0.48895061 3:-0.3069675 4:-0.44907049 
0.01009 1:-0.4804238 2:-0.40800625 3:-0.34292674 4:-0.44946427 
0.01009 1:-0.40093597 2:-0.46196915 3:-0.35790976 4:-0.44951362 
0.01009 1:-0.45392785 2:-0.32706189 3:-0.36689957 4:-0.44978981 
0.01009 1:-0.28170422 2:-0.44847843 3:-0.299476 4:-0.44556071 
0.01009 1:-0.44067988 2:-0.42149698 3:-0.34442505 4:-0.44578778 
0.01009 1:-0.41418394 2:-0.36753407 3:-0.36090636 4:-0.44590271 
0.01009 1:-0.36119205 2:-0.24611754 3:-0.34742165 4:-0.44579619 
0.01009 1:-0.30820016 2:-0.40800625 3:-0.29198449 4:-0.44186742 
0.01009 1:-0.40093597 2:-0.47545988 3:-0.33094033 4:-0.44193762 
0.01009 1:-0.46717583 2:-0.36753407 3:-0.35191655 4:-0.4422765 
0.01009 1:-0.36119205 2:-0.24611754 3:-0.34292674 4:-0.44218405 
0.01009 1:-0.29495219 2:-0.40800625 3:-0.31895392 4:-0.4386905 
0.01009 1:-0.40093597 2:-0.47545988 3:-0.34292674 4:-0.43876834 
0.01009 1:-0.46717583 2:-0.31357117 3:-0.36090636 4:-0.43910758 
0.01009 1:-0.32144813 2:-0.34055262 3:-0.31595731 4:-0.43628458 
0.01009 1:-0.22871233 2:-0.4349877 3:-0.32045222 4:-0.43552738 
0.01009 1:-0.42743191 2:-1.0150889 3:-0.33993014 4:-0.43571472 
0.01009 1:-0.22871233 2:-0.3810248 3:-0.3054692 4:-0.43396348 
0.01009 1:-0.37444002 2:-0.52942279 3:-0.33693354 4:-0.43395102 
0.01009 1:-0.52016771 2:-0.3810248 3:-0.37439108 4:-0.43448997 
0.01009 1:-0.37444002 2:-0.51593206 3:-0.38038428 4:-0.43447608 
0.01009 1:-0.50691974 2:-0.52942279 3:-0.39986221 4:-0.43496063 
0.01009 1:-0.52016771 2:-0.47545988 3:-0.43282484 4:-0.43549211 
0.01009 1:-0.46717583 2:-0.3810248 3:-0.43731975 4:-0.43582237 
0.01009 1:-0.37444002 2:-0.36753407 3:-0.36689957 4:-0.43580488 
0.01009 1:-0.36119205 2:-0.4349877 3:-0.42982824 4:-0.4357382 
0.01009 1:-0.42743191 2:-0.55640424 3:-0.44331295 4:-0.43591758 
0.01009 1:-0.54666366 2:-0.62385787 3:-0.49425521 4:-0.43653694 
0.01009 1:-0.61290352 2:-0.67782077 3:-0.53770596 4:-0.43739714 
0.01009 1:-0.66589541 2:-0.4349877 3:-0.57066859 4:-0.43844746 
0.01009 1:-0.42743191 2:-0.55640424 3:-0.56018048 4:-0.43861732 
0.01009 1:-0.54666366 2:-0.55640424 3:-0.5796584 4:-0.43922233 
0.01009 1:-0.54666366 2:-0.46196915 3:-0.58415331 4:-0.43982401 
0.01009 1:-0.45392785 2:-0.3810248 3:-0.5766618 4:-0.44008505 
0.01009 1:-0.37444002 2:-0.35404335 3:-0.56617369 4:-0.44005632 
0.01009 1:-0.34794408 2:-0.3810248 3:-0.56317708 4:-0.4399319 
0.01009 1:-0.37444002 2:-0.63734859 3:-0.56467538 4:-0.43990375 
0.01009 1:-0.62615149 2:-0.65083932 3:-0.58714991 4:-0.44078135 
0.01009 1:-0.63939946 2:-0.48895061 3:-0.59763802 4:-0.44170171 
0.01009 1:-0.4804238 2:-0.36753407 3:-0.582655 4:-0.44204823 
0.01009 1:-0.36119205 2:-0.36753407 3:-0.54819407 4:-0.44196739 
0.01009 1:-0.36119205 2:-0.40800625 3:-0.54070256 4:-0.44188698 
0.01009 1:-0.40093597 2:-0.30008044 3:-0.52422124 4:-0.44194807 
0.01009 1:-0.29495219 2:-0.34055262 3:-0.49575351 4:-0.44163366 
0.01009 1:-0.33469611 2:-0.32706189 3:-0.4822688 4:-0.44146125 
0.01009 1:-0.32144813 2:-0.4349877 3:-0.47627559 4:-0.44124311 
0.01009 1:-0.42743191 2:-0.50244133 3:-0.4852654 4:-0.44139831 
0.01009 1:-0.49367177 2:-0.40800625 3:-0.49875011 4:-0.44178468 
0.01009 1:-0.30820016 2:-0.34055262 3:-0.32195052 4:-0.43789731 
0.01009 1:-0.33469611 2:-0.32706189 3:-0.32344882 4:-0.43773993 
0.01009 1:-0.28170422 2:-0.35404335 3:-0.19908979 4:-0.42822882 
0.01009 1:-0.33469611 2:-0.36753407 3:-0.22755752 4:-0.42426904 
0.01009 1:-0.36119205 2:-0.4349877 3:-0.26351676 4:-0.42423937 
0.01009 1:-0.42743191 2:-0.32706189 3:-0.28299468 4:-0.42442317 
0.01009 1:-0.21546436 2:-0.39451552 3:-0.25602525 4:-0.42159688 
0.01009 1:-0.38768799 2:-0.3810248 3:-0.3069675 4:-0.42165808 
0.01009 1:-0.37444002 2:-0.3810248 3:-0.32644543 4:-0.42167715 
0.01009 1:-0.37444002 2:-0.28658971 3:-0.33094033 4:-0.42169613 
0.01009 1:-0.21546436 2:-0.3810248 3:-0.23954393 4:-0.41806269 
0.01009 1:-0.37444002 2:-0.44847843 3:-0.27550317 4:-0.41808984 
0.01009 1:-0.44067988 2:-0.32706189 3:-0.3009743 4:-0.41832169 
0.01009 1:-0.32144813 2:-0.27309899 3:-0.29348279 4:-0.41818463 
0.01009 1:-0.34794408 2:-0.44847843 3:-0.28449298 4:-0.41495074 
0.01009 1:-0.44067988 2:-0.27309899 3:-0.30996411 4:-0.40891891 
0.01009 1:-0.22871233 2:-0.35404335 3:-0.24104223 4:-0.39528844 
0.01009 1:-0.34794408 2:-0.42149698 3:-0.25752355 4:-0.39444204 
0.01009 1:-0.41418394 2:-0.24611754 3:-0.28449298 4:-0.39363594 
0.01009 1:-0.26845625 2:-0.35404335 3:-0.23954393 4:-0.38567521 
0.01009 1:-0.33469611 2:-0.31357117 3:-0.27250657 4:-0.38220098 
0.01009 1:-0.33469611 2:-0.42149698 3:-0.22905582 4:-0.37123948 
0.01009 1:-0.28170422 2:-0.30008044 3:-0.24104223 4:-0.36562497 
0.01009 1:-0.33469611 2:-0.4349877 3:-0.24853374 4:-0.35758906 
0.01009 1:-0.26845625 2:-0.32706189 3:-0.23055412 4:-0.3481872 
0.01009 1:-0.32144813 2:-0.47545988 3:-0.24853374 4:-0.34794313 
0.01009 1:-0.46717583 2:-0.52942279 3:-0.29048619 4:-0.34802449 
0.01009 1:-0.52016771 2:-0.25960826 3:-0.32794373 4:-0.34769905 
0.01009 1:-0.26845625 2:-0.3810248 3:-0.31745562 4:-0.3439199 
0.01009 1:-0.37444002 2:-0.42149698 3:-0.33543524 4:-0.34338983 
0.01009 1:-0.41418394 2:-0.4349877 3:-0.35790976 4:-0.34343061 
0.01009 1:-0.42743191 2:-0.54291351 3:-0.3908724 4:-0.34355293 
0.01009 1:-0.53341569 2:-0.66433005 3:-0.42832994 4:-0.34396068 
0.01009 1:-0.65264743 2:-0.66433005 3:-0.47178068 4:-0.3445723 
0.01009 1:-0.65264743 2:-0.62385787 3:-0.50923822 4:-0.34477617 
0.01009 1:-0.61290352 2:-0.30008044 3:-0.52571954 4:-0.34570574 
0.01009 1:-0.29495219 2:-0.52942279 3:-0.50024841 4:-0.344083 
0.01009 1:-0.52016771 2:-0.50244133 3:-0.53021445 4:-0.34472942 
0.01009 1:-0.49367177 2:-0.59687642 3:-0.55568558 4:-0.34525826 
0.01009 1:-0.58640757 2:-0.63734859 3:-0.59164481 4:-0.34428194 
0.01009 1:-0.62615149 2:-0.65083932 3:-0.62011255 4:-0.34668205 
0.01009 1:-0.63939946 2:-0.55640424 3:-0.64558367 4:-0.34761769 
0.01009 1:-0.54666366 2:-0.73178368 3:-0.65906839 4:-0.34826856 
0.01009 1:-0.71888729 2:-0.6913115 3:-0.68004461 4:-0.34916352 
0.01009 1:-0.67914338 2:-0.54291351 3:-0.68304121 4:-0.34989576 
0.01009 1:-0.53341569 2:-0.32706189 3:-0.6695565 4:-0.34989576 
0.01009 1:-0.32144813 2:-0.51593206 3:-0.63659386 4:-0.34908216 
0.01009 1:-0.50691974 2:-0.61036714 3:-0.66056669 4:-0.34952964 
0.01009 1:-0.59965555 2:-0.56989496 3:-0.6695565 4:-0.35083139 
0.01009 1:-0.55991163 2:-0.63734859 3:-0.67704801 4:-0.35172635 
0.01009 1:-0.62615149 2:-0.61036714 3:-0.68154291 4:-0.35253995 
0.01009 1:-0.59965555 2:-0.55640424 3:-0.67854631 4:-0.35331286 
0.01009 1:-0.54666366 2:-0.62385787 3:-0.6680582 4:-0.35359762 
0.01009 1:-0.61290352 2:-0.56989496 3:-0.67554971 4:-0.3542485 
0.01009 1:-0.55991163 2:-0.40800625 3:-0.65757009 4:-0.35499159 
0.01009 1:-0.40093597 2:-0.30008044 3:-0.62610575 4:-0.35470749 
0.01009 1:-0.29495219 2:-0.47545988 3:-0.59913632 4:-0.3541393 
0.01009 1:-0.46717583 2:-0.63734859 3:-0.61561764 4:-0.35454515 
0.01009 1:-0.62615149 2:-0.61036714 3:-0.62910235 4:-0.35612798 
0.01009 1:-0.59965555 2:-0.65083932 3:-0.62910235 4:-0.3571832 
0.01009 1:-0.63939946 2:-0.54291351 3:-0.63809216 4:-0.35807608 
0.01009 1:-0.53341569 2:-0.48895061 3:-0.62760405 4:-0.35852252 
0.01009 1:-0.4804238 2:-0.48895061 3:-0.61411934 4:-0.35848194 
0.01009 1:-0.4804238 2:-0.46196915 3:-0.60662783 4:-0.35868486 
0.01009 1:-0.45392785 2:-0.28658971 3:-0.58864821 4:-0.35888779 
0.01009 1:-0.28170422 2:-0.28658971 3:-0.55718388 4:-0.35844135 
0.01009 1:-0.28170422 2:-0.40800625 3:-0.54369916 4:-0.35819784 
0.01009 1:-0.40093597 2:-0.61036714 3:-0.55568558 4:-0.35909072 
0.01009 1:-0.59965555 2:-0.55640424 3:-0.57066859 4:-0.36030828 
0.01009 1:-0.54666366 2:-0.56989496 3:-0.56167878 4:-0.36095765 
0.01009 1:-0.55991163 2:-0.40800625 3:-0.55718388 4:-0.36140409 
0.01009 1:-0.40093597 2:-0.3810248 3:-0.53021445 4:-0.36128233 
0.01009 1:-0.37444002 2:-0.31357117 3:-0.51223483 4:-0.36103882 
0.01009 1:-0.30820016 2:-0.32706189 3:-0.49275691 4:-0.36091706 
0.01009 1:-0.34794408 2:-0.51593206 3:-0.45080446 4:-0.36079531 
0.01009 1:-0.50691974 2:-0.52942279 3:-0.47627559 4:-0.36197228 
0.01009 1:-0.52016771 2:-0.47545988 3:-0.4897603 4:-0.36249989 
0.01009 1:-0.46717583 2:-0.30008044 3:-0.47477729 4:-0.36237814 
0.01009 1:-0.28170422 2:-0.30008044 3:-0.38637749 4:-0.36063296 
0.01009 1:-0.2419603 2:-0.42149698 3:-0.35041825 4:-0.36043004 
0.01009 1:-0.41418394 2:-0.48895061 3:-0.37738768 4:-0.3613635 
0.01009 1:-0.4804238 2:-0.34055262 3:-0.3923707 4:-0.36180994 
0.01009 1:-0.33469611 2:-0.28658971 3:-0.37289278 4:-0.36132292 
0.01009 1:-0.22871233 2:-0.3810248 3:-0.28748958 4:-0.35945599 
0.01009 1:-0.37444002 2:-0.44847843 3:-0.31296071 4:-0.35754847 
0.01009 1:-0.44067988 2:-0.31357117 3:-0.33543524 4:-0.36022711 
0.01009 1:-0.22871233 2:-0.40800625 3:-0.26801166 4:-0.35856311 
0.01009 1:-0.40093597 2:-0.24611754 3:-0.29348279 4:-0.3591313 
0.01009 1:-0.2419603 2:-0.40800625 3:-0.29048619 4:-0.35892838 
0.01009 1:-0.40093597 2:-0.46196915 3:-0.31146241 4:-0.35953716 
0.01009 1:-0.45392785 2:-0.31357117 3:-0.33693354 4:-0.35990243 
0.01009 1:-0.29495219 2:-0.47545988 3:-0.28898788 4:-0.35876603 
0.01009 1:-0.46717583 2:-0.32706189 3:-0.32494712 4:-0.35953716 
0.01009 1:-0.32144813 2:-0.35404335 3:-0.33543524 4:-0.35945599 
0.01009 1:-0.34794408 2:-0.31357117 3:-0.32944203 4:-0.35957774 
0.01009 1:-0.30820016 2:-0.32706189 3:-0.33693354 4:-0.3596995 
0.01009 1:-0.20221639 2:-0.4349877 3:-0.27550317 4:-0.35840077 
0.01009 1:-0.42743191 2:-0.47545988 3:-0.31445901 4:-0.35925306 
0.01009 1:-0.46717583 2:-0.39451552 3:-0.35491316 4:-0.36010535 
0.01009 1:-0.38768799 2:-0.30008044 3:-0.36540127 4:-0.36010535 
0.01009 1:-0.29495219 2:-0.32706189 3:-0.34592335 4:-0.35974009 
0.01009 1:-0.32144813 2:-0.30008044 3:-0.34592335 4:-0.35994301 
0.01009 1:-0.25520827 2:-0.42149698 3:-0.33693354 4:-0.35957774 
0.01009 1:-0.41418394 2:-0.47545988 3:-0.36689957 4:-0.36043004 
0.01009 1:-0.46717583 2:-0.46196915 3:-0.3968656 4:-0.36116058 
0.01009 1:-0.45392785 2:-0.20564536 3:-0.39986221 4:-0.36144467 
0.01009 1:-0.28170422 2:-0.30008044 3:-0.34292674 4:-0.3610794 
0.01009 1:-0.29495219 2:-0.39451552 3:-0.34142844 4:-0.36156643 
0.01009 1:-0.38768799 2:-0.47545988 3:-0.35641146 4:-0.36209404 
0.01009 1:-0.28170422 2:-0.28658971 3:-0.28149638 4:-0.36071414 
0.01009 1:-0.28170422 2:-0.32706189 3:-0.28599128 4:-0.36091706 
0.01009 1:-0.32144813 2:-0.31357117 3:-0.29797769 4:-0.36128233 
0.01009 1:-0.30820016 2:-0.44847843 3:-0.3039709 4:-0.36140409 
0.01009 1:-0.44067988 2:-0.40800625 3:-0.32195052 4:-0.36189111 
0.01009 1:-0.17572044 2:-0.36753407 3:-0.26501506 4:-0.36018653 
0.01009 1:-0.36119205 2:-0.32706189 3:-0.29647939 4:-0.36071414 
0.01009 1:-0.32144813 2:-0.3810248 3:-0.31146241 4:-0.36075472 
0.01009 1:-0.37444002 2:-0.34055262 3:-0.32195052 4:-0.36124175 
0.01009 1:-0.33469611 2:-0.39451552 3:-0.32794373 4:-0.36111999 
0.01009 1:-0.38768799 2:-0.34055262 3:-0.33543524 4:-0.36132292 
0.01009 1:-0.20221639 2:-1.1904684 3:-0.27250657 4:-0.36006477 
0.01009 1:-0.45392785 2:-0.27309899 3:-0.34592335 4:-0.36152584 
0.01009 1:-0.26845625 2:-0.36753407 3:-0.33993014 4:-0.36120116 
0.01009 1:-0.36119205 2:-1.0960333 3:-0.33843184 4:-0.36111999 
0.01009 1:-0.25520827 2:-0.44847843 3:-0.29048619 4:-0.35945599 
0.01009 1:-0.44067988 2:-0.46196915 3:-0.33243863 4:-0.36030828 
0.01009 1:-0.45392785 2:-0.50244133 3:-0.36090636 4:-0.36087648 
0.01009 1:-0.49367177 2:-0.3810248 3:-0.28449298 4:-0.36091706 
0.01009 1:-0.37444002 2:-0.28658971 3:-0.36989617 4:-0.36067355 
0.01009 1:-0.28170422 2:-0.30008044 3:-0.35041825 4:-0.3599836 
0.01009 1:-0.29495219 2:-0.34055262 3:-0.35341485 4:-0.35974009 
0.01009 1:-0.16247247 2:-0.40800625 3:-0.24703544 4:-0.35921247 
0.01009 1:-0.40093597 2:-0.52942279 3:-0.36540127 4:-0.35974009 
0.01009 1:-0.52016771 2:-0.51593206 3:-0.41634352 4:-0.36099823 
0.01009 1:-0.50691974 2:-0.46196915 3:-0.44481125 4:-0.36168819 
0.01009 1:-0.45392785 2:-0.34055262 3:-0.44630956 4:-0.36156643 
0.01009 1:-0.29495219 2:-0.46196915 3:-0.35790976 4:-0.3594154 
0.01009 1:-0.45392785 2:-0.48895061 3:-0.3908724 4:-0.36043004 
0.01009 1:-0.4804238 2:-0.36753407 3:-0.39986221 4:-0.36087648 
0.01009 1:-0.36119205 2:-0.24611754 3:-0.38188259 4:-0.36055179 
0.01009 1:-0.30820016 2:-0.3810248 3:-0.30996411 4:-0.35815725 
0.01009 1:-0.37444002 2:-0.47545988 3:-0.33543524 4:-0.35860369 
0.01009 1:-0.46717583 2:-0.31357117 3:-0.35491316 4:-0.35917189 
0.01009 1:-0.32144813 2:-0.28658971 3:-0.29647939 4:-0.35588447 
0.01009 1:-0.25520827 2:-0.35404335 3:-0.3009743 4:-0.35584388 
0.01009 1:-0.34794408 2:-0.42149698 3:-0.31895392 4:-0.35564096 
0.01009 1:-0.41418394 2:-0.23262681 3:-0.33094033 4:-0.35592505 
0.01009 1:-0.33469611 2:-0.34055262 3:-0.28149638 4:-0.35327218 
0.01009 1:-0.33469611 2:-0.24611754 3:-0.29647939 4:-0.35335354 
0.01009 1:-0.2419603 2:-0.35404335 3:-0.28748958 4:-0.35286538 
0.01009 1:-0.34794408 2:-0.40800625 3:-0.29498109 4:-0.35286538 
0.01009 1:-0.40093597 2:-0.19215463 3:-0.31146241 4:-0.35294674 
0.01009 1:-0.33469611 2:-0.39451552 3:-0.28149638 4:-0.35188907 
0.01009 1:-0.30820016 2:-0.39451552 3:-0.24703544 4:-0.35030256 
0.01009 1:-0.38768799 2:-0.20564536 3:-0.26950996 4:-0.35050595 
0.01009 1:-0.25520827 2:-0.40800625 3:-0.23804563 4:-0.34749565 
0.01009 1:-0.40093597 2:-0.47545988 3:-0.27400487 4:-0.34798381 
0.01009 1:-0.46717583 2:-0.20564536 3:-0.299476 4:-0.34822788 
0.01009 1:-0.22871233 2:-0.35404335 3:-0.27100827 4:-0.34521758 
0.01009 1:-0.34794408 2:-0.3810248 3:-0.29198449 4:-0.34521758 
0.01009 1:-0.37444002 2:-0.50244133 3:-0.31146241 4:-0.34562438 
0.01009 1:-0.49367177 2:-0.48895061 3:-0.34891995 4:-0.34631593 
0.01009 1:-0.4804238 2:-0.24611754 3:-0.37439108 4:-0.34680409 
0.01009 1:-0.2419603 2:-0.47545988 3:-0.35641146 4:-0.34607185 
0.01009 1:-0.36119205 2:-0.27309899 3:-0.33843184 4:-0.34509554 
0.01009 1:-0.26845625 2:-0.46196915 3:-0.34742165 4:-0.34533962 
0.01009 1:-0.45392785 2:-0.36753407 3:-0.36689957 4:-0.34586845 
0.01009 1:-0.36119205 2:-0.3810248 3:-0.38188259 4:-0.34623457 
0.01009 1:-0.37444002 2:-0.40800625 3:-0.38487919 4:-0.34627525 
0.01009 1:-0.40093597 2:-0.31357117 3:-0.38787579 4:-0.34643797 
0.01009 1:-0.22871233 2:-0.3810248 3:-0.31745562 4:-0.34448534 
0.01009 1:-0.37444002 2:-0.46196915 3:-0.3069675 4:-0.34525826 
0.01009 1:-0.45392785 2:-0.47545988 3:-0.37439108 4:-0.34603117 
0.01009 1:-0.46717583 2:-0.40800625 3:-0.38637749 4:-0.34651933 
0.01009 1:-0.40093597 2:-0.34055262 3:-0.40136051 4:-0.34684477 
0.01009 1:-0.33469611 2:-0.40800625 3:-0.38787579 4:-0.34656001 
0.01009 1:-0.40093597 2:-0.3810248 3:-0.3923707 4:-0.34656001 
0.01009 1:-0.26845625 2:-0.51593206 3:-0.36689957 4:-0.34554302 
0.01009 1:-0.50691974 2:-0.39451552 3:-0.3983639 4:-0.34660069 
0.01009 1:-0.38768799 2:-0.3810248 3:-0.39986221 4:-0.34696681 
0.01009 1:-0.37444002 2:-0.25960826 3:-0.3908724 4:-0.34696681 
0.01009 1:-0.25520827 2:-1.109524 3:-0.27400487 4:-0.34444466 
0.01009 1:-0.33469611 2:-0.3810248 3:-0.20508299 4:-0.34269666 
0.01009 1:-0.37444002 2:-0.30008044 3:-0.23954393 4:-0.34298208 
0.01009 1:-0.2419603 2:-0.35404335 3:-0.20358469 4:-0.34053561 
0.01009 1:-0.34794408 2:-0.39451552 3:-0.24104223 4:-0.3410249 
0.01009 1:-0.38768799 2:-0.27309899 3:-0.27100827 4:-0.34126955 
0.01009 1:-0.30820016 2:-1.0150889 3:-0.23205242 4:-0.3387823 
0.01009 1:-0.21546436 2:-0.35404335 3:-0.2080796 4:-0.33653969 
0.01009 1:-0.21546436 2:-0.35404335 3:-0.25602525 4:-0.33739596 
0.01009 1:-0.34794408 2:-0.39451552 3:-0.26651336 4:-0.33747751 
0.01009 1:-0.38768799 2:-0.34055262 3:-0.28748958 4:-0.33764061 
0.01009 1:-0.32144813 2:-0.48895061 3:-0.25452695 4:-0.33535723 
0.01009 1:-0.4804238 2:-0.30008044 3:-0.3039709 4:-0.33653969 
0.01009 1:-0.29495219 2:-0.35404335 3:-0.31296071 4:-0.33674356 
0.01009 1:-0.34794408 2:-0.3810248 3:-0.31296071 4:-0.33666201 
0.01009 1:-0.37444002 2:-0.28658971 3:-0.33094033 4:-0.33621349 
0.01009 1:-0.33469611 2:-0.48895061 3:-0.29198449 4:-0.3322352 
0.01009 1:-0.4804238 2:-0.35404335 3:-0.33693354 4:-0.33239868 
0.01009 1:-0.34794408 2:-0.25960826 3:-0.33993014 4:-0.33178563 
0.01009 1:-0.25520827 2:-0.31357117 3:-0.30996411 4:-0.32941518 
0.01009 1:-0.17572044 2:-0.3810248 3:-0.26950996 4:-0.32577776 
0.01009 1:-0.37444002 2:-0.4349877 3:-0.29647939 4:-0.32577776 
0.01009 1:-0.42743191 2:-0.28658971 3:-0.33243863 4:-0.32602298 
0.01009 1:-0.18896842 2:-0.3810248 3:-0.21706941 4:-0.3193897 
0.01009 1:-0.37444002 2:-0.35404335 3:-0.23954393 4:-0.3195126 
0.01009 1:-0.33469611 2:-0.31357117 3:-0.22905582 4:-0.31693176 
0.01009 1:-0.17572044 2:-0.39451552 3:-0.14515093 4:-0.31328582 
0.01009 1:-0.38768799 2:-0.32706189 3:-0.19908979 4:-0.31467865 
0.01009 1:-0.32144813 2:-0.36753407 3:-0.22605922 4:-0.31504735 
0.01009 1:-0.36119205 2:-0.25960826 3:-0.23804563 4:-0.31512928 
0.01009 1:-0.25520827 2:-0.42149698 3:-0.23055412 4:-0.31291713 
0.01009 1:-0.41418394 2:-0.39451552 3:-0.27849977 4:-0.3140232 
0.01009 1:-0.38768799 2:-0.3810248 3:-0.3024726 4:-0.31455576 
0.01009 1:-0.32144813 2:-0.44847843 3:-0.25752355 4:-0.31324486 
0.01009 1:-0.44067988 2:-0.34055262 3:-0.29647939 4:-0.31435093 
0.01009 1:-0.33469611 2:-0.31357117 3:-0.3054692 4:-0.31471962 
0.01009 1:-0.34794408 2:-0.40800625 3:-0.23504903 4:-0.31263037 
0.01009 1:-0.40093597 2:-1.109524 3:-0.27100827 4:-0.31324486 
0.01009 1:-0.32144813 2:-0.40800625 3:-0.23055412 4:-0.31250748 
0.01009 1:-0.40093597 2:-0.20564536 3:-0.26651336 4:-0.3129581 
0.01009 1:-0.043240724 2:-0.73178368 3:-0.10020188 4:-0.31103271 
0.01009 1:-0.32144813 2:-0.31357117 3:-0.24254053 4:-0.31182193 
0.01009 1:-0.22871233 2:-0.39451552 3:-0.20358469 4:-0.31066402 
0.01009 1:-0.38768799 2:-0.31357117 3:-0.24254053 4:-0.31144237 
0.01009 1:-0.29495219 2:-0.28658971 3:-0.25452695 4:-0.31250748 
0.01009 1:-0.29495219 2:-0.42149698 3:-0.23355072 4:-0.31136044 
0.01009 1:-0.41418394 2:-0.27309899 3:-0.27400487 4:-0.31213879 
0.01009 1:-0.34794408 2:-0.42149698 3:-0.22306261 4:-0.31178087 
0.01009 1:-0.41418394 2:-0.25960826 3:-0.26351676 4:-0.31223254 
0.01009 1:-0.21546436 2:-0.3810248 3:-0.2095779 4:-0.30816743 
0.01009 1:-0.37444002 2:-0.3810248 3:-0.23804563 4:-0.30804424 
0.01009 1:-0.21546436 2:-0.40800625 3:-0.2155711 4:-0.29878563 
0.01009 1:-0.40093597 2:-0.40800625 3:-0.24553714 4:-0.29808594 
0.01009 1:-0.26845625 2:-0.32706189 3:-0.22905582 4:-0.2902672 
0.01009 1:-0.32144813 2:-0.27309899 3:-0.24254053 4:-0.28940083 
0.01009 1:-0.26845625 2:-0.42149698 3:-0.25302865 4:-0.28849321 
0.01009 1:-0.41418394 2:-0.39451552 3:-0.27700147 4:-0.28783312 
0.01009 1:-0.043240724 2:-0.77225586 3:-0.22306261 4:-0.28403762 
0.01009 1:-0.29495219 2:-0.34055262 3:-0.27849977 4:-0.28191526 
0.01009 1:-0.33469611 2:-0.30008044 3:-0.29348279 4:-0.28100549 
0.01009 1:-0.29495219 2:-0.27309899 3:-0.29647939 4:-0.28005437 
0.01009 1:-0.33469611 2:-0.31357117 3:-0.23804563 4:-0.2743063 
0.01009 1:-0.30820016 2:-0.34055262 3:-0.18710337 4:-0.27438901 
0.01009 1:-0.33469611 2:-0.23262681 3:-0.25602525 4:-0.27418224 
0.01009 1:-0.20221639 2:-0.40800625 3:-0.17961187 4:-0.26784494 
0.01009 1:-0.40093597 2:-0.35404335 3:-0.22605922 4:-0.26854961 
0.01009 1:-0.34794408 2:-0.32706189 3:-0.25153034 4:-0.26854961 
0.01009 1:-0.30820016 2:-0.39451552 3:-0.20508299 4:-0.26440451 
0.01009 1:-0.38768799 2:-0.30008044 3:-0.24853374 4:-0.26515063 
0.01009 1:-0.29495219 2:-0.30008044 3:-0.25902185 4:-0.26531643 
0.01009 1:-0.32144813 2:-0.39451552 3:-0.2155711 4:-0.26258067 
0.01009 1:-0.38768799 2:-0.21913608 3:-0.25003204 4:-0.26311953 
0.01009 1:0.022999136 2:-0.86669094 3:-0.18260847 4:-0.26108843 
0.01009 1:-0.28170422 2:-0.36753407 3:-0.19759149 4:-0.26063247 
0.01009 1:-0.28170422 2:-0.27309899 3:-0.17811356 4:-0.25811203 
0.01009 1:-0.26845625 2:-0.32706189 3:-0.2080796 4:-0.25769654 
0.01009 1:-0.22871233 2:-0.36753407 3:-0.18710337 4:-0.25561906 
0.01009 1:-0.36119205 2:-0.21913608 3:-0.22755752 4:-0.25628385 
0.01009 1:-0.33469611 2:-0.4349877 3:-0.18410677 4:-0.25229511 
0.01009 1:-0.42743191 2:-0.23262681 3:-0.22755752 4:-0.25266905 
0.01009 1:-0.33469611 2:-0.46196915 3:-0.23504903 4:-0.24971904 
0.01009 1:-0.45392785 2:-0.21913608 3:-0.27849977 4:-0.25034228 
0.01009 1:-0.2419603 2:-0.35404335 3:-0.22905582 4:-0.24854101 
0.01009 1:-0.34794408 2:-0.3810248 3:-0.25302865 4:-0.24888805 
0.01009 1:-0.28170422 2:-0.35404335 3:-0.22605922 4:-0.24675013 
0.01009 1:-0.34794408 2:-0.32706189 3:-0.24553714 4:-0.24683343 
0.01009 1:-0.30820016 2:-0.27309899 3:-0.2140728 4:-0.24504255 
0.01009 1:-0.26845625 2:-0.28658971 3:-0.22755752 4:-0.24525079 
0.01009 1:-0.28170422 2:-0.34055262 3:-0.23804563 4:-0.24246035 
0.01009 1:-0.33469611 2:-0.27309899 3:-0.25302865 4:-0.24470936 
0.01009 1:-0.25520827 2:-0.36753407 3:-0.23504903 4:-0.24279354 
0.01009 1:-0.36119205 2:-0.28658971 3:-0.25902185 4:-0.2437098 
0.01009 1:-0.28170422 2:-0.32706189 3:-0.22006601 4:-0.23958661 
0.01009 1:-0.32144813 2:-0.35404335 3:-0.24553714 4:-0.23954496 
0.01009 1:-0.34794408 2:-0.27309899 3:-0.25302865 4:-0.24012804 
0.01009 1:-0.33469611 2:-0.36753407 3:-0.22456091 4:-0.23575148 
0.01009 1:-0.36119205 2:-0.35404335 3:-0.25452695 4:-0.23641944 
0.01009 1:-0.29495219 2:-0.39451552 3:-0.20208639 4:-0.23366409 
0.01009 1:-0.38768799 2:-0.40800625 3:-0.24853374 4:-0.23403982 
0.01009 1:-0.40093597 2:-0.3810248 3:-0.27550317 4:-0.23470778 
0.01009 1:-0.37444002 2:-0.19215463 3:-0.27999808 4:-0.23491652 
0.01009 1:-0.30820016 2:-0.39451552 3:-0.25003204 4:-0.23307962 
0.01009 1:-0.38768799 2:-0.46196915 3:-0.29048619 4:-0.23328836 
0.01009 1:-0.45392785 2:-0.28658971 3:-0.30846581 4:-0.23383108 
0.01009 1:-0.33469611 2:-0.23262681 3:-0.27400487 4:-0.23266214 
0.01009 1:-0.28170422 2:-0.39451552 3:-0.28449298 4:-0.23345535 
0.01009 1:-0.38768799 2:-0.39451552 3:-0.31296071 4:-0.23362234 
0.01009 1:-0.38768799 2:-0.23262681 3:-0.32195052 4:-0.23378933 
0.01009 1:-0.30820016 2:-0.3810248 3:-0.28299468 4:-0.23278739 
0.01009 1:-0.37444002 2:-0.28658971 3:-0.3054692 4:-0.23370584 
0.01009 1:-0.28170422 2:-0.35404335 3:-0.299476 4:-0.23399807 
0.01009 1:-0.34794408 2:-0.3810248 3:-0.31296071 4:-0.23403982 
0.01009 1:-0.30820016 2:-0.34055262 3:-0.27400487 4:-0.23366409 
0.01009 1:-0.25520827 2:-0.39451552 3:-0.19459488 4:-0.23266214 
0.01009 1:-0.38768799 2:-0.25960826 3:-0.23355072 4:-0.23324661 
0.01009 1:-0.32144813 2:-0.40800625 3:-0.2080796 4:-0.23120097 
0.01009 1:-0.40093597 2:-0.21913608 3:-0.24853374 4:-0.23174369 
0.01009 1:-0.2419603 2:-0.36753407 3:-0.2065813 4:-0.22819513 
0.01009 1:-0.36119205 2:-0.40800625 3:-0.22905582 4:-0.22819513 
0.01009 1:-0.40093597 2:-0.21913608 3:-0.25902185 4:-0.22861261 
0.01009 1:-0.25520827 2:-0.36753407 3:-0.24104223 4:-0.22520237 
0.01009 1:-0.36119205 2:-0.36753407 3:-0.25902185 4:-0.22490944 
0.01009 1:-0.26845625 2:-0.28658971 3:-0.22456091 4:-0.22160347 
0.01009 1:-0.2419603 2:-0.34055262 3:-0.24254053 4:-0.2220638 
0.01009 1:-0.33469611 2:-0.35404335 3:-0.25302865 4:-0.22151978 
0.01009 1:-0.20221639 2:-0.32706189 3:-0.22156431 4:-0.21942739 
0.01009 1:-0.32144813 2:-0.28658971 3:-0.24553714 4:-0.2203062 
0.01009 1:-0.25520827 2:-0.30008044 3:-0.20508299 4:-0.21976218 
0.01009 1:-0.29495219 2:-0.35404335 3:-0.22905582 4:-0.22018065 
0.01009 1:-0.34794408 2:-0.27309899 3:-0.24553714 4:-0.22122684 
0.01009 1:-0.32144813 2:-0.39451552 3:-0.22156431 4:-0.22038989 
0.01009 1:-0.38768799 2:-0.34055262 3:-0.25452695 4:-0.22097576 
0.01009 1:-0.33469611 2:-0.23262681 3:-0.26351676 4:-0.22168717 
0.01009 1:-0.22871233 2:-0.3810248 3:-0.19609318 4:-0.22034804 
0.01009 1:-0.37444002 2:-0.35404335 3:-0.23954393 4:-0.22097576 
0.01009 1:-0.34794408 2:-0.32706189 3:-0.26501506 4:-0.22126869 
0.01009 1:-0.30820016 2:-0.42149698 3:-0.20508299 4:-0.22018065 
0.01009 1:-0.41418394 2:-0.36753407 3:-0.25452695 4:-0.22080837 
0.01009 1:-0.36119205 2:-0.31357117 3:-0.26950996 4:-0.22085022 
0.01009 1:-0.32144813 2:-0.3810248 3:-0.24853374 4:-0.22005511 
0.01009 1:-0.37444002 2:-0.35404335 3:-0.28599128 4:-0.2202225 
0.01009 1:-0.34794408 2:-0.21913608 3:-0.29048619 4:-0.21980402 
0.01009 1:-0.30820016 2:-0.63734859 3:-0.22905582 4:-0.21754425 
0.01009 1:-0.30820016 2:-0.25960826 3:-0.25752355 4:-0.21833936 
0.01009 1:-0.17572044 2:-0.35404335 3:-0.17661526 4:-0.21527384 
0.01009 1:-0.34794408 2:-0.23262681 3:-0.2155711 4:-0.21581916 
0.01009 1:-0.30820016 2:-0.39451552 3:-0.18260847 4:-0.21456072 
0.01009 1:-0.38768799 2:-0.24611754 3:-0.22006601 4:-0.21539968 
0.01009 1:-0.16247247 2:-0.3810248 3:-0.18260847 4:-0.21439293 
0.01009 1:-0.37444002 2:-0.40800625 3:-0.22006601 4:-0.21523189 
0.01009 1:-0.40093597 2:-0.24611754 3:-0.25902185 4:-0.21569332 
0.01009 1:-0.2419603 2:-0.40800625 3:-0.23504903 4:-0.21620512 
0.01009 1:-0.40093597 2:-0.4349877 3:-0.26801166 4:-0.21704208 
0.01009 1:-0.42743191 2:-0.17866391 3:-0.29797769 4:-0.21787903 
0.01009 1:-0.28170422 2:-0.36753407 3:-0.25752355 4:-0.21859044 
0.01009 1:-0.36119205 2:-0.35404335 3:-0.26950996 4:-0.21892522 
0.01009 1:-0.29495219 2:-0.25960826 3:-0.23954393 4:-0.21909261 
0.01009 1:-0.21546436 2:-0.36753407 3:-0.18710337 4:-0.21695838 
0.01009 1:-0.36119205 2:-0.25960826 3:-0.2155711 4:-0.21775349 
0.01009 1:-0.30820016 2:-0.34055262 3:-0.20508299 4:-0.21616328 
0.01009 1:-0.33469611 2:-0.36753407 3:-0.23504903 4:-0.2166236 
0.01009 1:-0.36119205 2:-0.28658971 3:-0.25602525 4:-0.21716762 
0.01009 1:-0.18896842 2:-0.40800625 3:-0.2080796 4:-0.21570295 
0.01009 1:-0.40093597 2:-0.3810248 3:-0.25902185 4:-0.2167073 
0.01009 1:-0.37444002 2:-0.40800625 3:-0.28599128 4:-0.21729316 
0.01009 1:-0.40093597 2:-0.24611754 3:-0.29647939 4:-0.21804642 
0.01009 1:-0.2419603 2:-0.39451552 3:-0.24254053 4:-0.21725132 
0.01009 1:-0.38768799 2:-0.35404335 3:-0.28748958 4:-0.21829751 
0.01009 1:-0.34794408 2:-0.39451552 3:-0.3054692 4:-0.21875783 
0.01009 1:-0.38768799 2:-0.19215463 3:-0.3039709 4:-0.21921816 
0.01009 1:-0.32144813 2:-0.46196915 3:-0.24403884 4:-0.21863229 
0.01009 1:-0.45392785 2:-0.40800625 3:-0.29048619 4:-0.21779534 
0.01009 1:-0.40093597 2:-0.39451552 3:-0.30846581 4:-0.21997141 
0.01009 1:-0.26845625 2:-0.88018166 3:-0.27100827 4:-0.21946924 
0.01009 1:-0.49367177 2:-0.32706189 3:-0.32944203 4:-0.22126869 
0.01009 1:-0.32144813 2:-0.30008044 3:-0.32944203 4:-0.22105945 
0.01009 1:-0.18896842 2:-0.36753407 3:-0.25452695 4:-0.21988772 
0.01009 1:-0.36119205 2:-0.28658971 3:-0.28599128 4:-0.22068282 
0.01009 1:-0.28170422 2:-0.40800625 3:-0.29498109 4:-0.2211013 
0.01009 1:-0.40093597 2:-0.42149698 3:-0.30996411 4:-0.22218934 
0.01009 1:-0.41418394 2:-0.40800625 3:-0.25902185 4:-0.22256597 
0.01009 1:-0.40093597 2:-0.24611754 3:-0.34891995 4:-0.22252412 
0.01009 1:-0.21546436 2:-0.36753407 3:-0.28149638 4:-0.22189641 
0.01009 1:-0.36119205 2:-0.35404335 3:-0.31146241 4:-0.2228589 
0.01009 1:-0.34794408 2:-0.34055262 3:-0.32944203 4:-0.22357031 
0.01009 1:-0.33469611 2:-0.35404335 3:-0.32644543 4:-0.22419803 
0.01009 1:-0.34794408 2:-1.0555611 3:-0.33393693 4:-0.22419803 
0.01009 1:-0.32144813 2:-0.40800625 3:-0.27550317 4:-0.22403064 
0.01009 1:-0.40093597 2:-0.36753407 3:-0.31146241 4:-0.22499313 
0.01009 1:-0.36119205 2:-0.24611754 3:-0.32794373 4:-0.22570454 
0.01009 1:-0.2419603 2:-0.32706189 3:-0.31445901 4:-0.22578824 
0.01009 1:-0.32144813 2:-0.31357117 3:-0.31146241 4:-0.22562085 
0.01009 1:-0.30820016 2:-0.39451552 3:-0.27400487 4:-0.22603933 
0.01009 1:-0.38768799 2:-0.35404335 3:-0.31146241 4:-0.22656697 
0.01009 1:-0.29495219 2:-0.36753407 3:-0.24703544 4:-0.22666704 
0.01009 1:-0.36119205 2:-0.35404335 3:-0.27400487 4:-0.22710969 
0.01009 1:-0.2419603 2:-0.30008044 3:-0.22755752 4:-0.2238214 
0.01009 1:-0.29495219 2:-0.34055262 3:-0.23954393 4:-0.22562085 
0.01009 1:-0.33469611 2:-0.31357117 3:-0.25602525 4:-0.22574639 
0.01009 1:-0.21546436 2:-0.32706189 3:-0.22755752 4:-0.22553715 
0.01009 1:-0.32144813 2:-0.32706189 3:-0.23954393 4:-0.22549531 
0.01009 1:-0.25520827 2:-0.3810248 3:-0.2140728 4:-0.2246165 
0.01009 1:-0.37444002 2:-0.27309899 3:-0.23355072 4:-0.22578824 
0.01009 1:-0.26845625 2:-0.34055262 3:-0.24254053 4:-0.22599748 
0.01009 1:-0.33469611 2:-0.28658971 3:-0.24553714 4:-0.22578824 
0.01009 1:-0.32144813 2:-0.28658971 3:-0.23205242 4:-0.22516052 
0.01009 1:-0.28170422 2:-0.39451552 3:-0.25452695 4:-0.22574639 
0.01009 1:-0.38768799 2:-0.27309899 3:-0.27400487 4:-0.22670889 
0.01009 1:-0.16247247 2:-0.35404335 3:-0.19459488 4:-0.22524422 
0.01009 1:-0.34794408 2:-0.34055262 3:-0.23804563 4:-0.22587193 
0.01009 1:-0.33469611 2:-0.32706189 3:-0.25902185 4:-0.2264578 
0.01009 1:-0.25520827 2:-0.40800625 3:-0.19609318 4:-0.2238214 
0.01009 1:-0.40093597 2:-0.31357117 3:-0.24403884 4:-0.22439608 
0.01009 1:-0.30820016 2:-0.25960826 3:-0.26052015 4:-0.22736017 
0.01009 1:-0.20221639 2:-0.3810248 3:-0.19609318 4:-0.22652522 
0.01009 1:-0.37444002 2:-0.42149698 3:-0.23055412 4:-0.22769416 
0.01009 1:-0.41418394 2:-0.32706189 3:-0.27100827 4:-0.22848736 
0.01009 1:-0.32144813 2:-0.25960826 3:-0.27849977 4:-0.22861261 
0.01009 1:-0.22871233 2:-0.34055262 3:-0.2155711 4:-0.22736017 
0.01009 1:-0.33469611 2:-0.32706189 3:-0.24703544 4:-0.22827862 
0.01009 1:-0.26845625 2:-0.36753407 3:-0.17212036 4:-0.22744367 
0.01009 1:-0.36119205 2:-0.30008044 3:-0.2080796 4:-0.22836212 
0.01009 1:-0.30820016 2:-0.34055262 3:-0.20208639 4:-0.22700182 
0.01009 1:-0.33469611 2:-0.21913608 3:-0.22456091 4:-0.22700182 
0.01009 1:-0.26845625 2:-0.36753407 3:-0.18560507 4:-0.22562085 
0.01009 1:-0.36119205 2:-0.21913608 3:-0.22456091 4:-0.22633226 
0.01009 1:-0.21546436 2:-0.36753407 3:-0.23205242 4:-0.2264578 
0.01009 1:-0.36119205 2:-0.35404335 3:-0.24254053 4:-0.22683443 
0.01009 1:-0.30820016 2:-0.4349877 3:-0.24703544 4:-0.22652522 
0.01009 1:-0.42743191 2:-0.27309899 3:-0.28449298 4:-0.22740192 
0.01009 1:-0.26845625 2:-0.30008044 3:-0.28449298 4:-0.22765241 
0.01009 1:-0.29495219 2:-0.25960826 3:-0.27700147 4:-0.22794464 
0.01009 1:-0.16247247 2:-0.3810248 3:-0.23654733 4:-0.22736017 
0.01009 1:-0.37444002 2:-0.40800625 3:-0.26651336 4:-0.22806989 
0.01009 1:-0.40093597 2:-0.23262681 3:-0.29647939 4:-0.22882135 
0.01009 1:-0.20221639 2:-0.50244133 3:-0.23055412 4:-0.22731843 
0.01009 1:-0.29495219 2:-0.35404335 3:-0.23055412 4:-0.22794464 
0.01009 1:-0.34794408 2:-0.39451552 3:-0.25302865 4:-0.22815338 
0.01009 1:-0.38768799 2:-0.20564536 3:-0.27849977 4:-0.22857086 
0.01009 1:-0.26845625 2:-0.30008044 3:-0.23205242 4:-0.22798639 
0.01009 1:-0.29495219 2:-0.66433005 3:-0.2095779 4:-0.22861261 
0.01009 1:-0.26845625 2:-0.3810248 3:-0.24553714 4:-0.22798639 
0.01009 1:-0.37444002 2:-0.30008044 3:-0.26351676 4:-0.22923882 
0.01009 1:-0.29495219 2:-0.34055262 3:-0.27700147 4:-0.2296563 
0.01009 1:-0.33469611 2:-0.34055262 3:-0.28449298 4:-0.2296563 
0.01009 1:-0.32144813 2:-0.31357117 3:-0.24703544 4:-0.22894659 
0.01009 1:-0.30820016 2:-0.39451552 3:-0.26950996 4:-0.22932232 
0.01009 1:-0.38768799 2:-0.30008044 3:-0.28748958 4:-0.23044951 
0.01009 1:-0.29495219 2:-0.28658971 3:-0.29048619 4:-0.23044951 
0.01009 1:-0.28170422 2:-0.25960826 3:-0.27999808 4:-0.23011553 
0.01009 1:-0.21546436 2:-0.39451552 3:-0.22006601 4:-0.2287796 
0.01009 1:-0.38768799 2:-0.34055262 3:-0.26501506 4:-0.22948931 
0.01009 1:-0.33469611 2:-0.35404335 3:-0.28599128 4:-0.2297398 
0.01009 1:-0.34794408 2:-0.25960826 3:-0.28898788 4:-0.23040776 
0.01009 1:-0.20221639 2:-0.92065384 3:-0.26201846 4:-0.2296563 
0.01009 1:-0.18896842 2:-0.3810248 3:-0.20508299 4:-0.22777765 
0.01009 1:-0.37444002 2:-0.34055262 3:-0.24703544 4:-0.22840387 
0.01009 1:-0.33469611 2:-0.27309899 3:-0.26052015 4:-0.22840387 
0.01009 1:-0.33469611 2:-0.40800625 3:-0.22006601 4:-0.22700182 
0.01009 1:-0.40093597 2:-0.35404335 3:-0.26201846 4:-0.22756891 
0.01009 1:-0.34794408 2:-0.27309899 3:-0.27999808 4:-0.22769416 
0.01009 1:-0.26845625 2:-0.39451552 3:-0.23504903 4:-0.22629041 
0.01009 1:-0.38768799 2:-0.46196915 3:-0.26651336 4:-0.22687628 
0.01009 1:-0.45392785 2:-0.31357117 3:-0.3009743 4:-0.22761066 
0.01009 1:-0.29495219 2:-0.36753407 3:-0.27250657 4:-0.22756891 
0.01009 1:-0.36119205 2:-0.39451552 3:-0.29797769 4:-0.22857086 
0.01009 1:-0.38768799 2:-0.21913608 3:-0.31146241 4:-0.22898834 
0.01009 1:-0.22871233 2:-0.32706189 3:-0.24553714 4:-0.22819513 
0.01009 1:-0.32144813 2:-0.34055262 3:-0.25153034 4:-0.2286961 
0.01009 1:-0.33469611 2:-0.31357117 3:-0.26801166 4:-0.22932232 
0.01009 1:-0.30820016 2:-0.75876513 3:-0.26950996 4:-0.22928057 
0.01009 1:-0.21546436 2:-0.40800625 3:-0.2110762 4:-0.22827862 
0.01009 1:-0.40093597 2:-0.27309899 3:-0.25602525 4:-0.22898834 
0.01009 1:-0.26845625 2:-0.30008044 3:-0.26801166 4:-0.22961455 
0.01009 1:-0.29495219 2:-0.32706189 3:-0.26651336 4:-0.22990679 
0.01009 1:-0.32144813 2:-0.28658971 3:-0.27700147 4:-0.23015728 
0.01009 1:-0.12272856 2:-0.82621876 3:-0.24853374 4:-0.22903009 
0.01009 1:-0.34794408 2:-0.39451552 3:-0.24104223 4:-0.22936407 
0.01009 1:-0.38768799 2:-0.24611754 3:-0.27849977 4:-0.22994854 
0.01009 1:-0.26845625 2:-0.30008044 3:-0.26651336 4:-0.23028252 
0.01009 1:-0.32144813 2:-0.42149698 3:-0.16912375 4:-0.23032427 
0.01009 1:-0.41418394 2:-0.25960826 3:-0.29048619 4:-0.23095048 
0.01009 1:-0.21546436 2:-0.62385787 3:-0.26052015 4:-0.2307 
0.01009 1:-0.22871233 2:-0.36753407 3:-0.21856771 4:-0.22999028 
0.01009 1:-0.36119205 2:-0.40800625 3:-0.24553714 4:-0.23049126 
0.01009 1:-0.40093597 2:-0.25960826 3:-0.27400487 4:-0.23111747 
0.01009 1:-0.2419603 2:-0.36753407 3:-0.23654733 4:-0.23082524 
0.01009 1:-0.36119205 2:-0.36753407 3:-0.26351676 4:-0.23115922 
0.01009 1:-0.36119205 2:-0.20564536 3:-0.27849977 4:-0.23136796 
0.01009 1:-0.2419603 2:-0.36753407 3:-0.23055412 4:-0.23015728 
0.01009 1:-0.36119205 2:-0.31357117 3:-0.25003204 4:-0.23132621 
0.01009 1:-0.30820016 2:-0.36753407 3:-0.26651336 4:-0.23191068 
0.01009 1:-0.36119205 2:-0.32706189 3:-0.28149638 4:-0.23203593 
0.01009 1:-0.26845625 2:-0.30008044 3:-0.24853374 4:-0.23086699 
0.01009 1:-0.29495219 2:-0.42149698 3:-0.26801166 4:-0.23132621 
0.01009 1:-0.41418394 2:-0.30008044 3:-0.28898788 4:-0.23270389 
0.01009 1:-0.29495219 2:-0.28658971 3:-0.29498109 4:-0.23291263 
0.01009 1:-0.13597653 2:-1.2309405 3:-0.2140728 4:-0.23136796 
0.01009 1:-0.40093597 2:-0.19215463 3:-0.29198449 4:-0.23378933 
0.01009 1:-0.18896842 2:-0.39451552 3:-0.19159828 4:-0.23136796 
0.01009 1:-0.38768799 2:-0.35404335 3:-0.23804563 4:-0.23220292 
0.01009 1:-0.34794408 2:-0.35404335 3:-0.26201846 4:-0.23241166 
0.01009 1:-0.17572044 2:-0.6913115 3:-0.24254053 4:-0.23249515 
0.01009 1:-0.30820016 2:-0.42149698 3:-0.20058809 4:-0.23153495 
0.01009 1:-0.41418394 2:-0.34055262 3:-0.25153034 4:-0.23236991 
0.01009 1:-0.33469611 2:-0.34055262 3:-0.26801166 4:-0.2324534 
0.01009 1:-0.12272856 2:-0.40800625 3:-0.2155711 4:-0.23203593 
0.01009 1:-0.40093597 2:-0.44847843 3:-0.24553714 4:-0.23312137 
0.01009 1:-0.44067988 2:-0.36753407 3:-0.29797769 4:-0.23395632 
0.01009 1:-0.36119205 2:-0.32706189 3:-0.3039709 4:-0.23399807 
0.01009 1:-0.20221639 2:-0.3810248 3:-0.27100827 4:-0.23474953 
0.01009 1:-0.37444002 2:-0.44847843 3:-0.29498109 4:-0.23575148 
0.01009 1:-0.44067988 2:-0.34055262 3:-0.33094033 4:-0.23616896 
0.01009 1:-0.33469611 2:-0.25960826 3:-0.32344882 4:-0.23600197 
0.01009 1:-0.22871233 2:-0.34055262 3:-0.25902185 4:-0.23575148 
0.01009 1:-0.33469611 2:-0.25960826 3:-0.28449298 4:-0.23646119 
0.01009 1:-0.25520827 2:-0.3810248 3:-0.29198449 4:-0.23692042 
0.01009 1:-0.37444002 2:-0.4349877 3:-0.3024726 4:-0.23758838 
0.01009 1:-0.42743191 2:-0.31357117 3:-0.32794373 4:-0.23775537 
0.01009 1:-0.21546436 2:-0.55640424 3:-0.29498109 4:-0.23742089 
0.01009 1:-0.21546436 2:-0.35404335 3:-0.28748958 4:-0.23763013 
0.01009 1:-0.34794408 2:-0.36753407 3:-0.28898788 4:-0.23796411 
0.01009 1:-0.21546436 2:-0.36753407 3:-0.21706941 4:-0.23683782 
0.01009 1:-0.36119205 2:-0.36753407 3:-0.19609318 4:-0.23754584 
0.01009 1:-0.36119205 2:-0.24611754 3:-0.27400487 4:-0.23808727 
0.01009 1:-0.2419603 2:-0.32706189 3:-0.27250657 4:-0.23825386 
0.01009 1:-0.32144813 2:-0.30008044 3:-0.27849977 4:-0.23850375 
0.01009 1:-0.22871233 2:-0.3810248 3:-0.24254053 4:-0.23779573 
0.01009 1:-0.37444002 2:-0.40800625 3:-0.27849977 4:-0.2386287 
0.01009 1:-0.40093597 2:-0.19215463 3:-0.299476 4:-0.23933672 
0.01009 1:-0.16247247 2:-0.35404335 3:-0.23355072 4:-0.23892024 
0.01009 1:-0.34794408 2:-0.39451552 3:-0.25302865 4:-0.23979485 
0.01009 1:-0.38768799 2:-0.34055262 3:-0.28449298 4:-0.24046123 
0.01009 1:-0.21546436 2:-0.40800625 3:-0.24403884 4:-0.24037793 
0.01009 1:-0.40093597 2:-0.39451552 3:-0.27100827 4:-0.2412109 
0.01009 1:-0.38768799 2:-0.34055262 3:-0.29647939 4:-0.24146079 
0.01009 1:-0.18896842 2:-0.34055262 3:-0.25452695 4:-0.24012804 
0.01009 1:-0.33469611 2:-0.31357117 3:-0.26950996 4:-0.24062782 
0.01009 1:-0.30820016 2:-0.31357117 3:-0.28748958 4:-0.24162738 
0.01009 1:-0.30820016 2:-0.3810248 3:-0.29647939 4:-0.24200222 
0.01009 1:-0.37444002 2:-0.34055262 3:-0.31445901 4:-0.24191892 
0.01009 1:-0.22871233 2:-0.34055262 3:-0.26351676 4:-0.24029463 
0.01009 1:-0.33469611 2:-0.31357117 3:-0.27550317 4:-0.24079441 
0.01009 1:-0.21546436 2:-0.31357117 3:-0.27550317 4:-0.24154408 
0.01009 1:-0.30820016 2:-0.30008044 3:-0.27550317 4:-0.24129419 
0.01009 1:-0.22871233 2:-0.34055262 3:-0.22605922 4:-0.2398365 
0.01009 1:-0.33469611 2:-0.34055262 3:-0.25153034 4:-0.24041958 
0.01009 1:-0.33469611 2:-0.30008044 3:-0.26201846 4:-0.24083606 
0.01009 1:-0.25520827 2:-0.39451552 3:-0.23504903 4:-0.23942528 
0.01009 1:-0.38768799 2:-0.34055262 3:-0.26950996 4:-0.2399198 
0.01009 1:-0.33469611 2:-0.28658971 3:-0.28149638 4:-0.24012804 
0.01009 1:-0.29495219 2:-0.39451552 3:-0.23804563 4:-0.2385454 
0.01009 1:-0.38768799 2:-0.34055262 3:-0.26801166 4:-0.23917013 
0.01009 1:-0.33469611 2:-0.24611754 3:-0.27700147 4:-0.23908683 
0.01009 1:-0.21546436 2:-0.39451552 3:-0.2125745 4:-0.23675343 
0.01009 1:-0.38768799 2:-0.46196915 3:-0.25003204 4:-0.23729615 
0.01009 1:-0.45392785 2:-0.31357117 3:-0.28449298 4:-0.23758838 
0.01009 1:-0.30820016 2:-0.24611754 3:-0.28599128 4:-0.23746314 
0.01009 1:-0.25520827 2:-0.3810248 3:-0.25752355 4:-0.23654469 
0.01009 1:-0.37444002 2:-0.42149698 3:-0.28898788 4:-0.23671168 
0.01009 1:-0.41418394 2:-0.23262681 3:-0.31146241 4:-0.23675343 
0.01009 1:-0.22871233 2:-0.31357117 3:-0.23954393 4:-0.23516701 
0.01009 1:-0.30820016 2:-0.3810248 3:-0.24553714 4:-0.23575148 
0.01009 1:-0.37444002 2:-0.36753407 3:-0.27550317 4:-0.23596022 
0.01009 1:-0.36119205 2:-0.21913608 3:-0.28748958 4:-0.23587672 
0.01009 1:-0.20221639 2:-0.35404335 3:-0.2155711 4:-0.2343738 
0.01009 1:-0.34794408 2:-0.23262681 3:-0.25302865 4:-0.23529225 
0.01009 1:-0.22871233 2:-0.30008044 3:-0.25902185 4:-0.2354175 
0.01009 1:-0.29495219 2:-0.34055262 3:-0.26052015 4:-0.23575148 
0.01009 1:-0.33469611 2:-0.27309899 3:-0.27250657 4:-0.23587672 
0.01009 1:-0.26845625 2:-0.44847843 3:-0.21856771 4:-0.23508351 
0.01009 1:-0.44067988 2:-0.24611754 3:-0.26651336 4:-0.23608546 
0.01009 1:-0.2419603 2:-0.35404335 3:-0.27100827 4:-0.23616896 
0.01009 1:-0.34794408 2:-0.31357117 3:-0.27100827 4:-0.23650294 
0.01009 1:-0.30820016 2:-0.40800625 3:-0.23504903 4:-0.2362107 
0.01009 1:-0.40093597 2:-0.19215463 3:-0.27700147 4:-0.23687867 
0.01009 1:-0.28170422 2:-0.27309899 3:-0.25003204 4:-0.23671168 
0.01009 1:-0.25520827 2:-0.3810248 3:-0.2155711 4:-0.23683692 
0.01009 1:-0.37444002 2:-0.39451552 3:-0.25003204 4:-0.23733789 
0.01009 1:-0.38768799 2:-0.21913608 3:-0.28149638 4:-0.23775537 
0.01009 1:-0.29495219 2:-0.40800625 3:-0.25302865 4:-0.23758838 
0.01009 1:-0.40093597 2:-0.42149698 3:-0.28748958 4:-0.23783887 
0.01009 1:-0.26845625 2:-0.32706189 3:-0.26950996 4:-0.23758749 
0.01009 1:-0.32144813 2:-0.39451552 3:-0.27999808 4:-0.23867035 
0.01009 1:-0.38768799 2:-0.3810248 3:-0.3054692 4:-0.23937837 
0.01009 1:-0.29495219 2:-0.31357117 3:-0.26052015 4:-0.2384621 
0.01009 1:-0.30820016 2:-0.32706189 3:-0.27700147 4:-0.23921177 
0.01009 1:-0.32144813 2:-0.34055262 3:-0.28599128 4:-0.24004474 
0.01009 1:-0.33469611 2:-0.36753407 3:-0.29348279 4:-0.24029463 
0.01009 1:-0.28170422 2:-0.36753407 3:-0.26950996 4:-0.23966991 
0.01009 1:-0.36119205 2:-0.32706189 3:-0.28299468 4:-0.24021134 
0.01009 1:-0.32144813 2:-0.28658971 3:-0.299476 4:-0.2410443 
0.01009 1:-0.28170422 2:-0.32706189 3:-0.29797769 4:-0.24129419 
0.01009 1:-0.32144813 2:-0.30008044 3:-0.299476 4:-0.2411276 
0.01009 1:-0.20221639 2:-0.39451552 3:-0.25602525 4:-0.24008639 
0.01009 1:-0.38768799 2:-0.42149698 3:-0.28748958 4:-0.24096101 
0.01009 1:-0.41418394 2:-0.36753407 3:-0.30846581 4:-0.24162738 
0.01009 1:-0.36119205 2:-0.27309899 3:-0.31745562 4:-0.24262694 
0.01009 1:-0.26845625 2:-0.34055262 3:-0.3069675 4:-0.24275189 
0.01009 1:-0.33469611 2:-0.28658971 3:-0.30846581 4:-0.24275189 
0.01009 1:-0.26845625 2:-0.44847843 3:-0.27999808 4:-0.24333496 
0.01009 1:-0.44067988 2:-0.3810248 3:-0.31745562 4:-0.24445947 
0.01009 1:-0.37444002 2:-0.3810248 3:-0.33693354 4:-0.24495925 
0.01009 1:-0.37444002 2:-0.24611754 3:-0.33543524 4:-0.24570892 
0.01009 1:-0.30820016 2:-0.44847843 3:-0.25602525 4:-0.24558398 
0.01009 1:-0.44067988 2:-0.32706189 3:-0.299476 4:-0.24650024 
0.01009 1:-0.32144813 2:-0.34055262 3:-0.3054692 4:-0.24666684 
0.01009 1:-0.32144813 2:-0.4349877 3:-0.24104223 4:-0.24687508 
0.01009 1:-0.42743191 2:-0.32706189 3:-0.28299468 4:-0.24737486 
0.01009 1:-0.32144813 2:-0.27309899 3:-0.28449298 4:-0.24724991 
0.01009 1:-0.26845625 2:-0.59687642 3:-0.26501506 4:-0.24741651 
0.01009 1:-0.30820016 2:-0.47545988 3:-0.24254053 4:-0.24675013 
0.01009 1:-0.46717583 2:-0.31357117 3:-0.28599128 4:-0.24724991 
0.01009 1:-0.2419603 2:-0.31357117 3:-0.17511696 4:-0.24570892 
0.01009 1:-0.21546436 2:-0.3810248 3:-0.26201846 4:-0.24650024 
0.01009 1:-0.37444002 2:-0.42149698 3:-0.27700147 4:-0.24716662 
0.01009 1:-0.41418394 2:-0.24611754 3:-0.3054692 4:-0.24729156 
0.01009 1:-0.32144813 2:-0.35404335 3:-0.26651336 4:-0.24687508 
0.01009 1:-0.34794408 2:-0.23262681 3:-0.28898788 4:-0.24641695 
0.01009 1:-0.22871233 2:-0.32706189 3:-0.28748958 4:-0.24783299 
0.01009 1:-0.32144813 2:-0.35404335 3:-0.28898788 4:-0.24791629 
0.01009 1:-0.18896842 2:-0.34055262 3:-0.23355072 4:-0.24733321 
0.01009 1:-0.33469611 2:-0.40800625 3:-0.26501506 4:-0.24770805 
0.01009 1:-0.40093597 2:-0.21913608 3:-0.29348279 4:-0.24841607 
0.01009 1:-0.21546436 2:-0.32706189 3:-0.28149638 4:-0.24824947 
0.01009 1:-0.32144813 2:-0.31357117 3:-0.27849977 4:-0.24833277 
0.01009 1:-0.29495219 2:-0.39451552 3:-0.25752355 4:-0.24789086 
0.01009 1:-0.38768799 2:-0.39451552 3:-0.28898788 4:-0.2487634 
0.01009 1:-0.38768799 2:-0.21913608 3:-0.31146241 4:-0.249262 
0.01009 1:-0.17572044 2:-0.3810248 3:-0.25902185 4:-0.24780776 
0.01009 1:-0.37444002 2:-0.44847843 3:-0.28149638 4:-0.2490127 
0.01009 1:-0.44067988 2:-0.3810248 3:-0.31745562 4:-0.24992679 
0.01009 1:-0.22871233 2:-0.35404335 3:-0.28599128 4:-0.2491789 
0.01009 1:-0.34794408 2:-0.4349877 3:-0.3039709 4:-0.25025918 
0.01009 1:-0.42743191 2:-0.35404335 3:-0.33243863 4:-0.25092397 
0.01009 1:-0.28170422 2:-0.31357117 3:-0.26950996 4:-0.24735072 
0.01009 1:-0.30820016 2:-0.36753407 3:-0.28599128 4:-0.25059158 
0.01009 1:-0.36119205 2:-0.3810248 3:-0.29797769 4:-0.25163031 
0.01009 1:-0.37444002 2:-0.35404335 3:-0.31445901 4:-0.25221201 
0.01009 1:-0.25520827 2:-0.34055262 3:-0.26950996 4:-0.25121482 
0.01009 1:-0.33469611 2:-0.28658971 3:-0.27999808 4:-0.25171341 
0.01009 1:-0.28170422 2:-0.3810248 3:-0.29198449 4:-0.25225356 
0.01009 1:-0.37444002 2:-0.36753407 3:-0.3024726 4:-0.2529599 
0.01009 1:-0.36119205 2:-0.27309899 3:-0.30846581 4:-0.253043 
0.01009 1:-0.29495219 2:-0.31357117 3:-0.26501506 4:-0.25200426 
0.01009 1:-0.30820016 2:-0.4349877 3:-0.28898788 4:-0.2525444 
0.01009 1:-0.42743191 2:-0.32706189 3:-0.30846581 4:-0.25316764 
0.01009 1:-0.32144813 2:-0.31357117 3:-0.31595731 4:-0.25374934 
0.01009 1:-0.30820016 2:-0.31357117 3:-0.31296071 4:-0.25387399 
0.01009 1:-0.29495219 2:-0.36753407 3:-0.28449298 4:-0.2525444 
0.01009 1:-0.36119205 2:-0.39451552 3:-0.3054692 4:-0.25320919 
0.01009 1:-0.38768799 2:-0.32706189 3:-0.31595731 4:-0.25358314 
0.01009 1:-0.32144813 2:-0.4349877 3:-0.27100827 4:-0.25350004 
0.01009 1:-0.42743191 2:-0.3810248 3:-0.299476 4:-0.25433103 
0.01009 1:-0.37444002 2:-0.28658971 3:-0.30846581 4:-0.25453878 
0.01009 1:-0.34794408 2:-0.50244133 3:-0.26950996 4:-0.25420638 
0.01009 1:-0.49367177 2:-0.34055262 3:-0.3039709 4:-0.25507892 
0.01009 1:-0.33469611 2:-0.25960826 3:-0.3054692 4:-0.25487117 
0.01009 1:-0.29495219 2:-0.40800625 3:-0.27100827 4:-0.25233666 
0.01009 1:-0.40093597 2:-0.46196915 3:-0.3054692 4:-0.25566061 
0.01009 1:-0.45392785 2:-0.32706189 3:-0.33843184 4:-0.25599301 
0.01009 1:-0.32144813 2:-0.23262681 3:-0.33543524 4:-0.25578526 
0.01009 1:-0.21546436 2:-0.3810248 3:-0.27700147 4:-0.25532822 
0.01009 1:-0.37444002 2:-0.42149698 3:-0.299476 4:-0.25603456 
0.01009 1:-0.41418394 2:-0.24611754 3:-0.31296071 4:-0.2563254 
0.01009 1:-0.29495219 2:-0.34055262 3:-0.24553714 4:-0.25536977 
0.01009 1:-0.30820016 2:-0.42149698 3:-0.26950996 4:-0.25645005 
0.01009 1:-0.17572044 2:-0.35404335 3:-0.2155711 4:-0.25553596 
0.01009 1:-0.34794408 2:-0.35404335 3:-0.25153034 4:-0.25603456 
0.01009 1:-0.29495219 2:-0.31357117 3:-0.26201846 4:-0.25669935 
0.01009 1:-0.1492245 2:-0.52942279 3:-0.25752355 4:-0.25586836 
0.01009 1:-0.28170422 2:-0.32706189 3:-0.23355072 4:-0.2563254 
0.01009 1:-0.32144813 2:-0.32706189 3:-0.26201846 4:-0.25661625 
0.00676933672021197 1:-0.1492245 2:-0.36753407 3:-0.2095779 4:-0.25545287 
0.01009 1:-0.36119205 2:-0.42149698 3:-0.19159828 4:-0.25603456 
0.01009 1:-0.41418394 2:-0.32706189 3:-0.27250657 4:-0.2564916 
0.01009 1:-0.21546436 2:-0.39451552 3:-0.25752355 4:-0.25603456 
0.01009 1:-0.38768799 2:-0.44847843 3:-0.28449298 4:-0.256824 
0.01009 1:-0.44067988 2:-0.30008044 3:-0.31745562 4:-0.25441413 
0.01009 1:-0.26845625 2:-0.31357117 3:-0.26651336 4:-0.2566578 
0.01009 1:-0.30820016 2:-0.40800625 3:-0.28599128 4:-0.25773809 
0.01009 1:-0.40093597 2:-0.44847843 3:-0.3039709 4:-0.25840288 
0.01009 1:-0.44067988 2:-0.28658971 3:-0.32944203 4:-0.25856907 
0.01009 1:-0.21546436 2:-0.32706189 3:-0.27999808 4:-0.25598996 
0.01009 1:-0.32144813 2:-0.32706189 3:-0.28599128 4:-0.25826976 
0.01009 1:-0.32144813 2:-0.40800625 3:-0.3054692 4:-0.25969091 
0.01009 1:-0.40093597 2:-0.36753407 3:-0.32045222 4:-0.26017651 
0.01009 1:-0.36119205 2:-0.20564536 3:-0.32644543 4:-0.26034231 
0.01009 1:-0.25520827 2:-0.39451552 3:-0.26950996 4:-0.25872572 
0.01009 1:-0.38768799 2:-0.31357117 3:-0.28449298 4:-0.25938894 
0.01009 1:-0.30820016 2:-0.34055262 3:-0.29498109 4:-0.2598449 
0.01009 1:-0.33469611 2:-0.34055262 3:-0.29647939 4:-0.26050812 
0.01009 1:-0.029992752 2:-0.81272803 3:-0.23504903 4:-0.25819513 
0.01009 1:-0.36119205 2:-0.46196915 3:-0.29348279 4:-0.25943039 
0.01009 1:-0.45392785 2:-0.32706189 3:-0.32045222 4:-0.26025941 
0.01009 1:-0.32144813 2:-0.3810248 3:-0.32794373 4:-0.26038376 
0.01009 1:-0.37444002 2:-0.34055262 3:-0.32644543 4:-0.26092263 
0.01009 1:-0.33469611 2:-0.23262681 3:-0.32944203 4:-0.26079827 
0.01009 1:-0.26845625 2:-0.50244133 3:-0.29797769 4:-0.25934749 
0.01009 1:-0.49367177 2:-0.47545988 3:-0.35041825 4:-0.26063247 
0.01009 1:-0.46717583 2:-0.47545988 3:-0.31296071 4:-0.26171019 
0.01009 1:-0.46717583 2:-0.39451552 3:-0.3968656 4:-0.26245631 
0.01009 1:-0.38768799 2:-0.35404335 3:-0.39986221 4:-0.26262212 
0.01009 1:-0.34794408 2:-0.25960826 3:-0.38787579 4:-0.26291227 
0.01009 1:-0.25520827 2:-0.30008044 3:-0.38038428 4:-0.26253921 
0.01009 1:-0.28170422 2:-0.44847843 3:-0.35491316 4:-0.2617931 
0.01009 1:-0.44067988 2:-0.50244133 3:-0.3968656 4:-0.26146149 
0.01009 1:-0.49367177 2:-0.52942279 3:-0.42233673 4:-0.26403145 
0.01009 1:-0.52016771 2:-0.42149698 3:-0.42533333 4:-0.26486047 
0.01009 1:-0.41418394 2:-0.39451552 3:-0.41934013 4:-0.26531643 
0.01009 1:-0.38768799 2:-0.36753407 3:-0.41035032 4:-0.26585529 
0.01009 1:-0.36119205 2:-0.39451552 3:-0.40735371 4:-0.26589675 
0.01009 1:-0.38768799 2:-0.36753407 3:-0.41184862 4:-0.26597965 
0.01009 1:-0.36119205 2:-0.32706189 3:-0.42383503 4:-0.26668431 
0.01009 1:-0.32144813 2:-0.62385787 3:-0.42683163 4:-0.26714028 
0.01009 1:-0.61290352 2:-0.70480222 3:-0.48077049 4:-0.26888122 
0.01009 1:-0.69239135 2:-0.83970949 3:-0.52721784 4:-0.27037345 
0.01009 1:-0.82487107 2:-0.81272803 3:-0.57066859 4:-0.27215595 
0.01009 1:-0.79837512 2:-0.7452744 3:-0.60512953 4:-0.27352059 
0.01009 1:-0.73213527 2:-0.65083932 3:-0.62910235 4:-0.27467848 
0.01009 1:-0.63939946 2:-0.50244133 3:-0.65457348 4:-0.27591907 
0.01009 1:-0.49367177 2:-0.40800625 3:-0.6665599 4:-0.27645666 
0.01009 1:-0.40093597 2:-0.50244133 3:-0.6710548 4:-0.27678748 
0.01009 1:-0.49367177 2:-0.35404335 3:-0.68304121 4:-0.27798672 
0.01009 1:-0.34794408 2:-0.66433005 3:-0.68154291 4:-0.27852431 
0.01009 1:-0.65264743 2:-0.62385787 3:-0.71900045 4:-0.28021978 
0.01009 1:-0.61290352 2:-0.65083932 3:-0.71900045 4:-0.28131476 
0.01009 1:-0.63939946 2:-0.54291351 3:-0.71300725 4:-0.28259368 
0.01009 1:-0.53341569 2:-0.46196915 3:-0.68004461 4:-0.28308874 
0.01009 1:-0.45392785 2:-0.36753407 3:-0.64108877 4:-0.28325377 
0.01009 1:-0.36119205 2:-0.4349877 3:-0.59913632 4:-0.28379009 
0.01009 1:-0.42743191 2:-0.48895061 3:-0.5751635 4:-0.28449143 
0.01009 1:-0.4804238 2:-0.52942279 3:-0.57366519 4:-0.28519277 
0.01009 1:-0.52016771 2:-0.40800625 3:-0.58714991 4:-0.28638918 
0.01009 1:-0.40093597 2:-0.59687642 3:-0.5766618 4:-0.28713178 
0.01009 1:-0.58640757 2:-0.61036714 3:-0.60363123 4:-0.28845196 
0.01009 1:-0.59965555 2:-0.46196915 3:-0.59763802 4:-0.28923581 
0.01009 1:-0.45392785 2:-0.32706189 3:-0.5796584 4:-0.28944209 
0.01009 1:-0.16247247 2:-0.3810248 3:-0.47178068 4:-0.28956585 
0.01009 1:-0.37444002 2:-0.51593206 3:-0.47327899 4:-0.29010218 
0.01009 1:-0.50691974 2:-0.42149698 3:-0.4822688 4:-0.29084206 
0.01009 1:-0.41418394 2:-0.40800625 3:-0.47477729 4:-0.29166522 
0.01009 1:-0.40093597 2:-0.46196915 3:-0.46129257 4:-0.29220028 
0.01009 1:-0.45392785 2:-0.46196915 3:-0.46728578 4:-0.29294114 
0.01009 1:-0.45392785 2:-0.24611754 3:-0.45230276 4:-0.29310577 
0.01009 1:-0.21546436 2:-0.35404335 3:-0.37588938 4:-0.29281766 
0.01009 1:-0.34794408 2:-0.46196915 3:-0.393869 4:-0.29335272 
0.01009 1:-0.45392785 2:-0.42149698 3:-0.42683163 4:-0.29405241 
0.01009 1:-0.41418394 2:-0.25960826 3:-0.43132654 4:-0.29475211 
0.01009 1:-0.25520827 2:-0.28658971 3:-0.40285881 4:-0.29450516 
0.01009 1:-0.28170422 2:-0.28658971 3:-0.38787579 4:-0.29442284 
0.01009 1:-0.25520827 2:-0.34055262 3:-0.27400487 4:-0.29335272 
0.01009 1:-0.26845625 2:-0.34055262 3:-0.14814753 4:-0.29133596 
0.01009 1:-0.096232612 2:-0.62385787 3:-0.16313055 4:-0.29072101 
0.01009 1:-0.2419603 2:-0.36753407 3:-0.14215433 4:-0.28940083 
0.01009 1:-0.36119205 2:-0.40800625 3:-0.17661526 4:-0.28973088 
0.01009 1:-0.25520827 2:-0.32706189 3:-0.25902185 4:-0.2898959 
0.01009 1:-0.32144813 2:-0.30008044 3:-0.27250657 4:-0.28997841 
0.01009 1:-0.32144813 2:-0.30008044 3:-0.12567301 4:-0.27868972 
0.01009 1:-0.29495219 2:-0.30008044 3:-0.16313055 4:-0.27877243 
0.01009 1:-0.32144813 2:-0.42149698 3:-0.16013394 4:-0.27678748 
0.01009 1:-0.41418394 2:-0.30008044 3:-0.22006601 4:-0.2777386 
0.01009 1:-0.29495219 2:-0.31357117 3:-0.23205242 4:-0.27769725 
0.01009 1:-0.32144813 2:-0.4349877 3:-0.22755752 4:-0.27699425 
0.01009 1:-0.42743191 2:-0.30008044 3:-0.27100827 4:-0.27753184 
0.01009 1:-0.29495219 2:-0.30008044 3:-0.26801166 4:-0.27728372 
0.01009 1:-0.30820016 2:-2.0268934 3:-0.24104223 4:-0.27682884 
0.01009 1:-2.0701804 2:-0.46196915 3:-0.68004461 4:-0.28824568 
0.01009 1:-0.45392785 2:-0.62385787 3:-0.70401744 4:-0.28894702 
0.01009 1:-0.61290352 2:-0.54291351 3:-0.7594546 4:-0.29034971 
0.01009 1:-0.53341569 2:-0.70480222 3:-0.78342742 4:-0.29109231 
0.01009 1:-0.69239135 2:-0.35404335 3:-0.81339346 4:-0.29240608 
0.01009 1:-0.34794408 2:-0.40800625 3:-0.81938666 4:-0.29224144 
0.01009 1:-0.40093597 2:-0.27309899 3:-0.83137308 4:-0.29220028 
0.01009 1:-0.26845625 2:-0.56989496 3:-0.84935269 4:-0.29257071 
0.01009 1:-0.55991163 2:-0.4349877 3:-0.89430174 4:-0.29380546 
0.01009 1:-0.42743191 2:-0.66433005 3:-0.90778646 4:-0.29442284 
0.01009 1:-0.65264743 2:-0.40800625 3:-0.75645799 4:-0.2959457 
0.01009 1:-0.40093597 2:-0.66433005 3:-0.56767199 4:-0.2964396 
0.01009 1:-0.65264743 2:-0.52942279 3:-0.59014651 4:-0.29763319 
0.01009 1:-0.52016771 2:-0.48895061 3:-0.5796584 4:-0.29825057 
0.01009 1:-0.4804238 2:-0.36753407 3:-0.57366519 4:-0.29853868 
0.01009 1:-0.36119205 2:-0.4349877 3:-0.53620765 4:-0.29849752 
0.01009 1:-0.42743191 2:-0.32706189 3:-0.54519746 4:-0.29969111 
0.01009 1:-0.32144813 2:-0.55640424 3:-0.53620765 4:-0.30030849 
0.01009 1:-0.54666366 2:-0.70480222 3:-0.56767199 4:-0.30125513 
0.01009 1:-0.69239135 2:-0.24611754 3:-0.582655 4:-0.30254196 
0.01009 1:-0.2419603 2:-1.9189676 3:-0.56167878 4:-0.30274727 
0.01009 1:-2.282148 2:-0.55640424 3:-0.91377966 4:-0.31385934 
0.01009 1:-0.54666366 2:-0.56989496 3:-0.90179325 4:-0.31459672 
0.01009 1:-0.55991163 2:-0.42149698 3:-0.90628816 4:-0.3153341 
0.01009 1:-0.41418394 2:-0.48895061 3:-0.89879665 4:-0.3155799 
0.01009 1:-0.4804238 2:-0.61036714 3:-0.91228136 4:-0.31594859 
0.01009 1:-0.59965555 2:-0.47545988 3:-0.93175928 4:-0.31762818 
0.01009 1:-0.46717583 2:-0.65083932 3:-0.9482406 4:-0.31873425 
0.01009 1:-0.63939946 2:-0.70480222 3:-0.95872871 4:-0.32000419 
0.01009 1:-0.69239135 2:-0.50244133 3:-0.95872871 4:-0.32127412 
0.01009 1:-0.49367177 2:-0.39451552 3:-0.98719644 4:-0.32168378 
0.01009 1:-0.38768799 2:-0.35404335 3:-0.81788836 4:-0.32188861 
0.01009 1:-0.34794408 2:-0.39451552 3:-0.59913632 4:-0.32209343 
0.01009 1:-0.38768799 2:-0.25960826 3:-0.5811567 4:-0.32238555 
0.01009 1:-0.25520827 2:-0.31357117 3:-0.54669577 4:-0.3221812 
0.01009 1:-0.30820016 2:-0.34055262 3:-0.53470935 4:-0.32222207 
0.01009 1:-0.33469611 2:-0.39451552 3:-0.51822803 4:-0.3229986 
0.01009 1:-0.38768799 2:-0.44847843 3:-0.49425521 4:-0.32385687 
0.01009 1:-0.44067988 2:-0.36753407 3:-0.4912586 4:-0.32459253 
0.01009 1:-0.2419603 2:-0.35404335 3:-0.28449298 4:-0.32287178 
0.01009 1:-0.34794408 2:-0.35404335 3:-0.28898788 4:-0.32311757 
0.01009 1:-0.29495219 2:-0.34055262 3:-0.22006601 4:-0.32131509 
0.01009 1:-0.30820016 2:-0.28658971 3:-0.19759149 4:-0.31975839 
0.01009 1:-0.22871233 2:-0.36753407 3:-0.22156431 4:-0.32053674 
0.01009 1:-0.36119205 2:-0.35404335 3:-0.23355072 4:-0.32065964 
0.01009 1:-0.32144813 2:-0.34055262 3:-0.24403884 4:-0.31992226 
0.01009 1:-0.33469611 2:-0.34055262 3:-0.23504903 4:-0.32045481 
0.01009 1:-0.33469611 2:-0.88018166 3:-0.27999808 4:-0.32074157 
0.01009 1:-0.30820016 2:-0.27309899 3:-0.23804563 4:-0.3195126 
0.01009 1:-0.30820016 2:-0.30008044 3:-0.16912375 4:-0.31684983 
0.01009 1:-0.29495219 2:-0.3810248 3:-0.18860168 4:-0.31730045 
0.01009 1:-0.18896842 2:-0.39451552 3:-0.16762545 4:-0.31484252 
0.01009 1:-0.38768799 2:-0.31357117 3:-0.2125745 4:-0.3157028 
0.01009 1:-0.30820016 2:-0.34055262 3:-0.23355072 4:-0.31607149 
0.01009 1:-0.22871233 2:-0.32706189 3:-0.15414074 4:-0.31275327 
0.01009 1:-0.18896842 2:-0.50244133 3:-0.062744339 4:-0.30455399 
0.01009 1:-0.2419603 2:-0.34055262 3:-0.15264244 4:-0.29932069 
0.01009 1:-0.2419603 2:-0.35404335 3:-0.12567301 4:-0.2964396 
0.01009 1:-0.34794408 2:-0.28658971 3:-0.16612715 4:-0.29660423 
0.01009 1:-0.096232612 2:-0.94763529 3:-0.16912375 4:-0.29549296 
0.01009 1:-0.32144813 2:-0.35404335 3:-0.17361866 4:-0.2939701 
0.01009 1:-0.16247247 2:-0.36753407 3:-0.13915772 4:-0.29121607 
0.01009 1:-0.36119205 2:-0.39451552 3:-0.17811356 4:-0.29133984 
0.01009 1:0.022999136 2:-0.52942279 3:-0.16612715 4:-0.28997841 
0.01009 1:-0.28170422 2:-0.32706189 3:-0.097205276 4:-0.27012965 
0.01009 1:-0.32144813 2:-0.27309899 3:-0.15264244 4:-0.27207324 
0.01009 1:-0.29495219 2:-0.35404335 3:-0.1151849 4:-0.2662698 
0.01009 1:-0.13597653 2:-0.54291351 3:-0.092710371 4:-0.25408173 
0.01009 1:-0.26845625 2:-0.31357117 3:-0.086717165 4:-0.24942819 
0.01009 1:-0.28170422 2:-0.39451552 3:-0.08222226 4:-0.22164532 
0.01009 1:-0.38768799 2:-0.48895061 3:-0.13765942 4:-0.22131054 
0.01009 1:-0.4804238 2:-0.4349877 3:-0.19159828 4:-0.22156163 
0.01009 1:-0.42743191 2:-0.23262681 3:-0.22905582 4:-0.22135239 
0.01009 1:-0.22871233 2:-0.47545988 3:-0.24553714 4:-0.22097576 
0.01009 1:-0.46717583 2:-0.44847843 3:-0.28299468 4:-0.22038989 
0.01009 1:-0.44067988 2:-0.36753407 3:-0.31745562 4:-0.21984587 
0.01009 1:-0.36119205 2:-0.32706189 3:-0.33393693 4:-0.21896707 
0.01009 1:-0.32144813 2:-0.34055262 3:-0.35491316 4:-0.21829751 
0.01009 1:-0.33469611 2:-0.46196915 3:-0.3968656 4:-0.21792088 
0.01009 1:-0.45392785 2:-0.55640424 3:-0.43582144 4:-0.21821381 
0.01009 1:-0.54666366 2:-0.50244133 3:-0.46578748 4:-0.21859044 
0.01009 1:-0.49367177 2:-0.40800625 3:-0.47777389 4:-0.21863229 
0.01009 1:-0.40093597 2:-0.35404335 3:-0.46878408 4:-0.21766488 
0.01009 1:-0.34794408 2:-0.40800625 3:-0.45979427 4:-0.21690981 
0.01009 1:-0.40093597 2:-0.21913608 3:-0.47927219 4:-0.21628059 
0.01009 1:-0.26845625 2:-0.48895061 3:-0.40585541 4:-0.21518994 
0.01009 1:-0.4804238 2:-0.46196915 3:-0.42383503 4:-0.21619669 
0.01009 1:-0.45392785 2:-0.47545988 3:-0.43731975 4:-0.21644838 
0.01009 1:-0.46717583 2:-0.31357117 3:-0.43881805 4:-0.21632254 
0.01009 1:-0.18896842 2:-0.32706189 3:-0.27700147 4:-0.21242137 
0.01009 1:-0.32144813 2:-0.28658971 3:-0.29797769 4:-0.21275696 
0.01009 1:-0.18896842 2:-0.6913115 3:-0.26651336 4:-0.21170826 
0.01009 1:-2.2159081 2:-0.24611754 3:-2.7192331 4:-2.8610611 
0.01009 1:-0.25520827 2:-0.4349877 3:-1.1013171 4:-1.1438981 
0.01009 1:-0.42743191 2:-0.28658971 3:-1.014594 4:-1.0518551 
0.01009 1:-0.28170422 2:-0.44847843 3:-0.9268898 4:-0.95877099 
0.01009 1:-0.44067988 2:-0.27309899 3:-0.88065055 4:-0.9096953 
0.01009 1:-0.26845625 2:-0.42149698 3:-0.82223344 4:-0.84769473 
0.01009 1:-0.41418394 2:-0.51593206 3:-0.79091893 4:-0.81445932 
0.01009 1:-0.50691974 2:-0.35404335 3:-0.59763802 4:-0.796967 
0.01009 1:-0.34794408 2:-0.3810248 3:-0.38637749 4:-0.76601904 
0.01009 1:-0.37444002 2:-0.36753407 3:-0.40136051 4:-0.74199112 
0.01009 1:-0.36119205 2:-0.42149698 3:-0.42083843 4:-0.72000077 
0.01009 1:-0.41418394 2:-0.36753407 3:-0.42533333 4:-0.7051323 
0.01009 1:-0.36119205 2:-0.3810248 3:-0.43731975 4:-0.68789722 
0.01009 1:-0.37444002 2:-0.36753407 3:-0.43132654 4:-0.67354894 
0.01009 1:-0.26845625 2:-0.39451552 3:-0.42083843 4:-0.64128532 
0.01009 1:-0.38768799 2:-0.3810248 3:-0.43432314 4:-0.63203938 
0.01009 1:-0.37444002 2:-0.46196915 3:-0.42982824 4:-0.62283887 
0.01009 1:-0.45392785 2:-0.27309899 3:-0.42383503 4:-0.61900162 
0.01009 1:-0.26845625 2:-0.3810248 3:-0.41484522 4:-0.60528029 
0.01009 1:-0.37444002 2:-0.4349877 3:-0.41484522 4:-0.5982542 
0.01009 1:-0.42743191 2:-0.32706189 3:-0.42233673 4:-0.59445972 
0.01009 1:-0.32144813 2:-0.36753407 3:-0.41184862 4:-0.58576339 
0.01009 1:-0.36119205 2:-0.32706189 3:-0.41184862 4:-0.57956241 
0.01009 1:-0.28170422 2:-0.31357117 3:-0.33843184 4:-0.52008851 
0.01009 1:-0.30820016 2:-0.35404335 3:-0.33094033 4:-0.51514623 
0.01009 1:-0.28170422 2:-0.35404335 3:-0.29348279 4:-0.48252166 
0.01009 1:-0.34794408 2:-0.25960826 3:-0.3024726 4:-0.48047798 
0.01009 1:-0.2419603 2:-0.42149698 3:-0.29797769 4:-0.46537339 
0.01009 1:-0.41418394 2:-0.28658971 3:-0.3069675 4:-0.45854409 
0.01009 1:-0.28170422 2:-0.31357117 3:-0.31296071 4:-0.44880248 
0.01009 1:-0.30820016 2:-0.34055262 3:-0.31595731 4:-0.44679049 
0.01009 1:-0.34794408 2:-0.34055262 3:-0.32045222 4:-0.43962382 
0.01009 1:-0.33469611 2:-0.42149698 3:-0.33094033 4:-0.43852781 
0.01009 1:-0.41418394 2:-0.3810248 3:-0.33094033 4:-0.43927914 
0.01009 1:-0.37444002 2:-0.34055262 3:-0.35940806 4:-0.43911557 
0.01009 1:-0.33469611 2:-0.44847843 3:-0.35041825 4:-0.43808283 
0.01009 1:-0.44067988 2:-0.21913608 3:-0.36839787 4:-0.43937803 
0.01009 1:-0.21546436 2:-0.36753407 3:-0.36540127 4:-0.43583516 
0.01009 1:-0.36119205 2:-0.35404335 3:-0.37439108 4:-0.43545898 
0.01009 1:-0.34794408 2:-0.28658971 3:-0.37888598 4:-0.43482124 
0.01009 1:-0.22871233 2:-0.34055262 3:-0.37139447 4:-0.42806173 
0.01009 1:-0.33469611 2:-0.28658971 3:-0.37139447 4:-0.42731305 
0.01009 1:-0.28170422 2:-0.3810248 3:-0.35641146 4:-0.42557202 
0.01009 1:-0.37444002 2:-0.31357117 3:-0.35641146 4:-0.42562996 
0.01009 1:-0.30820016 2:-0.28658971 3:-0.35341485 4:-0.42445442 
0.01009 1:-0.22871233 2:-0.40800625 3:-0.33693354 4:-0.42028299 
0.01009 1:-0.40093597 2:-0.34055262 3:-0.34142844 4:-0.42088205 
0.01009 1:-0.33469611 2:-0.28658971 3:-0.33993014 4:-0.42029897 
0.01009 1:-0.28170422 2:-0.36753407 3:-0.33993014 4:-0.41881059 
0.01009 1:-0.36119205 2:-0.28658971 3:-0.34891995 4:-0.4187239 
0.01009 1:-0.28170422 2:-0.39451552 3:-0.35491316 4:-0.41729388 
0.01009 1:-0.38768799 2:-0.28658971 3:-0.36090636 4:-0.41767143 
0.01009 1:-0.28170422 2:-0.35404335 3:-0.36090636 4:-0.41629031 
0.01009 1:-0.34794408 2:-0.25960826 3:-0.35790976 4:-0.41602307 
0.01009 1:-0.25520827 2:-0.34055262 3:-0.30846581 4:-0.40418483 
0.01009 1:-0.2419603 2:-0.4349877 3:-0.29797769 4:-0.40222357 
0.01009 1:-0.42743191 2:-0.30008044 3:-0.31445901 4:-0.40329361 
0.01009 1:-0.29495219 2:-0.34055262 3:-0.30846581 4:-0.40243905 
0.01009 1:-0.33469611 2:-0.25960826 3:-0.31745562 4:-0.40216714 
0.01009 1:-0.25520827 2:-0.39451552 3:-0.32344882 4:-0.40078448 
0.01009 1:-0.38768799 2:-0.3810248 3:-0.33993014 4:-0.40127223 
0.01009 1:-0.37444002 2:-0.27309899 3:-0.35041825 4:-0.40156761 
0.01009 1:-0.26845625 2:-0.40800625 3:-0.35191655 4:-0.40041422 
0.01009 1:-0.40093597 2:-0.27309899 3:-0.36689957 4:-0.40106931 
0.01009 1:-0.26845625 2:-0.40800625 3:-0.36839787 4:-0.39994426 
0.01009 1:-0.40093597 2:-0.32706189 3:-0.37588938 4:-0.40059095 
0.01009 1:-0.32144813 2:-0.3810248 3:-0.38487919 4:-0.40018568 
0.01009 1:-0.37444002 2:-0.30008044 3:-0.37888598 4:-0.40047434 
0.01009 1:-0.29495219 2:-0.32706189 3:-0.37888598 4:-0.39973841 
0.01009 1:-0.32144813 2:-0.39451552 3:-0.37738768 4:-0.39935303 
0.01009 1:-0.38768799 2:-0.42149698 3:-0.3923707 4:-0.39980796 
0.01009 1:-0.41418394 2:-0.3810248 3:-0.3953673 4:-0.40058435 
0.01009 1:-0.37444002 2:-0.35404335 3:-0.3953673 4:-0.40085579 
0.01009 1:-0.34794408 2:-0.39451552 3:-0.40435711 4:-0.40079827 
0.01009 1:-0.38768799 2:-0.40800625 3:-0.40285881 4:-0.40122324 
0.01009 1:-0.40093597 2:-0.3810248 3:-0.41784183 4:-0.40179951 
0.01009 1:-0.37444002 2:-0.3810248 3:-0.41484522 4:-0.40205022 
0.01009 1:-0.37444002 2:-0.35404335 3:-0.42083843 4:-0.40229645 
0.01009 1:-0.34794408 2:-0.39451552 3:-0.41784183 4:-0.40222873 
0.01009 1:-0.38768799 2:-0.28658971 3:-0.42832994 4:-0.40262252 
0.01009 1:-0.28170422 2:-0.36753407 3:-0.42383503 4:-0.4017926 
0.01009 1:-0.36119205 2:-0.35404335 3:-0.42083843 4:-0.40188176 
0.01009 1:-0.34794408 2:-0.32706189 3:-0.41334692 4:-0.4018199 
0.01009 1:-0.32144813 2:-0.35404335 3:-0.40735371 4:-0.4014626 
0.01009 1:-0.34794408 2:-0.27309899 3:-0.40735371 4:-0.4014053 
0.01009 1:-0.26845625 2:-0.4349877 3:-0.393869 4:-0.40047434 
0.01009 1:-0.42743191 2:-0.34055262 3:-0.3968656 4:-0.40129354 
0.01009 1:-0.33469611 2:-0.40800625 3:-0.3923707 4:-0.40109565 
0.01009 1:-0.40093597 2:-0.36753407 3:-0.3953673 4:-0.40161205 
0.01009 1:-0.36119205 2:-0.36753407 3:-0.3968656 4:-0.40169692 
0.01009 1:-0.36119205 2:-0.35404335 3:-0.393869 4:-0.40178043 
0.01009 1:-0.34794408 2:-0.4349877 3:-0.40136051 4:-0.40172379 
0.01009 1:-0.42743191 2:-0.3810248 3:-0.40885202 4:-0.40249445 
0.01009 1:-0.37444002 2:-0.36753407 3:-0.41184862 4:-0.40270643 
0.01009 1:-0.36119205 2:-0.3810248 3:-0.41634352 4:-0.40277953 
0.01009 1:-0.37444002 2:-0.35404335 3:-0.41934013 4:-0.40298605 
0.01009 1:-0.34794408 2:-0.44847843 3:-0.42832994 4:-0.40292237 
0.01009 1:-0.44067988 2:-0.40800625 3:-0.42982824 4:-0.40378728 
0.01009 1:-0.40093597 2:-0.35404335 3:-0.43731975 4:-0.40424461 
0.01009 1:-0.34794408 2:-0.3810248 3:-0.43132654 4:-0.40417296 
0.01009 1:-0.37444002 2:-0.36753407 3:-0.43282484 4:-0.40436152 
0.01009 1:-0.36119205 2:-0.35404335 3:-0.43282484 4:-0.40441868 
0.01009 1:-0.34794408 2:-0.44847843 3:-0.43282484 4:-0.40434733 
0.01009 1:-0.44067988 2:-0.44847843 3:-0.43432314 4:-0.40516431 
0.01009 1:-0.44067988 2:-0.34055262 3:-0.44181465 4:-0.40596953 
0.01009 1:-0.33469611 2:-0.44847843 3:-0.43881805 4:-0.40576368 
0.01009 1:-0.44067988 2:-0.44847843 3:-0.44630956 4:-0.40655323 
0.01009 1:-0.44067988 2:-0.44847843 3:-0.45679767 4:-0.40733165 
0.01009 1:-0.44067988 2:-0.44847843 3:-0.45679767 4:-0.40809919 
0.01009 1:-0.44067988 2:-0.40800625 3:-0.46129257 4:-0.40885607 
0.01009 1:-0.40093597 2:-0.39451552 3:-0.46728578 4:-0.4092406 
0.01009 1:-0.38768799 2:-0.31357117 3:-0.46878408 4:-0.40950005 
0.01009 1:-0.30820016 2:-0.36753407 3:-0.46279087 4:-0.409042 
0.01009 1:-0.36119205 2:-0.39451552 3:-0.46428918 4:-0.40906291 
0.01009 1:-0.38768799 2:-0.36753407 3:-0.45829597 4:-0.40931833 
0.01009 1:-0.36119205 2:-0.31357117 3:-0.44930616 4:-0.40933711 
0.01009 1:-0.30820016 2:-0.32706189 3:-0.44630956 4:-0.40889227 
0.01009 1:-0.32144813 2:-0.42149698 3:-0.43282484 4:-0.40856837 
0.01009 1:-0.41418394 2:-0.30008044 3:-0.42982824 4:-0.409049 
0.01009 1:-0.29495219 2:-0.31357117 3:-0.41334692 4:-0.40850112 
0.01009 1:-0.30820016 2:-0.3810248 3:-0.3983639 4:-0.40807315 
0.01009 1:-0.37444002 2:-0.25960826 3:-0.3953673 4:-0.40821132 
0.01009 1:-0.25520827 2:-0.31357117 3:-0.38038428 4:-0.40734499 
0.01009 1:-0.30820016 2:-0.32706189 3:-0.38038428 4:-0.40693247 
0.01009 1:-0.32144813 2:-0.40800625 3:-0.37588938 4:-0.40663515 
0.01009 1:-0.40093597 2:-0.25960826 3:-0.37738768 4:-0.40699751 
0.01009 1:-0.25520827 2:-0.34055262 3:-0.36540127 4:-0.40616025 
0.01009 1:-0.33469611 2:-0.34055262 3:-0.36839787 4:-0.40598118 
0.01009 1:-0.33469611 2:-0.34055262 3:-0.36989617 4:-0.40580431 
0.01009 1:-0.33469611 2:-0.30008044 3:-0.36090636 4:-0.40562959 
0.01009 1:-0.29495219 2:-0.31357117 3:-0.36090636 4:-0.40513895 
0.01009 1:-0.30820016 2:-0.40800625 3:-0.36090636 4:-0.4047596 
0.01009 1:-0.40093597 2:-0.20564536 3:-0.36390297 4:-0.40511801 
0.01009 1:-0.20221639 2:-0.39451552 3:-0.35790976 4:-0.40391033 
0.01009 1:-0.38768799 2:-0.36753407 3:-0.36689957 4:-0.40416601 
0.01009 1:-0.36119205 2:-0.27309899 3:-0.37139447 4:-0.40421289 
0.01009 1:-0.26845625 2:-0.31357117 3:-0.35641146 4:-0.40354316 
0.01009 1:-0.30820016 2:-0.32706189 3:-0.36240466 4:-0.40318632 
0.01009 1:-0.32144813 2:-0.42149698 3:-0.36090636 4:-0.40293472 
0.01009 1:-0.41418394 2:-0.30008044 3:-0.36989617 4:-0.40338972 
0.01009 1:-0.29495219 2:-0.4349877 3:-0.36540127 4:-0.40293992 
0.01009 1:-0.42743191 2:-0.32706189 3:-0.38038428 4:-0.40348911 
0.01009 1:-0.32144813 2:-0.3810248 3:-0.38188259 4:-0.40324148 
0.01009 1:-0.37444002 2:-0.39451552 3:-0.37888598 4:-0.40338972 
0.01009 1:-0.38768799 2:-0.36753407 3:-0.39986221 4:-0.40363403 
0.01009 1:-0.36119205 2:-0.42149698 3:-0.3968656 4:-0.40368126 
0.01009 1:-0.41418394 2:-0.23262681 3:-0.40285881 4:-0.40411454 
0.01009 1:-0.22871233 2:-0.35404335 3:-0.3983639 4:-0.4031975 
0.01009 1:-0.34794408 2:-0.35404335 3:-0.40285881 4:-0.40315076 
0.01009 1:-0.34794408 2:-0.35404335 3:-0.40585541 4:-0.40310452 
0.01009 1:-0.34794408 2:-0.30008044 3:-0.3983639 4:-0.40305879 
0.01009 1:-0.29495219 2:-0.36753407 3:-0.3983639 4:-0.40263736 
0.01009 1:-0.36119205 2:-0.31357117 3:-0.3908724 4:-0.40268816 
0.01009 1:-0.29495219 2:-0.32706189 3:-0.35940806 4:-0.40090397 
0.01009 1:-0.29495219 2:-0.39451552 3:-0.32644543 4:-0.39852073 
0.01009 1:-0.38768799 2:-0.21913608 3:-0.33094033 4:-0.39876996 
0.01009 1:-0.32144813 2:-0.28658971 3:-0.31895392 4:-0.39766254 
0.01009 1:-0.26845625 2:-0.34055262 3:-0.3039709 4:-0.39560564 
0.01009 1:-0.33469611 2:-0.31357117 3:-0.30846581 4:-0.39551383 
0.01009 1:-0.25520827 2:-0.31357117 3:-0.27700147 4:-0.38745046 
0.01009 1:-0.30820016 2:-0.44847843 3:-0.27999808 4:-0.38723983 
0.01009 1:-0.44067988 2:-0.32706189 3:-0.3024726 4:-0.38784099 
0.01009 1:-0.32144813 2:-0.39451552 3:-0.31296071 4:-0.38771112 
0.01009 1:-0.38768799 2:-0.3810248 3:-0.32794373 4:-0.38798364 
0.01009 1:-0.37444002 2:-0.28658971 3:-0.33843184 4:-0.3881738 
0.01009 1:-0.28170422 2:-0.35404335 3:-0.34292674 4:-0.38780565 
0.01009 1:-0.34794408 2:-0.36753407 3:-0.35940806 4:-0.38783659 
0.01009 1:-0.36119205 2:-0.35404335 3:-0.36689957 4:-0.38794605 
0.01009 1:-0.34794408 2:-0.30008044 3:-0.37588938 4:-0.38797608 
0.01009 1:-0.29495219 2:-0.36753407 3:-0.38338089 4:-0.38769349 
0.01009 1:-0.36119205 2:-0.32706189 3:-0.3953673 4:-0.38780212 
0.01009 1:-0.32144813 2:-0.34055262 3:-0.3968656 4:-0.38767759 
0.01009 1:-0.33469611 2:-0.31357117 3:-0.38487919 4:-0.38763122 
0.01009 1:-0.30820016 2:-0.32706189 3:-0.38338089 4:-0.38743181 
0.01009 1:-0.32144813 2:-0.34055262 3:-0.37588938 4:-0.38731053 
0.01009 1:-0.33469611 2:-0.24611754 3:-0.37139447 4:-0.38726636 
0.01009 1:-0.2419603 2:-0.36753407 3:-0.36689957 4:-0.3866925 
0.01009 1:-0.36119205 2:-0.31357117 3:-0.36839787 4:-0.38680217 
0.01009 1:-0.30820016 2:-0.30008044 3:-0.36240466 4:-0.38661061 
0.01009 1:-0.29495219 2:-0.34055262 3:-0.35641146 4:-0.38634592 
0.01009 1:-0.33469611 2:-0.28658971 3:-0.36090636 4:-0.38630679 
0.01009 1:-0.28170422 2:-0.36753407 3:-0.35191655 4:-0.38597152 
0.01009 1:-0.36119205 2:-0.27309899 3:-0.35641146 4:-0.38608192 
0.01009 1:-0.26845625 2:-0.34055262 3:-0.34891995 4:-0.38567691 
0.01009 1:-0.33469611 2:-0.32706189 3:-0.35191655 4:-0.38564124 
0.01009 1:-0.32144813 2:-0.32706189 3:-0.35191655 4:-0.38553298 
0.01009 1:-0.32144813 2:-0.30008044 3:-0.35041825 4:-0.38542561 
0.01009 1:-0.29495219 2:-0.36753407 3:-0.35641146 4:-0.38517458 
0.01009 1:-0.36119205 2:-0.3810248 3:-0.35641146 4:-0.38528553 
0.01009 1:-0.37444002 2:-0.27309899 3:-0.36390297 4:-0.38546726 
0.01009 1:-0.26845625 2:-0.39451552 3:-0.36090636 4:-0.38507633 
0.01009 1:-0.38768799 2:-0.32706189 3:-0.36689957 4:-0.38532854 
0.01009 1:-0.32144813 2:-0.40800625 3:-0.37139447 4:-0.38522462 
0.01009 1:-0.40093597 2:-0.34055262 3:-0.37588938 4:-0.38554473 
0.01009 1:-0.33469611 2:-0.30008044 3:-0.38338089 4:-0.38551102 
0.01009 1:-0.29495219 2:-0.34055262 3:-0.37888598 4:-0.38526768 
0.01009 1:-0.33469611 2:-0.25960826 3:-0.38038428 4:-0.38523534 
0.01009 1:-0.25520827 2:-0.36753407 3:-0.37289278 4:-0.38478678 
0.01009 1:-0.36119205 2:-0.30008044 3:-0.38038428 4:-0.38489487 
0.01009 1:-0.26845625 2:-0.30008044 3:-0.27700147 4:-0.38006662 
0.01009 1:-0.28170422 2:-0.40800625 3:-0.25452695 4:-0.36982171 
0.01009 1:-0.33469611 2:-0.25960826 3:-0.28898788 4:-0.36947168 
0.01009 1:-0.25520827 2:-0.36753407 3:-0.29647939 4:-0.36913392 
0.01009 1:-0.36119205 2:-0.23262681 3:-0.31445901 4:-0.36928272 
0.01009 1:-0.26845625 2:-0.32706189 3:-0.31146241 4:-0.36855535 
0.01009 1:-0.18896842 2:-0.36753407 3:-0.3069675 4:-0.36789762 
0.01009 1:-0.36119205 2:-0.32706189 3:-0.32195052 4:-0.36804809 
0.01009 1:-0.32144813 2:-0.36753407 3:-0.32644543 4:-0.36801965 
0.01009 1:-0.36119205 2:-0.28658971 3:-0.32195052 4:-0.36816869 
0.01009 1:-0.28170422 2:-0.3810248 3:-0.33393693 4:-0.36796335 
0.01009 1:-0.37444002 2:-0.47545988 3:-0.33843184 4:-0.36817028 
0.01009 1:-0.46717583 2:-0.30008044 3:-0.36240466 4:-0.36878534 
0.01009 1:-0.29495219 2:-0.3810248 3:-0.35491316 4:-0.36863831 
0.01009 1:-0.37444002 2:-0.3810248 3:-0.37139447 4:-0.36884093 
0.01009 1:-0.37444002 2:-0.31357117 3:-0.38338089 4:-0.36904221 
0.01009 1:-0.26845625 2:-0.30008044 3:-0.37738768 4:-0.36831905 
0.01009 1:-0.28170422 2:-0.34055262 3:-0.33543524 4:-0.36684832 
0.01009 1:-0.33469611 2:-0.27309899 3:-0.32045222 4:-0.36688155 
0.01009 1:-0.26845625 2:-0.32706189 3:-0.3054692 4:-0.36638673 
0.01009 1:-0.17572044 2:-0.36753407 3:-0.28449298 4:-0.36573109 
0.01009 1:-0.36119205 2:-0.39451552 3:-0.29797769 4:-0.36587841 
0.01009 1:-0.38768799 2:-0.21913608 3:-0.31146241 4:-0.3661355 
0.01009 1:-0.29495219 2:-0.31357117 3:-0.32045222 4:-0.3655447 
0.01009 1:-0.30820016 2:-0.39451552 3:-0.32644543 4:-0.36547141 
0.01009 1:-0.38768799 2:-0.23262681 3:-0.33843184 4:-0.36572656 
0.01009 1:-0.21546436 2:-0.36753407 3:-0.31745562 4:-0.36391089 
0.01009 1:-0.36119205 2:-0.25960826 3:-0.31745562 4:-0.36405882 
0.01009 1:-0.26845625 2:-0.35404335 3:-0.299476 4:-0.36311484 
0.01009 1:-0.34794408 2:-0.25960826 3:-0.3039709 4:-0.36321039 
0.01009 1:-0.25520827 2:-0.31357117 3:-0.28898788 4:-0.36293542 
0.01009 1:-0.30820016 2:-0.28658971 3:-0.29797769 4:-0.36287287 
0.01009 1:-0.28170422 2:-0.28658971 3:-0.29498109 4:-0.36270563 
0.01009 1:-0.34794408 2:-0.27309899 3:-0.31296071 4:-0.3620537 
0.01009 1:-0.32144813 2:-0.31357117 3:-0.27400487 4:-0.35309929 
0.01009 1:-0.30820016 2:-0.32706189 3:-0.28599128 4:-0.35306901 
0.01009 1:-0.32144813 2:-0.35404335 3:-0.28898788 4:-0.35308721 
0.01009 1:-0.34794408 2:-0.36753407 3:-0.3039709 4:-0.35320169 
0.01009 1:-0.36119205 2:-0.34055262 3:-0.31595731 4:-0.3533636 
0.01009 1:-0.33469611 2:-0.36753407 3:-0.32195052 4:-0.35342877 
0.01009 1:-0.36119205 2:-0.40800625 3:-0.34592335 4:-0.35358917 
0.01009 1:-0.40093597 2:-0.39451552 3:-0.35491316 4:-0.35389169 
0.01009 1:-0.38768799 2:-0.32706189 3:-0.37289278 4:-0.35414503 
0.01009 1:-0.32144813 2:-0.39451552 3:-0.37588938 4:-0.35415997 
0.01009 1:-0.38768799 2:-0.32706189 3:-0.3983639 4:-0.35441122 
