svm_type c_svc
kernel_type linear
nr_class 2
total_sv 698
rho 0.846987
label 1 -1
nr_sv 485 213
SV
0.014386 1:0.75163759 2:1.8584357 3:1.3966014 4:1.3871392 
0.014386 1:-0.66589541 2:0.95455709 3:-0.28149638 4:-0.35353051 
0.014386 1:1.5862598 2:3.8550632 3:1.5988722 4:2.0478171 
0.014386 1:0.10248697 2:-1.6626438 3:-0.18260847 4:1.5671118 
0.014386 1:0.87086934 2:1.1973902 3:-0.52272294 4:1.5525648 
0.014386 1:-0.043240724 2:0.83314055 3:0.56804065 4:0.72830293 
0.014386 1:-0.55991163 2:0.52285385 3:0.14851619 4:0.35376766 
0.014386 1:-0.53341569 2:0.41492804 3:0.13053657 4:0.33676207 
0.014386 1:-0.38768799 2:1.00852 3:0.33130899 4:0.35816891 
0.014386 1:-0.50691974 2:0.41492804 3:0.19796015 4:0.3775716 
0.014386 1:-0.54666366 2:0.15860425 3:-0.17511696 4:0.28059724 
0.014386 1:-0.2419603 2:0.52285385 3:-0.38038428 4:0.085279747 
0.014386 1:-0.65264743 2:0.19907643 3:-0.25902185 4:0.016183699 
0.014386 1:-0.71888729 2:1.1299365 3:0.45267142 4:-0.022625576 
0.014386 1:-0.63939946 2:0.71172402 3:0.072102808 4:-0.003587111 
0.014386 1:-0.65264743 2:-3.1196422 3:-0.07323245 4:0.023233502 
0.014386 1:-0.71888729 2:0.21256715 3:-0.2065813 4:0.012294683 
0.014386 1:-0.5731596 2:0.15860425 3:-0.24703544 4:0.012909991 
0.014386 1:-0.8116231 2:0.4419095 3:0.12304506 4:0.043328786 
0.014386 1:-0.69239135 2:0.28002078 3:0.23991259 4:0.066566245 
0.014386 1:-0.8116231 2:0.2395486 3:0.18897034 4:0.15360029 
0.014386 1:-0.78512715 2:0.11813207 3:-0.1181815 4:0.15568487 
0.014386 1:-0.61290352 2:0.34747441 3:0.18597373 4:0.2225003 
0.014386 1:-0.63939946 2:0.41492804 3:0.061614697 4:0.21712984 
0.014386 1:-0.45392785 2:0.53634458 3:0.04663168 4:0.20201365 
0.014386 1:-0.46717583 2:0.42841877 3:0.16649581 4:0.29613995 
0.014386 1:-0.54666366 2:0.33398369 3:0.07360111 4:0.29611712 
0.014386 1:-0.45392785 2:0.4958724 3:0.25789221 4:0.39137327 
0.014386 1:0.20847074 2:1.3592789 3:0.2459058 4:0.54632616 
0.014386 1:-1.1693183 2:-1.3253756 3:-0.41035032 4:0.061044779 
0.014386 1:-0.69239135 2:0.1316228 3:-0.32045222 4:-0.088463436 
0.014386 1:1.016597 2:1.1299365 3:1.0609819 4:2.7358318 
0.014386 1:1.1093328 2:0.96804781 3:1.0160328 4:2.7308675 
0.014386 1:0.95035717 2:1.0489922 3:0.94561266 4:2.7250836 
0.014386 1:1.029845 2:0.81964983 3:0.91115172 4:2.7197753 
0.014386 1:0.80462948 2:0.81964983 3:0.84672475 4:2.7133014 
0.007665751219692023 1:0.80462948 2:0.79266838 3:0.803274 4:2.7068799 
0.014386 1:0.81787745 2:0.7521962 3:0.69989119 4:2.6941214 
0.014386 1:0.89736528 2:0.76568692 3:0.83024343 4:2.6817752 
0.014386 1:0.75163759 2:0.92757564 3:1.1343987 4:2.6753286 
0.014386 1:0.91061326 2:0.92757564 3:1.1224123 4:2.6697626 
0.014386 1:0.91061326 2:0.52285385 3:1.0999377 4:2.6642404 
0.014386 1:1.4140362 2:1.1434273 3:1.0939445 4:2.6538721 
0.014386 1:1.1225808 2:0.94106636 3:1.1299038 4:2.6687679 
0.014386 1:0.92386123 2:-0.85320021 3:1.1433885 4:2.6826387 
0.014386 1:1.5332679 2:1.156918 3:1.041504 4:2.6641989 
0.014386 1:1.1358288 2:0.95455709 3:1.086453 4:2.6598428 
0.014386 1:0.9371092 2:1.1704087 3:1.0909479 4:2.6539893 
0.014386 1:1.1490768 2:1.1029551 3:1.135897 4:2.6489526 
0.014386 1:1.0828369 2:1.2378623 3:1.1553749 4:2.6423505 
0.014386 1:1.2153166 2:0.023696986 3:1.1898358 4:2.6385795 
0.014386 1:1.4537801 2:1.305316 3:1.354649 4:2.5098833 
0.014386 1:1.2815565 2:1.5346583 3:1.3486558 4:2.5060777 
0.014386 1:1.506772 2:1.3592789 3:1.3531507 4:2.5030733 
0.014386 1:1.3345484 2:1.4941861 3:1.3456592 4:2.5005022 
0.014386 1:1.4670281 2:-0.19215463 3:1.3471575 4:2.4973762 
0.014386 1:0.92386123 2:2.5869349 3:2.0603491 4:2.2083291 
0.014386 1:-1.8714609 2:-1.8110418 3:-0.28599128 4:-0.54096823 
0.005344027684565163 1:-1.6594933 2:-0.75876513 3:-0.056751132 4:-0.49460531 
0.014386 1:-0.55991163 2:2.3036297 3:1.9150138 4:-0.060037932 
0.014386 1:-1.2620541 2:-1.4198107 3:1.0894496 4:0.26330843 
0.014386 1:-1.3945339 2:-0.65083932 3:1.0609819 4:0.25872711 
0.014386 1:-1.4077818 2:-1.8919861 3:0.28336334 4:0.25548779 
0.014386 1:-1.0235906 2:-0.97461675 3:1.3321745 4:0.23848648 
0.014386 1:-1.0103427 2:-1.6356623 3:2.09481 4:1.9239792 
0.014386 1:-0.9043589 2:-1.6086809 3:1.8505868 4:1.8863676 
0.014386 1:-0.87786296 2:-1.797551 3:1.8101327 4:1.7490646 
0.014386 1:-0.2419603 2:-1.5007551 3:1.1898358 4:1.7404348 
0.014386 1:-1.0765825 2:-1.9054768 3:1.9914272 4:1.7052654 
0.014386 1:-1.0368386 2:-1.8380232 3:2.0393728 4:2.1282438 
0.014386 1:-1.2885501 2:-1.7705696 3:2.7345848 4:1.9515451 
0.014386 1:-1.1825663 2:-1.8515139 3:1.8026412 4:1.9114685 
0.014386 1:-1.6329974 2:-1.797551 3:-1.9521027 4:-1.3058529 
0.014386 1:-1.9244527 2:-1.9999119 3:-1.6689237 4:-1.3214468 
0.014386 1:-1.2488062 2:-2.9712442 3:-0.82837647 4:-0.59959786 
0.014386 1:-0.67914338 2:0.50936313 3:0.081092618 4:-1.3042762 
0.014386 1:-0.5731596 2:-0.96112602 3:-0.065740942 4:-1.3041172 
0.014386 1:-0.94410282 2:0.077659891 3:-0.2140728 4:-1.3085697 
0.014386 1:-1.1693183 2:-1.2714127 3:-1.1295351 4:-1.3218634 
0.014386 1:-1.2488062 2:-1.4467922 3:-1.0576166 4:-1.3223377 
0.014386 1:-1.4210298 2:-1.4467922 3:-1.0066744 4:-1.3283161 
0.014386 1:-1.4210298 2:-1.554718 3:-1.2269247 4:-1.3291883 
0.014386 1:-1.5270136 2:-1.40632 3:-1.322816 4:-1.3354085 
0.014386 1:-1.3812859 2:-1.3523571 3:-1.5355748 4:-1.3361718 
0.014386 1:-1.328294 2:-1.2714127 3:-1.620978 4:-1.3415928 
0.014386 1:-1.2488062 2:-1.3388664 3:-1.655439 4:-1.342029 
0.014386 1:-1.315046 2:-1.3658478 3:-1.8127606 4:-1.3426207 
0.014386 1:-1.341542 2:-1.3523571 3:-1.8037708 4:-1.3476768 
0.014386 1:-1.328294 2:-1.40632 3:-1.6284695 4:-1.3482887 
0.014386 1:-1.3812859 2:-1.4198107 3:-1.6524424 4:-1.3543389 
0.014386 1:-1.3945339 2:-1.4333014 3:-1.6689237 4:-1.3550941 
0.014386 1:-1.4077818 2:-1.4333014 3:-1.6674254 4:-1.3613526 
0.014386 1:-1.4077818 2:-1.40632 3:-1.6659271 4:-1.3621252 
0.014386 1:-1.3812859 2:-1.40632 3:-1.6494458 4:-1.3678415 
0.014386 1:-1.3812859 2:-1.2444313 3:-1.6494458 4:-1.3685388 
0.014386 1:-1.2223102 2:-1.257922 3:-1.6374594 4:-1.3739019 
0.014386 1:-1.2355582 2:-1.2174498 3:-1.6359611 4:-1.3742448 
0.014386 1:-1.1958143 2:-1.2309405 3:-1.6224763 4:-1.3791314 
0.014386 1:-1.2090623 2:-1.2849034 3:-1.6074933 4:-1.3794023 
0.014386 1:-1.2620541 2:-1.257922 3:-1.6000018 4:-1.3844978 
0.014386 1:-1.2355582 2:-1.1904684 3:-1.5835205 4:-1.3848207 
0.014386 1:-1.1693183 2:-1.2714127 3:-1.5580494 4:-1.3900932 
0.014386 1:-1.2488062 2:-1.3658478 3:-1.5400697 4:-1.3904366 
0.014386 1:-1.341542 2:-1.4333014 3:-1.5325782 4:-1.3963809 
0.014386 1:-1.4077818 2:-1.4467922 3:-1.5355748 4:-1.3970835 
0.014386 1:-1.4210298 2:-1.4872643 3:-1.5400697 4:-1.40311 
0.014386 1:-1.4607737 2:-1.2714127 3:-1.5670392 4:-1.4039228 
0.014386 1:-1.2488062 2:-1.2039591 3:-1.5685375 4:-1.4094451 
0.014386 1:-1.1825663 2:-1.1769776 3:-1.5670392 4:-1.4095987 
0.014386 1:-1.1560704 2:-1.2849034 3:-1.561046 4:-1.4144337 
0.014386 1:-1.2620541 2:-1.2174498 3:-1.561046 4:-1.4147627 
0.014386 1:-1.1958143 2:-1.3388664 3:-1.5565511 4:-1.4194355 
0.014386 1:-1.315046 2:-1.2714127 3:-1.5730324 4:-1.4250613 
0.014386 1:-1.2488062 2:-1.2983942 3:-1.5730324 4:-1.4253403 
0.014386 1:-1.2753021 2:-1.3928293 3:-1.5655409 4:-1.4311711 
0.014386 1:-1.3680379 2:-1.3523571 3:-1.561046 4:-1.4317147 
0.014386 1:-1.328294 2:-1.3928293 3:-1.5505579 4:-1.4373821 
0.014386 1:-1.3680379 2:-1.5412272 3:-1.5400697 4:-1.4379139 
0.014386 1:-1.5137656 2:-1.3658478 3:-1.5700358 4:-1.4437242 
0.014386 1:-1.341542 2:-1.257922 3:-1.5880154 4:-1.444183 
0.014386 1:-1.2355582 2:-1.0960333 3:-1.5970052 4:-1.4490063 
0.014386 1:-1.0765825 2:-1.2174498 3:-1.576029 4:-1.4488455 
0.014386 1:-1.1958143 2:-1.3388664 3:-1.576029 4:-1.4537824 
0.014386 1:-1.315046 2:-1.40632 3:-1.576029 4:-1.4541612 
0.014386 1:-1.3812859 2:-1.2444313 3:-1.591012 4:-1.4593937 
0.014386 1:-1.2223102 2:-1.3793385 3:-1.5850188 4:-1.4595495 
0.014386 1:-1.3547899 2:-1.1769776 3:-1.5835205 4:-1.465198 
0.014386 1:-1.1560704 2:-1.4872643 3:-1.5640426 4:-1.4651919 
0.014386 1:-1.4607737 2:-1.40632 3:-1.5745307 4:-1.4712248 
0.014386 1:-1.3812859 2:-1.4872643 3:-1.5595477 4:-1.4717228 
0.014386 1:-1.4607737 2:-1.3928293 3:-1.5730324 4:-1.4774426 
0.014386 1:-1.3680379 2:-1.2983942 3:-1.5880154 4:-1.4778987 
0.014386 1:-1.2753021 2:-1.0555611 3:-1.6104899 4:-1.482944 
0.014386 1:-1.0368386 2:-1.2714127 3:-1.5925103 4:-1.4826359 
0.014386 1:-1.2488062 2:-1.2714127 3:-1.5850188 4:-1.4874312 
0.014386 1:-1.2488062 2:-1.3253756 3:-1.5700358 4:-1.4875976 
0.014386 1:-1.3017981 2:-1.2983942 3:-1.5790256 4:-1.4926557 
0.014386 1:-1.2753021 2:-1.4467922 3:-1.5700358 4:-1.4928729 
0.014386 1:-1.4210298 2:-1.3388664 3:-1.6000018 4:-1.498854 
0.014386 1:-1.315046 2:-1.3793385 3:-1.5835205 4:-1.4991503 
0.014386 1:-1.3547899 2:-1.3118849 3:-1.5805239 4:-1.504851 
0.014386 1:-1.2885501 2:-1.3658478 3:-1.561046 4:-1.5050766 
0.014386 1:-1.341542 2:-1.3793385 3:-1.5580494 4:-1.5102884 
0.014386 1:-1.3547899 2:-1.3928293 3:-1.5670392 4:-1.5106538 
0.014386 1:-1.3680379 2:-1.1904684 3:-1.6044967 4:-1.5158267 
0.014386 1:-1.1693183 2:-1.2714127 3:-1.5955069 4:-1.5157642 
0.014386 1:-1.2488062 2:-1.257922 3:-1.5955069 4:-1.520779 
0.014386 1:-1.2355582 2:-1.2714127 3:-1.5880154 4:-1.5208571 
0.014386 1:-1.2488062 2:-1.2714127 3:-1.5850188 4:-1.5256549 
0.014386 1:-1.2488062 2:-1.3253756 3:-1.5655409 4:-1.5257543 
0.014386 1:-1.3017981 2:-1.3253756 3:-1.5640426 4:-1.5313471 
0.014386 1:-1.3017981 2:-1.4602829 3:-1.5580494 4:-1.5315555 
0.014386 1:-1.4342778 2:-1.3658478 3:-1.5745307 4:-1.5375248 
0.014386 1:-1.341542 2:-1.4333014 3:-1.5745307 4:-1.5378114 
0.014386 1:-1.4077818 2:-1.2983942 3:-1.5805239 4:-1.5433852 
0.014386 1:-1.2753021 2:-1.40632 3:-1.5700358 4:-1.5435133 
0.014386 1:-1.3812859 2:-1.2039591 3:-1.5940086 4:-1.5488113 
0.014386 1:-1.1825663 2:-1.2309405 3:-1.5865171 4:-1.5487232 
0.014386 1:-1.2090623 2:-1.1230147 3:-1.5835205 4:-1.5533327 
0.014386 1:-1.1030785 2:-1.2714127 3:-1.5670392 4:-1.5530601 
0.014386 1:-1.2488062 2:-1.2444313 3:-1.5670392 4:-1.5576913 
0.014386 1:-1.2223102 2:-1.4737736 3:-1.5580494 4:-1.5576769 
0.014386 1:-1.4475258 2:-1.2849034 3:-1.5745307 4:-1.563596 
0.014386 1:-1.2620541 2:-1.2714127 3:-1.5550528 4:-1.5636599 
0.014386 1:-1.2488062 2:-1.2174498 3:-1.5445647 4:-1.5691281 
0.014386 1:-1.1958143 2:-1.5142458 3:-1.5205918 4:-1.5690359 
0.014386 1:-1.4872697 2:-1.3388664 3:-1.5445647 4:-1.5746416 
0.014386 1:-1.315046 2:-1.257922 3:-1.5370731 4:-1.574804 
0.014386 1:-1.2355582 2:-1.1499962 3:-1.5430663 4:-1.5796386 
0.014386 1:-1.1295744 2:-1.2714127 3:-1.5340765 4:-1.5793828 
0.014386 1:-1.2488062 2:-1.3388664 3:-1.5505579 4:-1.5844433 
0.014386 1:-1.315046 2:-1.1634869 3:-1.5580494 4:-1.5845888 
0.014386 1:-1.1428224 2:-1.1634869 3:-1.5490596 4:-1.5889108 
0.014386 1:-1.1428224 2:-1.257922 3:-1.5145986 4:-1.5886695 
0.014386 1:-1.2355582 2:-1.4333014 3:-1.511602 4:-1.5939172 
0.014386 1:-1.4077818 2:-1.2714127 3:-1.5295816 4:-1.5942502 
0.014386 1:-1.2488062 2:-1.2849034 3:-1.5355748 4:-1.5996638 
0.014386 1:-1.2620541 2:-1.4467922 3:-1.5101037 4:-1.599667 
0.014386 1:-1.4210298 2:-1.4198107 3:-1.5220901 4:-1.6051879 
0.014386 1:-1.3945339 2:-1.0690518 3:-1.5400697 4:-1.605472 
0.014386 1:-1.0500866 2:-1.0690518 3:-1.5310799 4:-1.6101135 
0.014386 1:-0.75863121 2:-1.4198107 3:-0.56617369 4:-0.93425523 
0.014386 1:-0.87786296 2:-0.35404335 3:-0.850851 4:-0.93933899 
0.014386 1:-1.341542 2:-0.27309899 3:-0.83287138 4:-0.77593456 
0.014386 1:-1.2355582 2:-0.48895061 3:-0.87182722 4:-0.78244212 
0.014386 1:-1.4210298 2:-0.52942279 3:-0.84485779 4:-0.78618556 
0.014386 1:-1.2885501 2:-0.48895061 3:-0.80889855 4:-0.79056555 
0.014386 1:-1.1560704 2:-0.21913608 3:-0.80590195 4:-0.81621991 
0.014386 1:-1.4210298 2:-0.59687642 3:-1.2344162 4:-0.97388037 
0.014386 1:-1.5402616 2:-0.70480222 3:-1.3138262 4:-1.0594885 
0.014386 1:-1.5535095 2:-0.82621876 3:-1.2823619 4:-1.0703101 
0.014386 1:-1.4607737 2:-0.82621876 3:-1.3363007 4:-1.0990641 
0.014386 1:-1.5005176 2:-0.44847843 3:-1.0411353 4:-1.1334764 
0.014386 1:-1.8979568 2:-1.945949 3:-1.5235884 4:-1.1461792 
0.014386 1:-1.9112048 2:-1.9594398 3:-1.6509441 4:-1.1486793 
0.014386 1:-1.9244527 2:-1.8919861 3:-1.6988897 4:-1.1518779 
0.014386 1:-1.8582129 2:-1.9189676 3:-1.859208 4:-1.1542294 
0.014386 1:-1.8847088 2:-1.9189676 3:-1.9775738 4:-1.1579208 
0.014386 1:-1.7389811 2:-1.8784954 3:-2.2742375 4:-1.1848015 
0.014386 1:-1.5535095 2:-1.9594398 3:-1.640456 4:-1.2041476 
0.014386 1:-1.1428224 2:-0.084228823 3:-0.73698007 4:-1.1877719 
0.014386 1:-1.3812859 2:-0.17866391 3:-0.77593591 4:-1.1872438 
0.014386 1:-1.2355582 2:-0.17866391 3:-0.81489176 4:-1.1867158 
0.014386 1:-1.4210298 2:-1.8245325 3:-0.87931873 4:-1.1866498 
0.014386 1:-1.791973 2:-0.96112602 3:-1.0066744 4:-1.1887489 
0.014386 1:-1.0898305 2:-0.27309899 3:-0.73248517 4:-1.1896384 
0.014386 1:-0.95735079 2:-0.31357117 3:-0.82238327 4:-1.1889136 
0.014386 1:-1.2885501 2:0.091150617 3:-0.81189515 4:-1.1896054 
0.014386 1:-0.79837512 2:-0.13819173 3:-0.75196309 4:-1.163476 
0.014386 1:-1.9509487 2:-1.8380232 3:-1.3048364 4:-1.171528 
0.014386 1:-1.805221 2:-1.6221716 3:-1.4276971 4:-1.1737477 
0.014386 1:-1.5932534 2:-1.0555611 3:-1.5145986 4:-1.1754041 
0.014386 1:-1.0368386 2:-1.4467922 3:-1.5670392 4:-1.175636 
0.014386 1:-1.4210298 2:-1.8245325 3:-1.6374594 4:-1.1768381 
0.014386 1:-1.791973 2:-1.7705696 3:-1.8247471 4:-1.1790866 
0.014386 1:-1.7389811 2:-1.8380232 3:-1.9700823 4:-1.180773 
0.014386 1:-1.805221 2:-1.8245325 3:-2.1184142 4:-1.1831208 
0.014386 1:-1.778725 2:-1.9324583 3:-2.2083123 4:-1.1855276 
0.014386 1:-1.805221 2:-1.945949 3:-2.0509906 4:-1.1916004 
0.014386 1:-1.8317169 2:-1.8784954 3:-2.0899464 4:-1.1920295 
0.014386 1:-1.7389811 2:-1.8919861 3:-2.2442715 4:-1.2153087 
0.014386 1:-1.8449649 2:-1.9729305 3:-2.2412749 4:-1.2222757 
0.014386 1:-1.7522291 2:-1.8380232 3:-2.3191866 4:-1.2434918 
0.014386 1:-1.818469 2:-1.945949 3:-2.2922172 4:-1.249921 
0.014386 1:-1.791973 2:-1.8650047 3:-2.31619 4:-1.2752194 
0.014386 1:-1.778725 2:-1.9324583 3:-2.2952138 4:-1.2791635 
0.014386 1:-1.818469 2:-1.9324583 3:-2.2652477 4:-1.2898917 
0.014386 1:-1.8714609 2:-1.9999119 3:-2.2757358 4:-1.2983923 
0.014386 1:-1.791973 2:-1.7840603 3:-2.3057019 4:-1.3061596 
0.014386 1:-1.7522291 2:-1.8515139 3:-2.2937155 4:-1.3078767 
0.014386 1:-1.1428224 2:-1.4737736 3:-2.1933293 4:-1.3116683 
0.014386 1:-1.3680379 2:0.077659891 3:-0.70851234 4:-1.3021696 
0.014386 1:-1.8847088 2:-1.8110418 3:-1.2763687 4:-1.3006628 
0.014386 1:-1.778725 2:-1.8650047 3:-1.4861309 4:-1.3024568 
0.014386 1:-1.8317169 2:-1.9054768 3:-1.6449509 4:-1.3041486 
0.014386 1:-1.8714609 2:-1.8380232 3:-1.8007742 4:-1.306383 
0.014386 1:-1.805221 2:-1.8515139 3:-1.9251333 4:-1.3082271 
0.014386 1:-1.818469 2:-1.8650047 3:-2.0554855 4:-1.3101707 
0.014386 1:-1.8317169 2:-1.8650047 3:-2.1768479 4:-1.3121462 
0.014386 1:-1.8317169 2:-1.8650047 3:-2.2997087 4:-1.3139623 
0.014386 1:-1.805221 2:-1.8784954 3:-2.3896068 4:-1.3178884 
0.014386 1:-1.8449649 2:-1.8784954 3:-2.2397766 4:-1.3196376 
0.014386 1:-1.8449649 2:-1.8380232 3:-2.2352817 4:-1.3215462 
0.014386 1:-1.805221 2:-1.9189676 3:-2.2382783 4:-1.3233875 
0.014386 1:-1.8847088 2:-1.9729305 3:-2.2442715 4:-1.3251971 
0.014386 1:-1.8317169 2:-1.8515139 3:-2.2547596 4:-1.3287527 
0.014386 1:-1.818469 2:-1.8380232 3:-2.2547596 4:-1.3305779 
0.014386 1:-1.805221 2:-1.8245325 3:-2.251763 4:-1.3318138 
0.014386 1:-1.791973 2:-1.8919861 3:-2.2472681 4:-1.3317821 
0.014386 1:-1.778725 2:-1.8784954 3:-2.2472681 4:-1.3358444 
0.014386 1:-1.8449649 2:-1.945949 3:-2.2472681 4:-1.3382484 
0.014386 1:-1.805221 2:-1.9189676 3:-2.2547596 4:-1.3425759 
0.014386 1:-1.8847088 2:-1.8919861 3:-2.2547596 4:-1.3445335 
0.014386 1:-1.8582129 2:-1.9324583 3:-2.2457698 4:-1.3464151 
0.014386 1:-1.8979568 2:-1.9729305 3:-2.2532613 4:-1.3482746 
0.014386 1:-1.8979568 2:-1.9864212 3:-2.2772341 4:-1.3521595 
0.014386 1:-1.9509487 2:-2.094347 3:-2.2952138 4:-1.3541415 
0.014386 1:-1.8714609 2:-1.8784954 3:-2.3281764 4:-1.3580112 
0.014386 1:-1.8449649 2:-1.8515139 3:-2.3281764 4:-1.3598304 
0.014386 1:-1.818469 2:-1.7840603 3:-2.3176883 4:-1.3612122 
0.014386 1:-1.7522291 2:-1.8650047 3:-2.3116951 4:-1.3628138 
0.014386 1:-1.8317169 2:-1.8515139 3:-2.3057019 4:-1.3645898 
0.014386 1:-1.818469 2:-1.8245325 3:-2.301207 4:-1.3666587 
0.014386 1:-1.791973 2:-1.9864212 3:-2.2892206 4:-1.3669722 
0.014386 1:-1.9244527 2:-1.945949 3:-2.2937155 4:-1.3738069 
0.014386 1:-1.9112048 2:-1.9189676 3:-2.2772341 4:-1.3757783 
0.014386 1:-1.8847088 2:-1.9324583 3:-2.2787325 4:-1.3776497 
0.014386 1:-1.8979568 2:-1.9864212 3:-2.2847257 4:-1.37968 
0.014386 1:-1.9377007 2:-2.0808563 3:-2.3206849 4:-1.3838173 
0.014386 1:-1.778725 2:-1.9189676 3:-2.3596407 4:-1.3895895 
0.014386 1:-1.8317169 2:-1.797551 3:-2.3386645 4:-1.3926086 
0.014386 1:-1.7654771 2:-1.9054768 3:-2.3206849 4:-1.3941605 
0.014386 1:-1.8714609 2:-1.8515139 3:-2.31619 4:-1.3960868 
0.014386 1:-1.818469 2:-1.8650047 3:-2.3086985 4:-1.3981374 
0.014386 1:-1.8317169 2:-1.8650047 3:-2.301207 4:-1.3998319 
0.014386 1:-1.8317169 2:-1.8110418 3:-2.2877223 4:-1.4017858 
0.014386 1:-1.3547899 2:0.050678438 3:-0.74896649 4:-1.3910212 
0.014386 1:-1.2355582 2:-0.35404335 3:-0.89130514 4:-1.3732749 
0.014386 1:-1.4210298 2:-0.4349877 3:-0.92876268 4:-1.3654048 
0.014386 1:-1.2355582 2:-0.39451552 3:-0.86283741 4:-1.3476127 
0.014386 1:-1.1030785 2:-0.24611754 3:-0.84485779 4:-1.3439336 
0.014386 1:-1.3017981 2:-0.19215463 3:-0.89580005 4:-1.2876507 
0.014386 1:-1.1428224 2:-0.42149698 3:-0.88681024 4:-1.2850189 
0.014386 1:-1.4740217 2:-0.27309899 3:-0.93925079 4:-1.2847942 
0.014386 1:-1.7257332 2:-1.0960333 3:-1.2988432 4:-1.2217198 
0.014386 1:-1.0765825 2:-1.4333014 3:-1.3497854 4:-1.2196273 
0.014386 1:-1.4077818 2:-1.9189676 3:-1.4411818 4:-1.221164 
0.014386 1:-1.8847088 2:-1.8515139 3:-1.5775273 4:-1.2234076 
0.014386 1:-1.818469 2:-1.9594398 3:-1.670422 4:-1.2260511 
0.014386 1:-1.9244527 2:-1.9054768 3:-1.8232488 4:-1.2288577 
0.014386 1:-1.8714609 2:-1.9324583 3:-1.9730789 4:-1.2310502 
0.014386 1:-1.8979568 2:-1.9864212 3:-2.1348955 4:-1.2337213 
0.014386 1:-1.778725 2:-1.797551 3:-2.2622511 4:-1.2386319 
0.014386 1:-1.7654771 2:-1.8110418 3:-2.1229091 4:-1.2411354 
0.014386 1:-1.778725 2:-1.7705696 3:-2.1289023 4:-1.2430699 
0.014386 1:-1.7389811 2:-1.797551 3:-2.2038174 4:-1.2455039 
0.014386 1:-1.7654771 2:-1.8380232 3:-2.2442715 4:-1.2473943 
0.014386 1:-1.805221 2:-1.8515139 3:-2.2352817 4:-1.2502449 
0.014386 1:-1.818469 2:-1.8515139 3:-2.2352817 4:-1.2535166 
0.014386 1:-1.818469 2:-1.8245325 3:-2.2232953 4:-1.2555181 
0.014386 1:-1.791973 2:-1.7840603 3:-2.2143055 4:-1.2587514 
0.014386 1:-1.7522291 2:-1.9189676 3:-2.1978242 4:-1.2605781 
0.014386 1:-1.8847088 2:-1.9594398 3:-2.2173021 4:-1.2693564 
0.008908191863102414 1:-1.9244527 2:-2.0538748 3:-2.2337834 4:-1.2724811 
0.014386 1:-1.818469 2:-1.8919861 3:-2.2847257 4:-1.2824833 
0.014386 1:-1.778725 2:-1.8784954 3:-2.2982104 4:-1.2898917 
0.014386 1:-1.8449649 2:-1.8919861 3:-2.2937155 4:-1.2918686 
0.014386 1:-1.8582129 2:-1.9594398 3:-2.286224 4:-1.2983923 
0.014386 1:-1.6329974 2:-0.3810248 3:-1.1505113 4:-1.3540206 
0.014386 1:-1.5270136 2:-0.62385787 3:-1.1565045 4:-1.358794 
0.014386 1:-1.6065014 2:-0.86669094 3:-0.88081703 4:-1.3674111 
0.014386 1:-1.7124852 2:-1.7570789 3:-1.4591615 4:-1.3770874 
0.014386 1:-1.7257332 2:-1.8110418 3:-1.591012 4:-1.3785789 
0.014386 1:-1.778725 2:-1.8784954 3:-1.7198659 4:-1.3811981 
0.014386 1:-1.8449649 2:-1.8515139 3:-1.8547131 4:-1.3844097 
0.014386 1:-1.818469 2:-1.8650047 3:-1.9745772 4:-1.3861035 
0.014386 1:-1.8317169 2:-1.8110418 3:-2.1049295 4:-1.3891537 
0.014386 1:-1.778725 2:-1.9189676 3:-2.2202987 4:-1.3917994 
0.014386 1:-1.8847088 2:-1.9054768 3:-2.251763 4:-1.3936323 
0.014386 1:-1.8714609 2:-1.9189676 3:-2.3671322 4:-1.396615 
0.014386 1:-1.8847088 2:-1.9999119 3:-2.3326713 4:-1.3984362 
0.014386 1:-1.9641967 2:-2.0268934 3:-2.2352817 4:-1.4015377 
0.014386 1:-1.8847088 2:-1.9054768 3:-2.2847257 4:-1.4066286 
0.014386 1:-1.8714609 2:-1.8245325 3:-2.2952138 4:-1.409446 
0.014386 1:-1.791973 2:-1.8245325 3:-2.2892206 4:-1.4110217 
0.014386 1:-1.791973 2:-1.7705696 3:-2.286224 4:-1.4133705 
0.014386 1:-1.7389811 2:-1.7166067 3:-2.2757358 4:-1.4148131 
0.014386 1:-1.6859892 2:-1.8245325 3:-2.2652477 4:-1.417528 
0.014386 1:-1.791973 2:-1.9324583 3:-2.2547596 4:-1.4207982 
0.014386 1:-1.8979568 2:-1.8650047 3:-2.2577562 4:-1.4225947 
0.014386 1:-1.8317169 2:-2.0403841 3:-2.251763 4:-1.4259207 
0.014386 1:-1.9774446 2:-1.9594398 3:-2.2547596 4:-1.4313327 
0.014386 1:-1.3017981 2:-0.043756645 3:-1.1849723 4:-1.4619187 
0.014386 1:-0.89111093 2:-0.21913608 3:-0.70102083 4:-1.4705429 
0.014386 1:-1.341542 2:-0.32706189 3:-0.84935269 4:-1.4795928 
0.014386 1:-1.6462453 2:-0.97461675 3:-1.2254264 4:-1.4507081 
0.014386 1:-1.8582129 2:-1.8650047 3:-1.8756893 4:-1.4537854 
0.014386 1:-1.8317169 2:-1.8245325 3:-2.0150314 4:-1.4537242 
0.014386 1:-1.791973 2:-1.8650047 3:-2.1363938 4:-1.4532961 
0.014386 1:-1.8317169 2:-1.8919861 3:-2.1064278 4:-1.4532655 
0.014386 1:-1.8582129 2:-1.8515139 3:-2.0509906 4:-1.4532655 
0.014386 1:-1.818469 2:-1.797551 3:-2.1768479 4:-1.4532043 
0.014386 1:-1.7654771 2:-1.8380232 3:-2.2877223 4:-1.4531432 
0.014386 1:-1.805221 2:-1.8110418 3:-2.3057019 4:-1.4532043 
0.014386 1:-1.778725 2:-1.9189676 3:-2.3985966 4:-1.4531738 
0.014386 1:-1.8847088 2:-1.8380232 3:-2.3701288 4:-1.4535102 
0.014386 1:-1.805221 2:-1.8784954 3:-2.2277902 4:-1.4533878 
0.014386 1:-1.8449649 2:-1.945949 3:-2.2262919 4:-1.453449 
0.014386 1:-1.3017981 2:-0.19215463 3:-0.90628816 4:-1.3605772 
0.014386 1:-1.1958143 2:-0.030265918 3:-0.86283741 4:-1.2437365 
0.014386 1:-1.2753021 2:0.11813207 3:-0.83287138 4:-1.2094642 
0.014386 1:-1.3547899 2:-0.4349877 3:-0.850851 4:-1.2155707 
0.014386 1:-1.1958143 2:0.26653006 3:-0.80740025 4:-1.212295 
0.014386 1:-1.2090623 2:-0.32706189 3:-0.81189515 4:-1.2084796 
0.014386 1:-1.1163265 2:-0.35404335 3:-0.80440365 4:-1.1986328 
0.014386 1:-0.91760687 2:-0.20564536 3:-0.62310915 4:-1.1925043 
0.014386 1:-1.315046 2:-0.084228823 3:-0.6710548 4:-1.1916149 
0.014386 1:-1.0765825 2:-0.3810248 3:-0.71600385 4:-1.1842734 
0.014386 1:-1.0235906 2:-0.30008044 3:-0.72049875 4:-1.1824912 
0.014386 1:-1.0103427 2:-0.55640424 3:-0.81788836 4:-1.0577119 
0.014386 1:-1.4475258 2:-0.47545988 3:-0.91677627 4:-1.0487193 
0.014386 1:-1.5402616 2:-1.7166067 3:-0.90928476 4:-0.9683497 
0.014386 1:-1.2885501 2:-0.23262681 3:-0.81039685 4:-0.91757196 
0.014386 1:-0.97059876 2:-0.39451552 3:-0.79391553 4:-0.91213957 
0.014386 1:-1.3547899 2:-0.28658971 3:-0.82088496 4:-0.90721841 
0.014386 1:-1.4607737 2:-0.3810248 3:-0.88980684 4:-0.90842723 
0.014386 1:-1.1030785 2:-0.21913608 3:-0.79990874 4:-0.81267364 
0.014386 1:-1.3547899 2:-0.35404335 3:-0.83586798 4:-0.81034133 
0.014386 1:-0.82487107 2:-0.17866391 3:-0.77893252 4:-0.80186046 
0.014386 1:-1.0633346 2:-0.124701 3:-0.80290534 4:-0.83180678 
0.014386 1:-1.0368386 2:-0.32706189 3:-0.74596988 4:-0.83821701 
0.014386 1:-1.2620541 2:-0.23262681 3:-0.84186119 4:-0.81365759 
0.014386 1:-1.315046 2:-0.24611754 3:-0.79541384 4:-0.80200654 
0.014386 1:-1.3812859 2:-0.28658971 3:-0.82238327 4:-0.80200654 
0.014386 1:-1.0368386 2:-0.27309899 3:-0.81938666 4:-0.79528363 
0.014386 1:-1.0633346 2:-0.24611754 3:-0.7654478 4:-0.79447855 
0.014386 1:-1.2885501 2:-0.27309899 3:-0.81938666 4:-0.79422238 
0.014386 1:-1.1693183 2:-0.15168245 3:-0.73098687 4:-0.78222504 
0.014386 1:-1.6462453 2:-1.7166067 3:-1.4037243 4:-0.79788187 
0.014386 1:-1.6859892 2:-1.7300974 3:-1.5385714 4:-0.80072839 
0.014386 1:-1.6197494 2:-1.8110418 3:-1.8951672 4:-0.80746239 
0.014386 1:-1.0765825 2:-0.070738097 3:-0.82837647 4:-0.81620491 
0.014386 1:-1.2753021 2:-0.124701 3:-0.79241723 4:-0.8138398 
0.014386 1:-1.2223102 2:-0.21913608 3:-0.78043082 4:-0.80306557 
0.014386 1:-1.0765825 2:-0.46196915 3:-0.79990874 4:-0.80310209 
0.014386 1:-1.2753021 2:-0.21913608 3:-0.74896649 4:-0.79857717 
0.014386 1:-1.1560704 2:-0.46196915 3:-1.4082192 4:-0.86103353 
0.014386 1:-1.2223102 2:-0.39451552 3:-0.99169135 4:-0.88060105 
0.014386 1:-1.2753021 2:-0.36753407 3:-1.3213177 4:-0.89349606 
0.014386 1:-1.1560704 2:-0.11121028 3:-1.2793653 4:-0.90309659 
0.014386 1:-1.4077818 2:-0.44847843 3:-1.0231557 4:-0.90842723 
0.014386 1:-1.6197494 2:-0.92065384 3:-0.95123721 4:-0.91130706 
0.014386 1:-1.7654771 2:-1.703116 3:-1.4741445 4:-0.92522043 
0.014386 1:-1.6727413 2:-1.6491531 3:-1.5880154 4:-0.92768236 
0.014386 1:-1.6197494 2:-2.1483099 3:-1.6988897 4:-0.93008534 
0.014386 1:-0.87786296 2:-1.3658478 3:-2.4090847 4:-0.95404665 
0.014386 1:-1.341542 2:-1.8110418 3:-2.2202987 4:-0.95629466 
0.014386 1:-1.6329974 2:-1.6761345 3:-1.9865636 4:-0.97552137 
0.014386 1:-1.6462453 2:-2.1618006 3:-1.9880619 4:-0.97786066 
0.014386 1:-1.0368386 2:-0.4349877 3:-0.86883062 4:-0.98865226 
0.014386 1:-1.1163265 2:0.050678438 3:-0.69053272 4:-0.98666462 
0.014386 1:-1.0765825 2:0.077659891 3:-0.63359726 4:-0.98527081 
0.014386 1:-1.4475258 2:-2.1348192 3:-0.67704801 4:-0.9827968 
0.014386 1:-1.4342778 2:-1.8245325 3:-1.2014536 4:-0.99362522 
0.014386 1:-1.791973 2:-1.8110418 3:-1.3452905 4:-0.99621983 
0.014386 1:-1.778725 2:-1.797551 3:-1.4756428 4:-0.99934346 
0.014386 1:-1.7654771 2:-1.797551 3:-1.6000018 4:-1.0021894 
0.014386 1:-1.7654771 2:-1.7166067 3:-1.7483337 4:-1.0046927 
0.014386 1:-1.1825663 2:0.077659891 3:-0.73398347 4:-1.0056625 
0.014386 1:-1.5402616 2:-0.3810248 3:-0.80440365 4:-1.0015647 
0.014386 1:-1.3017981 2:-0.030265918 3:-0.80889855 4:-1.0004194 
0.014386 1:-1.5402616 2:-0.59687642 3:-1.4082192 4:-1.4865519 
0.014386 1:-1.5932534 2:-0.55640424 3:-1.4546666 4:-1.413216 
0.014386 1:0.009751164 2:1.4806954 3:0.057119792 4:0.36384432 
0.014386 1:-1.1958143 2:-1.7705696 3:0.28336334 4:0.54031623 
0.014386 1:0.34095046 2:1.00852 3:0.83773494 4:0.86050826 
0.014386 1:-1.2090623 2:-1.7166067 3:0.64145743 4:0.85474176 
0.014386 1:-1.0633346 2:-1.5951901 3:0.77480627 4:1.0817944 
0.014386 1:-1.0898305 2:-1.7840603 3:0.71936911 4:1.1045673 
0.014386 1:-0.79837512 2:-1.5951901 3:0.45117312 4:1.0756238 
0.014386 1:-1.1560704 2:-1.6626438 3:0.42720029 4:1.0612313 
0.014386 1:-0.70563932 2:-1.6221716 3:0.48713236 4:1.0540097 
0.014386 1:-0.34794408 2:-1.1904684 3:-1.1400232 4:0.97197054 
0.014386 1:-0.78512715 2:-1.5951901 3:0.26688202 4:0.93718213 
0.014386 1:0.036247108 2:0.81964983 3:0.85271796 4:0.90840398 
0.014386 1:0.075991024 2:-1.3793385 3:0.58152536 4:0.8952591 
0.014386 1:-1.1030785 2:-1.5277365 3:0.49612217 4:0.79918193 
0.014386 1:-0.63939946 2:-1.3253756 3:0.31332937 4:0.721124 
0.014386 1:-0.056488696 2:1.0624829 3:0.68041327 4:0.66589101 
0.014386 1:-0.49367177 2:0.40143732 3:-0.29647939 4:-0.19526011 
0.014386 1:-0.73213527 2:0.077659891 3:-0.21706941 4:-0.19156862 
0.014386 1:-0.77187918 2:0.34747441 3:-0.23355072 4:-0.1776259 
0.014386 1:-0.9043589 2:0.30700223 3:-0.28299468 4:-0.17710848 
0.014386 1:-0.95735079 2:0.11813207 3:-0.28149638 4:-0.17864576 
0.014386 1:-0.34794408 2:0.064169164 3:-0.17361866 4:-0.19215411 
0.014386 1:-0.46717583 2:-0.28658971 3:-0.31146241 4:-0.22823688 
0.014386 1:-0.78512715 2:0.01020626 3:-0.86883062 4:-0.24818171 
0.014386 1:-0.89111093 2:0.023696986 3:-0.51373313 4:-0.24079441 
0.014386 1:-0.8116231 2:-0.124701 3:-0.53620765 4:-0.2462087 
0.014386 1:-0.62615149 2:-0.097719549 3:-0.49875011 4:-0.24996834 
0.014386 1:-0.83811904 2:-0.50244133 3:-0.47327899 4:-0.25707329 
0.014386 1:-0.49367177 2:0.10464134 3:-0.48077049 4:-0.25811203 
0.014386 1:-0.78512715 2:-0.40800625 3:-0.393869 4:-0.2812735 
0.014386 1:-0.9970947 2:-0.31357117 3:-0.47178068 4:-0.29635728 
0.014386 1:-0.58640757 2:-0.16517318 3:-0.49275691 4:-0.30931716 
0.014386 1:-0.74538324 2:-0.097719549 3:-0.53021445 4:-0.3195126 
0.014386 1:-0.86461498 2:-0.23262681 3:-0.53470935 4:-0.33154041 
0.014386 1:-0.74538324 2:-0.25960826 3:-0.41484522 4:-0.33286997 
0.014386 1:-0.86461498 2:-0.11121028 3:-0.59014651 4:-0.33662124 
0.014386 1:-1.1163265 2:-0.86669094 3:-1.3602736 4:-0.59082669 
0.014386 1:-0.46717583 2:-0.34055262 3:-1.0800911 4:-0.59228759 
0.014386 1:-1.3680379 2:-1.2309405 3:-0.56617369 4:-0.67350286 
0.014386 1:-1.1295744 2:-0.057247371 3:-0.5766618 4:-0.67463383 
0.014386 1:-0.95735079 2:0.34747441 3:-0.46878408 4:-0.73427689 
0.014386 1:-1.1958143 2:-1.2174498 3:-0.52422124 4:-0.73713657 
0.014386 1:-1.1958143 2:0.091150617 3:-0.62760405 4:-0.73878279 
0.014386 1:-1.2090623 2:-1.0690518 3:-0.51972634 4:-0.74300763 
0.014386 1:-1.0500866 2:0.26653006 3:-0.59314312 4:-0.74493475 
0.014386 1:-1.3017981 2:-0.79923731 3:-0.56317708 4:-0.75692655 
0.014386 1:-0.78512715 2:0.45540022 3:-0.61411934 4:-0.75803366 
0.014386 1:-0.95735079 2:-0.11121028 3:-0.54369916 4:-0.75528867 
0.014386 1:-1.2885501 2:0.064169164 3:-0.46428918 4:-0.7366909 
0.014386 1:-1.1030785 2:0.037187712 3:-0.46129257 4:-0.7054975 
0.014386 1:-0.8116231 2:-0.3810248 3:-0.41784183 4:-0.68881553 
0.014386 1:-0.37444002 2:0.10464134 3:-0.41035032 4:-0.68738605 
0.014386 1:-1.341542 2:-0.94763529 3:-0.54519746 4:-0.65699055 
0.014386 1:-0.94410282 2:-1.0825426 3:-0.53321105 4:-0.58763706 
0.014386 1:-0.69239135 2:-0.030265918 3:-0.42683163 4:-0.55021276 
0.014386 1:-0.94410282 2:-0.0032844662 3:-0.49725181 4:-0.55180297 
0.014386 1:-1.2620541 2:-1.3928293 3:-0.3908724 4:-0.54472769 
0.014386 1:-0.86461498 2:-1.6491531 3:-0.84485779 4:-0.55207447 
0.014386 1:-1.2090623 2:0.01020626 3:-0.51223483 4:-0.60520357 
0.014386 1:-1.1163265 2:0.11813207 3:-0.52122464 4:-0.58189618 
0.014386 1:-1.1693183 2:-0.016775192 3:-0.46578748 4:-0.57396884 
0.014386 1:-0.83811904 2:-0.24611754 3:-0.42383503 4:-0.55094969 
0.014386 1:-1.1560704 2:-1.3388664 3:-0.50474332 4:-0.54534964 
0.014386 1:-1.0368386 2:0.14511352 3:-0.40735371 4:-0.44716029 
0.014386 1:-1.0898305 2:-0.0032844662 3:-0.54669577 4:-0.44938658 
0.014386 1:-0.78512715 2:-0.66433005 3:-0.35341485 4:-0.46374022 
0.014386 1:-0.65264743 2:0.69823329 3:-0.3908724 4:-0.46151897 
0.014386 1:-0.71888729 2:-0.11121028 3:-0.52721784 4:-0.46048768 
0.014386 1:-1.0235906 2:0.091150617 3:-0.7624512 4:-0.49108772 
0.014386 1:-1.2753021 2:-0.56989496 3:-0.4912586 4:-0.49100893 
0.014386 1:-1.1030785 2:0.01020626 3:-0.50624162 4:-0.4598927 
0.014386 1:-0.95735079 2:0.32049296 3:-0.47178068 4:-0.45755246 
-0.032802 1:0.20847074 2:-0.90716312 3:0.90066361 4:1.5051148 
-0.032802 1:-0.85136701 2:-0.71829295 3:-0.850851 4:-0.9471597 
-0.032802 1:-0.54666366 2:-0.50244133 3:-0.66056669 4:-0.86282045 
-0.032802 1:1.2948044 2:1.6021119 3:1.7232312 4:2.010333 
-0.032802 1:1.0695889 2:2.2766482 3:2.33304 4:1.9928104 
-0.032802 1:1.3610443 2:1.6830563 3:2.0109051 4:2.0096825 
-0.032802 1:0.95035717 2:1.305316 3:1.6887703 4:1.504457 
-0.032802 1:-2.1894122 2:1.3188067 3:0.72686062 4:2.6064718 
-0.032802 1:-2.3616358 2:1.7640007 3:1.354649 4:2.0924124 
-0.032802 1:-2.0436845 2:-0.47545988 3:-0.4897603 4:-0.9076806 
-0.032802 1:-2.8253148 2:-2.2832172 3:-2.4075864 4:-0.66152428 
-0.032802 1:-0.5731596 2:-0.50244133 3:-0.69952253 4:-0.65808855 
-0.032802 1:-0.63939946 2:-0.61036714 3:-0.582655 4:-0.64636606 
-0.032802 1:-0.55991163 2:-0.40800625 3:-0.51672973 4:-0.62227292 
-0.032802 1:-0.49367177 2:-0.4349877 3:-0.52871615 4:-0.65926228 
-0.032802 1:-0.46717583 2:-0.48895061 3:-0.52721784 4:-0.65498385 
-0.032802 1:-0.41418394 2:-0.52942279 3:-0.58714991 4:-0.65142481 
-0.032802 1:-0.54666366 2:-0.51593206 3:-0.582655 4:-0.65221991 
-0.032802 1:-0.53341569 2:-0.59687642 3:-0.56917029 4:-0.65221991 
-0.032802 1:-0.61290352 2:-0.50244133 3:-0.59613972 4:-0.65297716 
-0.032802 1:-0.9970947 2:-1.3253756 3:-0.73398347 4:-1.1217158 
-0.032802 1:-1.0500866 2:-1.5007551 3:-1.2029519 4:-1.1611254 
-0.032802 1:-1.0368386 2:-0.98810747 3:-1.3198194 4:-1.1865258 
-0.032802 1:-1.1030785 2:-1.109524 3:-1.5670392 4:-1.3909455 
-0.032802 1:-0.97059876 2:-1.0015982 3:-1.2823619 4:-1.3846664 
-0.032802 1:-1.0103427 2:-1.0150889 3:-1.0935759 4:-1.3571058 
-0.032802 1:-1.1958143 2:-1.5412272 3:-1.541568 4:-1.3827099 
-0.032802 1:-0.86461498 2:-1.40632 3:-1.5160969 4:-1.3729179 
-0.032802 1:-0.97059876 2:-0.93414457 3:-1.039637 4:-1.3169948 
-0.032802 1:-1.0368386 2:-1.4872643 3:-1.5820222 4:-1.3368905 
-0.032802 1:-1.0765825 2:-1.4467922 3:-1.0141659 4:-1.3209495 
-0.032802 1:-1.1958143 2:-1.4872643 3:-0.76844441 4:-1.2754335 
-0.032802 1:-1.1428224 2:-1.3253756 3:-1.1325317 4:-1.2600532 
-0.032802 1:-0.93085484 2:-1.5007551 3:-1.4052226 4:-1.2569987 
-0.032802 1:-1.0235906 2:-1.5277365 3:-1.3692634 4:-1.2540889 
-0.032802 1:-1.1958143 2:-1.0690518 3:-1.4142124 4:-1.2560338 
-0.032802 1:-1.1163265 2:-1.5277365 3:-1.3467888 4:-1.2590254 
-0.032802 1:-1.0765825 2:-1.703116 3:-1.1415215 4:-1.2571961 
-0.032802 1:-1.1163265 2:-1.4602829 3:-0.98569814 4:-1.2524477 
-0.032802 1:-0.97059876 2:-1.4198107 3:-1.5325782 4:-1.2683031 
-0.032802 1:-1.0765825 2:-1.6221716 3:-1.13403 4:-1.2625252 
-0.032802 1:-1.0235906 2:-1.5007551 3:-1.149013 4:-1.2633716 
-0.032802 1:-0.9970947 2:-1.5951901 3:-1.337799 4:-1.2683064 
-0.032802 1:-1.0633346 2:-1.6086809 3:-1.0141659 4:-1.2618245 
-0.032802 1:-1.0765825 2:-1.6761345 3:-1.0411353 4:-1.2553334 
-0.032802 1:-1.0633346 2:-1.4872643 3:-1.2104434 4:-1.2560573 
-0.032802 1:-1.0235906 2:-1.5816994 3:-1.2074468 4:-1.2551483 
-0.032802 1:-0.97059876 2:-1.5007551 3:-1.4546666 4:-1.2583101 
-0.032802 1:-1.0103427 2:-1.6356623 3:-1.4366869 4:-1.2571263 
-0.032802 1:-1.1030785 2:-1.554718 3:-1.0366404 4:-1.2534114 
-0.032802 1:-0.89111093 2:-0.70480222 3:-1.337799 4:-1.2569084 
-0.032802 1:-1.0368386 2:-1.5951901 3:-1.0860844 4:-1.237337 
-0.032802 1:-1.0500866 2:-1.5142458 3:-1.2733721 4:-1.2359689 
-0.032802 1:-1.0898305 2:-1.1230147 3:-1.2898534 4:-1.2396073 
-0.032802 1:-0.94410282 2:-1.3928293 3:-1.4067209 4:-1.2370062 
-0.032802 1:-1.3547899 2:-1.4737736 3:-1.4681513 4:-1.2412655 
-0.032802 1:-1.2753021 2:-1.2849034 3:-1.938618 4:-1.2631923 
-0.032802 1:-1.1163265 2:-1.4198107 3:-1.1460164 4:-1.2743081 
-0.032802 1:-1.1163265 2:-1.3253756 3:-0.6710548 4:-1.1003811 
-0.032802 1:-1.2090623 2:-1.1230147 3:-1.0381387 4:-1.0697518 
-0.032802 1:-0.94410282 2:-1.3928293 3:-1.1624977 4:-1.0722068 
-0.032802 1:-1.1295744 2:-1.5142458 3:-0.73548177 4:-1.0527109 
-0.032802 1:-1.1030785 2:-1.5142458 3:-0.78942063 4:-1.0174878 
-0.032802 1:-0.94410282 2:-1.5277365 3:-0.81189515 4:-1.0092303 
-0.032802 1:-0.89111093 2:-1.3928293 3:-0.82388157 4:-1.0071173 
-0.032802 1:-1.0368386 2:-1.5816994 3:-0.86883062 4:-0.99851049 
-0.032802 1:-0.89111093 2:-1.4872643 3:-0.92127117 4:-0.99698338 
-0.032802 1:-0.97059876 2:-1.5816994 3:-0.91228136 4:-0.99607284 
-0.032802 1:-0.89111093 2:-1.3793385 3:-0.89580005 4:-0.98837204 
-0.032802 1:-0.9970947 2:-0.40800625 3:-0.90179325 4:-0.98872049 
-0.032802 1:-0.93085484 2:-1.3523571 3:-1.3168228 4:-0.99025195 
-0.032802 1:-0.9970947 2:-1.5277365 3:-1.1669926 4:-0.9898007 
-0.032802 1:-0.87786296 2:-1.3388664 3:-1.0621115 4:-0.98676916 
-0.032802 1:-0.89111093 2:-1.5682087 3:-1.05462 4:-0.97398931 
-0.032802 1:-0.97059876 2:-1.1499962 3:-1.0066744 4:-0.97346454 
-0.032802 1:-0.95735079 2:-1.554718 3:-1.0681047 4:-0.97084069 
-0.032802 1:-1.0103427 2:-1.6356623 3:-0.8523493 4:-0.95727817 
-0.032802 1:-0.9043589 2:-1.3523571 3:-0.75645799 4:-0.94233667 
-0.032802 1:-0.87786296 2:-1.5007551 3:-0.83586798 4:-0.91881008 
-0.032802 1:-0.87786296 2:-1.5951901 3:-0.88231533 4:-0.91296497 
-0.032802 1:-1.0235906 2:-1.6491531 3:-0.88231533 4:-0.90412974 
-0.032802 1:-0.79837512 2:-1.2849034 3:-0.86133911 4:-0.8978072 
-0.032802 1:-0.97059876 2:-1.6356623 3:-0.86433571 4:-0.88947241 
-0.032802 1:-1.0103427 2:-1.6356623 3:-0.83886458 4:-0.88102334 
-0.032802 1:-0.83811904 2:-1.40632 3:-0.77593591 4:-0.8802706 
-0.032802 1:-1.0765825 2:-1.5277365 3:-0.82238327 4:-0.87170366 
-0.032802 1:-0.93085484 2:-1.4333014 3:-0.83586798 4:-0.87718794 
-0.032802 1:-0.86461498 2:-1.5277365 3:-0.88081703 4:-0.8738902 
-0.032802 1:-0.86461498 2:-1.5142458 3:-0.92127117 4:-0.8760409 
-0.032802 1:-1.1030785 2:-1.5951901 3:-0.9497389 4:-0.87697287 
-0.032802 1:-0.78512715 2:-1.4737736 3:-0.9437457 4:-0.87564661 
-0.032802 1:-0.94410282 2:-1.703116 3:-0.87632212 4:-0.87514478 
-0.032802 1:-0.94410282 2:-1.5412272 3:-0.81639006 4:-0.87449957 
-0.032802 1:-0.83811904 2:-1.3388664 3:-0.81039685 4:-0.8760409 
-0.032802 1:-0.91760687 2:-1.5951901 3:-0.74746818 4:-0.87315019 
-0.032802 1:-0.97059876 2:-1.554718 3:-0.78192912 4:-0.87261142 
-0.032802 1:-0.98384673 2:-1.5951901 3:-0.73098687 4:-0.86988161 
-0.032802 1:-0.85136701 2:-1.4737736 3:-0.73248517 4:-0.87306577 
-0.032802 1:-0.91760687 2:-1.554718 3:-0.6725531 4:-0.87189305 
-0.032802 1:-0.98384673 2:-1.6356623 3:-0.69952253 4:-0.87124651 
-0.032802 1:-0.85136701 2:-1.2039591 3:-0.63359726 4:-0.86589465 
-0.032802 1:-0.95735079 2:-1.5277365 3:-0.65157688 4:-0.86553547 
-0.032802 1:-1.0368386 2:-1.6221716 3:-0.73248517 4:-0.87643519 
-0.032802 1:-0.97059876 2:-1.40632 3:-0.78192912 4:-0.8824254 
-0.032802 1:-0.9970947 2:-1.3523571 3:-0.8568442 4:-0.89895795 
-0.032802 1:-0.98384673 2:-1.3928293 3:-0.79541384 4:-0.89914211 
-0.032802 1:-0.87786296 2:-1.4467922 3:-0.82687817 4:-0.89971213 
-0.032802 1:-0.83811904 2:-1.40632 3:-0.78492572 4:-0.90487188 
-0.001945970767360665 1:-0.89111093 2:-1.5277365 3:-0.72499366 4:-0.90427225 
-0.032802 1:-0.95735079 2:-1.5951901 3:-0.70102083 4:-0.90053153 
-0.032802 1:-0.9970947 2:-1.6221716 3:-0.71900045 4:-0.90120842 
-0.032802 1:-0.89111093 2:-1.5951901 3:-0.79990874 4:-0.90220594 
-0.032802 1:-0.95735079 2:-1.3388664 3:-0.67854631 4:-0.90113717 
-0.032802 1:-0.83811904 2:-0.92065384 3:-1.0336438 4:-0.91306209 
-0.032802 1:-0.89111093 2:-1.5007551 3:-1.1220436 4:-0.91487164 
-0.032802 1:-0.83811904 2:-1.3658478 3:-1.5715341 4:-0.9432536 
-0.032802 1:-2.295396 2:-2.6069946 3:-1.8981638 4:-0.9580158 
-0.032802 1:-0.82487107 2:-1.4872643 3:-1.3782532 4:-0.97356949 
-0.032802 1:-0.9043589 2:-1.7435881 3:-1.21344 4:-0.97262491 
-0.032802 1:-0.97059876 2:-1.4467922 3:-0.65906839 4:-0.95148252 
-0.032802 1:-0.93085484 2:-1.4602829 3:-0.86733231 4:-0.93948006 
-0.032802 1:-0.87786296 2:-1.3793385 3:-0.98419984 4:-0.93033271 
-0.032802 1:-0.66589541 2:-0.55640424 3:-0.56617369 4:-0.91845526 
-0.032802 1:-0.82487107 2:-1.0150889 3:-1.0740979 4:-0.91923585 
-0.032802 1:-0.79837512 2:-1.4872643 3:-1.5775273 4:-0.94018539 
-0.032802 1:-0.89111093 2:-1.2309405 3:-0.96022702 4:-0.93902159 
-0.032802 1:-0.91760687 2:-1.2309405 3:-0.88830854 4:-0.94000906 
-0.032802 1:-0.73213527 2:-0.79923731 3:-1.3812498 4:-0.90807169 
-0.032802 1:-1.315046 2:-1.3118849 3:-1.6749169 4:-0.94985764 
-0.032802 1:-1.2885501 2:-1.0825426 3:-1.6644288 4:-0.9502096 
-0.032802 1:-1.0235906 2:-1.0015982 3:-1.6149848 4:-0.95115989 
-0.032802 1:-0.98384673 2:-0.83970949 3:-1.5700358 4:-0.95172839 
-0.032802 1:-1.0368386 2:-1.0960333 3:-1.447175 4:-0.95246602 
-0.032802 1:-0.93085484 2:-0.93414457 3:-1.640456 4:-0.96298632 
-0.032802 1:-1.1693183 2:-1.0690518 3:-1.4906258 4:-0.96389774 
-0.032802 1:-1.1030785 2:-0.93414457 3:-1.6239746 4:-0.96593092 
-0.032802 1:-1.0235906 2:-1.0420704 3:-1.3677651 4:-0.95541858 
-0.032802 1:-1.2620541 2:-0.92065384 3:-1.2464026 4:-0.95316605 
-0.032802 1:-1.3812859 2:-0.58338569 3:-1.4606598 4:-0.95351978 
-0.032802 1:-1.1428224 2:-1.1499962 3:-1.3003415 4:-0.96800693 
-0.032802 1:-0.89111093 2:-0.79923731 3:-1.2209315 4:-0.97367088 
-0.032802 1:-1.0500866 2:-0.90716312 3:-1.4261988 4:-0.98412092 
-0.032802 1:-1.0633346 2:-0.81272803 3:-1.3707617 4:-0.98359824 
-0.032802 1:-0.86461498 2:-0.85320021 3:-1.3917379 4:-0.9875742 
-0.032802 1:-1.2223102 2:-1.1365055 3:-1.1819757 4:-0.99639336 
-0.032802 1:-1.0368386 2:-1.1230147 3:-1.2404094 4:-1.005039 
-0.032802 1:-1.0103427 2:-0.48895061 3:-1.0516234 4:-1.0117146 
-0.032802 1:-1.0103427 2:-0.70480222 3:-0.92726438 4:-1.0176952 
-0.032802 1:-1.0235906 2:-0.81272803 3:-2.3341696 4:-1.0542613 
-0.032802 1:-0.77187918 2:-0.93414457 3:-1.8367335 4:-1.056072 
-0.032802 1:-1.1295744 2:-0.93414457 3:-0.41184862 4:-1.0529848 
-0.032802 1:-1.1693183 2:-0.77225586 3:-1.3348024 4:-1.0614701 
-0.032802 1:-0.74538324 2:-0.63734859 3:-1.2613856 4:-1.0588063 
-0.032802 1:-0.9970947 2:-1.0555611 3:-0.850851 4:-1.0711949 
-0.032802 1:-0.73213527 2:-0.73178368 3:-1.1864706 4:-1.0831834 
-0.032802 1:-0.77187918 2:-0.77225586 3:-1.0666064 4:-1.0888341 
-0.032802 1:-0.91760687 2:-1.1230147 3:-1.0081727 4:-1.0823806 
-0.032802 1:-0.94410282 2:-0.89367239 3:-1.039637 4:-1.0860988 
-0.032802 1:-1.1295744 2:-0.85320021 3:-1.228423 4:-1.0917313 
-0.032802 1:-0.86461498 2:-0.63734859 3:-1.0081727 4:-1.0864378 
-0.032802 1:-0.86461498 2:-0.65083932 3:-0.87332552 4:-1.0927463 
-0.032802 1:-0.98384673 2:-1.0825426 3:-1.2748704 4:-1.0984225 
-0.032802 1:-1.1030785 2:-0.79923731 3:-1.4142124 4:-1.1108196 
-0.032802 1:-1.1295744 2:-1.3253756 3:-1.307833 4:-1.1174129 
-0.032802 1:-0.9043589 2:-0.88018166 3:-1.2493992 4:-1.1195174 
-0.032802 1:-1.1958143 2:-0.79923731 3:-0.84935269 4:-1.1199538 
-0.032802 1:-0.97059876 2:-0.82621876 3:-1.2688772 4:-1.130427 
-0.032802 1:-0.75863121 2:-0.62385787 3:-1.2419077 4:-1.1548945 
-0.032802 1:-1.1030785 2:-0.98810747 3:-1.0336438 4:-1.1818971 
-0.032802 1:-1.0898305 2:-0.98810747 3:-1.1535079 4:-1.1840797 
-0.032802 1:-1.0103427 2:-0.90716312 3:-0.87332552 4:-1.1916664 
-0.032802 1:-0.91760687 2:-1.2039591 3:-0.98120324 4:-1.1876289 
-0.032802 1:-0.83811904 2:-0.88018166 3:-1.3677651 4:-1.2064121 
-0.032802 1:-0.73213527 2:-0.77225586 3:-0.95273551 4:-1.2111158 
-0.032802 1:-1.1163265 2:-0.77225586 3:-1.2404094 4:-1.2321578 
-0.032802 1:-0.9043589 2:-0.86669094 3:-1.3198194 4:-1.2347311 
-0.032802 1:-1.1825663 2:-1.1230147 3:-1.1535079 4:-1.2357057 
-0.032802 1:-1.0235906 2:-1.1904684 3:-0.92127117 4:-1.2436065 
-0.032802 1:-1.1030785 2:-0.89367239 3:-1.0231557 4:-1.2381767 
-0.032802 1:-1.1295744 2:-1.1365055 3:-0.96622022 4:-1.215407 
-0.032802 1:-0.83811904 2:-0.63734859 3:-1.1580028 4:-1.2121553 
-0.032802 1:-0.86461498 2:-0.93414457 3:-0.80440365 4:-1.196095 
-0.032802 1:-2.5868513 2:-0.92065384 3:-1.1475147 4:-1.1996199 
-0.032802 1:-0.86461498 2:-0.82621876 3:-1.4921241 4:-1.196128 
-0.032802 1:-1.0500866 2:-1.0150889 3:-1.3198194 4:-1.194975 
-0.032802 1:-0.83811904 2:-1.4198107 3:-1.3752566 4:-1.1856926 
-0.032802 1:-1.0103427 2:-0.88018166 3:-1.2389111 4:-1.1806738 
-0.032802 1:-0.95735079 2:-1.4602829 3:-1.3153245 4:-1.1728863 
-0.032802 1:-0.89111093 2:-1.1769776 3:-1.1550062 4:-1.1666624 
-0.032802 1:-1.1163265 2:-0.97461675 3:-1.5310799 4:-1.1692182 
-0.032802 1:-0.83811904 2:-1.5277365 3:-1.5086054 4:-1.1688531 
-0.032802 1:-1.0103427 2:-0.73178368 3:-1.1235419 4:-1.1684548 
-0.032802 1:-0.8116231 2:-0.98810747 3:-1.069603 4:-1.1673263 
-0.032802 1:-0.93085484 2:-0.94763529 3:-0.91228136 4:-1.1602154 
-0.032802 1:-0.79837512 2:-0.6913115 3:-0.7579563 4:-1.1550608 
-0.032802 1:-0.79837512 2:-0.90716312 3:-1.0156642 4:-1.1589415 
-0.032802 1:-0.70563932 2:-0.83970949 3:-0.97670833 4:-1.0250917 
-0.032802 1:-0.71888729 2:-0.62385787 3:-1.0965725 4:-1.0236772 
-0.032802 1:-0.77187918 2:-0.7452744 3:-1.1609994 4:-1.0212621 
-0.032802 1:-0.82487107 2:-1.5816994 3:-0.81788836 4:-0.78856921 
-0.032802 1:-0.20221639 2:-0.31357117 3:-0.42233673 4:-0.14172621 
-0.032802 1:-0.13597653 2:-0.13819173 3:-0.31595731 4:-0.14339019 
-0.032802 1:-0.096232612 2:-0.124701 3:-0.19609318 4:-0.14481508 
-0.032802 1:-0.34794408 2:0.050678438 3:-0.24553714 4:-0.14771309 
-0.032802 1:-0.41418394 2:0.28002078 3:-0.23355072 4:-0.14741873 
-0.032802 1:-0.5731596 2:-0.56989496 3:-0.56317708 4:-0.33857842 
-0.032802 1:-0.49367177 2:-0.17866391 3:-0.56018048 4:-0.74641307 
-0.032802 1:-0.53341569 2:-0.13819173 3:-0.68453952 4:-0.74781838 
-0.032802 1:-0.44067988 2:-0.13819173 3:-0.71900045 4:-0.74767045 
-0.032802 1:-0.61290352 2:-0.24611754 3:-0.4837671 4:-0.74807725 
-0.032802 1:-0.26845625 2:-0.32706189 3:-0.41484522 4:-0.54989765 
-0.032802 1:-1.1958143 2:0.29351151 3:-0.50024841 4:-0.52985766 
-0.032802 1:-0.55991163 2:-0.32706189 3:-0.50174672 4:-0.44712053 
